{
  "activation_function": "Sigmoid",
  "columns": [
    784,
    15,
    784
  ],
  "biases": [
    "[11.974560131791803, 13.123644179689453, -18.50420292152422, 11.896402002229031, -30.40947966910417, -20.831314400666574, 11.545716472248175, 15.377153945980936, 11.480305547180105, 12.979956688142998, 6.0832625771496, 9.603238455765718, -48.09364596190622, -15.675295051324692, -35.7081745174318]",
    "[-4.550573704667156, -4.910205662926419, -3.760939203474335, -3.787026381404482, -4.233337094223333, -4.485554401684086, -4.5626237017983975, -3.348522180904522, -4.0990012770677575, -4.62273126592407, -4.717283798452163, -3.93206878195771, -4.420276778880768, -4.3059128899885115, -4.301693653562858, -4.065546277224641, -4.209503096273424, -4.2377363420345135, -3.8449001137151444, -3.7774509628049247, -3.9500943987024355, -4.603131353108087, -3.833679018201565, -4.245105434516811, -4.650580598540929, -4.201796370764027, -4.2348163730087025, -4.677661453030758, -4.002680025392719, -4.129131030668679, -4.6840481666801566, -3.028268981521352, -4.176509403713969, -3.9603551098663607, -2.8645490834912493, -4.245493614677813, -4.41261958117906, -4.383995475114235, -3.4388963216661157, -4.098679468830624, -3.9997394529420687, -4.010290319587716, -4.935282846501242, -3.9640930158490675, -3.7975899236858477, -4.6638503527414885, -4.386438878895618, -3.3649584426775747, -4.150031964438767, -4.090457829407188, -4.438283817666952, -4.038154479104405, -4.214178015157837, -4.575292322584498, -4.299751796973338, -4.069292921565803, -4.3787301456569425, -4.418665746636201, -3.8190641714232916, -3.754877554645887, -4.15336532245912, -2.693094108611276, -3.634536387034175, -2.6754923391174783, -3.81353135489143, -3.887968913651539, -3.9680074191737003, -4.161609527945664, -2.9203716347037867, -3.4981265784130677, -3.287496812077309, -2.079219567697208, -1.5519977260608266, -4.035622333501771, -3.280228649140424, -3.9542100731241483, -4.5058640179995235, -4.485680733625865, -3.5097857878772967, -4.460396937084967, -3.6162125805963017, -3.986280212068794, -3.6771953866219333, -3.830566161792718, -4.597214790718703, -4.171189558348802, -3.692675830923752, -3.1524644279207634, -4.351937316508879, -4.2657805244616265, -4.851957409516795, -4.252188780855632, -4.168648916336495, -4.033479135079843, -3.8515614091102677, -3.283980169229542, -0.6735247841194061, -0.8611099649768508, -0.691595922105756, -1.196000067579145, -1.623754707190392, -1.403819767166162, -1.5300258876542723, -1.4470924391627353, -2.510064070094139, -1.5263466595707451, -4.290437183864219, -4.031004150223348, -2.49866711523001, -4.2338480639341824, -3.7143773266025417, -3.259165250226058, -4.8611310434214, -4.108142004159815, -4.781225531234515, -4.880775395386043, -4.041016578871933, -4.462705380508285, -4.400628624125852, -4.676926879979111, -3.7833633872766415, -0.8421749688050362, -0.5362525255516484, -0.3480955268503569, -1.4880946372115913, -1.1382609426698862, 0.7561827083645747, 0.9563149887701795, 0.013121965531377166, 0.25242934798461525, 0.455004955506953, -0.14688603299970784, -0.6700295552991667, -1.1763169441490016, -2.7270527828842397, -2.854177348758159, -4.221445705788042, -4.459189965735316, -3.3470588123649607, -3.398281262520967, -4.466518329997718, -2.906273947472817, -3.832555960606947, -4.978694548879674, -4.304506016876827, -4.28236166229787, -3.8250348126500024, -2.048002076006802, -1.32079136854585, -0.6503683844685455, -0.07213736955472067, 0.08849304673237254, -0.06839325305804522, 0.840264731221344, 1.0997162998280985, 1.4835822077046905, 1.6466712302798492, 2.600632400796883, 1.9150089572646103, 1.0863117123497852, 0.08951494397485814, -0.605101751582243, -0.8542661060639126, -0.7888948614554885, -2.258215024512805, -4.746898231186478, -4.117169387196613, -4.571124381378257, -4.338407268665799, -2.3267786280432743, -3.9471867080092204, -2.590573430386753, -3.3325830338325937, -3.6342583240980675, -3.272058065599246, -1.4853648105385895, -1.3667580913799942, -0.5312993178856772, -0.45415382227176954, -0.22343972808862397, 0.2833859044440847, 1.2229169738023264, 1.4632415225706292, 1.8197437365994815, 2.0808260285604225, 2.0600744234919968, 1.5403254985721342, 0.8349334054012584, 0.7052035252423741, 0.4548883415394771, 0.011789601853719876, -0.6789475450083572, -1.5665154801511672, -4.195938626785033, -4.351390504547918, -4.395293539924872, -3.412988803046471, -4.416794249132606, -4.384687795520197, -4.791949576593837, -4.0264167425872595, -3.3602323358242563, -1.6213045594063875, -1.8223701553726825, -0.9314560742106867, -0.2044359316215811, -0.14021312467114325, 0.42715956529607174, 0.5512384948694458, 1.188313843660746, 0.9734370077379291, 1.3528117669693946, 1.2912940263789077, 0.8820066332773449, 0.6785600132872656, 0.4922574784021737, 0.6687728239639195, 0.8469348596405039, 0.13509861652067218, -1.0768768597767182, -0.914019217779875, -4.0188183690175485, -3.074427738938727, -4.150540042365844, -3.9940661736931315, -3.5203091231461685, -4.1988759870836025, -4.394130964156834, -3.801354455495593, -1.2344999517108364, -1.6474215280140312, -1.86251549867364, -0.49899964468279656, -0.2397507634179622, 1.0018577361437195, 1.003166823696737, -0.49728704601959767, 1.0963111246127686, 3.6839916875853356, 1.9186954130682528, 1.6640282785273435, 0.0983158324309535, 0.2922480755209038, 0.33605314996598096, 1.4632919650077436, 0.6299215733180168, -0.2374907093943389, -1.1304945355968625, -1.4137877395037046, -2.4195757702149208, -4.8603614065112595, -4.1170714972879585, -4.2905797528438, -2.6512812492859066, -4.326446116879335, -4.447084319466708, -2.5615266551237608, -1.6724054138623072, -1.72342052993416, -1.9544748221465096, -1.0530145367344195, 0.48654684332820625, 0.8796990857370518, -0.4425598236728995, 0.2757269024235833, 0.7283757242699364, 2.9475418158133966, 1.083892187191019, 1.005312763688818, 0.16437873450137838, 0.08729306660163387, 0.7326861558723805, 1.450950295367422, 0.9951562251264852, 0.0751924986800135, -0.6627073857172148, -3.094773264717144, -3.9915292708565344, -2.8108091457521227, -3.793904102813089, -4.456496002823359, -4.2133615763246235, -4.015845370892841, -3.024045541970534, -3.508819186610785, -1.8912268468849038, -1.6714560870798247, -1.2302960083173748, -0.06686174891298385, 1.3517229456289235, 0.11663186210226952, 0.09645044090077473, -1.25336611117599, 0.486323743867505, 1.215783568638087, 0.38800737957612264, -1.056843220254467, -2.0039611770018113, -1.4854673182082543, 1.3243816255075818, 1.473919111649855, 0.7632423790832155, 1.057162839936147, -0.32916614642517134, -3.5778263580961003, -4.299038761210705, -4.483874370511277, -4.392056835530569, -4.483611789091415, -2.0473548485535398, -4.230223684033391, -2.9800928599455547, -2.180385627286473, -1.659444750275021, -0.8959889270477233, -0.20481140544510804, 1.2386013122707742, 0.7238095328229206, -0.47447598470056374, -1.923812079431502, -1.159466834651428, -0.5106351904762291, -0.9635048363525669, -1.115931463608037, -1.627805317137234, -2.0374801450827627, 0.05640224761077068, 0.20956980171254092, 0.35554807373211045, 1.323932761151782, 0.6175308389799895, -0.2090348744507509, -1.604855077199743, -4.240852723577105, -4.281618020051363, -3.981980908440558, -4.132351739694705, -4.25511672434488, -4.548628555820503, -3.9359756243700357, -1.737530933562395, -1.5719052830117684, -0.36917887241945785, 0.8697167153511439, 2.0490953502670157, 0.7138343621646532, -2.1115584966660905, -1.506008704628894, -2.3440282056408526, -2.1243762510793545, -1.1414749558824926, -1.85372491468322, -0.8495896521596951, -1.2828717329143737, -1.3779610697401412, 0.19729456676794313, 0.23569377902687375, 1.0025184912029714, 0.7416699999919663, -0.2867444062107924, -1.7825386611294411, -4.497721421237887, -4.520926714101025, -4.2665961419388685, -4.692550611227632, -3.337952394756582, -3.0857646014940214, -4.500698035832985, -4.230097999687231, -2.1516216306626377, -0.041395616727292334, 1.2051433515752523, 1.096419898931386, 1.0621461537910295, -1.5594372808101356, -2.5749989508051985, -1.4263771259222313, -1.5796347324611246, -0.885098394646989, 0.9347745695601108, -1.481353941570019, -1.556295127275631, -1.205438484299974, -0.4065095014750827, 0.4085710666488183, 1.893775656884238, 0.7927567547562137, -0.30494784835574507, -1.3432397126015858, -4.089956111861925, -3.3941482938781826, -4.3957170017428995, -2.4411351133655455, -4.183895021844491, -4.812849924043209, -4.1047397689637934, -2.089677902062194, -0.3846453422308692, 0.2614899796976868, 1.5799000906161917, 0.2767859601007725, 0.45655754965953116, -0.6819786525725653, -1.7263795953343841, -1.9701515097962539, -1.5623948339182125, 0.49842349631431904, -1.047316317064322, -1.991492686201427, -1.8854503635814768, 0.31210516317897563, -0.5119417956739125, 0.534596694731295, 1.8049549614665277, 1.0029629329950498, -0.4272101878300673, -1.105289028114267, -2.525502036589291, -4.158006219078337, -4.347880920225536, -4.85969431094159, -4.415070181195273, -2.5290659657370442, -4.18706298651743, -4.292036870011886, 0.048780531941673866, 0.8531948559854928, 0.3629549558914251, -0.1492142013053161, 0.7360265616841407, -1.2922495402646468, 0.2111670598158817, -1.0172933694162976, -0.935337131361355, -0.9111164181100507, -1.6796341630054266, -1.5821611512606293, -1.0774612193508275, 0.143904753461746, -0.9918006703400282, 0.08417563391437113, 0.9519505173726585, 0.7768862401476836, -0.4045991168359495, -1.1175136312888378, -4.553776887839599, -4.016097168006375, -4.560177749008366, -2.608598142451213, -3.7166626698335894, -2.481990407348277, -3.6557365402356106, -3.6918668662064715, 0.12862029605546507, 1.1386403482176424, 1.4833416767274374, 0.6548794532234727, 0.24072953212270432, -0.013120519942326983, -0.31291648526445254, -0.5043502406471634, -0.06679349852917636, 0.0748147944190598, -0.5840615137720432, -1.5848034174698502, -0.17342399778595152, 0.3059137691584079, -0.5119464009163531, 0.5170353861216848, 1.4484497970606902, 0.31061343730637553, -0.4081563650081345, -2.883870771010963, -1.3966809542713419, -4.509381920021577, -4.840672280317987, -4.818246273032491, -4.692729254614587, -3.990600244211301, -4.414557378651539, -1.6476727150770119, -0.2492389796397855, 0.9738617451922027, 2.0172162846596815, 1.4087792872496356, 1.0765558995506117, -0.2607489125949344, -0.5363069723235644, -0.3943070623368987, 0.8989390204481266, 0.5425277219536423, -0.8248804383042054, -1.1420514574695326, -0.1471811640743652, -0.01842391685940629, 0.7567286245871724, 0.7601728871882938, 0.46091622365210155, -0.32042105774119045, -0.8881937229729844, -3.498574692302416, -3.7710894434643096, -3.5435727035397218, -4.027412399893886, -4.215673268982209, -3.530109819887283, -4.384659881573736, -3.3849746545752537, -1.3942696217664365, 0.3554521076500677, 1.391205777813309, 1.9847258427038474, 1.592181726686808, 1.2529844146693494, -0.7815585819448412, -1.0769227186160564, 0.8117081974373443, 1.0313800126537191, 1.2020597918399738, 0.39522820605074754, 0.06704740519310402, -0.06461160485597693, 1.2349382682439558, 1.9064806016849103, 0.8504908275077263, -0.3464693663077668, -0.9043494521177459, -1.0529532317743826, -1.8365473409366775, -4.144035158368151, -4.426636862667364, -4.364731229148623, -4.311842856530505, -3.1605003453664917, -1.7284477607972049, -4.082282579504361, -0.7092379130922979, 0.2802344892862187, 1.4205679978932344, 2.1518104606569515, 2.0212941132223836, 1.1687120936207298, -0.8227044058511191, 0.43539044513847935, 0.23373508451041677, 2.4292905392850486, 1.7417201558634097, 0.24281947965412187, 0.9680727663387334, 0.5766040978860396, 1.6842790311986924, 1.5367217047740598, -0.34048991721083166, -0.9946393311119018, -0.7970707031593025, -1.1555613621896335, -2.7972982695145454, -4.372630168831778, -4.401064876137284, -3.991762047060587, -4.9566059383088765, -3.063034112781529, -3.8437668049696008, -3.7420135908597683, -1.162444630554253, 0.11884188472447214, 1.0838303632266797, 2.206329817823184, 1.7979938582151838, 1.4840676365992227, 1.7752749167682993, 2.2288980653917716, 3.0846441263360633, 1.5681517874646898, 2.446424027437371, 1.808716325686963, 1.0778373539033217, 1.0426637815624977, 1.16985245836862, 0.49245596991528934, -0.6973376204665793, -0.44028343982538765, -0.7138100834442836, -2.1254574790111467, -3.399162309751944, -4.246780009802623, -2.3442481142807035, -2.2381517415472674, -2.565332929214099, -4.495111849975402, -3.6794910685285385, -3.7259877155264394, -1.3762880204545893, -0.3297375562156619, 0.649446478820802, 1.211053594097213, 1.7038041011591505, 1.8894357622183526, 2.7084427780663, 2.3231054831103144, 2.414448746800123, 2.7305306626183308, 2.0583224600514844, 1.0103287733926178, 0.8214798990108746, 0.6056879371726507, -0.14539776563798842, -1.229988843162223, -0.8520518265424772, -0.9279678046434425, -1.6704524929645916, -3.7664603434732324, -2.322362900455157, -2.204408570346544, -4.249869145576184, -3.9712459816382863, -4.016171107288505, -4.381345702966497, -4.46550008896725, -3.9214930477489385, -3.116152799170291, -0.8125761704760122, -0.05387759697356986, 0.7253232703803405, 1.20378938460195, 1.7305006129489107, 2.234127903293516, 1.911812074608005, 1.6830441604372313, 1.729172180079329, 0.9082561512105429, 0.33999214492251206, -0.06240639845173152, -0.48249687905695493, -0.976371540649774, -1.167283439602388, -1.586176932578111, -1.5075040768935148, -3.544394570843593, -4.417673630263341, -3.8538066813000924, -4.438756687950802, -3.0901288851049937, -4.560796821263094, -3.7671581020935734, -4.759307283128505, -4.322300293882579, -4.293490508209266, -4.218043923486216, -0.8774122633482903, -1.1181774077708553, -0.721943564505915, -0.4390794346149383, -0.18334331220638378, 0.2673172348586545, 0.7601757742375322, 0.9809435345567609, 0.17450113370814507, -0.6467761757074904, -1.0488436647173935, -1.3808012168372374, -1.8206904038069693, -2.110650669131454, -1.9136203353194545, -1.9036851962553456, -4.015352723903552, -4.2603541432512415, -4.433565044179811, -4.094950714185994, -4.414861529376598, -3.8779320855814543, -4.868088811822049, -3.950549714357165, -4.441274037581141, -4.220517456793511, -4.157612563332836, -4.47333613705335, -3.7175260529411447, -3.3569117701049613, -1.2838562102984328, -1.4351145122714792, -1.3200368991592755, -1.3525911360826564, -1.1490506270213035, -1.216535100334724, -2.383949143218234, -2.7418496628562035, -2.915658389437793, -2.536996124893317, -2.089341985852473, -1.876672890865699, -1.8807739780807418, -3.7878182652433168, -1.4393933838728856, -4.273342679449182, -3.750671297952829, -4.1494811846214725, -4.452915415989199, -4.460009376513878, -4.050005688037168, -4.194520306203732, -4.567888401609128, -4.6936970364694774, -3.3064944377500525, -4.12483237505362, -3.8260208902181985, -3.876482451844821, -3.127801487714549, -1.4422049585991101, -1.9468612795619111, -1.7873004922623763, -2.491967543840565, -3.339338990931967, -3.6927263777006645, -3.5613112905370876, -3.1345625974552127, -2.8227172978722708, -1.9768836937718657, -4.507802104172154, -4.197895015708376, -3.819950432914661, -4.039643707248139, -3.145824604590638, -4.065193019350529, -2.9818610376192978, -2.8281267593483417, -2.7130751955385914, -4.9295203274675545, -4.095247796655723, -4.106239814440796, -2.5124776621175537, -4.0725501936675315, -4.231481167861765, -3.906567092378103, -3.840590107084022, -3.735486984173029, -2.650457643627038, -1.6613876420956026, -0.9706120875641727, -3.3678406073302734, -2.1178918255845542, -2.762806065631577, -3.283552381996598, -3.1657947017439794, -2.5011664707142236, -3.6863841878531445, -3.886499466206932, -3.906299068043414, -4.183944959866989, -3.336984279475068, -3.6126614255798546, -3.971561018678429, -3.8652073100879263, -3.7961001900679294, -4.758607354471531, -4.288841613451344, -4.238454216369447, -4.022994509024505, -4.646059252072817, -4.690424811209873, -4.598496511031338, -4.65904500886154, -4.011235456522393, -3.3443423715642613, -4.568229686826058, -3.2611846042229993, -4.525971520892263, -3.947224825465148, -4.680314106241704, -4.49637556687989, -4.137940377335016, -4.541270839477188, -4.395734535866885, -4.354997186251652, -4.808097187076527, -4.510036353388624, -3.8342977932815754, -4.691461726773935, -4.074135167572647, -2.2421767508080945, -4.26708428662892, -3.9720126506821063, -4.108272642060597, -4.0546274670715485]"
  ],
  "weights": [
    "[-0.19471696341624722, -0.49557010968439263, 0.12449416822334647, 0.4965766136878357, -0.48360409259962955, 0.017096775118764507, 0.4003386095537519, 0.3496354048491238, 0.27295874872941195, 0.3425316033462491, 0.03231616774479373, -0.15895917144967486, 0.12979959846516442, 0.4751397982530551, 0.45083392462461636, -0.15385675211018335, 0.04507007879159519, -0.09486813884388767, -0.05878978410041169, -0.4190718031210756, -0.2381418075337126, -0.3562913472877619, -0.47420085731088, 0.09679862232893643, -0.33535346768769525, -0.41310199179428464, 0.32407924273689737, -0.24570462617527045, -0.037845482032595634, -0.407434136046843, -0.2678829330906499, 0.3015566098198428, -0.07345606020076612, -0.4286610167821825, -0.30457639793734426, 0.3992108384922826, -0.0793301968574117, -0.297112776047505, 0.360977627052932, 0.3080403272331604, 0.07981778155768639, 0.42464588768108613, -0.2577680220053228, -0.30165820215167305, 0.22776837124807942, 0.21147949928114157, -0.025034258785587876, 0.021913537364277657, -0.11272539653595533, 0.27666757820262144, 0.28162359651793545, -0.3759118023364778, 0.0618551060769047, 0.11178333799234152, 0.37896378553530796, 0.14135328064516262, -0.41309672816149845, -0.2870787125251991, 0.25783865102486603, 0.10841067686588524, 0.18177571913994173, -0.04200563594490207, 0.14793332095528106, -0.2464151437355168, -0.13079523730331538, 0.3933177597547129, 0.49878422636670244, 0.178843599587851, 0.07257521045808055, 0.23784771348288725, -0.31886578947112204, 0.3411069505404188, -0.09569883110878927, -0.33657497139613674, 0.30666800190102184, 0.44531668856917844, -0.2888911141415316, 0.030906481744788633, 0.47428270826857727, -0.24962568913791425, 0.11103024109031151, 0.1930668732619263, 0.4259788956034477, -0.25809137248392544, 0.36600416978271766, 0.11345902330496327, 0.014166553676444149, -0.10460998372079522, -0.1457098351696002, 0.1292904276867057, -0.15497897326780347, 0.31732809891903524, -0.2536417860444967, 0.1949305816334491, -0.01346890884919057, 0.3695713433795419, -0.29167222807711585, 0.005834249885196917, -0.4417663394157747, 0.3420825126241218, -0.2602270956491656, -0.4016669995260982, -0.08961589896438979, -0.3942288449376045, 0.41757138786122694, 0.09761090631995623, -0.3141169071961819, -0.18232840840848014, 0.05052774469918095, 0.06732180922244083, 0.3947829877219004, 0.35988441739484645, 0.02624299864958568, -0.24916654166071583, -0.21416086880648788, -0.038891839468029835, -0.4053115736898335, -0.21843200966892773, -0.389095183523556, -0.20466868381768777, -0.4314668743443847, 0.34292447152915617, -0.057883858457497786, 0.09698198323659186, 0.011776882174718799, 0.44632446143562504, 0.07795791491462517, -0.3882783460795861, 0.4144530772350523, -0.19053426035506915, 0.07529341803061734, 0.42898730620301173, 0.14104986853844995, -0.22254223022771763, 0.013721899301260505, 0.4516287694652323, 0.14760455080206808, 0.3500108655582345, 0.3658335933086109, -0.350435279425261, 0.22117735567343078, 0.2527028159077473, -0.30178742499290534, -0.4580578935621753, -0.4380466600442345, 0.14886639189080178, 0.011283545838193893, -0.3796158659778572, 0.16414711785766842, -0.08742251289273091, -0.054762251031022266, 0.38005523242467953, 0.4511826335895234, 0.43634052780354565, 0.44983436254272857, 0.4594160028055855, 0.4111654211006633, -0.02503171932112782, 0.08191713586345784, 0.31058558746359405, 0.4643711950256472, -0.3273309736088478, 0.27119897049277575, 0.3402116160707204, -0.04977977756865209, -0.28959467972212655, -0.2406675188394557, 0.46135937443259967, 0.4667402810178968, -0.1607095704348258, 0.33241678986095025, 0.14615660747466175, -0.015518872544908715, -0.46543964044973407, 0.4863889443196287, 0.412984348244055, 0.4293190981806559, 0.32458144911252085, -0.1897719418046681, 0.621706767833634, -0.26836129277787274, 0.3248522103440557, -0.3605648380958381, 0.4429645651789287, -0.2350416069285503, 0.6165041168712047, -0.3011342393115983, 0.00024922194061258754, 0.4422517689671532, 0.26909850778761674, 0.09177891714650335, -0.2806284333570227, 0.027938278955625784, -0.21317886541884967, 0.3781946901710452, 0.43068657624921264, 0.08717987260613713, -0.36497487703127135, 0.3809283175635038, -0.4004624542804016, -0.12564208524704198, 0.12593594099592884, -0.48734671556138154, -0.44805279654727775, -0.34538648095242697, 0.16043906521613, 0.5430519296158025, 0.2119491157843798, 0.1031122086551224, 0.5383557253237272, 0.267349868956996, -0.23561685687768094, 0.3874841781141293, 0.3600759218809249, 0.5125971125719724, -0.08247345243642158, -0.32315103390417227, -0.0770764082676402, -0.31063171012381136, 0.18570874353886999, 0.3565400568690249, 0.33198736007813534, -0.4449771095910212, -0.3682285545216605, -0.46522999167522394, 0.3559839318694098, 0.1710742145076396, 0.2517465627560829, 0.24943650692495545, -0.1250663723313027, -0.3093897527633655, -0.2648777997530308, 0.5538338586939013, 0.19104243137502602, 0.25157690875751115, 0.24803261411018324, 0.14968218940711578, 0.15149087890486307, 0.20828421296242042, 0.3804443581842496, 0.20805874793791243, 0.5677947727046841, 0.38451036164980573, -0.2530145641937063, 0.42994600271753586, -0.1611159983337694, -0.19643938804055205, -0.2997306409992995, 0.21136991149784146, -0.429064475687164, -0.23551252641038012, 0.4233896392281984, -0.2517482937732905, 0.04241745624186156, -0.43093550326315516, 0.02043995368518577, 0.07198667760057452, 0.3582561219450503, 0.26016973787558784, -0.37664380561952915, 0.05348204897851143, 0.39277063915794747, 0.03398078026097216, -0.07273267914294303, 0.19041802582843054, -0.20122476773840328, 0.12518164941516394, 0.6304499836679216, -0.08849696033981816, 0.03778225390815342, 0.6246672779024662, 0.12958097454983983, -0.221896537046592, -0.3891166328392898, 0.21152754760914066, -0.4618636728480226, 0.28534280637054005, -0.2805101914321958, -0.05712003221676154, -0.1897777680566063, 0.46883374287446, 0.17048870713271363, -0.49680750966511045, -0.45600295693178833, -0.2526281299284488, 0.4071831733687131, 0.5404183847029469, 0.5759890098068381, 0.0672897590398282, 0.054606988066015265, -0.012880566202615785, 0.45013732481580765, -0.29866765348284263, 0.41128831959522555, 0.5475093099634551, 0.20679147844060558, -0.15542473007862176, 0.47309161839869046, -0.20042382817316517, -0.23790579533378664, 0.38648255014436367, 0.3305414784682973, 0.28757281523607775, -0.07782873976128916, 0.17782380647503088, 0.030736215359970308, -0.26793845351241086, 0.057936937833776465, -0.3847524272084777, -0.4445263805507227, 0.44909285382470693, -0.04939529625559555, -0.14687296958788806, -0.28108608795370904, 0.09791450500948108, -0.37065995949389047, 0.10624805044149294, 0.5149093460636126, -0.08447246045466164, -0.044781456566839885, 0.5119282811491903, 0.4159373376823206, 0.479719764106667, -0.18270099279791527, -0.07806458271054446, -0.023400022541036687, 0.3639477194350125, 0.10637487001693603, -0.07330683276647097, 0.4189211642068402, -0.2777009368737256, 0.3841123922401721, -0.06011500217023768, -0.18449122677551033, -0.27692060093002013, 0.40261361739238566, -0.017608608428799077, -0.28185952320582003, -0.35192206156708006, 0.015587122900034844, 0.4070411129166693, -0.13585391313024753, 0.429332754356335, -0.049657289587568244, 0.0791857996530739, -0.09037937263947679, -0.335169990427245, 0.589039766683804, -0.27366962235583453, 0.5334102966029471, 0.5643926528014259, -0.12825511751594149, 0.13197019825899273, -0.13230757635657, 0.44196169756447434, 0.40895959195449955, 0.5278625885468259, -0.44137400213850525, 0.29783373395378754, -0.28364158814620455, 0.4396312305904015, 0.080053532838353, -0.2657197985718741, 0.0008238711198871318, 0.10414648250088931, 0.06421634468264613, 0.387160167819872, 0.06590351873514495, 0.2878628619903205, 0.49583033573750995, -0.4403107128995829, 0.47558337779585347, -0.2931221956139347, -0.2542123874741617, -0.04057658059719791, 0.45219005033636617, 0.17198967475875276, 0.32552167382168407, -0.0496141323043206, 0.38939029362131705, -0.13643689181927662, 0.4171383050851013, 0.06558699114293967, 0.3943032387170293, 0.49781599719873393, 0.3757664352617603, -0.04773520500503211, 0.4515752993013455, -0.2382885178328866, -0.06926700391118902, 0.3229486741930523, 0.40547885309274434, -0.41818513884549624, -0.01888623808855494, 0.09866602020723338, -0.00045090579832100705, -0.017460920616345424, -0.17516141068724725, 0.029592016905861187, 0.25762648199764526, -0.15035039227969668, 0.40582266258145316, -0.2866980286113633, -0.2449817632791835, -0.008130574450267198, 0.581406452535167, -0.0683575401748006, 0.39138752769456164, 0.4435742376600128, 0.15236329609591415, 0.2705344118794586, 0.3855016903283311, -0.3629138391735049, 0.19252414723624722, 0.22062508054651578, 0.2186369777500718, -0.18755898583087968, 0.15480836660712377, -0.07454970152457281, 0.06651333090129574, -0.33386790379076337, 0.33830690297893706, 0.4029269687170801, 0.36133535472053396, 0.2034266631484609, -0.39857709608590175, -0.3166357622452348, 0.5608996203687014, 0.15636365164382535, 0.30829612656715083, 0.14219461018875093, -0.12847780460364372, 0.1030715099675283, 0.30303496568969146, 0.21275943691771207, -0.10406500311306387, 0.6492984737259634, 0.4200772967047763, -0.2051470309005036, 0.13729861187186965, 0.03884699803986927, 0.03927891647520949, 0.40116843495945975, -0.4338364539048121, 0.2327125501957093, 0.30164281000503157, 0.18422810012587756, -0.45183172256796084, 0.4696118032926915, -0.162608082358948, 0.2231516683042191, -0.18568438937545434, 0.23416940897713884, 0.13975627755169653, -0.44210110994438645, 0.12494390615661909, -0.21007105209954996, 0.2746518918968137, 0.5602391738504864, 0.4175486845832711, 0.09647458240404085, 0.18559228744412323, -0.1829479609706871, 0.13668433521749584, -0.18372463671435635, 0.4431269966329779, 0.44207398117709856, -0.3843582950124841, -0.35610843898929356, 0.2703684271899067, 0.13302825805973265, 0.14429153187201915, -0.31670683464846233, 0.14218801888492202, 0.059440188247295356, -0.013183437510538935, 0.2187588951556273, 0.22233454677947506, -0.46464198495145254, -0.029751014721548705, 0.12152712541134916, 0.2657909209445378, -0.39487719621850065, -0.16847314974032152, -0.1370107580869312, 0.18612732777168448, -0.2871508295994644, -0.18082528415147756, -0.081153204151792, 0.6516796576116848, 0.5896434257060645, -0.2862298345540903, 0.22832544885814984, -0.08353818691168158, 0.5526279497435913, 0.41838326486311816, 0.07687927262923888, -0.20855323986454635, 0.3318281825139967, 0.21649764405190491, -0.42348273346382576, -0.14730931460357996, -0.47761820593561827, 0.47776014995132904, -0.04963520751396755, -0.0686023867461337, -0.15278391688782814, 0.15724505040906353, 0.03376024433594749, 0.5052284498631041, 0.43234997615834275, -0.280587867800504, -0.30889212465932786, -0.24450473263491973, 0.5480381863294999, -0.023606102704730722, 0.22874299482491756, 0.3707630560072775, 0.07658649559193195, 0.4871470318582596, 0.32223322743696464, -0.39088593668804417, 0.277226755424411, 0.22956090870387355, -0.009574066957768508, -0.24486320003575904, 0.4081979432416291, -0.3804022846129643, 0.25053955066611505, 0.05116312507469146, -0.0995331442208116, -0.2085784046092861, 0.017189051695383206, 0.2550642350638833, 0.00907199787053744, -0.4513846536118408, 0.2670021957488946, 0.1271551069862494, 0.20021872521631456, 0.12407464216688233, 0.35086099348470023, -0.11798555260254379, -0.17476483643413912, -0.005180124443424577, 0.5559674347933904, 0.022689922195767143, 0.21072434987047275, 0.23545948064254357, 0.5763965218534712, -0.2616185085774279, 0.5487547942738112, 0.24620284742655238, 0.11748760350434911, 0.5031093761335567, -0.218214386565312, 0.4719576417543973, 0.14605971458701086, -0.1811206354978356, -0.44366268199377196, 0.41728690876707086, -0.18936789253563058, -0.06007523816597272, 0.3102771718007252, 0.15799196000048743, -0.34240059097932923, 0.4797315541713757, 0.17239207022043893, 0.5231134142319529, -0.3511835983008964, -0.2868918563159003, 0.2744807284871404, 0.05397797587078726, 0.49132978011510103, 0.3809652992025581, 0.2824438587428125, 0.35227714955060374, 0.47859359637085996, 0.45598584996661157, -0.3416316659122284, 0.0435596291025209, -0.4169949591972597, -0.24966993270310298, -0.3733441154399357, 0.02951110273234625, -0.3103394391069483, 0.4082004996381824, -0.30597731089330704, -0.07623035415692314, 0.23270369588492557, 0.1647535092410306, -0.11960957182644656, -0.07811506351285195, 0.23467945088462167, -0.1693687332489606, -0.31125023379191374, 0.019265726752361358, -0.1458856759102426, 0.22612198298190328, -0.247258102609635, 0.13233164010524312, -0.17804284015693775, 0.4098585693865387, -0.29486127398341316, 0.22720179584434277, 0.4606461062440485, -0.06883994788095166, -0.002730644777413646, -0.06660112401648517, 0.3136187196753346, 0.06322207458532841, -0.27817354618823814, 0.21804719881530202, 0.4516381850201807, 0.2001144669690423, -0.011467069489744599, 0.05932330498128979, -0.41769715681009023, 0.21703761613595907, -0.13933362242732975, -0.42359679473567347, -0.3540645632711666, 0.4869970961239238, -0.3183527980499475, -0.06139059267784009, 0.072150654088635, -0.08975061174543873, -0.19384945905660866, 0.04391783768386548, -0.15135639041876187, -0.16556570513238805, 0.16946840609013805, 0.5908904656254351, -0.10315285646484836, 0.4162565006504257, 0.457831231108012, 0.12872607095399297, 0.4609090114936236, -0.3466445442618514, 0.3328208747420132, -0.4454508951058301, 0.11812919599712698, 0.10017639923990315, 0.15575459095858038, -0.22362860773555604, -0.2975973005135578, -0.3143322617658593, 0.44452968291165323, 0.0380026915299023, -0.056529943994968565, 0.4103428081849291, -0.36207149133760963, 0.3347712819547652, 0.3341555646167839, -0.3706565354344624, 0.2498865226105585, 0.3095696274576904, 0.4902825466613891, -0.09774306382191399, 0.5104507359652872, -0.1276210777046599, -0.24915981620543193, -0.3404785665032949, 0.0493220115043195, -0.17882824642345221, -0.2544559698918649, -0.10086436623749266, -0.25109402449785045, 0.21827508862199027, -0.05885447314682504, 0.20132803887289644, 0.21322692185613684, 0.07806893585817909, -0.2154992754326559, -0.34956791918941577, 0.16736069194677128, -0.21151005451035385, 0.41280855461882554, -0.11374684986543554, -0.04566681258237232, 0.3479412191119251, -0.256048910536233, -0.33577263566280247, 0.5249970879304977, 0.3257312626569681, 0.339964197055427, 0.5484476871062365, -0.3207309936943463, 0.2887047066664546, -0.3693103408872451, -0.3728085130292551, 0.33516249552394317, -0.3860140293428291, -0.45577549110351256, 0.006944182462573355, -0.10161216116365872, -0.2625505204445574, 0.3270896404139883, -0.2567290058571516, -0.4583919070301987, -0.4911723971683948, 0.29561407140518925, -0.09715616286488604, -0.04766904425963392, -0.19021369348429315, 0.2574237504331231, 0.2091770545183793, -0.45318845570911487, 0.3849902520367646, 0.3022970995887103, 0.10870953384118434, -0.43179555224728927, 0.5086836322982059, -0.28389775128045297, -0.01975175587511223, -0.4212752474401038, 0.26330911648151567, 0.27435727338360355, -0.3626361944988166, -0.1613601731815009, 0.09817634040982745, 0.13650852218647147, 0.16332236716080947, -0.12909335983470885, 0.46913431863305777, -0.03890521831604334, -0.33070824769928486, -0.17109399709023232, 0.00624066014049518, -0.4856908459852084, 0.42097995362211327, 0.1890629338709502, -0.3403888909302327, -0.16695112594471762, 0.3355308737800416, -0.03125019429935385, -0.3249350397079431, -0.4464400038947479, -0.3874212957935442, 0.13619604972279614, -0.48562183670358894, -0.23306387657040037, -0.2656730852529785, 0.4070142100749109, -0.21621549458967154, 0.16407728211145448, -0.0950580274889141, -0.23925208185941274, -0.12600249133533664, 0.2841517424688007, -0.07160423064455378, 0.0026215057468691708, -0.21550152864347796, 0.30978840014844783, 0.12462136288360548, 0.27986312768726207, 0.0847510656087116, -0.13015823891602152, -0.4679391564640075, -0.014965835947072792, -0.11285642559508802, 0.13039809875669373, -0.382714650251442, -0.26619326367420104, -0.027701757915770023, 0.10262948763305149, -0.2824284003006578, 0.24779856766538225, -0.08553041423793126, -0.16073402226455974, 0.2917078893746377, -0.15735997382790967, 0.19294972740459754, 0.09830593056190148, 0.2218811787018361, 0.17986685430110771, 0.28233732212619095, -0.43316278108291073, -0.45005430185143436, 0.08744795302707142, -0.4683597071847203, -0.3414687928243708, 0.3786011408505293, 0.13637984064604336, -0.10975459385636943, 0.13302762108639776, 0.37800942488980893, -0.4714382310785574, -0.05125300486795936, -0.4372846821595666, -0.3605001361621174, -0.22115348534743262, -0.3936054368398525, 0.4265102099437925, -0.36855770495802365, 0.03183653984897683, 0.34756636603587787, 0.12186810935362724, -0.3231327080836399, 0.31217110202096887, 0.15254688513771852, -0.12532227930553141, 0.4518198649885449, -0.02385169485055616, 0.22268030021977692, -0.3768522027706609, 0.4983690540167357, 0.2026619811006063, 0.20116704568554988, 0.4564415131541292, 0.1966496366283148, 0.2013971440808281, 0.40239642239186946, 0.3400171321806923, -0.20062881687025302, -0.17149631655207276, -0.04570542151224788, -0.04063426766798017, 0.22317871385780955, -0.4161180576127706, -0.20639886210446654, 0.3862323028764146, 0.3895538943068852, -0.4871723030999624, 0.43055023762066535, 0.40957937042598547, 0.3521368347755164, 0.1392853664913114, -0.11763723509882795, 0.08718144947203472, -0.22165816222683285, -0.2263131489069785, 0.16226174854242573, -0.1453352514136172, 0.32980000692819733, 0.24177816425849874, -0.07011863735993107, 0.16738667463171675, -0.2501133981263103, 0.2869839481103317, -0.38590438443446773, -0.17504490884585555, -0.15853832811676205, -0.45872530951508284, 0.4682358895262825, -0.4039459855430779, -0.40340481882149837, 0.1424496360882306, -0.426144103930576, 0.3675032558262566, 0.19917174290739015, 0.20527850903786118, -0.22462682161227432, -0.11068873586872553, 0.08732246668370325, -0.05263295426011521, -0.23245962373635218, 0.011391545659614503, 0.06402802838747101, -0.19736049086944818, -0.455011614819017, -0.3234150903563154, -0.15300318165398524, -0.011277927283135274, -0.24126841615897485, -0.28091788326997263, 0.09085327547454236, 0.1589146681733259, -0.10356732537066893, 0.010468248042600825, 0.2714226346685219, -0.24584014395212328, -0.4358975916828981, -0.34585285016606354, -0.02798569991909112, 0.4474931005651296, -0.20370041114920664, -0.12275475961151375, -0.03852670480780131, -0.44332855169204205, -0.15844829780314418, -0.44013007267669807, 0.22579141238710904, 0.018230825610629112, -0.26870209075203216, 0.3032351892044675, -0.019052131392404963, -0.07646290934683488, -0.038232594567898015, -0.07042147110927396, -0.36941277274717216, -0.1652874447864302, 0.443056723531273, -0.3757363695514553, -0.4860883543636949, 0.25948967983641896, 0.014566417009201138, -0.4790055447600642, -0.4705030564518553, 0.2956114060448869, -0.3340247525278614, 0.4957629182306537, 0.16165470889632733, -0.23947766302805265, -0.39018214531557277, -0.21006398280756583, -0.41650815040863265, -0.46476610118154854, 0.2642688017769479, 0.02379905519077515, 0.48927537313543057, 0.32340811865803804, 0.23188169251814134, 0.09546489257725436, -0.15310320314688158, 0.19898975057007906, 0.4979841678007521, 0.06674726324326055, -0.2792279528435661, 0.44780349646490025, -0.2704549612538857, 0.3684812351226503, -0.042372087450751064, -0.009624701235735137, 0.4171274134491051, -0.3267673759397849, -0.23833528629817302, 0.39190622987715185, 0.47539608783488674, 0.49358964822539253, -0.4249065840701159, 0.1155778753183994, -0.37225125071949833, -0.03379817592793933, -0.18966126046350407, -0.014232482956568147, 0.402119158941938, 0.2275282353749208, -0.26347035244085615, 0.11756641347512821, 0.5650929393939, 0.01815356305803044, 0.11436913742350624, 0.0849034909936056, -0.1341258751655743, 0.23623972327066606, 0.3974355826290083, -0.09413597593543209, -0.27283852978495726, -0.34084649852608623, 0.3047757107229094, -0.3310481064529473, 0.23705776169827042, 0.27962193885555986, 0.44009554147655894, 0.3158118862200898, -0.21363629730037778, -0.17226995187290461, 0.2090491594352954, -0.4685252878409874, -0.09898051065591273, 0.10939321246846156, 0.4951685899765296, -0.06402919147051159, 0.19134373653672754, 0.3756251227959662, 0.0005087030463716406, -0.29812673270524664, 0.4323092124540066, 0.6071804497959765, -0.2944970522955134, -0.06705974371407594, 0.1516333047129129, -0.047713585417906594, -0.3348973233859055, 0.47538357400650927, -0.39150850318239977, -0.29390863621806007, -0.4136679621275712, 0.29245461410891904, 0.3601505932759312, 0.09525736171002452, -0.2551087026957751, 0.06954447693016531, -0.24638396516541564, -0.04273549933970754, -0.33015813042332615, -0.03505513351745318, 0.03526508554751755, -0.07428199985143337, -0.29551021370366937, 0.09747035323276443, 0.3619424883465324, 0.14014679084351558, -0.0011568320428734559, 0.565061546593508, -0.14351423531975088, -0.1579547489726073, -0.04406573040243162, 0.5090141647567359, 0.02980301376267846, 0.4159017170121344, 0.07515826876093139, -0.047121118931456374, 0.05831826020216274, -0.23643205846577903, 0.09787950053362499, 0.22509125949632366, 0.19898435665355416, -0.4049683665617696, 0.08910047208924887, 0.31690765861080755, 0.3185300514639083, 0.4801028072458241, 0.39103100195928736, -0.3946504546934023, -0.40736818922250023, 0.3777293129569069, 0.3439016678350132, 0.35919374479347904, 0.272114491151944, -0.23380267205197633, 0.5543987444976328, -0.041902606040677096, 0.05662779888244691, 0.11438239704640493, 0.327671186068977, 0.1605770341563036, 0.1964171723942431, 0.19575363513030444, -0.21104326830846323, -0.3220023813560984, -0.0794456426096288, -0.38719949766623746, 0.36003879756539786, -0.4301112078887692, -0.4180439134097145, 0.42712741031803303, -0.4434922047526957, 0.051236117866759634, -0.13978316654181613, 0.4849813518488848, -0.4072967085868008, -0.030195264980301947, -0.25181604484448084, 0.17544197348318777, 0.2290974247748388, 0.4574150103156952, 0.1274604044200919, 0.3790681386213465, 0.36286310789250154, 0.5524937110344083, -0.09199591898021267, 0.6808459127971461, -0.250061683858519, -0.05275047920799026, 0.5739785163980201, 0.4073368419888457, 0.25576927058276044, 0.2875608539090616, 0.3488364379961967, -0.0506594858602376, 0.10874613260470438, 0.22446855552724804, 0.3373837232686539, -0.10000703531759696, -0.415859789365547, -0.18888015721621604, 0.0905615128769785, -0.35878124178066384, -0.06503241658928861, -0.16204932840442726, 0.5123434680567194, 0.5047943697871391, -0.012577204385514861, -0.09780749889605811, 0.1468194218471205, -0.2870239245383194, 0.024515069716288685, -0.04773565087777829, 0.11860553416722408, 0.013338401441962787, 0.28172632654591934, -0.1392820788272713, 0.3161377685592914, -0.38112327685195024, -0.3944227566390641, 0.050740851686435426, 0.2466610216284628, 0.08531334788868142, 0.0038864406143287594, 0.3756848216549735, 0.4058471278567895, -0.2276056250317552, -0.05668048282945138, 0.25446613443112404, 0.30562824394474425, -0.06000635728880119, -0.06239190893238264, -0.2107200085553612, 0.43890935138249704, 0.5136187531453744, -0.15442792533768504, 0.4177412728693692, 0.11576845527627672, 0.336079200849681, 0.2664664366590944, 0.5406768516794899, 0.5276913319008888, -0.057425034329996086, 0.2935858312286384, 0.3936929837554115, 0.18379075131477918, -0.37388601317965586, 0.2228715390794233, 0.2621787257156325, 0.09883105824440185, 0.02203112700558928, -0.22753096333507805, -0.19427374640853962, -0.006686502306382166, 0.03852348408918782, -0.029291768861730037, -0.4060358380105253, -0.3022018430355763, 0.0401927832585534, -0.3980835737389804, -0.07894939053628942, 0.36262842031271403, 0.5342800224761272, 0.2533503735820692, -0.023595766038312642, 0.11127308110784802, 0.39203689116298274, 0.2876833005903889, 0.4425688211871133, 0.4983065181088573, 0.3964360791495678, -0.3468065475161509, 0.3104760015430518, 0.1649779732205847, 0.2823226776221474, -0.3505285268395519, 0.4477128928930077, -0.03385217463279099, -0.4773524040310326, 0.48111129975793243, -0.22735292132642718, -0.4596803592946087, 0.3221982937760822, -0.22848860818329947, 0.139398085395124, -0.20886363237319983, -0.398225569250094, 0.04911167493021599, 0.08628026730700847, -0.0456322645536792, 0.15436779987007607, 0.23806134635746024, -0.2704888442633373, 0.2078781044891211, -0.31406593130723254, -0.021661776527702167, 0.5282584344879537, 0.07339928287660631, 0.5608540987142847, 0.2569837314594457, -0.1686482733200235, 0.4047025712403973, 0.43112548135816253, 0.48213704451798, 0.1465059899834822, -0.2774327263498245, 0.22555573025143694, 0.08503104843137275, -0.10442136686374849, 0.3946248698901037, -0.02978982092469451, -0.4626325981833267, 0.06650624112793725, -0.24232822111380434, 0.017660275531509704, -0.16550043033962514, 0.08734173031505128, -0.07225151402297446, -0.019796064763941426, -0.006894437468865959, 0.4218262942972999, 0.17732359470213738, 0.029515131382680387, -0.25215477535730835, 0.5325050566853944, -0.0017747136046834726, 0.029437604602786573, 0.376359814425325, -0.10955332215819451, -0.035888477749259004, 0.17986983650548752, -0.02706081208708038, -0.258705418173458, -0.22033024871100668, 0.42796837273197774, 0.3354934108839323, 0.24286116039372907, 0.22408115147409124, -0.16281428413849297, -0.033634898653806866, -0.11289769273940291, 0.4590820947257857, -0.42130131094464557, 0.002240802343103556, 0.21741301852315922, -0.22255692341482577, 0.402681949243483, -0.07342367900744497, 0.19862532891611515, 0.10100656152086906, 0.46403759562251545, 0.2688869406576663, -0.07753065516246423, 0.05680369766688053, 0.612976371575378, 0.39035958328377585, 0.07806740788205697, 0.011402734247680592, -0.4318958835716029, 0.32253657181971523, -0.3545879268338625, -0.40903189159686576, -0.3790734671070916, 0.4691366356516378, 0.19112968929612298, 0.058621043022196125, -0.371218546777761, 0.40426009043712596, -0.11161260030668033, 0.3835878674506842, -0.055423129379024744, -0.3091850508675551, 0.17667119505736106, 0.5333046511024371, 0.2524678673776187, 0.38451421576973777, 0.20915588803675653, 0.35380857424020246, 0.5211090101880714, 0.2859097366947396, 0.32825114325693033, -0.023256951389331922, 0.171123396583289, 0.6595880646807587, 0.6261766271098514, -0.10750022224560933, -0.006816906935053027, -0.017104284623503555, -0.05404078631903012, -0.1200855444485779, -0.39778227427900953, 0.4862237565239258, -0.0021112249882747963, -0.4889291088149849, -0.3060559879284681, -0.11145402432945939, -0.4312062453822259, -0.17361308033573317, 0.12419476548462415, -0.3154961541468867, -0.1323453494215439, 0.24540086382766543, 0.04130561147226324, 0.20801425470498966, -0.03861529495725937, -0.25342125063226084, 0.11682472159824125, -0.01692816443353261, 0.3550450042863343, 0.40205642796425983, 0.5306164798414827, 0.16582155322429762, 0.2639259987189409, 0.3534831000280593, -0.12087721638026729, -0.369394269325385, 0.19729868198320055, 0.15269419004998439, -0.08822257014093936, 0.25568461694630995, -0.12078721393598298, 0.33935166387995674, -0.362356344904461, -0.2913409661768524, 0.4755605707296309, -0.21586827073177567, 0.3897916006619867, 0.3220534962078416, 0.09541635616847484, 0.2108959212974614, 0.41624006668004104, 0.275013492883656, -0.1463101938455663, -0.09819820229431024, 0.21886792233002564, -0.13899770746846044, 0.4941639974579364, -0.27459609770474386, 0.1219299849872208, 0.3309526873140772, -0.17144934043367782, -0.1496465803514502, 0.4825691750554116, 0.47495768560686236, -0.4606634039735137, -0.34858787763849364, -0.46206087810051577, -0.06475617598882216, -0.19842157428017196, -0.25538162193489994, 0.26336827313155753, 0.4468270069983924, -0.16507848073339115, 0.14251576662043008, 0.036393426737886446, -0.31304367076715345, 0.35239847987578876, 0.30537835964309634, 0.34285720479992915, 0.2968547819964504, 0.19411748412659863, 0.11093380098753694, 0.03294414775437076, 0.613407242924309, 0.4155316438986748, -0.07875195934522894, -0.22560992145650882, 0.6186045666351927, -0.20053887069765536, -0.25534060159979055, 0.1216447961835106, 0.39705295473005486, -0.20955762964636288, -0.4548095039764959, -0.2149404861869172, 0.41633465454415824, 0.10059444914403154, -0.02905791957293219, 0.1722857336783724, -0.4848197689745527, -0.33842837601801784, 0.40814031481378094, -0.0060451762044536885, -0.015198203596239085, 0.011019257379209444, 0.08648878743203738, -0.03276784635984816, 0.3697023959206355, 0.41656032348732663, 0.38853909183586965, 0.03550821637216151, 0.0484095754097274, 0.04601471211592926, 0.37050712385717277, -0.1412961043724335, 0.5105317138983666, 0.005939501976924453, -0.36258628400834114, 0.5006623881694048, 0.09627157080853892, 0.2516853636720527, 0.2427694411218568, 0.20328513738534357, 0.05214485185848061, -0.06476539932217054, -0.004427903240641795, 0.28260906435711064, 0.440079269621525, 0.17964025536915315, -0.27530603981832713, -0.35505128281260645, 0.2580593861888552, -0.22277725485679725, 0.48839956942601, -0.11934426637078756, 0.44206708851953935, 0.2673800045043825, 0.03520800987014659, 0.5883763531052426, -0.11006645962131932, 0.14401674521439203, 0.6691374799676809, 0.06271144752899883, 0.495643425930338, -0.14191236922686665, -0.1582175207139635, 0.3684432507399056, 0.008532599517897844, -0.1216540919848909, -0.22803218383969953, -0.21545264472390754, -0.03261526218743843, -0.13020415774319638, -0.35010654909698125, 0.10016532024596347, 0.04574017767393079, 0.20853914521116865, -0.33587145336821367, 0.23842733796829527, -0.1344283270851841, 0.28135942204084374, -0.1602963587658708, 0.14752785176285116, -0.4242521556401755, 0.417231255069673, -0.11799043773029193, 0.45933630702841916, 0.23122200405481216, -0.13904635329913126, 0.20799129081434548, -0.2566066214906427, -0.08541900944508973, -0.4526168748186012, 0.4312921787807112, -0.4701890473031584, 0.3301352826208893, -0.05577609492071045, 0.28305656021360476, 0.24900231695754654, -0.4170882936954719, 0.0352934543670456, 0.35905385623897046, -0.08020578652497234, -0.059839888655745854, 0.06428728438437706, 0.27897993545392746, 0.111123233079935, 0.1575642564704137, -0.4231663017232714, 0.18676336417559997, 0.13798637436664518, -0.16210646979660773, -0.236477751743408, -0.2781589659882031, -0.13845285172733485, 0.5526048263912917, 0.3115026380817774, 0.08388245291924898, -0.10089165994259945, 0.011394382405752312, 0.3152934901798064, 0.2683780003158957, 0.020256693986530506, 0.46140744798822586, 0.3666088463050885, -0.43897468892972347, 0.1882920147919034, -0.3845174274106133, -0.2175729596947482, 0.21727687270454965, 0.046882117886827834, -0.15885819773525922, -0.48815845915957046, 0.4100742423983698, 0.3104780819569451, 0.17393508017611847, -0.14949719387462257, -0.0533887891846946, -0.22833261707580355, -0.2765459660035525, 0.23052798410003136, -0.33251417913882414, -0.05543896251048722, -0.250942543612363, -0.2879688670346559, 0.1811833107914533, -0.304839276107611, 0.33711944068581645, 0.4079835000812365, 0.37782045192578323, -0.39637913832293636, 0.08235337581863561, -0.3833351965077388, -0.19842334888163987, -0.22524499455938554, 0.4187958537677775, -0.42862731495512896, 0.46682744223886774, 0.10787838049998955, 0.43345960112321946, -0.14083039779262918, -0.18126830680026626, -0.48782319397490087, -0.14897365431446138, -0.19844275462669472, -0.36728979390327965, 0.3044682908378618, 0.09371448456870124, 0.4783356227387819, 0.43580865607953717, -0.46460455648782606, -0.3871666057553995, 0.08268244008043701, -0.13184129900840483, -0.18591667935971418, -0.3139560600922141, -0.25112829067048315, 0.44160167311158943, 0.397270021394367, -0.24997176136767316, 0.38903522259888135, -0.4173384035231445, -0.17838830761764585, -0.10835268899581653, 0.0024884465254151333, 0.36600466017366706, 0.20595339664390389, -0.013868939364869437, -0.3345464833283107, -0.30668738741317103, -0.23868104880576518, 0.33175622956579004, -0.49423517158340635, -0.4768375654723328, -0.2847900206223551, 0.3616365565008212, 0.35582825054073325, 0.3649183006894785, 0.28121594350695583, 0.19997509493556964, -0.15454329098231995, -0.41701745491875936, -0.2563788989618997, 0.2584276035211883, 0.22793967589396374, 0.40998389389717593, -0.31873187675633796, 0.35611094445951474, -0.10716584944220202, -0.13289334999741684, -0.4932915070464904, 0.2370459211544781, 0.39265459727669694, 0.16870337634075916, 0.11107488871309534, -0.01960949228614306, -0.3034113990677523, 0.22883114924423087, -0.41131253130200385, -0.4940936742804314, -0.45091196784893095, 0.1138218766046757, -0.1228494166368085, -0.028482949115012233, 0.10793074131317999, 0.24765179904998794, -0.25151127702898896, 0.23731849355632084, 0.3964246942459291, -0.18438127491519907, -0.1373554069771236, -0.40319257828900773, 0.46517121759965857, 0.029575461568900126, -0.2549582761845823, -0.04896331763294207, -0.24886637832666547, 0.08729032864721087, 0.2942832208380214, -0.3245187399288356, -0.2796067230082552, 0.14468511258731886, -0.49248197717102515, 0.24432432561850803, -0.3331333432204574, -0.22423827138996444, -0.23427876166577322, -0.46948046335376203, 0.26147213022769955, 0.15552332986462358, 0.4413881736274652, 0.12584535108327788, 0.19484635709339204, 0.17559598796955989, -0.1317354474489636, -0.11105413210797788, -0.19330914265168297, 0.2789136562862482, -0.1991120082687321, -0.2896944812847201, 0.4632823541560731, 0.3716291903460289, -0.008812379751065524, 0.11289776783110983, -0.038841659614707535, -0.40009696536675077, -0.028965598515316437, -0.26556275267158047, -0.46894075229507926, 0.3464598649215781, 0.4119333087308351, 0.23019562733265386, 0.13491041808975135, -0.1257875747133692, 0.2540209696271558, -0.3310704530774724, 0.48683246391556667, -0.4354368595817337, 0.40245116903597256, 0.4682286080560661, -0.44181927070818, 0.04968131402660027, 0.022889879201503226, 0.38670022618276223, -0.06802023174259139, 0.08875052374468123, -0.45861035296978964, -0.4456533383908028, -0.36198412440196603, -0.033437354506399806, 0.269538371013909, 0.22193624159371717, -0.322931636047174, -0.050249758010343926, 0.40407092967908964, 0.10412880232672861, 0.12057897927564976, -0.38685316482800025, -0.07130940893181459, 0.06829600736489283, 0.3430771691678779, -0.3130950460965569, 0.4832376559703858, -0.457221633460998, -0.4448328572344278, -0.08978257870204483, 0.2330490592485199, 0.33827640639381196, -0.26610230244077704, 0.3819472275007211, -0.008963267365984672, -0.19966816013391422, -0.4124946530435765, -0.409670547083952, 0.10118891798119259, -0.5079865918730385, -0.0005416906724831803, 0.13129993100933862, -0.39024858074060537, -0.40301752968575777, 0.32356242027764925, 0.10573896626842064, 0.12760834881103558, 0.30806960900851665, -0.34448729281852575, 0.44956760966496456, 0.25692067096826277, 0.2697592813422641, -0.34286722649738366, -0.3523895587778053, 0.10360419593659637, -0.08363760402366593, 0.2566517743312933, 0.2675971742842111, -0.4704939084862558, -0.6742444703634349, -0.3194075600590954, -0.6447527716390506, -0.6582321772608746, -0.5275247245431118, -0.183491516389429, -0.3949143185140298, -0.1523968029371643, -0.23051006721599387, 0.13271493652476699, 0.07890366908947372, -0.14080802887211294, -0.39814197690607867, -0.5526245040863922, 0.13377407640766972, -0.1586172120466621, 0.015708044838918772, -0.4600020177094152, -0.38652831263771126, -0.22593724887726163, -0.1932240022968632, 0.281454918520084, -0.4615804769443683, -0.05358587987736782, -0.02408119838125191, -0.13989788544309287, -0.265604092350968, 0.175144405189663, -0.4985337410564305, -0.18593829891433097, -0.3262362204612782, -0.5387253638881868, -0.9039245171748761, -1.2998191119743148, -0.5034464843029582, -1.108731171923232, -0.38800205164409113, -0.3131316384452175, -0.16082455183883515, 0.5065697114824734, 0.14745304244513763, -0.09524529775347484, 0.08295288100425448, -0.1465708024907849, 0.2188594373695182, -0.08075093734813692, -0.3909048434336403, -0.44360072619129387, 0.42264764640426244, 0.2742574107675028, 0.16898443341641003, -0.12680615881918184, 0.09141536086854671, 0.5095805401532598, 0.5860347077379551, 0.28347775092083966, 0.20535467355810774, 0.024813468502433288, -0.4892436393664201, 0.050479172604509244, -0.4141136852714307, -0.6549092194148599, -0.8590169988957818, -0.712923604438564, -0.46693257504654656, -0.5917325174870145, -0.16090770933945622, 0.6145424107163441, 0.9048594885065001, 0.6432896442071898, 0.6988987848024351, -0.11983510522840077, 0.20461162241558772, -0.2888640608923423, 0.48794322950186264, -0.05389591320598308, 0.3463660948684314, 0.33640467055424655, 0.18803526943969495, 0.0638644377203487, 0.6082586060602059, 0.05559341707329953, -0.2629083132573404, 0.6531434687239766, 1.1282189304580759, 0.6256054388285537, -0.2972980137699682, -0.22958329174035758, -0.3649564716058599, 0.2882813262131303, 0.009718516565061513, -0.47788714587421083, 0.1643260696398862, 0.18699702380092123, 0.29824762057148235, 0.39463917316397495, 0.09303449140917087, 0.2765690766760886, -0.7856097041062966, 0.4918757397288175, -0.12289293029906774, 0.15418008599642483, 0.2680426006195051, 0.300032596000927, -0.39036912376206034, -0.3721027671369199, -0.18926672361166746, 0.27245026443367504, -0.03709299613061146, -0.06518531163401126, 0.10445366841879793, 0.44269663433755646, 1.2243758079970377, 0.3834922196924644, -0.06957403733025924, 0.0035944453407567227, 0.13803325340544567, 0.5354286919373641, 0.0392558780840314, 0.02741063423726753, 0.5853327704185124, 0.5657749647059981, 0.6440525243711847, 0.6198983702839483, -0.30343555618019347, -0.39929791267099424, -0.09644701965340273, 0.41068888585874413, 0.13713678649296077, -0.2120397099082786, 0.040922670155514575, 0.45655371143294865, 0.1480097162279594, 0.05590438768716368, 0.29788454137648657, 0.2461215233008718, 0.2983720444451467, 0.0001373564691140267, 0.41779281773622107, 0.2581979965911323, 0.6492192098196811, 0.22673629742457752, -0.341233165914871, -0.050745500285779364, 0.6642065542494133, -0.20852443281628824, 0.24036290956236808, 0.6226167936396771, 0.7405906699205319, 1.3778560990205646, 0.2523477014786871, -0.20863361454784288, 0.13810685324540495, -0.12418106969006538, -0.20136500371524832, -0.09957153117766898, -0.08398302356679577, -0.15243136559059478, -0.4858332652876282, 0.04632213931413196, -0.19536966106789977, 0.2786138455593396, 0.0013020807690012081, 0.0325273748567184, 0.3456836024473666, 0.4910853530850519, 0.8770471534441275, 0.34725531156329, 1.0562531756844278, -0.291959587333846, -0.38950005915380825, -0.6504312792552364, -0.6380933499569501, -0.49960123609269586, 0.6403339227675666, 1.2916186998067662, 0.8328146609446295, 1.2687017154091116, 0.7558497884526464, 0.3977411247405421, -0.6132847148488005, -0.17729306689518967, 0.24143449992041943, 0.10846819303487132, -0.016749901534487875, -0.35928458773359817, -0.389084959650314, -0.3777128586481726, 0.2554006585624876, -0.2518921310329003, -0.2946951305066403, 0.15830670463904262, -0.25087474102183016, 0.15017130060164424, 0.38287004096767946, 0.5425210184444098, 0.8322438390005545, 0.3659617146395927, -0.5546917009449192, -1.038264570741946, 0.050018202882457376, 0.34436021209923734, 0.8507659155793176, 1.7304376088073874, 1.420995005044782, 0.9109355057099583, 0.7216168162207589, -0.10693317251603796, -0.7675053281675054, 0.029562342450699722, 0.405563219862419, -0.18436808710510474, 0.08671269369026391, 0.34046889487649346, 0.1765752454636867, 0.29594389972989504, 0.05351365753190616, 0.05246690807237789, 0.33327923668180887, -0.322289362506698, 0.10882446658544032, 0.6689239773922964, 0.048632805811710235, 0.6993627093115273, 0.09760298386465542, 0.17722720823644703, -0.370973396642279, 0.46904306789510797, 0.6314884547063143, 0.960081893241098, 1.8610175879424629, 2.250811853926564, 0.906234117893708, 0.49512201712248777, -0.38319485142130966, -0.4568126210973562, -0.7247949234197023, -0.4558741103177697, -0.22139621715673893, 0.07131924458700954, 0.5918322593294237, 0.23536689964227564, 0.3616675858132555, -0.2688973749631587, 0.05254474852519226, 0.03143784796297116, 0.45646570244657875, -0.09822943333853544, 0.9705058599588186, 0.10780510223646342, -0.15235222919011301, -0.12288382615440781, 0.8135102445996633, -0.5212008658049531, 0.3961274326881476, 0.689302708414975, 0.7227959507643669, 1.6302332380543962, 2.223761095899727, 0.9782635822135122, 1.1902299636431874, 0.6074985051932559, -0.3080349168120554, -1.2332958417440076, -0.5537661485912796, -0.01580295867748058, 0.02956167594607377, -0.17499797105326043, -0.05719296579673763, 0.41362378220890267, 0.13657921140326035, -0.31702719845591376, 0.49003274262545216, 0.4771722707699749, -0.2635709600049355, -0.040155028724601464, -0.06999196720588645, 0.36532155303269676, -0.3673527593488025, 0.4869313826407808, -0.022472947971768683, -0.32829061134078513, 0.4042648620276979, 0.0595500127702047, 1.4877340100742742, 1.389474328475316, 0.9699576113241068, 0.7429755086273803, 0.6829488466773656, 0.10653381200253749, -0.6502874703085357, -0.8630090609306905, -0.39519932871314783, -0.4639183911361801, -0.40130093602781514, 0.009171946807227813, -0.14457213281404532, -0.09741830097638787, -0.2997883851419234, 0.374266245365255, 0.44763999879706073, 0.13241355379802347, -0.34777885976338974, -0.1225324026862322, 0.06048007410556208, -0.5852253947939615, -0.4268011023963935, 0.4132508432893719, -0.005072545363990516, -0.5430643177866126, -0.020496915641375863, 0.8663616867409668, 1.136260457173164, 0.7823900386423659, 1.0297265467955443, 1.0508522556532363, 0.2664076998867845, 0.344387748339201, -0.6222127048652244, -0.47714829679092047, -0.42637449566360397, -0.3841628889563434, -0.5277942362715543, -0.3523695892957735, 0.2676303353148547, 0.4488902389131926, 0.019317249388798752, -0.1145359955106745, 0.08881426289208816, -0.28313405586650464, 0.20035312105366787, 0.0502067304843043, -0.67418480188829, -0.3707973668941664, -0.6303036217676296, -0.7836367148422092, -0.8952392215521355, -0.24149513152893937, 0.4198986352365266, 1.0943654357828252, 0.7565751664359218, 0.5032350163926915, 0.7012241392704612, 1.6209384123768213, 0.5620383972096124, 0.17673051386300148, -0.5506821782913005, -0.6589192501203676, -1.2766060435852558, -0.7418305528415158, -0.21617528701739563, -0.4362939854077442, 0.0665883308890328, -0.30024201477560925, -0.2924936948862276, -0.1398912477659664, -0.42736242344404374, -0.2204076433609131, 0.4245738919273833, -0.2806738775716645, -0.9660884140158965, -0.6323800083938981, -0.8802096078433556, -1.070646248213771, -0.8108407847173771, -0.709967808972415, -0.020641919482848065, 0.5781385857638758, 0.14214595360925616, 0.3909807551062331, 1.035385034327058, 0.5656386047796986, 0.7094325479496165, 1.0000735756723003, -0.6460992960094614, -0.7819998400029076, -1.2437931899790826, -0.3751633291162928, -0.38443481814760055, -0.29763048016680016, -0.24178859231501146, 0.18705273599286595, -0.048745786865185686, 0.24320976847414022, 0.22757610578219223, -0.2942444475340515, -0.26563345475860256, -0.10389602343268482, -0.7460838850055116, -1.299385759571012, -1.4785715342903982, -1.1483444526388447, -1.232131574050526, -0.6556947671540503, -0.22271513339776172, 0.14261084314354097, 0.2882590515038535, 0.19774405351828284, 0.8062149421512674, 0.6098994186080534, 0.7010777263656364, 0.992220737693254, -0.3581185519437013, -1.0049990469808607, -0.4158660928008058, -0.45959188900593795, -0.0935117735735153, -0.2651465429895972, -0.07225631658131783, -0.04461959727243619, 0.3866321712962789, -0.15548215769951634, -0.24588069684481983, -0.020850437589285384, 0.06447687702236546, 0.12849560818555786, -0.08434978363244042, -0.635431590615044, -1.214331437937828, -1.555265186083263, -1.35929057585124, -0.7159809711598927, -0.11109963233395816, -0.5191644915417863, -0.7271781436194614, -0.5454650683383065, -0.28760918274219116, 0.1620734212756637, 0.13494337345301274, 0.8941864376433821, -0.20866627052026557, -1.0636491070388623, -1.3881422909423538, -0.24087748308608567, 0.2516926473010817, -0.12051911964313887, 0.033147625648584166, -0.18030772817479854, -0.4352223598159114, 0.4234846997897669, -0.22873161815415313, 0.2372474549088978, -0.07562171939278374, -0.6222447889229141, -0.07471697756603132, -0.8272601978608874, -1.4846696993642678, -1.4354586276148886, -1.2092742690546991, -0.6035327337151408, -0.6867549646815456, -0.4664238341805272, -1.3201659017728467, -0.8209781230003051, -0.6743417536916407, -0.729286011417008, -0.20323488018734745, -0.1374293694343778, -0.32454069994326284, -0.9420176822520338, -1.011012028857219, 0.021168991431759307, -0.45699455585459864, 0.34906013863626917, 0.43708779994836766, -0.2329167074576734, 0.4422700872752639, -0.1775608136179142, 0.05925669197981493, -0.2917220264299312, 0.4549710757598219, -0.35530269416852467, -0.4479764705048453, -0.968861296713997, -1.154738878064477, -1.2543604286363796, -1.1624504182227209, -0.7195458817288758, -0.005906433302370311, -0.24119064725064665, -0.8035831693946265, -0.4269733115633244, -0.23853288822432286, 0.07017610788562113, -0.24090170465539823, -0.2572409595859082, -0.19476508680079932, -1.0806965977641634, -0.3549410975565341, -0.3169946285726039, -0.2641224845560154, 0.07736457461776877, 0.3918967903715532, -0.3545613665171464, 0.1343975294923081, -0.15707421392430287, 0.10893947956714933, -0.026579669158008426, -0.07649541614532461, -0.14804964176876212, -0.45971514904255356, -0.7314378455863051, -1.2920480316418406, -0.9929209883434467, -0.9624498462457005, -1.3222605061082269, -0.727128556072162, -0.35897992178829863, -0.4237446205486081, -0.2724591836431835, 0.1647809539905112, 0.8168853040524031, 0.3530440141347679, 0.6579263486424098, -0.4162337958943309, -0.6364018994592403, 0.7615962195919732, 0.3948414819290809, 0.22516234314987257, -0.2956354674602159, 0.2628959311163095, 0.2625363003211432, 0.04926135967236922, -0.09576622181797279, 0.44513138307361566, 0.4837636996127944, 0.5668909754179177, -0.10316701715229731, 0.28855561816658004, 0.17714095952009767, -0.9027037736696619, -0.9431075392361191, 0.08477075570314663, -0.09181910623902659, 0.38391726033234913, 0.29711999345435425, 1.0488007082487556, 1.5086766464318506, 1.271179719253205, 1.2340589087927891, 0.930831595917561, 0.21304293123500576, 0.17065144644698738, 0.7470518287225186, 0.7950775253843021, 0.7652900971077682, 0.3503614739613292, 0.18117012360003693, -0.42594303311804993, 0.4600766965604402, 0.4577430691341743, -0.4867790337076775, 0.2415816986608429, -0.27439117721621903, 0.4532835166779246, 0.39013692944349226, -0.238102438754592, -0.23744259202539436, 0.6375406959857537, 0.25893014681424187, 0.46711821105650686, 0.5725716165579845, 0.5936284800463827, 0.7670105037079888, 1.0535715231708527, 1.3961504864251413, 0.901657020415082, 0.801716844560001, 0.6511145721671695, 0.5369468670691251, 0.3641480093054788, 0.45673599065300596, 0.07551374798858647, -0.03319104519574453, 0.3127488603904118, -0.08707876232738578, 0.36312629043120903, -0.029535157036521806, 0.09151704174140518, -0.11909368305516099, -0.011795416536313996, -0.13952443446661322, -0.34742804089872625, -0.1884202090047058, -0.4196666045514323, -0.17318203342500732, 0.5257459933630004, 0.3599434335293263, 1.0790022310910288, 0.00252038601855287, 0.7129050335160569, 0.5808915534782926, 0.5264186557910648, 0.669676041244437, 0.8018339743057763, 1.266978056231825, 0.38355200244066584, 0.6963318698082274, -0.06486193990871188, -0.2409260885615662, -0.08598278804217303, -0.06836053582807852, 0.44665113324440725, 0.4610430496885204, 0.42299504530872006, -0.31251094074966623, -0.4810922961726021, -0.3401617625569989, -0.3126025643581165, -0.30637153613354373, 0.49849446099252837, -0.00964314303921523, 0.4354788290304034, 0.5050017036589554, 0.41558757732899637, 0.4215690437230785, 0.8126412347830007, 0.6927498652703126, 0.06718888778106775, -0.15373745933713467, -0.15220230181601432, 0.6635872527720359, 0.03577224587624067, -0.11763032496317827, 0.005003952362509362, -0.3722329066666162, -0.33422626018210594, -0.174279567065999, -0.46200178817832593, -0.046461913165393845, -0.45399916689328623, -0.2949313800471619, 0.21420887175954217, -0.21956049092119723, 0.4419092225716955, -0.21077323690994199, 0.1856486566544805, 0.44923799561559097, -0.1233085344705438, -0.19548574697097618, -0.33267606807635214, 0.5492341571423887, 0.6195583293885802, -0.30145172242790796, 0.5252283187751777, 0.13525089285598002, -0.08255637054177072, 0.44316672151220227, -0.2985500967044966, -0.06681603940574454, 0.47296916067728983, -0.03267061718185043, -0.17483112545200605, 0.30810487707585815, 0.2884474969359361, -0.09474325683953135, -0.027703361327744293, 0.33069718690532196, 0.06683103494039645, -0.4140598668231898, 0.2425897040780518, -0.007662590836978067, -0.3814226271165909, -0.02781466199249416, 0.4341824756041808, -0.00607726367158079, 0.28202758905437175, 0.006740045273522677, 0.25155850300922133, -0.46224783816573495, -0.1754174317842885, 0.4778620637801961, -0.12130901102558134, 0.09799796646177449, -0.2919659150458986, -0.13150650872451553, 0.2539545731566068, 0.22563442277398793, -0.11084899250812799, -0.3967982804356099, -0.37423832556845493, 0.12274212948044766, -0.09226069875460684, 0.02346069386292508, 0.0640456590342939, -0.3781531869236374, 0.1684933554157394, 0.38988531077024935, -0.44813665180530116, 0.4279729516265973, 0.34789349177379536, -0.05599282094734892, 0.4727036593557624, -0.24527744489806869, -0.4741325707860846, -0.0577755197130192, -0.04922716485873113, 0.49461068321914436, -0.33008180986742097, -0.3896973562325694, 0.25913559952871745, 0.03780031819244889, -0.3870604762661879, -0.0631627484760865, -0.13616986693783373, 0.11711734239437954, 0.4867162997159813, -0.10436327337217066, -0.10063817184597257, -0.3232418469063395, -0.11284707872999444, 0.39366881198764614, -0.053617113809283024, -0.09764922559409095, 0.03723161972284039, -0.3254044668262751, -0.09503855274466355, 0.20667507285219278, 0.4179252490966, 0.20882451856044282, -0.08261763594926685, 0.17038256200822455, -0.4924124443534238, -0.3820429849053204, -0.34233369437128874, 0.2589722785517733, 0.051449960126523045, 0.29759147863475616, 0.282001836111987, 0.1615297024905587, -0.33318559318023305, -0.06241229393967766, 0.04843804413891374, 0.4390536400495239, -0.2439631626741543, -0.20117792247545147, -0.09966588141305646, -0.287276848702712, 0.09713039991708076, -0.2109241309865002, -0.009267950128381663, -0.23775786637227203, 0.18444184379166184, -0.29143895276090204, 0.21430288916263085, -0.4188095424952982, -0.14180052485489192, 0.32822747156468246, -0.46185232213779115, 0.32778973764843355, -0.400948348179496, 0.45906384946061607, 0.49948546880678607, -0.4578534280574701, -0.2268701092049229, 0.06465800382512207, -0.43605790487191126, -0.0838690898190516, -0.058819076438017176, 0.1164018429597332, 0.4559550339995257, 0.44337910382245077, 0.3234495516783213, 0.1744654217062306, -0.2872546238308679, 0.30087849647715964, 0.25984448783075675, 0.027077803637791047, -0.12687806134421611, 0.06875427784635657, 0.34234963130065565, -0.07859817286943224, -0.1230035599828232, -0.1292135707877341, -0.10480796357570388, -0.4419724040347889, 0.32207612533343477, -0.19279003413374785, 0.28565339862671735, 0.27708245786372354, -0.2964934414437816, -0.02564858768214123, 0.021375414352919668, 0.39323608728250786, -0.39756695086288385, 0.1382478659653628, 0.25817670007975974, -0.2858654481816522, -0.41826285487002673, -0.07577807983232648, -0.4255016340508324, 0.5055000236912305, 0.4748274649367796, -0.1802661254158543, -0.4418275627515008, -0.44948172266783176, 0.3385843102052498, -0.3634021234276382, -0.47449697618837333, -0.2297677245998416, 0.054396426804835245, -0.04513370380642147, -0.18853978824976647, 0.12770605287357462, -0.3480346219327225, 0.18186595444147047, 0.07799175429934894, -0.1284685770111278, 0.31767061514487205, 0.1353356268718703, 0.43701538057204764, -0.07790998663701432, 0.5060197497781822, 0.15173604142518113, 0.14264180416075442, 0.07116310743561402, 0.3115556936446389, 0.20414008431870498, 0.5559097368811906, -0.19688966269769131, 0.5061006622036425, -0.24442592910633207, -0.34988180608491315, -0.06431175487159886, 0.30644626075837533, 0.14746587733084668, 0.09564393741873108, -0.09800488277106616, -0.09964414625473414, -0.474193436751065, -0.46907545228965897, -0.008809192254311426, -0.1981829142323069, 0.006989541310913702, -0.42626002742231023, 0.19215154097445414, -0.13474157830668793, 0.3947483989420036, -0.2825468927005411, -0.30203129230715675, 0.3863608107613905, -0.14679883998215087, -0.1297262693493642, -0.2759507708631646, 0.2757858143283738, 0.2100250886206032, -0.06705589097262075, 0.3464719816150289, 0.29057819237044774, 0.28733831708657515, 0.3582924528364452, 0.48170625370910863, -0.046012112818251634, 0.11271668737401336, 0.4819773740016283, -0.4484843396851017, -0.017355372024697602, -0.23842359526468604, -0.4379003452041811, 0.13449942745695198, 0.0017998606794119576, -0.24074590769057014, 0.16613351141652322, -0.17539824599961099, -0.11914046481131947, -0.22700890890449546, -0.40527204669159866, -0.2537975414704449, 0.21782395844582514, 0.22286586355470805, -0.13144722800970435, -0.08794278947502171, -0.06951206731344763, 0.19022696125005778, -0.23432659676452952, 0.08681219523040128, -0.029604435878070892, -0.02795560728309994, 0.10155140731961004, 0.060069628041737724, 0.2572285284187331, 0.03890851165115921, 0.004434742122670012, 0.412990272076947, -0.12198133918737741, 0.15901888354682145, 0.09696447642951662, -0.11915313574461484, 0.4145265236558091, 0.2611502646243185, 0.38092344493082936, 0.01773477278809088, 0.2998980705851076, 0.3408203408490593, 0.4430587985219507, 0.3110015498639558, 0.48204041237945316, -0.19370179853565664, -0.32248153199361257, 0.5574230329113843, 0.17857255446386003, -0.048420325758847284, 0.46525466993210374, -0.09142328239711432, -0.03178388149872152, 0.5373162536417274, -0.21021343344094418, -0.31261676882320105, 0.032850504278727266, 0.023305118009804428, -0.28537449778548374, 0.20364935308340215, -0.40014470616999154, -0.3276370158437269, -0.271904317086823, -0.3183046467457772, 0.10348241170922595, 0.30545100265038533, -0.2444913610410475, -0.19284845149274485, 0.05836101278088841, -0.08272142877777518, -0.03673234542654742, 0.37829944491146716, 0.1731124361315572, 0.03939125429008201, 0.5345660494790789, -0.11962717094004842, -0.24252966100987958, -0.12655011087314585, 0.4050425587164388, 0.09750516758338705, 0.6222025538447505, -0.18859882741794526, 0.5398331149503616, -0.030991963856893793, -0.38638579077393037, 0.03585331287918108, 0.08015951405455245, 0.15099170247517948, -0.3240680615125105, 0.3854401187757914, 0.34097584463344793, 0.07278938259622601, -0.2372396044027639, -0.19091327239350034, -0.4595744812220006, -0.030041411811097575, -0.3686956702092363, 0.28831337815170915, 0.12715778242379164, 0.36829986982760105, -0.09392322552829337, 0.5323950502271769, 0.22903243154641795, 0.2181993294480062, 0.6307787823624408, 0.3413998700355728, -0.009655096863873176, 0.4926099966638638, 0.1929281753833598, -0.2373043400413469, -0.0843066395474296, -0.2412496535645661, 0.4677213525057632, -0.46760748814928615, -0.4524025979051419, -0.4098915310891488, -0.19135877627255998, -0.44733997291009114, -0.32511769756873365, -0.19163076692086548, -0.39358802918275804, -0.08112935235237952, 0.034401701116131, 0.16078480050097516, -0.22070627178361912, 0.3567250109391168, -0.394551931649699, 0.09052047022738764, -0.19219403636743296, -0.025472409714259753, 0.254795326405417, 0.3647152018118343, 0.3477625530115507, 0.6446617106250391, 0.04324422376133631, -0.01893933858376091, -0.08338501785678537, 0.30806124895615894, -0.22351784903465072, 0.33830767602239004, 0.41605812413305293, 0.13252157353980173, 0.3164020570447498, 0.1336301493641476, 0.10035043101974761, -0.23713947298757404, -0.27002986021848085, 0.23594179208232224, -0.49243741538004976, -0.2491924221532624, 0.1980455783455924, -0.21345695272135962, 0.05285763001711008, -0.38344065607134864, 0.3217646944281746, 0.3982734453476752, -0.016509852978809216, 0.3145644562702241, -0.168166091923835, 0.49545047590967917, 0.5016590457727651, 0.14150189623905943, 0.5633875971085833, -0.14233500981931013, -0.006427098147884437, -0.31409405876818214, 0.08451281548913105, -0.2581249060319975, 0.5481662172864422, 0.04788041951388025, -0.4642448261916471, -0.26333599109457473, -0.49441175274052857, -0.23666270301223868, -0.10977269283528106, 0.48680499216748085, -0.04145921647107593, 0.3200634650671751, -0.43975877256560825, -0.16942334817065535, -0.3915400216800792, -0.31195349755254426, -0.27102321838370186, 0.38805180374142506, 0.25812551715385257, -0.10026447171409827, -0.10606447585818066, -0.2933316380555503, -0.2117296036600934, 0.07131499920635702, 0.3671350021859335, 0.004392481110979699, 0.5764346453230872, 0.134223851473003, -0.11173564545177254, 0.16772350883714957, -0.40213344748619456, -0.4398721230667562, 0.2895684241359113, 0.25700431418735037, 0.27502013939128633, 0.15051916029406354, 0.32410364520639046, 0.3304538644722641, 0.40293884598761326, -0.36567650762849835, 0.07955147870622784, 0.08806874768017621, -0.3715194146834313, 0.028010712274253734, 0.30148164939899835, 0.4705940393832411, 0.3072337431331913, -0.27459637419546884, 0.3776605146476114, 0.08767847288606102, 0.5959584271399349, -0.0827934460048311, 0.25718935110538915, 0.5584120536519379, -0.005695728300115498, 0.2268427192102751, -0.18283598914808427, 0.22158988520982104, -0.2385815966868179, 0.43990140619366846, 0.11782471089292278, 0.24108309305925252, -0.07627659312609522, -0.33060533905006145, -0.26024304870584936, 0.02933795262080241, 0.4498860513432328, 0.11972862315862251, -0.14862271671643568, -0.3618161830117637, 0.48604663775443474, 0.16519264143599305, 0.10142824376454473, -0.35733537712653946, 0.533978101876862, -0.12794071315292505, 0.5386781639778293, -0.3366178238430721, -0.21027036932219237, 0.586821959106688, 0.5136969945002642, 0.6262632510114693, 0.1213802799697087, 0.05332054095461706, -0.22915474096741978, 0.3776644571754148, -0.3201588271989195, 0.25574921848225934, 0.40823751582878354, -0.3219151748365178, -0.0025083677956372562, -0.39243996601554804, -0.026310732255210634, 0.4841055456724337, -0.29848890916671156, -0.2187402776246669, 0.10012232004038568, -0.18206916947403354, -0.044196332077244375, -0.46763756283605434, 0.5385641398231632, -0.2984470800884574, 0.5959252982216104, 0.10985154281901852, 0.2053687531118648, 0.12803387794152035, -0.27537313194751434, 0.5203496888655605, -0.24684523427872898, -0.2639026680555407, -0.07853666302334394, -0.3135371714385559, 0.3273678117031949, 0.1406833546880623, 0.0359541584674728, 0.1571207119189045, -0.17237262689554594, -0.03381938444755825, -0.4692641594515827, -0.1977398871366022, 0.4979477903272541, 0.20625752101879935, -0.30143901524286215, -0.04909315800159125, -0.1681555882192284, -0.45408153410380164, 0.37365806738403734, 0.1524627262196864, -0.32614029636421504, 0.3218988050077051, 0.18293394223669943, -0.09797631377017806, 0.021897119154454102, 0.32717997876782307, -0.109124457418169, 0.3957317752005795, 0.5262539286816533, -0.29771041322273223, -0.05387239215087097, 0.1899477096152248, 0.08853676243849122, 0.34301516324824477, -0.05654097755940728, -0.0010588130897130213, -0.20679486191786095, 0.495140473973013, 0.2867894249480925, -0.26519311015737196, -0.08191564714002113, 0.18859359238744433, 0.44573008815764115, 0.03797501800232716, -0.2284660697393788, -0.12389449146547862, 0.3939896366911046, -0.04496476236902437, 0.03810402504983876, 0.3998279464019882, -0.4024207267952998, 0.07621740050010171, 0.2359844438608624, -0.25765975450496115, 0.06446292610300623, 0.5699904905537554, 0.3882878804551062, 0.13316137521854368, 0.6087632725639459, 0.5338025508009018, 0.25722368820693103, -0.3440366656241802, 0.5257695541988379, -0.22108885840182038, 0.07267098289754113, -0.27750837577035353, 0.256997162357476, 0.40201762498998084, 0.23287488033235434, 0.32174999655370584, -0.24746686847523253, -0.12967362050814588, 0.454469033837466, 0.4373380900331142, 0.04647401722412397, 0.29721139396830737, 0.314181312005428, -0.05800551880921435, 0.5673657585639379, -0.07299815322347178, -0.2785810591148065, 0.44686305409336236, 0.5305267488790497, 0.5077105156076264, -0.09455580506378909, 0.1149005630976724, -0.12471281922737439, 0.369498251375198, 0.15734312055371039, 0.4799041289780941, 0.08575403775461075, 0.29047396688902577, -0.39645182749541436, -0.2873912499317697, -0.1592795991305812, 0.0031016440876429187, -0.24174991166672644, 0.2596058603239394, -0.3850860196061275, -0.2866446729421942, 0.24478762890714206, 0.0033338073057522974, 0.4109212430730116, 0.07319339980794745, -0.3319601537853015, -0.05747043784300254, 0.47559535246570506, -0.038725056104113205, -0.12385858919092597, -0.24950903751375844, 0.5176001482008123, -0.3205442831611238, 0.25256793913581765, 0.6203194859510636, 0.12815413745907905, 0.4512994874487771, 0.41105188048164654, -0.30447870762726487, -0.014335643644510466, 0.3291984802528148, -0.22984291485870037, -0.358819372338772, 0.12956720086561774, -0.22032548588760034, -0.04520660685762015, -0.15084009032496581, 0.20606207057461992, 0.049330301912567244, 0.32230706616852484, -0.24971669222311152, 0.3382290511412185, 0.02121009283664707, -0.10774878258663136, 0.5865582474502635, -0.036777890433463106, 0.37404872406464523, 0.33918265923431723, -0.3082130591961323, -0.2731890431066235, -0.09095301324734027, 0.18924129136489315, -0.2680760793843396, 0.5252197573919982, 0.17830912560414935, 0.06687453344847104, -0.1908095807028455, 0.12193875409238558, -0.23061837706572616, -0.1860101692224648, 0.04605101250710866, 0.5388316949006384, -0.2340800239956601, -0.09012738926286912, -0.39193522993685037, -0.17835579793818057, -0.41958325339687447, 0.21281103845282204, 0.20514268291464235, -0.3727600529023512, -0.013640280739121841, 0.5395362639037038, 0.10934661745032265, -0.005287947503211047, 0.3118750590312185, 0.573494818567281, 0.5105961088492098, -0.13917841488922608, 0.03680179605261064, 0.6638334205824288, -0.1887651078082405, 0.15456611902328063, 0.03880787815434131, 0.2854412104855396, 0.598520711886952, 0.11220088832950169, 0.14110823675626807, 0.16641947894809303, 0.1652357312744022, 0.07626716668961367, -0.15719157832850883, -0.1262720226221149, -0.1465684683609374, -0.40820055294927504, -0.3194425641290373, 0.372772808039988, -0.44297916225029055, 0.265808217840774, 0.006081233599290487, 0.20691035537682453, -0.21159061487990471, -0.1817994622591916, 0.6081236545081619, 0.4202566332465998, 0.12089259384227308, 0.3717011879426758, 0.6643314373314504, 0.18926931066763367, -0.09792564075991046, -0.22118042430626272, -0.12702919353877504, 0.38329547236996686, -0.1448668500148852, 0.4085306790070837, 0.4353920567544425, 0.43641205679046535, 0.1752657872526837, 0.1409649092390278, 0.3703000157902284, -0.4430535545989681, 0.11333003644521389, 0.48870316503646255, 0.3634502475366009, 0.01662684309906459, 0.3098090963254797, -0.25707940377903693, -0.45439942610621825, -0.2798162774358285, 0.08739855366053031, -0.3021396979996371, 0.19591365216208192, 0.3040194672965803, -0.25028581315683013, -0.26076449986948813, 0.18016399755142692, -0.07626581379641238, -0.23897204510394407, -0.15813057126721317, -0.22248316380881467, 0.2996965315652894, -0.22078701722743246, 0.33248518329675847, -0.12353288495729729, -0.3109290179374185, 0.13894480360887423, -0.27582364210289306, -0.4188055727236952, -0.2616018383535671, 0.16410323082349199, -0.47353562531901927, -0.16265454073983665, 0.3447368733157848, 0.31842016343157264, -0.046293075896650104, 0.3363098961518862, 0.3336836888064407, 0.3665429395530827, 0.3151026532013919, 0.38451074993447804, 0.3239210602970054, 0.13669560026780997, 0.39028959172011896, -0.06325663439374618, 0.4395459000605625, 0.29091834638460845, -0.18089979360945233, 0.3768865943751308, 0.4723167019201262, 0.23383286896415023, 0.43446774334846144, 0.15701821897946164, 0.04878954759830729, 0.1341858681106732, 0.193932427981801, 0.18653402198395608, 0.3846184298503751, -0.16876016883885914, -0.48961822278988554, -0.4582824539384417, 0.1488140297629441, -0.36349974937776414, -0.08125129538722456, -0.28331842737179197, 0.21939414843299235, 0.085087688482274, 0.34223640194648514, 0.05180851524911126, -0.46300153746844763, 0.000409400668818979, -0.01605938983128094, 0.3957378587443584, 0.4353334594387828, 0.3133283207217522, -0.017904034464873077, 0.43191500851887366, -0.12431699182540336, 0.09771377833731468, -0.2893329880728672, -0.26646552378195537, -0.21888301660476964, -0.2065582276630106, 0.387938600254252, -0.02002968050773779, 0.3607294688128758, -0.30562343224228994, -0.019836626129265733, 0.12155906375206726, -0.26356767932239833, 0.2658495648659075, 0.02450987214230668, -0.28497450301672833, -0.05707796977624482, 0.499384238755644, -0.20681072503841239, -0.16366975963102842, 0.36010704101188423, -0.18965637003265826, 0.18097647859479501, 0.5145646452455609, -0.38237930573457574, -0.295859167030502, -0.04375617882884038, -0.2523106571039044, -0.1490217760560072, 0.10623908414552291, -0.49322664060175103, 0.49466935488592784, 0.0404252428319445, 0.030275320431408723, 0.3693383871532977, -0.48182946985434594, -0.011927441337470035, -0.15184240962762707, -0.26023923158546025, 0.18377246170266592, -0.4354382823572551, -0.09297170439574676, 0.06534008069672104, -0.16296346267343303, 0.0703411968553852, -0.0865217982518805, -0.31526989166775526, 0.27064419556421, 0.1566658057253519, -0.27326729994629184, -0.005272315086393477, 0.41242670544286214, 0.08812202858472734, -0.41377824375255434, -0.07886888060529941, -0.09843993490015521, -0.04652986838528946, -0.18939428398347835, -0.04435351335976885, -0.3511099747045634, 0.03764154395001551, -0.09424057584833434, 0.2745975501845078, -0.18329264376702148, -0.3944168478920521, 0.41471474810496134, 0.15638613872203855, -0.48200887264918724, 0.48586092359631194, -0.33460404958583445, -0.11931946412857564, 0.06777630709100191, 0.352322186408324, -0.40039775215075857, 0.05739919315701891, -0.27780387643391613, -0.07796537970301731, -0.16150972473744274, -0.49324747017605364, -0.4658834860322004, -0.02930043851826125, -0.4103390467428514, -0.2551133535745084, -0.26717411190109286, -0.013262573267249222, -0.47276421534152113, -0.06111598991122069, -0.3062020011305424, -0.31408556419388445, 0.2822345688846265, -0.06953784410698793, -0.08161350129049871, -0.03367796504316112, -0.49560336728373544, -0.36669778882920234, 0.4124073385952536, 0.2779543267669812, -0.04093793112945421, 0.04322508885352064, -0.20341908781311896, -0.029815252736153344, 0.32593113177662975, -0.3256049012321142, -0.13451235885354876, -0.3511299350090632, 0.0864092905150427, 0.2329399180587518, -0.01954082068088816, -0.42055531294297727, 0.3233693754342587, -0.5041611325569791, -0.49221487301275507, 0.42592242330115926, 0.4812611007106171, -0.37610811600256566, -0.3760921969293032, -0.4294368659006248, 0.012038171220252192, 0.17225136849078504, 0.21816079813019662, 0.27275887579041524, -0.11534597667860069, -0.3287450516810382, 0.39652506678579, 0.17256818145950914, 0.18093297874128256, -0.23477119386352907, -0.2796518037095563, -0.13996209210909596, 0.11144671810641281, 0.11621833563254376, 0.06024857968164329, -0.43118222167193815, 0.3017008593811129, -0.4841463992087694, 0.4361837052304791, 0.41422265142373116, 0.20903418044585334, -0.3628491285277625, 0.32549493119871226, 0.14623217210672562, -0.1588238429241563, -0.15917852191054463, 0.37508632925869595, 0.1638620452391108, 0.4041234454535637, 0.4947969804328981, 0.045681000672210814, -0.45082025128784853, 0.310859478268253, -0.49332619757736007, 0.4049424011876589, -0.18144042238820612, 0.20663766326431438, -0.1327770110114077, 0.29731788719061214, -0.41635521082796245, -0.04808985098932869, 0.20859420997644043, 0.5751280320667826, 0.3069422617118914, 0.0491163434302822, 0.7609946025166299, 0.6494208040315023, 0.6028007035993471, 0.5636725470562423, 0.7170712284443617, 0.4212714159038028, 0.6273025315164618, 0.4677284138695517, 0.22152951245820623, 0.36093559659571545, 0.4182554892374678, 0.33302239403029976, 0.09390097397202392, 0.22765317943598018, -0.0386024229089722, -0.0864549429705802, -0.04577186617182505, 0.3106659131506111, -0.09797855200126529, 0.2340276270287249, 0.044924980106102984, -0.02461649540094259, 0.4391976961509811, -0.1394286439686465, -0.35264842203126673, -0.40539609671555843, -0.40641931707549744, -0.08215799403625824, -0.21039530816652025, -0.1275701701088227, 0.17457911249683944, -0.4398119988302913, 0.1307941467892671, 0.041631691875937404, 0.5142557824387807, 0.2606744960403048, 0.15471269271392876, -0.37728473037466587, 0.20551981233753436, 0.21709561358772478, 0.28845679959961007, -0.45887725206938906, -0.045471058244243134, -0.3720519995121844, 0.06025287824975029, 0.08427088811958458, -0.2415916956047562, -0.5042598435245598, 0.00650870584209389, -0.5011684829662366, -0.21436105518734566, -0.018030314732281096, -0.04954710024252533, -0.7388585404392894, -0.526059378134706, -0.2985533702095415, -0.5469106373380532, -0.0197897856303059, -0.7088443436102758, -0.7480598557859446, -0.8651192120180243, -0.8375700839044041, -0.22988732369565149, -0.4452886299593874, -0.17542981334864202, 0.09513498863559271, 0.13117883515011947, 0.13821341861992154, -0.09449484335506594, -0.08027618683028727, -0.35354318741751, -0.22706713515931853, -0.3864507028404658, 0.21503496696048766, 0.17441672293453198, 0.2730345741937851, 0.17581163871182026, 0.11570939002588772, 0.11439463277281017, -0.20311765426379896, 0.12935029607167242, -0.32862492653659886, -0.8798080366523191, -0.8355426276377754, -0.390714393405738, -0.8466028333729326, -0.8716544184028806, -1.184211206632371, -1.0741937482192174, -0.9645845318346398, -0.6582832767901777, -0.3153762948085295, -0.04933090073326655, -0.15956794628276813, -0.7872201940812854, 0.4041815231687625, -0.2911831552849131, -0.016701967665485738, -0.03825542243252034, -0.20693341148907607, 0.000446605645923629, 0.4421609605078747, -0.028439873939647742, -0.4238696101493406, -0.18542004286366975, -0.1365525004695056, -0.36008312050942476, -0.05076324246588834, -0.31837976316170186, -0.66272534521108, -0.19456389612045677, -0.1133551761333608, -0.64406125984507, -0.20958801198540014, -0.9793721759456216, -0.8177510955473094, -0.41770707597252293, -0.6130187783814622, -0.5964475203887215, -0.30391352846597214, 0.05325243229121642, -0.6865857940245418, -0.1475285864126143, 0.22018075502274587, 0.12607382256247987, -0.37550182645919644, -0.4272347989127052, -0.010015025404101707, 0.17591235391207116, 0.19433281972114658, 0.3296044343228715, -0.42848070239593133, 0.23742957173399923, 0.025590484722155804, -0.26388310570872453, 0.4028439745024598, 0.11159555932489935, 0.345110371403762, -0.10962967203420312, 0.3896527891987622, 0.4719168014647877, -0.3787206844216973, -0.9354152106515625, -0.46436020428880587, -0.32221789810505996, 0.11710379435691397, -0.10455578788157754, -0.2254951190136778, -0.26908822336158195, -0.7064849852518896, -0.6187613373564775, 0.07959977574081344, 0.08501009325955383, 0.17638000940177764, 0.45338840662460705, 0.12055216762367509, 0.3984562910040081, -0.35189209126161897, -0.4175597756231895, -0.4898886296282199, 0.42597497805235174, 0.4283627316576867, 0.08216678339730536, 0.33474548584178065, 0.5177021420820624, 0.4509248774362863, 0.4846958668339582, 0.4799198732583017, 0.02591626422479454, -0.2562789760656733, 0.03430495099230191, -0.16481501426996534, 0.36924729954156627, -0.05747683769046701, 0.18216892308565388, 0.370600946321911, 0.18058742037144518, -0.5691687130888554, -0.07691259836945184, 0.4214175119703811, -0.139059776371126, -0.3382361324326554, 0.050309502692671586, 0.2709560493391901, -0.4075572256565957, 0.11796980850445957, -0.28780305164503334, -0.11265726146925303, 0.26240547087227467, -0.4941304676559223, -0.029952161444155925, 0.9677086959734561, 0.5800466485677449, 0.23329627764835972, -0.3983153796671071, 0.4199048338500846, 0.03373619825537434, -0.5989872459455404, -0.34675375773800454, -0.379723249532031, 0.12736129070549493, 0.48448328872423896, 0.7015479321493691, 0.014296076426968106, -0.010098240247143349, -0.9313183034307008, -0.07742178297191221, 0.18629662849036668, 0.15644495059227687, -0.21447003337919748, 0.2553022545190957, -0.13475271989424484, 0.2679646784892747, -0.05158046691708746, -0.18740985165894575, 0.18297555539585575, 0.1914561566660072, 0.010832827603718238, 0.3493852725836642, 0.45562889787365163, 0.37848961326606745, 0.028314943640576684, 0.49802317805733937, -0.1419766679067515, -0.14671305873288323, -0.18456076823624817, -0.7294015130010479, 0.2608302672529842, 0.46355955655147324, 1.172865248304643, 0.5922666849278144, 0.4089453899795405, 0.020502992688911415, -0.023585781260512525, -0.1930092232008407, 0.10782688639623107, 0.035086821612484595, 0.010886752916543193, 0.18381009507850987, 0.46575240735535517, -0.19831309824132354, 0.2568721855408678, -0.39396128761633675, -0.18352006941795676, -0.16860330058115303, -0.08641399657717495, 0.38617076234237346, 1.0403211644888903, 0.46784537639176654, -0.011656852553961105, 0.24945780411958887, -0.9216599759218115, -1.3701634797313869, -1.0290765200133274, -0.7584514564101533, 0.046000038581334106, 0.6032424345738511, 1.2546323051658244, 0.9282411813430245, 0.37612561351509083, -0.20790873540263463, -0.28883437803260964, -0.7470248320626215, 0.2552127602225474, -0.19059450078323553, 0.2575707718941316, 0.25840714057264347, -0.028015578541207842, -0.4545397001561302, 0.20748818783164416, 0.5404226284817295, 0.1511560869242316, 0.06934490286334295, -0.42891832577996336, -0.07604222608267143, 0.491242892310907, 1.0588324455814524, 0.47691008131852347, 0.20243365816860684, -0.701698302864404, -0.5316582573224662, -0.5884047633674871, -0.2668830589800791, 1.1592209615174338, 1.0008200780405563, 0.7034008883845841, 1.524675650625379, 1.1294663112861896, -0.37248748458946407, -0.20095886219290188, -0.4791050291986753, 0.2327802378947754, -0.06478458327920877, 0.3366681384788145, 0.07799191977106212, 0.4781978598958254, 0.304303148538528, -0.13903133859814215, -0.39715750402107497, -0.2844241117129076, -0.037035543385151526, -0.40824401284781836, -0.15385446405419964, 1.3233175877086314, 1.2704378328850292, 1.19650693551819, 0.09077009797976245, -0.39052748742534354, -0.01712256302268263, -0.046913265121729296, 0.537102947038398, 0.275543198663498, 1.7348448092300255, 1.6587294189585837, 1.2055302139967639, 0.7782325728675175, 0.37869870284075097, 0.05484337375088586, 0.07475677128062287, 0.47125327588535415, -0.3386619759964834, 0.19113766336047033, -0.4385656165562154, 0.32778332744641236, 0.08670377173416266, 0.1584827490636933, -0.13171335058094868, 0.5467304324131964, 0.025619262003406956, -0.5220998676448187, 0.9165196732476455, 0.8112424082798352, 1.4376883222110042, 1.018295838723834, 0.5705592619752963, 0.06546740063198238, -0.4470748149359004, 0.18760295215598266, 0.5435342341290882, 0.9766878924235366, 1.9308359356268812, 0.9018307731676759, 0.9191367375064077, 0.6229948052396838, 0.2070704537228205, 0.3856923843264338, -0.5239098340058985, -0.1525504688944296, -0.09634652069544884, -0.11857409349228407, -0.0828269454340053, 0.391995706375047, 0.11265416095951747, 0.3462700915170799, 0.25072653427507663, 0.4375367466146059, 0.12789803440269998, 0.28356984493830223, 0.06475981114287295, 0.6511928952843359, 1.0010757948174194, 1.1071021151698575, 0.4833231628659022, -0.05284512949022404, -0.0026368794384114443, 1.104196557464082, 1.0290923023556042, 1.049773835328613, 1.6410314066808445, 0.3436328829925647, 0.4261980450638882, 0.4087570344398833, 0.3159959803719596, 0.06380640297121239, -0.5362024025303033, 0.16492347757193357, -0.4292354848280122, 0.15855733757252236, 0.47772358282463656, 0.15023104124585007, -0.046206577509900426, 0.39408115821310735, -0.3716806572487379, 0.5470111976041374, -0.6297669856193769, 0.06065997923084344, 0.40892926420112374, 0.24376568834818996, 0.7313192954508813, -0.028389751176173893, 0.4639850806405436, 0.19079825008491635, 0.01638956163184479, 0.8708815172569149, 1.1327024776142467, 0.9133851896072752, 0.5743162043734802, 0.9802819287527642, 0.4980922225872617, 0.18657220279519393, -0.3891585102868444, -0.42612357108618065, -0.13778037004184346, -0.3955201197700817, -0.25120890477196456, 0.08231022974011767, -0.4050536548055107, 0.043833889558912875, 0.11709650183132468, -0.23047116642984347, -0.26623473918223645, -0.11748298996102814, -0.0875374709757293, -0.32219498897297816, -0.05122087490024324, 0.5356672756160807, -0.28340467779602835, 0.7729557866839333, 0.18896401824638637, 0.22875342511216953, 1.146243977883226, 1.2849411622552542, 1.5684025407888607, 0.9108365954804556, 0.5873350703071519, 0.2214189019990048, -0.09632555903678819, 0.04428658320863984, 0.01854478525420945, -0.59679794079533, -0.38449172855040054, 0.04001386257484982, 0.04777966525801919, -0.32177667732285137, 0.3883027331222762, -0.3466471059322257, 0.35640061677347346, 0.260602153135899, 0.07562501385639364, 0.024549991308454616, -0.5957443488868831, -0.02865127497460945, -0.7179545028177102, -0.29845882521017963, 4.127187849485041e-05, 0.2687372973447204, 0.4199936657500854, -0.05343043122261091, 0.3953405894793287, 0.8685658779620968, 0.9001656277621141, -0.1805956000768892, -0.3206467651730496, -0.7163434571003644, 0.00844164480608699, -0.4074783174662499, 0.33353897809426963, 0.3961417130360653, 0.10598483338037216, -0.24551696326519012, -0.5336257483124531, -0.35427677719456596, 0.26056779273018427, 0.3635046233105307, 0.28949264584690126, -0.3745840630284926, 0.11956331539926796, 0.42506453560562807, -0.26450550145292745, 0.24795782039529818, -0.8292543913297716, -0.28551324398990413, -0.23511358607454558, -0.4256832754983044, 0.49145429004806307, 0.001304482667154565, 0.0630383962606901, 0.20555156514383563, -0.013178916377911113, -0.18845742941706867, -0.044491663693767114, -0.492943931867465, -0.2777842878512873, -0.9950332336728744, -0.1145184652490194, 0.0565606973876699, -0.08631997319529008, -0.20081582203979434, -0.008808366866559034, -0.15674102857668587, -0.34995436627679566, 0.45533766212074644, 0.4143565496677215, 0.2829877877048734, -0.06568569702417074, 0.6320726266453931, -0.4335350794535606, -0.5268085814392204, -0.6885751911928006, -0.6856278615055543, -0.836631515177414, -0.6310944618317548, -1.0557998468157934, -0.06104372482196914, -0.07486104653659893, -0.8224628996868338, -0.480961482833818, -0.7606151862016829, -0.08577982252098815, -0.4789374032854351, -0.4874285487848067, -0.41032318649616856, 0.13199935314796354, -0.037030273524383726, -0.3506924494941374, -0.23692889381521354, 0.16322825030889554, -0.25586573968323406, 0.20273123972294516, 0.20261385969303658, 0.05492774947371537, -0.0648626535329105, -0.32092222678205096, -0.3924712388438416, -0.33114281007795127, -0.8515901687269295, -0.5589823215077168, -1.3486115586129133, -1.3188160672568077, -1.3163663598071838, -1.1743850967914482, -0.6508002890548615, -1.2227508174612716, -0.5401050315660488, -0.6492873937748941, -0.46460250511689766, -0.24808344445315136, -0.407771509184188, -0.3817893314408135, -0.08278973501482292, -0.47277511811254286, 0.2723879298520161, 0.46790969158491275, -0.2052630600043414, -0.24560467898247182, 0.14981073271228665, 0.022788454780112932, 0.49424353337539484, -0.04698326697131199, -0.22420252427683224, -0.3703113363586223, -0.37512024825529444, 0.12075542046264069, -0.37424757974911743, -0.5298949195559702, -0.3604475024813421, -1.226174030801453, -1.0959959044179115, -1.3092682026708544, -1.2610823405460365, -0.8306408092318835, -0.8870013353249363, -0.3673282549950474, 0.029642534197801336, -0.08650130207512088, -0.6288512563708512, 0.14292347689427587, -0.5396668655859985, -0.4209578184333671, -0.5413416943064576, -0.5435955899803712, -0.23476355477731087, 0.4212408699789171, 0.2862046556747274, -0.48475310360656987, -0.009721666471870005, -0.49144767800221856, -0.32504609336915447, -0.4403944184137734, -0.003176448036757737, 0.23079928864002414, -0.005935639910115989, -0.21621578080527026, 0.03280710873616065, 0.2532528295151319, -0.4962001111571967, -0.41976854024669974, -0.05212288844478172, -0.4492354342151777, -0.7050335977084127, -0.01535099183545002, -0.4005716875689992, -0.08637094440029527, -0.06870413325451857, 0.21354899675958577, 0.3008264611957163, -0.029544924557158472, 0.38585285020634447, -0.3502647231955359, -0.13748205910399314, 0.024002341085935176, -0.07460076591189446, -0.07889417132624021, -0.27932480704613827, -0.12302783877012724, -0.05014667922540672, -0.26286661344769074, 0.034592018585703994, 0.1553271187359427, 0.014881488449831287, -0.0017258231794435842, 0.3920100178586304, 0.010829381769232488, 0.6641475002527439, 0.5151778619072915, -0.05174587487415829, 0.1484497698893862, 0.3553663815083665, 0.38260318264732945, 0.12278597415477768, 0.29399965746100115, 0.4407319413192504, 0.3068381822831078, -0.11998693019011622, 0.22938190420797874, 0.28449831370843914, 0.11056227291671977, -0.36062896453096477, -0.27449707726804307, 0.21458781309309372, 0.2658239770937124, -0.08698446575288066, 0.47353841173515465, -0.4735742265977779, 0.40548540133019395, -0.15681255002913816, -0.2513008057030491, -0.48941954737032684, -0.34337080628346694, 0.3373165039902188, 0.05760883516980656, 0.07584287529340472, 0.14466954387068254, -0.015540529551894082, 0.012877678294243572, 0.5676188265935742, 0.6747629665924034, 0.041556950103189126, 0.3862025692040079, 0.26049762245434377, 0.4248534743688574, 0.27001136292208155, -0.12632211412467653, -0.464232685666325, -0.0748876128807502, -0.00845581052996843, -0.030353127677972935, 0.06983221467042955, -0.1356421995923487, -0.12958949195096803, -0.144922492452504, 0.11218725261987905, -0.2317178433026854, -0.35049985838920084, -0.32796495279643045, 0.09530925300443559, 0.25323185079752614, -0.46124905722784565, 0.4367573029212424, -0.35146042354561474, 0.4110011323930276, -0.45288530110510333, -0.09032921462541223, -0.2850449843373487, 0.3101757609133084, 0.22000510923066935, -0.4714667387035642, -0.10781836053621115, 0.36471772698569704, 0.41804684110051765, -0.08841493713430303, -0.08438251331924396, -0.3849693470056853, 0.32485095586940027, 0.007518230269586423, 0.028896396388045642, 0.32226219430634684, -0.13025945534662697, -0.013340939255858109, 0.04784939406555078, -0.06033400280278556, 0.01356447157778451, -0.013553945509829801, 0.24490504047651562, -0.20607753449919808, -0.11129184080433996, 0.08859289636752965, -0.4765284914167345, 0.06332291179565674, 0.20333996846834845, 0.3811525166699484, -0.46097289891260407, -0.4600190519717893, -0.44865758707977044, 0.05254039742609373, -0.367983320630216, -0.42616614990275015, 0.009820498610678463, -0.13209354848779198, -0.2775877998346308, 0.20658607896961934, -0.4422485493849332, 0.37645899985296105, -0.3212056918900509, -0.41756896451592074, -0.19877776618393062, -0.1684131058464965, 0.3704344730017981, -0.042913485409739494, -0.3882351617966805, -0.385216968522583, -0.20815621111261357, -0.40945228017007224, 0.31382906348069234, -0.3373818717757465, 0.044421936833988124, -0.05476264055968907, -0.34533314829696976, 0.040535059060237, -0.3704174575329155, 0.3682464269835212, 0.47106221786149427, 0.3259201874023511, -0.2656007657526792, 