{
  "columns": [
    784,
    15,
    784
  ],
  "biases": [
    "[29.967952967696956, 26.95349635883475, -34.87843379618018, 26.070895017181645, 24.832099974811573, 26.139446244536455, 24.548731799123107, 24.57025684488931, 84.53412385971747, 34.8302976036791, 29.27277763504004, 24.99728381591888, -15.29242363460103, -23.233677788583808, -119.11326646028004]",
    "[-8.490283621881654, -7.623330291208457, -8.229858200715197, -8.064727159200364, -8.198056740028884, -7.933136374908941, -8.241109482812329, -8.641890900587814, -8.534854968396802, -7.529834378667515, -7.542979345948538, -8.189496495728282, -7.851278462421371, -7.709694045043702, -7.397875571915577, -8.023059139996654, -7.469785114618878, -7.678005106535384, -7.414825101984881, -8.417779330839096, -7.7447191505777955, -7.5052213604439455, -8.134427976758834, -7.703837736254292, -7.347488958126551, -8.062057558541488, -7.544984396130556, -7.43410429206982, -7.802363145012942, -7.160460268317258, -7.848691417559843, -8.370613425599467, -8.357333540886415, -7.8579970303998765, -7.768346441118058, -7.687125445084664, -7.513823894898928, -7.966158976770193, -7.276532076527279, -6.897108558369936, -7.6293640208430356, -7.859129548504994, -7.778350346692367, -7.0966657109040465, -7.935455540652625, -7.901869769867443, -7.015251708970371, -7.74204248293441, -7.6832915058662685, -7.83061968117832, -7.732440897991344, -7.270492611651847, -7.82256757565966, -7.860838200582447, -7.769333168476418, -7.366511348741778, -8.374700960336734, -7.747880367359611, -7.86691267373101, -7.66358831934404, -7.427762468987225, -7.939016988644233, -7.326803823617306, -7.965206625759619, -8.117480878590456, -7.012093509089613, -5.472116331260051, -3.0618062596210756, -2.6709309554836387, -2.334760492090069, -2.2455399368491107, -2.090502245647642, -2.0000235051523654, -1.80681183873574, -1.7807307200494338, -6.362722717933158, -4.835008010388979, -7.575169904304216, -8.280270229639498, -7.4982857042397235, -7.808203233468827, -7.743143767385921, -8.576606538400613, -7.376260862226824, -7.818046566751111, -8.13841013533603, -8.359533603537487, -7.16967939225719, -8.776202165523276, -7.178941644026042, -7.5950140742347605, -8.042058885998458, -6.925248425554622, -3.463332519507925, -3.4863958480052997, -3.13208068316418, -2.590536932406594, -2.2496500676962223, -1.978145164884846, -1.3611975004156578, -0.8362360941976213, -0.5172357026751396, -0.17173115162936703, 0.020192758165592694, -0.2295640247164475, -3.852643068796996, -7.060371788839066, -8.385491076582854, -8.19967741759692, -7.423518149883434, -7.271587049878474, -8.107115185056728, -7.157374045337485, -7.763789661286523, -7.0293752050810125, -8.107822631356886, -7.841317752037468, -7.134203149614597, -6.958675747325579, -4.390136287394909, -4.450547188525449, -4.460950476538566, -4.333491851756065, -3.9660100542917207, -3.199401021398872, -2.4432430870437014, -1.846464500224162, -1.0538787047499623, -0.6295538778413323, -0.30594110759753235, -0.13543771285818923, -0.16588257689978, -0.9673525014403331, -1.8844826017934817, -2.546344073995813, -5.710486781778914, -6.853069261272565, -7.092431317697189, -7.365244227548715, -7.398977669072822, -8.244300682379954, -7.73868660203738, -7.334775750587444, -7.875086095684371, -8.032270733832856, -7.26151108919538, -5.003043500111564, -4.920540815157033, -5.226187890094912, -5.336354513747564, -4.732160841397393, -3.985203423417415, -3.0365265850951855, -2.1461864315781622, -1.3093749868849345, -0.7179125921858257, -0.42351916476193685, -0.2751802389295656, -0.5147165391867935, -0.7543362398774702, -1.2387429269966739, -2.320838020777412, -3.514771238861998, -4.559279920311014, -4.5774039644685445, -7.221795826970955, -7.621082988110237, -8.091530525449997, -7.5589721268886905, -7.870476805588459, -8.239565900503143, -8.31630781283252, -6.868545261887322, -5.958651702129695, -5.597298755341306, -5.7371427807336195, -6.097817205254494, -6.017061992633814, -5.300922345073088, -3.3830481059779522, -2.2818592608525936, -1.6008632446151396, -1.1091210930111464, -0.626109329830481, -0.4037559352586447, -0.5247203478679751, -0.7884530832412123, -1.1498087159017458, -1.0805679872025975, -2.0829261747205567, -4.225640697383567, -5.866592089967554, -5.945306193116969, -6.891060581655025, -7.808179917587363, -7.817332248465263, -7.189798242678594, -7.625619262234695, -8.40647121451467, -7.522956638794302, -6.058132606719726, -6.0871840733251625, -6.275949578663156, -6.64703573096771, -6.286386362729236, -5.454531733791973, -3.5958229609156134, -1.9923472429450486, -1.2937328696316783, -0.9073618553824088, -0.981936465425323, -0.6113842427466025, -0.3698903095204936, -0.839629437459211, -1.3682587481945898, -1.3883895230342147, -1.9005546799270685, -2.7682064342447767, -3.7597086779162, -5.393510891509377, -5.673494814640975, -6.1012345220925335, -8.246478299095026, -7.91153319077473, -7.809949749268308, -8.00971056081328, -7.09869683862184, -6.901897372215973, -5.679757138149025, -6.863522038550684, -7.024193565423857, -6.699528090000652, -5.9737737693442785, -4.247568073994828, -2.420624964970289, -1.5916010418811324, -1.0552255292720707, -0.9143421310659005, -0.8587616268213569, -0.6399076907590006, -0.3903147433866967, -0.5636499600210442, -1.4483090364003814, -2.015149133284132, -2.449926009786947, -2.7708753336292236, -2.628392833873152, -3.4387007944207113, -4.4659296442053575, -6.752598519054262, -7.16143034946787, -8.185339199629238, -7.537888998281591, -8.164016455718349, -6.8194037351365635, -6.434639605685337, -6.462676060690463, -7.104564445189898, -6.637510766911586, -6.0742895468268285, -4.620713255914424, -2.8136379214476195, -1.620238472532116, -0.8818337647825453, -0.1819313147563217, -0.454846213162881, -0.6206824752908618, -0.5454368890805835, -0.40741894351704777, -0.6491258184387815, -1.7454852865427437, -2.444161757861652, -2.7839991055750306, -2.409467414217587, -1.7216777276431048, -1.8638159418646372, -2.8475625297167126, -6.9438805656808595, -6.883727572400173, -8.042850209095876, -7.01482520574577, -7.388450500638758, -7.469103192944927, -7.1570031978753565, -6.102477723295122, -6.452116106728693, -6.009951774001613, -5.311636880372046, -3.1416652881670637, -1.7108144626426551, -0.7496467298189647, 0.3211884641203319, -0.006772131269097219, -0.5533638679414621, -0.7612157823113881, -0.7760607943883353, -0.8739019104508228, -1.4479493065079194, -2.5029059394644175, -2.8766978581240323, -3.167394031168703, -2.5661828980893184, -2.0270159662191065, -2.127225786126353, -3.1695381400805553, -7.376967798695155, -7.578884146279427, -7.370651498312289, -8.396526152001954, -7.3960836020632295, -7.035064990601574, -7.370468466196204, -5.0879233302825915, -5.793606566436808, -5.494152364256839, -3.991478283858822, -1.6770684795380493, -0.3752934980963417, 0.21408807215404427, 0.46247978389536487, -0.4021649588307228, -1.1528546053968542, -1.3101583302322881, -1.2671144817895823, -0.822774096056596, -1.7886724537558305, -2.7480099510171385, -3.026164488459681, -2.860385912345221, -2.069823324550542, -1.8554736615263523, -2.7396221262127747, -3.463417714472361, -8.194044709341142, -7.02272555158748, -7.790312906019276, -7.62064449146001, -7.1198798683748, -7.48395325991837, -7.530927483929029, -6.8066980767647145, -5.29894065718577, -4.757783082148851, -2.282002735907559, -0.3024132485622684, 0.43855583256761665, 0.8622255845115965, -0.3702817186760463, -1.620381274996203, -2.672552678292267, -2.0818561355398013, -1.3726580203815542, -0.8694807063274649, -1.5711214984772213, -2.010797278031091, -1.9378780438942305, -1.8162947960805538, -0.9104171070022797, -1.09458097644808, -2.5190556448777968, -3.5998497623519006, -7.249088572536415, -8.20974956268885, -8.221066741506016, -7.758158145144927, -7.836755941878117, -7.057162756683268, -7.747780389307333, -7.096372511263794, -4.895353343922252, -3.9359754362391666, -0.7828479381796166, 0.828601185055826, 1.1583536744211302, 0.35562839891948334, -1.2607386306685304, -2.716120053120793, -2.837342529921118, -1.5072321527251227, -0.2610053850373411, -0.42475555846103824, -0.8017538339874225, -0.5995170940950905, -0.8078841758367443, -0.43872998745816644, 0.46239176084380745, 0.03467088370972146, -1.865557822104096, -3.609371618806758, -6.752537217327448, -7.277671444852683, -8.24256151090173, -8.028056687286274, -7.3545692229203015, -7.732149725190993, -8.080291936392385, -5.07564173961762, -4.574857277900425, -2.9341341249161026, 0.49350830091568887, 1.3867654015685658, 1.2439526213260068, -0.03520071719706601, -1.3201386064407397, -1.986024796406941, -0.9254557757923604, 0.11561760120729117, 0.599762837524658, -0.22092519730149443, -0.49316244644719565, -0.14360811620775152, -0.15017525430417075, 0.247976569348323, 1.1257401709750847, 0.7401973362658385, -1.0198726568592937, -3.3010412074385695, -7.114471046515483, -7.967644310644481, -8.092008454773936, -7.729732097633855, -8.147842065556329, -8.759623284632694, -7.905579936762485, -4.446287246300494, -3.8860478022587612, -1.4125247490060167, 1.3564938973079927, 2.0981234489050666, 1.7964180308970537, 0.5198912821375017, -0.4396263449743462, -0.27216755325746206, 0.6698619785743569, 1.265743354277005, 0.6620530127009897, -0.39760654600401785, -0.313300909522551, -0.3159774525608718, -0.22407733428921475, 0.6571630430787562, 1.1627342224627788, 0.9827936509280832, -0.9822311033526191, -3.0343006905090517, -7.30240018197239, -7.642772877637114, -7.655924480141387, -7.706138603590012, -7.566266021686726, -7.417424682247711, -6.958855757233667, -3.7933293146025564, -2.794724327814528, 0.1353663787087298, 1.674506778424995, 2.4077366580625, 2.3351173044870994, 1.0705571348847245, 0.3691685552450263, 0.8817928315814699, 1.334389846860303, 1.2009079384186971, 0.029807827621126007, -0.6957580470396928, -0.7995833761775968, -0.522999449585088, 0.015673471311364345, 1.0413837454526973, 1.0785359139040231, 0.63514745440954, -1.605423375158654, -2.9587132410501638, -7.396584506246179, -7.419770391017477, -7.9645481613808355, -7.86699004662225, -7.093573895107487, -7.545463369232796, -8.27769580773683, -3.2537408118702755, -2.2321774610622462, 0.04417133147851046, 1.334482985078463, 1.841763155798346, 1.8656396157060604, 0.9204485705627101, 0.6325664704694796, 1.0606899588350887, 1.3697694834356051, 0.45502008725264176, -0.8124128955851818, -0.9154145762591063, -0.5812575690653151, -0.48086048000159953, 0.3851758447305829, 0.9147128567880636, 0.7521337509834457, -0.3415953533354224, -2.3578174508236303, -2.9391282222758273, -7.375751102806561, -8.604868840257266, -7.76660491127582, -8.021465188000512, -7.919164109643891, -7.336957317858455, -7.647167764320934, -3.1076935533159786, -1.9976485512807125, -0.3130141615066601, 0.6085634754788222, 1.0969124373114376, 1.1316808782404482, 0.8913057894023025, 1.0487479267354272, 1.7306307006492245, 1.7705145482718396, 0.5928613715653271, -0.3085337507365505, -0.18255330952941173, -0.1688972643922518, 0.04038260896284022, 0.40571993385365857, 0.28442621397763695, -0.5632276182108233, -1.583622342332417, -2.9938473292811576, -3.4204723105638077, -6.457170121450849, -8.358506930547481, -7.888629527242555, -8.290585664492266, -8.058563555641472, -7.837731127112037, -7.509068536482582, -3.730945617290766, -2.4293992964297844, -1.030849256490303, -0.10831199617564277, 0.6673243452640208, 1.119764749670875, 1.73998939556075, 2.252345815803336, 2.746242564761006, 1.8865816037808731, 0.9696003068231887, 0.5608065216797542, 0.40209338713739073, -0.23881887656883063, -0.15546845311800825, -0.8658474134418829, -1.275870390712357, -1.914013943915436, -2.954873618775848, -3.4470089787612985, -4.180292747044364, -7.162507171667393, -7.216145095291019, -8.187069722943507, -8.26235209763585, -7.952274253018177, -7.62171100690768, -7.531252591556763, -4.3283234751970685, -3.0789750534736937, -1.8321161814782234, -0.9687798181993698, 0.36519523633956985, 1.3025984156751942, 2.1084393115332105, 2.38067823384115, 2.1761702958054063, 1.4998963409026447, 0.91131800211256, 0.31641208374538365, -0.6441212047765539, -1.1650965991241256, -1.61898401244649, -2.140718938403438, -3.288412812761275, -3.735039630315744, -4.321015059062851, -4.580696993383287, -4.401826179215796, -7.013077522552165, -7.551313606384211, -7.9369247557469365, -7.602938740299414, -8.12142038024795, -7.415756165294589, -7.256964284066965, -4.779230152883885, -3.715708560217821, -2.9300207300329464, -1.7402278914673648, -0.6277054149894983, 0.522833233484624, 1.3360506860484194, 1.4166491285928824, 0.9329196602580192, 0.2966134595243215, -0.40976465024598513, -1.2828517458130813, -2.4005288708535004, -2.7840946551814008, -3.0438072641094798, -4.388546560547185, -4.873086742427024, -4.817916162539714, -4.925183867170789, -4.66439789222169, -6.024231123898617, -7.359177082021417, -7.585389426520691, -7.917052183423134, -7.789184494280992, -7.849430925003656, -8.134219629621844, -7.920115214635555, -5.047012265523892, -4.353269997435668, -3.493978160053571, -2.783168695849298, -2.368627779999767, -1.512772425357747, -1.2010982909168886, -1.273676277136903, -1.6105725105617936, -2.199584765427476, -3.2142951418724777, -4.251713601764719, -4.010916563645077, -4.0142886077872175, -5.165228382366834, -5.6735975759683255, -5.490129101406483, -5.042349917663236, -4.563819956892404, -4.633181507203262, -7.955420953400151, -7.643314616629061, -7.42748730292216, -7.50746285611165, -7.439055080909814, -7.785142643460853, -7.270378421930632, -8.099078794838894, -7.646963278164116, -4.999029894522189, -4.2579971488917865, -3.2880005055636112, -3.265542757603183, -3.3926562737470976, -3.446149924177178, -3.640443704145803, -4.128571622359696, -4.250435972161892, -4.502754351050583, -4.591226606159379, -4.452981983777324, -5.212038788995587, -5.773429406481201, -5.973982667352887, -5.275660174936996, -4.2894682729556415, -7.0912757306466645, -7.75777729426569, -8.44490565455522, -7.899843429952769, -8.045490575346136, -7.613494715741098, -7.513475785703338, -7.297098096768598, -7.405776609812648, -7.41725917627002, -8.100974548413463, -6.980082984868708, -6.883047045724393, -5.9012276703720845, -6.485330687246918, -5.96775186628285, -5.947137843937633, -6.385971451919462, -6.16549574862288, -5.9716429304810825, -6.203775227882566, -6.4510110276862225, -6.694405941211075, -6.626049351802767, -5.716479058725224, -5.424753768289791, -6.461850398182315, -6.892103628851355, -6.97116826359339, -7.563360917097775, -7.598892807743732, -7.984487815488163, -7.89065263217726, -8.242195623886888, -7.447303437134032, -7.731908884375032, -7.53240603134558, -8.080505735999349, -7.919825570816632, -7.130055987574714, -6.907252128177076, -5.639373064539157, -7.908725319426314, -8.538222952792577, -8.744255327032054, -8.620290789739046, -8.678983743437213, -8.797167378767266, -9.029815620215025, -8.306524438252628, -7.106825822457383, -5.837004456300426, -5.166717900780867, -6.648014278401456, -7.488108234346942, -6.870964834024062, -7.678882780950011, -7.9262585657553135, -8.041724192399261, -7.635941266520834, -7.38914622863864, -8.041575398869728, -7.766326835751658, -8.29287122838938, -7.574641599580996, -7.703645138728456, -7.686777611412915, -7.7957293828910315, -7.706540958641075, -7.203984718225535, -5.2136884877287315, -6.437409957113342, -7.175469505066795, -8.230380809213989, -9.257390014496673, -9.372981253753299, -8.388944773100558, -7.16371450218261, -5.972842846102023, -6.50612029829432, -7.534708172802064, -7.32023023822968, -7.307834617418195, -7.2993382637176705, -7.797062973934977, -8.301146621348966, -8.300183584216906, -7.396099321019673, -7.065727926973531, -7.990782699457147, -8.433418697461246, -8.196133393462858, -8.06414798733343, -7.583440177246769, -7.911955132108534, -7.994383665580781, -7.189750339005015, -8.169606341505906, -8.30076900919614, -7.555389048152147, -7.687624007857649, -7.220907483996199, -7.099677185553883, -7.344916264043729, -7.839381587364541, -7.084800714921025, -7.505421834871679, -7.994201157536658, -7.090388133846003, -7.196739173835384, -8.468004889762158, -8.323827585045091, -8.190582483799519, -7.952133666227549, -7.5486544970145895, -7.7893443834926765, -7.493903253821404, -8.039629506434101]"
  ],
  "weights": [
    "[-0.1105412500130003, 0.4005828777039693, -0.38121394584602375, -0.18484852470193613, -0.028291860809961378, -0.3723901991419465, -0.11069315208646624, -0.17212147292251767, 0.07303178530016396, -0.4657907605972874, 0.13140585636390933, -0.25046621194398544, -0.22459655037241522, 0.3792052566605385, 0.4870333528429759, -0.42626506402299724, 0.0592401248108132, -0.4951049207682936, 0.39431665888738066, 0.32101840847275187, -0.013323991118318057, 0.19489325206460628, -0.4317276281649276, 0.22082378112585954, -0.31535909013142405, 0.3079481880239102, -0.401835865233657, -0.06701059415281296, 0.12070457076870877, 0.36884111274947773, -0.4029136647379684, 0.3649088866698892, -0.09319250436467341, -0.17757985667783152, 0.46608140877244497, -0.13542840228615305, -0.32224897010067527, -0.01109086968591357, 0.3627094755420231, -0.2641422309195834, 0.4507082862881463, -0.22414439656854815, -0.07243525835050868, -0.2393396065135101, -0.2687423502578004, 0.17335635278522257, 0.12018144800579857, 0.22749771885632208, -0.38172795972294293, 0.3863611354033879, -0.3635653285768299, -0.4423075323883301, -0.3388514461755152, -0.24862886081263813, 0.2189305948285617, -0.39918893643134823, 0.07310828509874912, 0.43232271783765186, -0.008409301322627072, 0.10115978630763289, -0.3014468818650129, 0.01031942591478834, -0.1748449937383473, -0.2530976647242722, -0.3747580218546897, -0.5206646083258957, -0.8607717968027248, -0.02883473329222917, 0.6372527367504675, -0.42534293298391657, 0.0018662621198549526, -0.6776389695329431, -0.6264189408161861, 0.09740890435705336, 0.09997901894545466, 0.042358193382739995, 0.17906208372130608, 0.013583448264830445, 0.434950444922128, -0.12526712235808496, -0.0662209483934859, 0.33650635193126, -0.40275457017390026, 0.04314194424349738, 0.32760226203132536, -0.1179263248587229, -0.22210290614487838, 0.23257257926971808, -0.44132241547625656, 0.07188754645092481, 0.08399967087670529, -0.3452554191167934, 0.2837345240819579, -0.22574970758540783, -1.2594744857843532, -0.6785469980223741, 0.022113875411719216, 0.5540583570141779, -0.259555195758881, 0.7861373167503782, 0.8372287997397692, 0.7965945711863509, 0.5769102246309805, -0.008855956178300874, -0.39942763628022815, -0.488341481438974, 0.00039925196950912597, 0.26491273417699635, 0.020100676276345694, -0.10858642975100842, -0.44764188720676396, -0.07556697334673079, 0.3204575943580974, 0.45684401995672874, -0.044233581714903436, 0.33164712272499686, -0.2765420973651682, 0.2855639169541871, 0.33237313265875384, 0.19629476748641295, -0.7487940286480438, -1.0463422033561118, -1.2361911289147849, 0.12986765800561362, -0.6606490562799993, -0.6494115614002278, -0.9013698325519082, -0.171959157612812, 0.7852478016898063, -0.05487521669957464, 0.12235272062105368, 0.01725340223999484, 0.041769399401886655, -0.16583754801917952, -0.3898697548256898, -0.8149094134409361, 0.2231236360543358, 0.2390392367801522, 0.2701084102780759, -0.2692140904548398, -0.2022853326354992, 0.27624457502005795, 0.02161269832118101, 0.1368371787442182, -0.15013788748302848, -0.33655044528895317, -0.15191202638255452, 0.3249274054307183, 0.2447794098859968, -0.13837836659814615, 0.5055263123355839, -0.7059228055180781, -0.13358364940899267, 1.1237848727728765, -0.12686397340741487, 0.34317753686272157, 1.2675823852618227, 1.205599831109413, 0.8889289289095385, 0.22499837425801397, 1.535502360946522, 0.9445457198003433, -0.10983999700990577, -0.5838930361190554, 0.16838605852709082, -0.05886667593484511, -0.2747409489318927, -0.14391501081186264, 0.4092372030618111, 0.28933427958527536, 0.1865239724778644, -0.5102470149917675, 0.572301948827963, -0.0991572594547713, -1.2992016934313988, -1.0869147067578073, -0.6646312353828402, 0.35207413888858713, -1.222159068609701, -0.2824002711368938, 2.060256149632297, -0.39827902926309555, -0.2680483825683103, 1.236739923854541, 1.1876439793959979, 1.6580296239542518, 0.9027569887093304, 1.2413941654844312, 1.1855702201539764, 1.0752702680128534, 0.7722646895348166, 0.1467259077583637, -0.9519531855293119, -0.4799590189118371, 0.1778831964620781, 0.21132106801380704, -0.05367891824317739, 0.05058732369738162, 0.42838278834498367, -0.04865712412769085, 0.13448880722311068, -0.07337706905723296, -0.2413536394689715, -1.361854071071641, -0.7411726105338302, -0.9073136969565079, -0.2175420896869849, 1.2886022050823103, 0.5149666706834501, -0.08248148138646672, -1.0706419976699377, -0.25064367385349584, -0.9819810978466099, -0.5810485926276386, 0.48259927290411986, -0.2683954695778903, 0.12166643509836673, 0.428016546684572, -0.3072995594970268, -0.937828592971263, -0.12189395023394582, -0.8245107835130497, 0.15853887219095536, -0.35849612044211354, 0.04300560499152373, -0.11177029482227123, 0.23435792501778605, -0.196774320019268, -0.5327475117654512, -0.34736932843860335, -2.2016444182367603, -1.9854983359006892, -0.4693025023848958, -0.43975360689709403, -0.5028502941435212, 1.5623059790536074, -0.3427024791192245, -0.31339020634487336, -1.8717977939658559, -2.171799118279701, -1.601245012908285, 0.31542597237491615, 1.578377803739448, -0.04434455388341599, 0.7399334340458809, 0.1656767045700454, -1.5599065783735628, -0.07892049403152422, -2.0492437454744667, -1.5085037869296958, -1.35460891586983, -0.07877370800773094, 0.1974733811099736, 0.355979051231805, -0.650968675662387, -0.28664491323505403, -0.5525523856112492, -0.9301140148655118, -1.6234520721793528, -2.106869509857095, -0.5610149859922274, -1.1471330112475542, 0.1296301928027029, 0.1518121474230908, 0.7225639749202389, -2.0470296378502186, -2.7382542307762154, -3.006115612408754, -2.1037073406728064, -1.0202915562571135, 1.3043308124460755, -0.05052795497623594, -0.18855364519820317, -1.1246576952707996, -1.6910384191356274, -0.7125441384409148, -0.7264789107432069, -0.1582692894921667, -0.8409811099452681, 0.37602740402023793, 0.2714937610191046, -0.21976305487526793, -0.02453175621844608, -0.398838017490491, -0.4095826779310715, -1.5865950590509543, -2.010474070708542, -1.1466169455416475, -0.5596167106990454, -0.8450294301311373, 0.6809977614278151, 0.7326696910442672, -0.7091936135691465, -2.5729157040455988, -2.712544437307117, -2.3722638828869638, -1.75290243315817, -0.21066956229729877, 0.2386105180802844, -0.02828224328392742, -0.40055743142462524, 0.39881278389574204, -0.48934828703122546, -1.1403441636234066, -0.19814960075323335, 0.2469449198517209, -0.15821514898279815, -0.19874967136098184, 0.39314171038700635, -0.4384350258841447, 0.32084334065723813, -0.5194979794695703, -0.18134059771758007, -1.6568012015842153, -2.077495576464594, -0.6311472657386726, -0.20909041917166574, 0.4574308882660688, -0.3856967168922685, -0.3452840856550841, -1.0775551347674823, -1.4261327925525646, -2.832058921569103, -0.9196093296839901, 0.0667984866335008, 0.4204517602199725, 0.6753186462577917, 2.0353884226784382, 1.246517264765396, 0.040575923895982385, -0.05478619890374906, -1.4170850175880956, -0.3375318406063841, 0.17102135799858498, -0.7704865771526137, 0.0853485290382626, -0.34275547039255505, 0.33516704167995637, -0.4288279847217234, -0.7288791735120346, -0.9441869570697148, -1.8535701205776887, -1.1351830591499639, 0.7125357759903501, -0.8289930578906597, 0.7045339988969733, -0.3028169230416771, -0.4579752143924118, -0.1511718801444288, -0.1262022470369055, -2.1268812930009866, -1.0447530338102884, -0.3081089019117323, 0.0907881876029787, -0.30079000731126637, 0.17069777901695912, -0.20184719133079634, -0.6512609528580368, -1.4930536583368663, -1.0004020094546304, -0.23124813402738606, 0.09290637493333713, -0.4239207085253511, 0.30051345811810715, 0.3895692075033731, -0.33487671003433234, -0.01026535509313918, -0.719775774879167, -0.20250525295986002, -1.5553560637205963, -1.5002537930881374, 0.4559897794243412, 0.9316960834857392, 0.7023736330387307, 0.46398569883895313, -0.20046698190481707, 1.0559516972616125, -0.3477624998557136, -0.7267515386944712, -0.42614406656763265, 0.6639973714536967, 0.8518445146990791, 1.6484240899683542, 1.8919211760219972, 0.8353865384357608, 0.8043813339088799, -2.1653936397713407, -0.46584567502377044, -1.1264988690213034, -0.04072007669754576, -0.1300662113329105, -0.09181887492372154, -0.04787439591606135, 0.05610843178312619, -0.30464585474187783, -0.43107260043882023, -0.20183888509771247, -1.0417043546343956, -0.7651695587950871, 0.13257298869219042, 0.8920577728068951, 2.3246898681114807, 0.9795653384986756, 1.4927890180724492, 1.3841642439844368, 1.6991704277175854, 0.9418265000786874, 1.6486634516669283, 1.0016754685799163, 0.9334486464731493, -0.18113700349627554, 1.052010434122744, 0.7409831169576515, 0.43619083122724495, -1.1728742370397922, -1.6354586735013918, -1.1102391588403306, 0.4599133914083246, 0.4946367986895263, 0.17257668444955143, 0.12948733941746016, 0.12512306014836727, -0.6160376440357521, 0.18804249749021298, 0.11332523563749648, -0.5099453203728581, -1.3488802864817018, 0.43733001777293656, 0.9550007837147086, 2.589845513719778, 2.642120569456626, 2.262428969206614, 2.844195285741594, 3.5028913311324055, 1.2025201650930284, 0.9182244744273709, 0.555399833749666, 1.681598259374802, 9.339570712212788e-05, 2.008082090200797, 0.8755269418810621, -0.4442793089665186, -0.7308282239262731, -2.351675692347027, -0.45025122610460405, -0.3742027846469658, -0.2802975443079741, -0.4535805548323257, 0.006628079080005844, -0.011206264174498166, -0.32748222450828096, -0.2514363163994141, 0.7438024573129989, -0.8090369686489244, -0.15414417429370028, 0.04287067449061156, 2.202308692989035, 1.9640390967689216, 3.3752354817951185, 3.0676965186458665, 2.4881033659349265, 0.6918290259217964, 1.9948666133361013, 1.7038891814481587, -1.3058973178829696, 0.19685281446577668, -0.025730432649554876, 0.10148787066840713, -0.10498274833299304, -0.706580178722141, -0.7658673195241802, -0.839979770978791, -0.6202919093922385, 0.5893865608509571, 0.14108061049461473, -0.2614793291731934, -0.20641800183419245, 0.48997859727961135, -0.702647157070545, -0.6618071300298289, -0.7927568469785667, -0.19090793838070097, -1.1964109295681846, -0.3626907654780514, 1.4821138396229583, 2.2279948528545317, 3.3096061484051766, 2.251322918753632, 1.0352829884861647, 0.4728257791869517, -0.6099669065990149, -0.8667374382508137, 0.5549771312549241, 1.1676137332674117, 1.0430778318752223, 0.4167716914579767, -1.1661144061072928, -0.25016066073201104, -0.7007165023009053, -1.043415607759735, -0.21292089252082594, 0.24519113008128, 0.13742150181519075, -0.034674105403510236, -0.1348668875933684, 0.35849718128244357, -0.028308779317096563, -0.7733172881659967, -1.0892032212102272, -1.1742299678843329, -1.5568493982151559, -0.292840544463826, 1.302326136791901, 1.3697988133130006, 3.1496792669709417, 2.0298925965868, 0.35463931434083035, -0.7984052720980288, -1.6225137964879475, -1.6044020301040427, 0.6593539076622347, 2.3882640301048177, 1.1206129245750904, -0.7087880282631432, 0.668832213798671, -0.605101551436178, -1.5377786463867777, 0.40625862004281144, 0.15398642746246788, -0.5396224464101267, -0.041458073171343084, -0.20326095968680014, 0.44392436036997995, -0.20465508099628035, 0.2744334097773658, -0.8641416695647121, -0.6933859580507314, -0.6267273268691885, -1.9391706417118404, -0.6109302328993014, 0.5043874244682598, 1.574221917602436, 0.6818977085291682, -1.532566371101192, -2.529629446664305, -0.41558255274085826, -0.3965353665506201, 0.027637222639782216, 0.5220937712580297, 0.5591510427083237, 0.8006282308942734, -0.0001467230602962981, 0.33806415332152817, -0.8515917068243921, -0.8525597768417471, -0.08864734447989354, -0.2858524119701059, -0.00612898838357644, -0.1109362639002747, 0.18198790828261174, -0.4712243878768916, 0.09647914542989587, 0.005585235957251383, -0.3018226550157928, -0.9057379186636224, -0.23440557267170054, -0.16482289135599684, -0.8675593881764022, 0.5885406487350566, 1.7176645729388478, 0.9083384970752678, -0.31170320543272095, -2.2251006073616155, -0.18833842172605345, -0.31402573831400404, -0.16708438587783442, -0.4422611011412667, 0.18569138067718347, 0.09385803908032661, 0.6650636807617566, -0.31695848725681464, -0.3655690693951467, -0.6126981809067646, -0.6079709612243576, -0.04554103154318348, -0.3192503476240503, -0.42418276614785105, -0.4721355324354105, -0.3291507980805801, -0.17147441295673727, 0.2987406368050816, 0.11723910583647154, -0.16642251961793492, -0.3728617890441891, 1.0301140204587016, -0.32923009304299145, 0.8451156224089891, 0.40504407226955735, -0.007818618684583488, 1.2440514489099184, 0.8829042473389145, -1.4102141096238225, -0.803257980539255, -0.579377705237496, -0.6344376843743624, 0.6205070494516142, 0.5706397172863602, 0.1789756588354088, -0.5888109440929348, -1.269724627933982, -0.8462532038698108, -0.5116223262230738, -0.4706593233279834, -0.3007337891059175, -0.47021188425007915, 0.06981970416900873, -0.4631189797279872, 0.44208433063262553, -0.19018274455317916, 0.14821026308482926, -0.26142852567226377, 0.04397749499896558, 1.3367079861156952, 0.6685042665594343, 0.8177774375535928, 0.14916642821071704, -1.8140952857876724, -0.6936455897214279, -1.1329794247595326, -0.40028268192687255, -1.203301494662995, 0.34977400230898187, -0.19753408508579717, 0.37639876486652374, 0.8189199222404199, 1.409523103149388, 0.13444144590140225, -0.0013110689870641824, 0.07438126283787067, -0.3245794283300688, 0.19254412673842902, 0.2609671011913812, 0.005474742202115248, 0.13744469187952113, -0.49494099941962244, 0.25459426882596703, 0.20099816222726907, 0.2423319463957526, 0.6486368176272852, 0.586948476624642, 0.7822355625978844, 0.48053019502327615, -1.0499910040953584, -0.6720997222248858, -0.8341018212053828, -0.03404917786730777, 0.23488776220410032, -1.6710026052605995, -0.4960758015130829, -1.3002570073704702, 0.07245291842440214, -0.3358549471498424, -1.0366325141750483, -0.6093657323032873, -0.5985866715177429, -0.5870634085282821, -0.6772455233918051, -0.30172245277312637, -0.226625546855012, -0.28346319218229393, 0.03600297587649793, 0.21563048412597952, 0.07677594861780623, 0.4242758316663461, 0.1827562564611036, -0.33626005173076856, 0.6912716314114342, 0.38661546061890745, 0.3450087398914719, -0.6394977110724541, -0.8354298201610589, -1.5593005264286537, -1.2750924896755202, 0.14179219072775892, -0.9890539181073555, -0.9043554499282733, -0.0936712493725105, 0.024212823513357254, 0.6884210276510299, -0.2520532493128493, -1.046824976714778, -0.8663829329862427, -0.1062226651829931, -0.21093969648632985, -1.089636305529858, -0.6062510444154348, -0.04386554184919448, 0.36055186381960297, 0.293857922131451, -0.2574501860820816, -0.13375428081026353, 0.278264285254915, 0.18330000589728268, -0.43515489161309223, -0.13025852779802555, 0.14466878084732188, -0.3760356289366657, -1.2307512662449802, -1.355836136539868, -0.821263966436347, -0.7670916631865914, -0.5367594091196709, -0.8531561006573625, -1.3149992936115633, -1.7406883680138325, -2.0390366045499206, -1.3045595436340005, -0.6682555024990287, -0.5092413055224144, -0.1866466552600605, -0.4633911392972535, -0.3331870415668681, -0.7784104762955366, -0.5373836245926868, 0.3793631571824173, -0.0015773037423966346, 0.4367519151610937, 0.042626925929691084, 0.0781523873526696, -0.3328612829125994, -0.17915709246074618, -0.10762065402710597, 0.25114632149951976, 0.020575219113113573, 0.02331187064039696, -0.6736819673927961, -0.06343031573834845, -0.46651208450825066, -0.5481542493455018, -1.042117628624789, -0.988984384543036, -1.3856718607355896, -1.313543740335877, -0.33203257639782824, -0.6855024783129351, -0.26276151651174323, -0.13098235681278714, -0.312049216152353, -0.34029211142478477, -0.1349112184306575, -0.1926345145645967, -0.08867232746835849, 0.20601149508859964, -0.30707776377061735, 0.3968036707797553, -0.02148272983477495, -0.07987651591633127, 0.16026130092581892, 0.4027424936816669, 0.3058424774478552, 0.1391317754662038, -0.41655075694313615, 0.20461686740189386, -0.1505840625591243, -0.3216587172000387, -0.176681357789529, 0.1332952598942335, -0.07980144662187562, 0.022686639436773307, -0.17016918099351366, -0.7297144145074244, -0.3619595580044963, 0.3556548614296574, -0.6803898946284985, 0.05115569613676885, 0.0454938285127417, 0.30331448410505957, -0.09025802712618938, -0.15015607484101134, -0.29445794469086417, 0.13661739949044793, 0.4105763808663536, 0.08430807337044022, -0.25876093354519925, 0.044270855413592214, -0.17633128808025778, 0.3838599990769067, -0.45561877482125623, 0.34463667206084403, 0.20650292654488056, -0.14088875677301138, 0.2916808065873294, -0.25739213576571474, -0.19150683729006068, 0.21927146879876647, 0.2754569907176585, 0.3964687935234802, 0.37783408750710423, 0.2784856227958964, -0.4505912192743978, 0.4718486151939132, 0.03437859189820369, 0.40089084648103834, -0.1494630112340668, -0.3786858665848116, 0.38426722116894085, -0.3124289849372076, -0.15846470970623394, -0.08123883413707411, 5.602227921541747e-05, 0.3233694365052604, 0.38698177699843594, -0.2821157413173413, -0.06783107238113761, 0.26583716382565137, -0.4973277434535406, -0.18803264506630635, 0.40534079841163373, -0.08064441057370417, 0.44551349063438556, 0.017348875124464952, 0.1970918136078348, -0.28579179881689615, -0.0750800716014525, -0.327070674393055, -0.12246879719575929, -0.12731138688713425, -0.10737887631340731, -0.1094619564355665, 0.1863674050618909, -0.3840605392186876, -0.20856463481576504, -0.04288027031113224, 0.34970291396696485, 0.391450323576471, 0.1375990618134253, 0.22611815729378493, 0.24933788075899832, -0.35583099600416823, -0.309350612138547, -0.16498655462625178, 0.11465031485339805, -0.09120243693979269, -0.06930070772768182, 0.0981554209513037, 0.09035403083526401, -0.2212858908403395, 0.16676444650044683, 0.2647197989327172, 0.16439008209708414, -0.09351073357037226, 0.48411230444547204, 0.015102999203289056, 0.14077485098426823, -0.1775996638178943, -0.23789409681744983, -0.16284449508141463, -0.017013107590034982, -0.34389657729948686, 0.24318915543959138, 0.40047087180683066, -0.09502133142168052, 0.38531575511323685, 0.2670436629216725, -0.44476510550045595, 0.19543170770520857, 0.3222538425356649, 0.09231412099376979, -0.14216743253723851, 0.32195259041012425, 0.4129283989260788, -0.1580535244550525, 0.2873359384656135, -0.1392249223094108, 0.47791140993611514, -0.09380346939275297, 0.017639185522332245, -0.0074020122464044675, -0.3922209623416841, -0.245869122878442, 0.13767181520724595, 0.12867406334143344, 0.24699871464165826, -0.45074174657142524, -0.14054235712683627, -0.10328764976745462, -0.049055716669461784, 0.4068528659860914, 0.0427329849745708, 0.18573618228702102, 0.4377628871263904, -0.3708562632763495, 0.43628512745329484, -0.24252030080142442, 0.4329381814266436, 0.22191940046916214, -0.02179148954733834, -0.0612100791261303, 0.041410219998342046, 0.4410919141570235, -0.07240658889922723, 0.356756270779067, -0.22337223058299838, 0.4641686118510253, -0.017319507640108932, -0.33101588354207556, 0.16715610493697947, 0.07573663071232282, -0.24738665418678038, 0.2967560735946876, 0.44232959806747213, 0.4393231579002765, 0.48956663954714297, 0.3051292993201913, 0.5446591564420254, 0.02132706411318907, -0.20708897103159657, 0.40232592727508604, -0.04550699314521674, 0.35015989481220844, 0.21028179254312676, 0.47805007796124377, -0.4942162777499429, -0.2478484405196837, -0.4330260874603633, -0.365121922285504, -0.31569304581800933, 0.04393483186266593, 0.15797762951118738, 0.4611483340851379, 0.168921487545971, -0.2354129172479766, 0.10682639450908785, 0.22668426883327553, 0.2828101607340167, 0.27785921258260565, 0.44842935018312036, 0.11407196314291912, -0.16277046966714026, -0.09833599634348722, 0.6109035993463166, 0.045132872758479554, -0.11834275927400142, -0.12799514708328597, 0.11091396082958242, -0.24998060394747754, -0.36379761507284497, 0.4530637552417329, -0.43547523765130525, -0.24337559554317856, 0.28412268000444874, -0.31949063589176363, -0.24577296468793342, 0.2287254552962127, -0.4037088032384662, 0.3145796175740578, -0.41696919929839255, 0.03712057926366144, 0.08469742575324272, 0.33850467533917544, 0.12405564843883927, 0.48258177151154086, -0.15922239266516697, -0.11513271196341669, -0.195906745920247, 0.3983167948474195, -0.21192798488924297, 0.40970729968753217, 0.10641769515568307, -0.30921618536374806, 0.42842378351866955, 0.037537877424266244, -0.03274193806747608, -0.2805459604971671, 0.0013798865508959065, 0.4952799205149262, 0.49033313798118383, -0.3892485920555984, 0.2896199157030815, 0.38521774788758206, 0.3557994856637767, -0.37878009045937217, -0.31679398940981385, 0.4954018514280788, -0.43144280154093956, 0.4994961329781397, 0.38496936754685945, 0.01945124750071986, 0.2822528496205439, -0.22643665146732916, -0.3237344262858878, 0.30272847544418013, 0.42895352095612305, 0.3537118747958071, -0.0386227605651698, 0.192327959218803, 0.19047030951135704, 0.11208939983542317, -0.0675788969313704, -0.16551128492310108, 0.5206068128270325, -0.2596996210502461, 0.5293495166134511, 0.4268612541435542, 0.06888565041411533, -0.03502550722414187, 0.34148712618835275, 0.35974544590904967, 0.3508971306091624, 0.0369654874994443, -0.37199742590521423, 0.3709340958913193, -0.22583850537735856, -0.2021566499909986, 0.27032628612563014, 0.5032267458786746, -0.2764601431569084, 0.5568872045210839, 0.14408604478272072, 0.5693656718053955, 0.21814038606045202, -0.1296369868388307, 0.6061247227154037, 0.6173161758447502, -0.0677359067423245, 0.3318954684051784, 0.5923671045022336, -0.1862525825990894, -0.3106415882666904, -0.29732549393203045, 0.3077778485554184, 0.48238972007718495, -0.17108466072125963, -0.3366202167232541, -0.06037233073530024, -0.14940740855453344, 0.396136627263895, 0.23692587721770778, -0.18189167529674724, -0.11535573889023579, -0.36563043081294705, 0.19580709980492308, 0.48424293971644533, -0.12017837324757584, -0.2669380318901712, 0.16962939599260152, 0.5901700481498474, 0.42363109984700703, 0.27656142705528475, -0.0803099770619402, 0.12612226990455722, 0.5189594538535798, -0.0772608750112447, 0.29277378960819583, 0.38219725821777073, -0.2681258265166317, 0.3903921888255619, 0.4001855229288946, -0.05379566713985789, 0.06713135898490326, -0.1871182703637871, -0.24332846727383464, 0.33632417293984823, 0.47531668703232716, -0.1261330842255064, 0.09440288611388938, 0.4667741284805203, 0.06420773856731506, -0.3792983947394471, -0.4070145335849241, 0.11232954560680067, 0.3365693261627602, 0.5133459361442954, -0.23045751095870448, 0.48860871909240683, -0.1603163590051229, 0.6160274394696444, 0.6369473924821684, -0.08789251904449252, 0.40068737056748654, 0.12638154898283338, 0.5986275098343261, 0.25703254833384304, -0.0007915654019587696, -0.16060714689165353, -0.09117944580798404, 0.5391552566937508, -0.2571361297558828, 0.32859780707379527, 0.47970607219482647, 0.16830410313865798, -0.43681366260704974, -0.31360065374841345, 0.3951985777620107, -0.04930994315301018, -0.3787010325548126, -0.11105416733797849, 0.4442473227307002, 0.47493020119741164, 0.3511636827704025, 0.3257343395461176, 0.5954014514306185, -0.14864507679294997, -0.27205508412388996, -0.3051370771268796, 0.4528615331935881, 0.377966109980846, 0.19253549297747174, -0.059973159842946114, -0.26032480376069805, 0.28662380747592725, 0.07378675740041189, -0.3529703264176046, 0.3817458747417468, -0.11283892352591336, 0.35444650159949387, -0.09187632723167055, 0.4516591359707148, 0.10340526651469326, 0.12253943377372134, 0.4918521541556973, 0.47347907294305447, -0.46491877668749304, 0.08477054061338625, -0.38022670749069043, 0.39270341468654557, -0.3861991321346484, -0.07562584584131093, 0.2278809853544827, 0.0862513998001436, 0.2645718719451894, -0.306066189694783, -0.16467974882107198, 0.1935718509302622, 0.5215655088962633, 0.7170199885467785, -0.15576650949103168, 0.21759142056945238, 0.38511467327099774, 0.5288729405705075, 0.40000303711113994, -0.09390042776940581, 0.3796332502807484, 0.21964088619656436, -0.3000876210436806, -0.26352162000887536, 0.270958968418358, 0.42825978759958083, 0.4274109196353614, 0.2131296601498331, 0.02734080702602795, -0.25961625252470705, 0.32706747057565666, 0.40142311180193146, -0.18971685149358158, -0.07448368670861087, 0.30505615926835294, -0.37388173507284367, 0.5075830028170454, 0.508645126650005, 0.35306885207688415, 0.4881525193516288, 0.12996665373313251, 0.3670241012082627, 0.5562634548576306, -0.27054037267208697, 0.204234720749515, -0.421369067242613, -0.04899996858416842, 0.1923954689259071, -0.407278211556607, -0.38136024592281326, -0.030094776976874748, -0.35603102559153177, -0.12374057595801702, -0.16737702698524382, -0.30696743478900634, 0.36238997046640364, -0.33057094740036547, 0.055617762334909004, -0.22709096481462077, -0.020827789201248854, -0.380297879692521, -0.07612614899839945, 0.26691636504700333, 0.21532544107241053, -0.26519233572702516, 0.48607541093339773, 0.2660274399224436, 0.577792518679777, -0.0861466728074952, 0.5277465880898932, 0.4278767973296524, 0.4583298284545234, 0.5715696691671337, -0.16414722974562307, -0.17413573198364327, 0.008546797750424003, -0.019946153434750334, 0.24298852311303087, -0.32997018155044583, 0.028785065918636287, 0.3281103973304751, -0.28848571268167367, 0.04669841972843358, 0.20026557596632444, -0.14360515351784536, -0.2623768059772726, 0.2667453349850569, -0.3380143869803599, -0.2380801335421844, 0.23624364743102155, -0.14137786187579096, 0.5793953212058326, 0.01851642252661941, 0.3799808229392239, 0.5500947080014733, -0.1335323180152844, 0.4981566068867901, 0.7069056154478005, 0.6904467993539924, 0.5595013599536522, 0.14321326848822916, 0.33927062847092326, 0.5393314521285643, 0.5567310121628772, 0.03545395702914598, 0.28841006717433765, -0.2068292077028031, -0.1066724834197944, -0.029299245979635635, 0.23707609739432112, 0.01794050001350067, 0.15035343049442024, 0.34055922046936504, 0.15443306630221568, -0.43828043124278876, 0.27498055028969015, 0.06339692644371697, -0.3609483914713428, 0.10390140530204393, -0.20817077537275494, 0.1907520368088989, 0.44890110560758995, 0.21676069088142177, 0.5591740184342978, 0.7345687930502, 0.48462482531479983, -0.17657933904109377, 0.5054134771898422, -0.22360758168678774, -0.006145870203901124, 0.0403622523530492, 0.02990791773491358, -0.2504145952582829, -0.4382496078305864, -0.16109534019189825, -0.18183234553909247, 0.3714473477292189, -0.04947368818125125, 0.10975361944791306, 0.017709268860626293, 0.06317406270558473, 0.4393107801898378, -0.2606668818079116, 0.3756305950370407, -0.30244376068050377, -0.23908556515605706, 0.36451262209681934, 0.29785639161241995, 0.3887583911419877, 0.4304046784355142, -0.06576342367297308, 0.16154291769380555, 0.059867942969878046, -0.1906503847762251, 0.5994294840520756, -0.011204517907837087, 0.24444332885527986, -0.08566489781689751, 0.08827745877609047, 0.4096191021085206, -0.11381880959202832, -0.2153260251146506, 0.30296666522633897, 0.4937757426861984, -0.2821086899082661, 0.32689081872871467, -0.3421780398403159, 0.3624496894821916, -0.2382106100947442, 0.28000846974575855, 0.47883259363921155, -0.014127870134789939, 0.07449336592058046, 0.25174688381210436, 0.5730810418135535, 0.16467597121165128, 0.25035410955497267, 0.6263240271655183, -0.044507786635231195, 0.45988509402294225, -0.04813188659386453, 0.6589683135242274, -0.04027125231621591, 0.2968987383730012, 0.32366042556664926, 0.1481056771064032, 0.10733750433651959, -0.1851709946841779, -0.07224788082843094, -0.42745473687286967, -0.398582876000721, 0.30833372347530863, 0.004375040228121311, 0.3493346722221459, 0.027584069352547536, -0.22902631300655463, -0.049577951450497704, -0.12374986214090308, 0.38278824402434347, -0.18606897534621414, -0.24225052186400262, -0.20069206230604525, -0.0006783535196351484, 0.3207838838672704, -0.3160997513126964, 0.6012444268288931, 0.004601581156569198, 0.667930794326611, 0.4922798769776757, -0.1485589799785943, -0.13155996624018043, 0.7106076986229364, 0.3317216168166613, -0.27463052789715114, -0.14351238294745872, 0.326999611551257, -0.26473654277583775, -0.2629742982953794, -0.08376717199070068, 0.4744577831747228, -0.4989278409343559, 0.2158225386635165, 0.47993987293827955, -0.43205866664526604, -0.055366017680349565, 0.35464235812587014, -0.4815844805873517, 0.34743622824007914, 0.27346366738668754, -0.22781445960799665, -0.1837675620864672, 0.37967773340489674, -0.09667149910942067, 0.2872356821022673, 0.5629009202305776, 0.3093516274708968, 0.5564791712317806, -0.16643833374345005, 0.10217284574613912, 0.17049831019970096, 0.3840768889118758, 0.5170710111215008, -0.16143607651923683, -0.04432031767800413, 0.4029530349200624, -0.2597587630586278, 0.10934688740097005, -0.4657765395915088, 0.4142383162287233, -0.4699470825593466, -0.2846335240149789, -0.24802753647802656, -0.07788017154114589, -0.10499706914885151, 0.3292612179398038, -0.14026298066624415, -0.10351314680305071, 0.20874254237793397, -0.12070660386341997, 0.2702462672773866, 0.42706444133554483, 0.157002469172436, 0.4514194653367173, 0.5344771775551505, 0.47227052128172187, 0.5211987380316403, -0.005935567200514616, 0.03985096628909385, 0.2798024672365517, 0.31506998752847826, 0.3820722520684874, 0.2762181091901987, 0.02387149999060701, 0.22782592590651513, -0.42965951034530203, -0.2943161426328354, -0.05857406503748423, 0.45212737360485333, 0.0587779689602651, 0.3009757468945312, -0.18939706163762823, -0.1985037513224312, -0.27751458600142487, 0.4743335511328273, -0.48537246225894914, 0.38018279038835434, 0.37603087706257127, -0.11383953032139237, 0.33006186074611077, 0.5104922665039617, -0.32228682030234196, 0.17952864832355864, 0.5776054397010125, 0.44323459486091865, 0.5365260624697233, 0.47842756804548764, 0.5448330416634942, 0.37830010787034574, -0.1707852603090307, 0.1390804490895792, 0.2546826446615074, 0.1160195006351876, -0.1298195069785458, 0.06491378259441355, -0.4937929443625314, 0.34847565018657145, 0.23703927040225514, 0.007610014643637784, -0.09305957646675259, 0.4061978906390053, 0.10502951293479529, 0.29040674312879494, 0.3884117926336617, 0.39932965200653614, -0.31713301377392794, -0.008696241513705539, 0.521252058211981, 0.1265237827664558, 0.5614569324966567, 0.023948352632378784, 0.5191563077583536, -0.22872078193718842, 0.047024327032362256, -0.1490324796124109, -0.04627004505278643, -0.0542942228759597, 0.05881196600984814, -0.2228254142699922, 0.15891648814712264, -0.26407347427343236, -0.4319221277401059, -0.09968407232301965, -0.4842408173506739, 0.2964872152033634, 0.05644384368411426, 0.2041558848679016, -0.12822717428057595, -0.20126163160195765, 0.16565207831001927, -0.3728602862742512, -0.05117492594673474, 0.26650875142397745, 0.16140942263281485, 0.1508875467475472, 0.08372429398620423, 0.032695136204878794, 0.35215667669238476, 0.4895484880417556, 0.024164191487752073, 0.44280401163982097, 0.10265745448513541, 0.06858922681679762, -0.11101071096020444, 0.21240866333677444, 0.506944981164672, 0.21080691683369485, -0.1283144599334375, -0.10016331231287258, 0.4666344981194213, -0.014742672925084707, 0.21840282281991408, -0.00012141974307944281, 0.03805172190889594, 0.2973727036206829, -0.23916476045505686, 0.20912751588677592, 0.28518640194436395, -0.030940221399392117, 0.08014474045279034, -0.223791817286839, 0.32872137711331706, 0.06768174068860126, 0.34107546742356953, -0.3135109620704951, -0.20142673971920305, -0.03463960414943317, 0.4362533898662711, 0.4992826897936908, -0.24769558212890613, -0.1879070859678128, -0.3278237722886183, 0.11528390624061798, 0.26998905355841385, 0.07258207749097162, 0.40141059323302725, -0.13924012095550883, -0.1654972292821555, 0.3650697178573993, 0.41617576555117275, -0.3180696198978208, -0.4553560092552076, 0.045363337238045864, -0.2486026033168195, 0.3108219670552482, 0.43074204866851473, -0.1970986447809802, -0.014180994702116444, 0.09682482590662532, -0.4348822747113518, -0.44161909112004194, 0.36380860405296783, -0.3384751111968609, -0.25902710134838275, -0.061852309715865375, 0.023814560769852115, 0.06641671271110373, -0.32544375852641766, -0.058932263371855885, -0.3718807918701016, -0.25826359271359517, -0.26912340808177293, 0.4399332964143624, -0.09656668305451584, -0.32524421980850005, -0.2494363204468069, -0.34301087472160063, 0.3062598691932389, 0.04285353000223413, -0.4714363412879776, 0.3802490142226458, 0.4742757194187772, -0.2781728616900493, 0.47299274524825097, -0.1732133791526338, 0.4543171205506461, 0.10152670060586451, -0.49548760771596906, -0.37776192761782773, 0.4287395953568548, -0.47223561019029336, -0.2236339391869748, 0.1348485435557167, 0.131400433182985, 0.33238512331817016, 0.08220843730374582, -0.4121432919050456, 0.36043337603583436, 0.3904763984931028, 0.014985681249766618, -0.060698625100820656, 0.03935083052478894, 0.20084044023830627, 0.22376782024028108, 0.4096202177057252, -0.3678119439790227, 0.2494031345026686, -0.17994964997873875, 0.30771228125533634, -0.4132316310723456, -0.021085676444073997, 0.3237615479532686, -0.43118869681004013, 0.4071088113082467, 0.41357622798106164, -0.44069554282345824, 0.4980559274278228, -0.17562133062546847, 0.17722881084676412, -0.13000047710465157, -0.31298149332497816, 0.0014035638781905169, 0.23730443634570242, 0.12453025226768133, 0.37891116029883, 0.40179277796421553, -0.213746515738664, 0.45354011368763003, -0.4351603505621794, -0.028792832874953045, 0.3768995024067836, 0.49390581813728873, 0.19395871198451686, -0.381500802349917, -0.14052310581401728, 0.013524600789093011, -0.3359548672935194, 0.34568613150086724, 0.04103764410560373, -0.0515641426390836, -0.46209193990510783, 0.24623786610944795, -0.35749905170472, -0.10249639284994126, -0.2498481202632233, 0.3033166726438628, 0.0883766285386493, -0.2705216982441262, 0.26515562460331765, -0.6579350166629493, 0.04285011296312807, 0.32545494477132647, -0.6051347957945372, -0.1566196496449329, 0.4148228944763744, -0.22475996500088433, -0.02523994486306469, -0.11431126835459093, 0.06066784869561537, -0.42318983966647306, -0.43639088423775096, -0.2760216545000078, -0.1291185871378041, -0.3880258984447047, 0.3270352693021932, -0.40956475960292393, -0.4219946227851481, 0.37496690454052917, 0.1646613249446461, -0.13717061958477897, -0.14583632020064213, 0.31020815345972386, -0.30320631284119615, 0.6309636786770172, -0.912336087183911, -1.4401945426089078, -0.8793995937738301, -0.8977555192033253, -0.5916500638110556, 0.6134969540994751, 0.49327637693099213, -0.8649418302962394, 0.00795003218875047, -0.09783487156988785, -0.15109497895962015, 0.43441524010931754, 0.240584722219466, 0.3741505120604417, 0.41782658588880695, 0.13171644152135997, -0.4973361868600168, -0.0008132310716053581, 0.016067890205334612, 0.45150484023793336, -0.3314489778110018, -0.4152920050295751, -0.13944243013562682, 0.49696849036824925, 0.23173083915408266, -0.8618100372746096, -0.4230710139411694, -0.08295569691917885, -0.3642919590090384, -0.2797175450643417, -0.9533730414389965, -0.8782246928955614, -0.16854537664583408, -0.022298337127686103, -0.4712283928114993, -0.5165633021337991, -1.6081425600853345, -0.5530362930876004, 0.03766126356041816, 0.2129385014213412, -0.05864984181144443, -0.09945420840612569, -0.49336945872817356, 0.17535699109814115, -0.23542022145189445, 0.11397121344978789, 0.15304726524446843, -0.11742042758844329, 0.429698598806344, -0.5231432204799793, -0.022153714821190777, 0.396420817727974, -0.222200744192125, -0.13165594347113832, 0.36771702522583327, -0.43687751837050215, -0.895416633936869, -2.312793531531319, -2.71789376838379, -1.1204581603723422, 0.7445855201465768, -0.12719717930078386, -0.1768129900653542, -1.1765455104216607, -0.589126746420807, -0.5838762441204226, -0.6377376256538267, -1.2916083890244001, -1.4108678404615345, -0.7207721491411974, -0.1261609906960116, 0.41088653337251346, -0.38340506460029533, 0.19109056088268417, -0.03426808932721551, -0.44779091507024066, 0.2731241437933782, -0.21458096416081146, -0.8985515755376511, -0.37236581442947164, -0.36101052941870615, -1.2375253414836405, -0.9038080665124989, -1.9178897060832363, -1.5397648896766947, -0.5702760591666693, -2.0132698328174423, -0.8045135691016752, -0.9880812687820736, -0.43096489251857306, 0.5961892067277766, -0.48213288933207027, -0.6597099906483447, -0.6657119883144622, -0.5501341169493099, 0.6032033406419046, -0.564858406365075, -0.0973161854056, 0.036259794293744735, -0.3866664098836252, -0.23568649147137277, -0.1446621096927041, -0.4180336747763842, 0.07321782505526606, -0.517705743760002, -0.57741099173333, 0.09984835655948662, 0.025136158642260053, 0.38640809675730003, -0.5384356315666646, -0.4598685153257192, -0.7635916907440368, 1.0554667645542124, 0.7272484510820296, -0.5221384683049511, -0.5234796305899102, 0.04834814080282725, -1.3398255456602643, -0.5029504325372087, 1.8763331744141967, 2.0101303884982165, 1.061866694837133, 1.8223212546744252, 1.3714333497188627, 0.7643744142416756, -0.4075381077777522, 0.3988751150770813, 0.5565784200155108, -0.24433200935900407, 0.26537345117399347, -0.2012971915440211, -0.4745380553127156, -0.3684963338614691, -0.6900698142084637, -0.7165157436207881, -0.03811708397483711, 0.9137053185819168, 0.7612367472953281, -0.3778976932857527, 0.17741395952794095, -0.5400434206490468, 0.6721551738842618, -0.23702807091441322, 1.0379107069025952, 2.3725555938732796, 0.609105745156249, 0.42461684624957635, 1.6290659524377171, 1.3530024311005373, 3.2881152445733615, 2.0313416092565455, 1.6360637831447575, 0.8319255938003012, -1.1885430160589177, -0.2477216816125367, -0.3089640722665094, -0.23576461851417752, 0.10080814523503567, 0.14314186174936053, -0.25404735167908354, -1.0641013581113414, -1.1841020187672766, -1.158647357894439, 0.5930833369417702, 1.1385158142832024, 0.6737940387493521, 1.0916630855520106, 0.1334449426841164, 0.5575078822478885, 0.5825254120884532, 0.891525211129312, 1.0086573901340685, -1.035610143510579, 0.2323276686022849, 1.2089948094498317, 1.7750413040107842, 2.744460772718766, 3.256523765272337, 2.6777826548253496, 1.5866973316118222, -0.35260693824350237, -1.5948044200545977, -0.5104899126758558, 0.2564420927072868, -0.35741346635063165, -0.3152469347860546, -0.07036060886970602, -1.326638384715706, -1.128521648861325, -0.7006016594186397, 0.24948965057862846, 0.7754042398823631, 0.6717191294078115, 0.2688571895663037, -0.043948525541697155, 1.029346589018078, 0.9165735792746806, 1.0126800777443454, 0.35893370244126854, -2.2530538929115846, -1.6137791441658382, -0.9226663836489536, -0.4259355445857446, 1.1543801932628035, 3.1342193238373603, 4.894180490723563, 2.389103690749563, 0.17413521190986864, -1.2100017719167908, -1.806867092733708, -1.1900284522919433, -0.15839666064483673, -0.0013512818088698166, -0.20649001417980156, -0.5718921011286218, -0.8200848244279868, -0.3482588087853508, -0.053453585630087744, -0.21562259347994556, 0.5678376796644444, 0.38533429362643734, -0.2988797494931552, -0.08203772535939251, 1.0364695962051542, -0.16974384463351005, -0.2911364432898832, -1.5041241922633446, -2.437898742309917, -1.7896428932352662, -1.5120743378304502, -0.01678890913086835, 0.597869516880773, 4.316238819912573, 3.22475597779585, 1.0283680128907842, 0.753121373939091, -0.12327427651083676, -0.9879410646713805, -0.6855938320322374, -0.852731646995824, -0.45090187409283033, -0.16873361250817598, 0.3795313718831799, 0.34008308088256933, -0.535717197842583, -0.3106773908526917, -0.16269270990847567, 0.9951820570652815, 0.8639474814820344, 1.0531144964183201, -0.12418995053494726, -0.3220151141401527, -1.0351673754337125, -1.2146500655311843, -1.9466197887255159, -2.6890367677291205, -2.7898468259581684, -1.2047234151137753, -0.7598288691612293, 1.7756701365865288, 4.958349153977315, 2.9180968691754696, 0.819775969287301, 1.1512778812041864, 0.8919069982137049, 1.2178770984136194, -0.6650932402986367, -0.7110188022489845, 0.221354303944585, 0.46949079337872934, 0.5129144305850984, 0.14905893556462083, -0.24152608909946544, -0.35350761246895407, -0.011279452472701106, 1.568630086612539, 1.777218270436759, 1.0310210280415404, -1.3299288721584515, -0.2719282968341929, -0.8296502840245861, -1.570729733842158, -0.7770564249790604, -2.648139211390762, -1.6850565207172188, -0.6864661027180856, -1.0510438014675514, 2.1584319935318703, 2.595705697220288, -0.21258069604867122, 0.3898671079821942, 0.18056417797510724, 0.9943701634964913, 0.5548910017636043, -0.03304166519450254, 0.20359217558237572, 0.475528627170542, 0.24668575000675463, -0.11846640063218634, 0.4637854288343792, -0.19708337649587546, -0.03654226333112979, 0.6725275789687182, 2.707666611336632, 1.7867782587470202, -0.08267858009205874, -1.8249174140527398, -1.1938392923011545, -2.3307279387230495, -0.9937759436544444, -2.063144106480686, -3.61733237713391, -1.5207215027138619, -0.5395528943353498, -0.11182993346638614, 1.4646902338708034, 0.2607800262040675, -0.7308647568306788, 1.1944671285870359, -0.8360696213218314, 0.15647328904531949, 1.0238313161187296, 0.792784242059768, -0.5319477894550588, -0.24754899662459917, 0.017490826938674653, -0.06337259052742339, 0.4640913976392926, -0.18040112712230405, 0.1269863249645667, 1.5614345351351628, 2.5722224248667653, 1.2559585365584423, 0.700814004183911, -1.9969352310967616, -1.1947625484225897, -1.4888859370372929, 0.3925157160572845, -2.0439977627761325, -1.9289025933291988, -1.4330504822847727, -1.2922259097944062, -0.7225520366228327, -0.04706460594695297, -0.8066904672946503, 0.0019072414314298288, -0.6264959545643409, -0.9428482118708628, -0.3824600533837541, 1.3724011363681616, 0.9784519135691582, -0.10945611097524431, 0.2561939306476919, -0.3870418760406783, -0.0889576224307741, -0.15851979898239604, 0.4650759175935644, 0.575851965458848, 1.2782339812294354, 2.5472338292634076, 0.9046735574680427, 0.43820523671946815, -0.42605264482795824, -0.6281315471033762, -1.0026379244942032, -2.0982999218507263, -1.5950809321739212, -1.3218859844412514, -0.36593658718976435, -0.13553459778028498, -0.1827627776865431, -0.0977972353632433, -0.8326890284033501, 0.014691902684875864, -0.1360829260151884, -0.9765384706919912, -1.160128920387172, 0.5300866530843917, 0.06554934921512441, 0.37986607475195244, -0.30430260951694277, -0.41727744686513635, 0.1417198032565917, -0.6886639988591918, 0.0945024928861642, 0.9956406537253066, -0.22354542201402103, 1.7147466239332112, 2.07842225494656, 1.230710325004108, 0.428220681384518, 0.6452184073262907, -0.82872535257807, 0.6260112449935212, -1.224889504434117, -0.490858725640473, 0.38069324905003893, 0.8141902922801421, 1.2876033527590443, -0.005688784613906955, 0.40884963514903905, -0.23566110407328839, -0.8855659098382094, -2.1628958669063225, -1.19938246677573, -0.4230761304304387, -0.07317471105248483, 0.0831378637966763, 0.3851258672838201, 0.4505095738165692, 0.461704320402889, -0.727735339547937, -0.42542637218978274, 0.7583152543621048, 0.48652641136203534, 1.177619493939487, 1.1819857989926266, 1.8472215168589514, 0.046398828945571416, -0.16535344337750893, -1.0417784198456406, 0.3965724612126376, 0.12587036141726693, -0.15673400483519348, 1.5458651781745467, 0.42161046967195287, -0.9698434257593508, 0.6248773940200362, -1.1852632028211143, -1.4869200222517414, -1.741315307498522, -1.5010316438213853, -0.177155378509185, 0.5650831255900376, 0.19171617264667082, 0.15334866703100763, 0.22475726498945373, -0.3614772275415238, -0.28321093684877574, 0.1288756791940653, -0.30691467257054217, 0.041982928534767344, 0.43040154136070014, -0.6912029805888007, 1.7654152670178727, 1.5780525347451722, -0.7554970555156654, -1.0973304809164428, -0.9553991056491873, -0.37172886845133524, 0.7179312670178191, 0.5205044597369456, 1.7623526608263078, -0.1950728575461311, -1.063433130523173, -0.06317666874427898, -1.4802649465466835, -1.982331039161999, -1.270921547866229, -0.6425886795563082, -0.039888080792924316, 0.29207905736625617, 0.984148764774857, 0.18699326088376972, -0.2046197940772123, -0.15486902779298128, -0.3262945250213113, 0.08523436867595073, 0.19371486313553005, -0.39941626106135386, 0.7869118151725115, 0.7351660634215722, 0.900343756300816, -0.09352404391772888, -1.0853094899369715, -1.0240706637641763, -0.9935610241811456, 0.1985360470075896, 0.5274422452889626, -0.1270927121216734, -0.8515323993645685, -0.28911025707716054, 0.11293829331338497, -0.8247587093924025, -0.768365057174063, -1.0465048601843898, -0.8188628252851191, -0.8902421105859897, 0.2620447242385364, -0.020996438013867115, -0.2235566444434751, 0.2983053182728018, -0.2323163894806475, -0.10560456351955183, 0.21471185705431076, -0.31671116173103353, 0.18765550428331054, 0.5506434375174482, 2.200169745710379, 1.2597135008298874, 2.024109480171969, 0.14143068388621452, -0.0189896612153385, -1.0665989899358796, -0.6389349094435174, -0.1470104745432059, -0.121709879068514, 0.18479696845188007, -0.7918066329289069, -1.3164628167907486, -0.40772865642640155, -0.8710900315963059, 0.07178801568238927, -0.05099968707473958, -0.9015217216785498, 0.15242088139354015, 0.052370496955435095, -0.40594595114363236, -0.313628057721384, -0.15965395563948653, 0.07015110147628623, -0.23276292311763702, 0.34904310872105315, -0.4027825022013096, 0.4815728989711294, 1.3356516490214299, 1.811998109333608, 2.745143143299187, 1.260611360172349, 0.7389003301514214, 1.2222745063807154, -0.45144537415914704, -1.0562029505106598, 0.010328965385646333, 1.9917167183635331, 0.07138077128989023, 0.5037170550617194, -1.191110204826289, 0.12450965524490219, -0.13676640279942717, 0.10232977995170009, 0.1486600318165731, -0.7012287162984354, 0.07334144964691403, 0.7320222715095954, 0.1391839141550646, -0.36629164536006886, -0.35085630430584913, -0.2602430353421902, -0.33423759937166986, -0.1589637131258238, 0.5040687533804841, 0.5103638086189792, -0.37829210837461424, 0.8461025366431185, 1.2162440531331629, 2.334974767679905, 1.745162230046897, 1.0565674450157938, 2.1564320788554445, 0.5490890036973753, 0.7082354569568023, 1.0517278691817062, -0.8169615588895736, -0.45200435643597836, -0.9803042901107356, -0.6306576924878803, -0.38827004303792073, -0.5308621560160922, 1.0097601095194924, 0.46962265043169926, 0.09707917190380753, -0.19227280541251388, 0.22963914819519876, 0.4765144603018153, 0.27784294823390715, -0.22243914116627717, 0.15144518260194872, 0.4995866658264403, 0.23506949110365624, -0.256808300855484, 0.7019050829817757, 0.5110831914806057, -0.4551400277000056, 0.5031521371519692, 1.1894211173951548, 1.3100198610562708, 1.0659177247302933, 1.0731778886192416, 2.3728710555712005, 1.41562370708902, -0.09326446767851668, -1.1477504091204158, -1.2933260313247017, -0.779778768714462, -1.4944970651924907, -1.7305892632061959, 0.3639619228295342, 0.6150504586123364, -0.2850359226409407, 0.2190219477979153, -0.5060628378083524, 0.40049886855521716, 0.49145883337920837, -0.09977938099654926, 0.38860540625901385, 0.21522847833832748, 0.44411547261958295, 0.0184834663995667, 0.5184853800508816, -0.3284919145205193, -0.0491498307415334, -0.10124822648042285, 0.30590264952119306, 0.7714966528452537, 0.909975750173973, 3.142057288762763, 2.455043245065571, 1.3147842472901323, 0.8642511835177863, 0.3119321063472195, -0.8231986666968313, -1.5968154659200122, -1.339775796649909, -1.5047873980725255, -0.426492487734239, 0.03403096065668599, -0.2483913112687972, -0.09434233660901292, -0.15662636720604756, -0.21707499319535373, -0.11401662461548079, 0.4331073737060449, -0.36146842229802645, 0.173589911471426, -0.27351412304745526, 0.49367828873295877, 0.13282763986705204, -0.050042496295472375, 0.32906137325556095, 0.6432307626361378, 0.250273587483225, 0.349199484001166, 0.6904332709885918, 0.4125682584349557, 0.2233897845431278, 0.7142517223004079, -0.17787356455202843, -1.532114731026044, -0.8720553380524724, -0.41953741150372237, -0.9396192205618974, -1.5400485745442856, -0.7435351954282149, -0.2119363428249371, 0.41798029041596857, 0.05466921656116832, 0.4765952830876019, -0.10719184306649297, -0.26954772804056226, 0.3859812322617283, 0.4329805762755319, 0.29459348773284344, -0.32599258266328235, 0.38562109735551353, -0.46668814585724766, -0.0953775042541707, -0.2334699270360073, 0.19015151942625466, 0.6279805910475805, 0.21099826976499228, -0.24397153271858815, -0.4828547660379145, 0.05311061187555964, -0.5535883781005739, -0.7453167128436873, -1.8906337407915865, -1.2147303569345251, -0.02430679117113807, -0.6782310143340986, -0.15645668563902582, 0.4408637981291376, -0.22501469082978198, 0.12537178161804957, -0.41561920491725757, 0.027677926485027444, -0.23456484338903216, -0.33917736895013917, -0.22370605137845523, 0.2627389417502918, 0.48940980259018574, 0.09218963096859423, 0.42682787034116454, -0.2682715293251199, 0.20371613776591624, -0.49284355509235866, -0.21625711018891428, -0.26289738400033325, 0.13696875711630874, 0.009263174608611226, 0.026539795020841764, 0.22889375558722885, -0.01025640741936649, -0.693800858919679, 0.14029217063940588, -0.46082554113908003, 0.21440938273890778, -0.8254368570864262, -0.31788911410264925, -0.008279494093381502, 0.018362489549645138, -0.47130089275052944, -0.3058592921898545, -0.3548322269952977, 0.491378146879097, -0.3415905896867596, -0.13189596695103578, 0.14853920593472691, 0.4068582148948079, 0.48644088606004465, 0.06898805868060487, 0.49319649477799565, -0.45434200883015297, 0.24448344682335554, 0.3419854037801867, 0.22942594403608407, -0.2573375482997028, -0.2185508423821192, 0.3276333051064465, 0.16869550738753558, 0.46618955302755205, 0.11812102315153672, -0.36486287798314854, -0.3570193212064585, 0.04778691392419432, 0.35452489274840326, 0.37788594879451176, -0.2961212857426626, -0.19855765602147868, -0.12548742619711684, 0.03699142167273073, -0.04043441674540371, -0.19760263553023594, 0.17736492130656867, -0.27775874244511956, 0.20017102325025393, -0.4314504644472352, 0.2631873698576407, 0.12312161471275662, 0.35481682969095885, 0.34810406913929376, 0.0809784036601186, 0.41789838793015494, 0.3205493425441678, 0.009897154880377545, -0.04095905228216217, 0.14158625395877839, -0.2818920030601837, 0.15970199856214107, -0.13792078048436723, -0.3556219662371446, 0.3553749827241602, 0.38240247114705733, 0.23120180985599903, 0.1763617216913937, -0.04771944164987969, -0.4477639797273355, 0.0020474788686386525, -0.36996371701370556, 0.31931162446565375, -0.13036577531214344, 0.3138205804880849, -0.3976125579192574, -0.020118517679314163, 0.3805097104412727, -0.2886417464834663, -0.2974461152134281, 0.4684098866507629, -0.35456821238370406, 0.22809277507585282, 0.389591842307105, -0.3247928765355679, 0.43634446325593085, 0.0369732025924481, 0.3925915702514262, 0.21474375284338756, 0.13002766809136654, 0.25143720174860557, 0.032876666381203096, -0.2695088246509298, -0.3222380213830541, -0.13478537635018562, 0.4106368419966172, -0.051878189131734184, 0.2091318230016763, -0.041959009605758664, 0.4671803232238798, 0.11663919037674936, 0.46830155239670246, 0.03058924676624497, 0.16891551658440118, 0.34649905555095795, -0.31327097375834034, -0.012971348866335441, 0.02801326676045035, -0.4690767459976674, 0.1544427309743363, 0.31275116181298795, -0.41731176915544804, -0.3782027684397882, -0.45622347812993364, 0.10619502649423372, -0.36540309524160886, 0.278908900980222, 0.029731937499700108, 0.21117158332946878, -0.1346203436216766, -0.06895373417719916, -0.3601928611048193, -0.10188985010291843, -0.4134827283429699, -0.43939600394583667, 0.1815288553278665, 0.2605807181118186, -0.28865309722705196, -0.18891379130532654, 0.45201381842673194, -0.46120760863142407, -0.2566332865407285, 0.48287376267264415, 0.4330293772977615, 0.25568221086022014, 0.4116622952262537, -0.47563039901367826, -0.03314684929246268, -0.06974903177166436, -0.43105824545227595, -0.23942344793461737, 0.10919835932765584, 0.41662131547258935, -0.2544237837146797, 0.1397374509959781, 0.44611100405885484, 0.38859888481306976, 0.3267871747471146, 0.5829440503519294, 0.26954822661145417, 0.05242468212816292, -0.3293274057834385, 0.33250964021009405, -0.22412137599821189, 0.02105381770579527, 0.2633642452264405, -0.3774420903034277, 0.3487330948171866, -0.1533628587558602, 0.2301196684959803, 0.08763736552308854, 0.28433939292056704, 0.16330557304636137, 0.3513093385627612, 0.2886972090125103, -0.4190764360409368, 0.0061632407123793235, -0.35372881323236477, -0.3520044026115856, 0.14952735100539757, 0.11226907296125516, -0.23840700304922888, -0.2831729157112684, -0.12581449512661075, 0.4788688395222255, -0.18303419422488099, 0.36290905142401125, -0.0061417890426497534, 0.14771681295536546, 0.4413198945228725, 0.4669368376046607, 0.12245720128634248, 0.05861348685637755, 0.11675851608935439, -0.19320869146169958, -0.22346821983126547, 0.2857733558681802, 0.31700592793940696, -0.3891952610369772, 0.1647199713509402, 0.01848899377595411, 0.36621735003276945, -0.14448415121173755, 0.18425202652009084, 0.11498910490784642, -0.2952084691376856, 0.3304897773793322, -0.3082734926433907, 0.13055719361926188, 0.5926642793181462, 0.21307656923536475, 0.5121821954838465, 0.642873886349947, 0.5835013153043324, 0.6430467665658783, 0.11118084523325412, 0.5383724976928571, -0.16224833156640978, 0.3573263948594885, -0.13002331842068257, -0.009606079275815659, -0.2659830934005472, 0.14686481039466492, -0.3369193315249454, 0.36712603865774385, 0.17862913024031588, -0.2371201996150426, 0.48035958504615167, 0.34056988257469906, 0.4414587573019551, 0.2567669045869336, -0.08316543200946236, 0.4005419160680069, -0.19309482396617275, 0.2905814228615519, -0.07134112338014284, -0.2969420462355729, 0.1577504054602404, -0.032656906217628096, 0.5437999297694412, 0.3577239897082833, -0.1246518419586029, 0.3926509301264003, 0.4979599573251254, 0.14998283497513323, -0.09978536129290579, -0.18887284963414686, 0.4853972692485664, -0.05506627949977106, 0.30920312022811536, -0.054232116857689236, -0.33222212276364776, -0.40474911743760045, -0.38494416135900317, 0.3743605380729764, 0.4403226767671919, -0.3104021967963362, 0.06965640831947771, -0.10573122882864858, 0.2100716653368698, -0.14703383695386493, -0.023778331408555876, 0.5835228671429693, 0.20401812893357912, 0.38341702894455726, 0.2539053051530434, 0.4313070745717975, 0.6172794088864381, 0.1793319292409156, -0.10691499652991034, -0.08691832943903537, 0.2042334342500147, 0.18410106389563893, 0.24971681682727304, 0.3678366728743875, 0.3110805320546305, -0.45575764945268726, -0.34784255769295774, -0.004511082974871367, 0.47982905070272164, 0.32692242620124273, -0.11952661712095299, 0.10950716787307309, -0.05741039556880983, 0.09909397342002756, 0.2241852142235721, -0.39929059469483424, 0.4562605707412289, 0.07518486405714433, 0.4593902723379857, -0.302905490907166, -0.18023476421886006, 0.588584578114952, -0.2632331578102442, 0.3021751037729776, 0.15263743989128606, 0.3740404916238471, -0.1462733567832429, 0.40493432213624214, 0.04735130622754868, -0.3426790355983347, 0.2571166487472624, 0.4754048783725905, 0.02948590942839323, 0.523329777700657, 0.3175198532661637, 0.500798406976012, 0.13516363632165745, -0.37506694908522625, 0.40409580763917774, -0.1700700593390695, -0.206975744268417, 0.4080292095681079, 0.17524416773831322, -0.12035976988369806, -0.25447900341328483, -0.1137659005346207, -0.27093748570159054, 0.20434109755451205, 0.6455411552521215, 0.36697856427629755, 0.02308974725489916, -0.29402491579600015, 0.5331381821933748, 0.28747519551042683, -0.0012960936832892424, 0.5235333147629321, -0.04570668147485427, 0.2986804392994146, 0.5485753691213476, 0.4837429362611683, 0.12536476432988036, 0.46987238758997485, -0.2977535082104579, 0.2730360388659747, 0.48115004648325355, 0.2346932745261163, 0.4826192543073803, 0.1221375703691785, 0.15833262576595142, -0.12639953560446038, 0.3812257194685474, 0.08969700156849188, 0.030570552426450924, -0.30328351453147573, 0.5094192802736776, 0.1210987895473214, 0.3464650868604508, 0.2301028510427847, -0.30861111825415777, -0.22580981659724794, 0.46134026700166053, 0.3601574697863283, 0.10542810514260655, 0.41573458624556925, 0.37491540646101407, 0.20764578637759196, 0.2998966118929108, -0.23726529875913957, 0.24589206118080814, 0.42004803111182853, 0.5101261289721947, -0.43057033518438464, 0.034688075454062786, 0.299346921735274, 0.37861088560145445, -0.20453482790296584, 0.30793119405912195, 0.457924611910259, 0.12522730451625244, 0.4194600240177587, 0.45444674092762627, -0.10505600047704686, -0.34116087706755077, 0.29186234547845735, 0.08346551155001851, -0.02427555311994507, 0.3814403860864759, 0.3898473252527242, -0.07743112501194536, 0.17868031491346784, 0.23254583258009914, 0.611879972898617, 0.5167115878004779, 0.37108166734226394, 0.06866991592828388, -0.31496163977641667, -0.2505593843216569, -0.12251340015375661, 0.19662506338490365, 0.33074492297764424, 0.27127936498386274, 0.002212484857519687, -0.20995841267445847, -0.30177278470740954, 0.28240991931843146, -0.11702587740921738, -0.0401379176333427, 0.1466906195603496, 0.5362020145967877, -0.4001013752931109, 0.0035800570903779146, -0.028479411920302376, 0.1365997861547512, 0.4454540364118773, 0.235379764876098, -0.13457947332459522, 0.38516825250549364, 0.5799939188036183, 0.2771973410711784, 0.33804743254172104, 0.3322902969383195, 0.029294552806497152, 0.4834575747639899, 0.13556522312969468, -0.15044004648223566, -0.07933450745519598, 0.3565945627860093, -0.16271032650303913, 0.3143197640993368, 0.042865702409696976, 0.012761106489982743, 0.20046124641745178, 0.40161772216463754, 0.418346565656595, -0.27238685756487374, 0.26085993899468435, -0.19901688777927085, 0.07283392749199162, -0.002342210208918084, -0.18481941599429685, 0.3648505644728983, -0.13216876027098196, -0.3461135931784737, -0.15580478137928305, 0.6036442368346095, 0.7134560697753074, 0.6575116268427493, -0.06770721893574437, 0.19259950181651328, 0.5739144137376863, 0.07538138032698273, 0.5256740186446003, 0.30023536139502033, -0.29946637622855726, -0.17745608114633246, -0.3604185080685309, -0.46787625950341805, 0.16405753750871602, 0.08202768336887145, 0.14898467475380328, 0.4872827495055676, 0.26239406143996447, -0.30060934440168896, -0.042033488579454124, -0.27466221964298876, -0.36145119674540227, 0.4516836135667579, 0.13844620007948305, 0.33017325819807025, 0.22026535115842058, -0.08027216593380618, 0.6331526499561575, 0.3793879277401885, 0.5065759054001573, 0.18997192966272666, 0.4253151889180837, -0.22259527883480132, -0.12281902542974027, 0.07204366955944615, -0.07302773437177289, 0.5334114391437116, -0.033598734240601225, -0.15877826496022127, 0.4617163810968559, 0.3225142540820611, 0.13253805716115688, -0.3597013217704477, 0.3807578102755629, -0.28830810228230963, 0.0207535211340254, 0.3011710823103997, 0.43481938681128385, 0.17296340888255476, 0.4049035437366858, -0.34328134321816683, 0.44680863932618786, 0.5675792952924124, 0.10015498996570248, 0.30704511910949167, 0.023568615811373088, 0.09744992571139055, 0.24467220231833917, 0.06468756666520699, 0.24047267025968233, 0.6051122363006302, 0.5195454011101179, -0.08702237812211024, -0.010651122629967404, -0.21037132419847565, -0.3765214979734974, -0.06221204203841803, -0.34069693054717803, -0.11063671754554992, 0.07209206607667719, 0.44278346892574166, 0.4950709859262796, -0.18120176913239128, 0.3439092468171438, 0.24391252767883276, -0.36233166942545825, 0.4394701591623794, -0.06798446983188226, -0.3723851899269933, 0.1318907799180994, -0.05426649039213606, 0.29863255150470824, -0.1063500254053531, 0.41086611008350604, -0.0797378027124206, 0.7357997735984202, -0.04571835583783001, -0.01165013408564017, 0.6400611593398917, -0.004310344498423395, -0.19767742903788954, -0.02174192105740203, -0.32409024332738334, 0.4555541083440327, -0.023578032100155823, -0.20552534625105087, -0.009909202910889588, -0.33865692269755393, 0.08867270183310513, -0.11078433269073729, 0.08944936723257907, 0.18559747933152296, -0.1116786859032152, -0.24004393220969808, -0.12605181238644378, 0.4509932298262202, 0.46184823704066985, 0.028461672910690818, 0.19781545519807772, 0.0903248331695143, 0.4747666135575689, 0.6022810498727454, 0.5707516823364698, 0.1360747833940794, 0.6415939934770009, 0.4671042236712608, 0.5876159344515489, 0.23612992512620043, 0.12632557617723, -0.03947635019141749, 0.06862113961621012, 0.48545139281863003, 0.0134065870058778, -0.44622084058604167, 0.02622996310271042, -0.33866851448788576, -0.4792473120267424, -0.22436577243380662, -0.36120157403021824, 0.22348192111754786, 0.08976209200886118, -0.19750300016739783, -0.22867399587436604, 0.38813392999108864, 0.015070738291783884, 0.14828037180455722, -0.33898875229196646, -0.12405190185784734, 0.4368723137967904, -0.2796585865772698, 0.3468374591261097, 0.1829001209312905, 0.1904969594186814, 0.5621613883918234, -0.008720640781476817, 0.5275437688499056, 0.09605067725274104, -0.24939753314867893, -0.014348718157052236, 0.0763679115538106, 0.10161319618013104, 0.1440172782478201, 0.1019512421656479, 0.05004600602486236, -0.02035908717943097, -0.001123506771672722, -0.08772293864654113, 0.10033630392904631, -0.2479013978356471, -0.09705038228519276, -0.1992447284954123, 0.009260611494320075, -0.05937860051807353, -0.29001218666145123, 0.5420089567167589, 0.007964796004691797, 0.22132036298675514, 0.5222504268099818, 0.284095306398376, 0.2084898139489252, -0.25342360647167383, 0.11867560345659185, 0.325620795944937, 0.10864601274872454, 0.5214160393454155, 0.24391021757554426, 0.18803417045994408, 0.4273793323597796, -0.1253191730396657, 0.23628465223042514, 0.4126433411361982, 0.4515618242617617, 0.4221616398957696, 0.11264350872058249, -0.262628791427841, 0.14870544417247958, 0.02979577570218797, 0.40794561429172344, 0.1402780082167616, -0.08070363932324669, 0.5155534621131657, -0.3461216648943864, 0.199461328453208, 0.4299062561566018, 0.168999756919345, 0.48413461404738367, -0.024117455792542906, 0.6277085668205089, 0.21093877801000194, 0.29671900872653034, 0.24920002361885385, 0.2467041930337306, 0.13795104847416878, 0.2971948921721246, -0.1284500935565933, -0.26203652153472146, -0.2360204385146635, 0.30953211326757785, -0.21161436305401482, -0.46207290577784754, -0.04979012126960347, -0.24539240388326267, -0.02932054287837782, 0.16808508968916483, 0.46047347009952416, 0.20722662425260743, 0.21648729397991964, -0.3489157171479354, -0.0996207161776035, 0.5052902395718804, 0.3117107020003837, 0.31038094797559174, -0.1213526344964056, 0.06329542547222584, -0.11159014406421978, 0.7763389123690189, -0.12190011893988893, -0.13631123098924994, 0.2828346624788314, -0.2535604377327822, 0.43878588755180153, 0.1231699189346681, 0.17462058109754133, 0.4760528915015965, -0.3479323296148515, 0.17231722784051165, 0.3306876628336973, -0.11812325024766376, 0.17259957405074167, 0.04444667908885347, -0.006637765162099214, 0.4077240183600154, 0.29116863115725905, -0.3808695162810492, -0.40180878318186486, 0.17996267856092324, 0.31318051571856326, 0.007874408696104982, 0.2257611411765703, 0.3166473657516093, 0.35783298209348813, 0.211803685779673, -0.24375313297664217, 0.41831029973368583, 0.19128721898064185, -0.16220225048223144, 0.5271930753289836, 0.12712990965070026, 0.013572500651220154, -0.36788403732029346, 0.23319283608110772, 0.40242486282779627, 0.07280804837049416, 0.45931271738350843, 0.23101389110362341, 0.14134860546191236, -0.24545065120857268, 0.2661370068106622, 0.23628539642304092, 0.045604121253832064, -0.10987955719342021, -0.09674418318313201, 0.4537446695424034, -0.015080334507449033, 0.025367063431056696, 0.41315165471650644, 0.40684677201981295, 0.4952646854128152, 0.4691452402778455, 0.5170058803800119, -0.19392387359475044, 0.3359903567602095, -0.03928089703048467, 0.29890073370014103, -0.0545880186219885, -0.32868902060640137, 0.39883510401059163, -0.1056334878228554, -0.3347070705102941, -0.15190291611870205, -0.23696715986102912, -0.46742320781808727, 0.2625872253625181, 0.046068512283990115, 0.42867210001280664, 0.08288733339914145, -0.06479118269365991, 0.11801051662709938, 0.12662445655121868, 0.3864295850876857, -0.431282140904902, 0.0031815769462468775, 0.3204716316478014, 0.051289456200094494, 0.3685914466863864, -0.05505784225994072, 0.14055690295642187, 0.2954561131967967, 0.47608589244553523, -0.013113785907499526, -0.3128826487947762, 0.3309601950287642, 0.3264448782911113, 0.0983782697628945, -0.05609447641847376, -0.40195346448943575, -0.24663648452464043, 0.46717251400771176, -0.41108311046688895, 0.41350145635214636, -0.3336925620255772, 0.3786222420806087, 0.09084043270997566, -0.07879763839845277, -0.20939413478077906, 0.19870870093711035, -0.1989262108893659, -0.22138859964621993, -0.025850854003622695, 0.2268530738908961, 0.49391823838614, 0.04061313928503337, -0.20264478129308336, 0.4928402888142014, -0.39439383192562777, 0.3030673855683983, -0.43890257774906866, 0.2060067565597391, 0.2631408636259793, -0.24698305611824956, -0.30772099399738595, -0.07817369119673241, 0.041169503992077326, 0.018795694072293815, -0.3109098312063909, -0.21847135833639245, -0.4823872311203953, 0.409741299757343, -0.2794121381434824, -0.228766004607182, 0.15215775572971224, 0.20223628619759715, 0.49987974726034756, -0.37081950598050906, 0.3434097962049837, -0.06303710242138738, -0.24748715221443962, 0.007959614208241836, 0.30601811975877447, -0.12275220152926955, -0.1885889690152507, 0.2815774432063311, -0.18757611688744505, 0.40764972135633104, -0.42202547098528576, -0.03814847519789894, -0.1520736971192819, -0.18412540619694254, -0.42787457374035853, 0.29217558202417543, -0.013948893408083526, -0.4079350432144619, 0.13329438218453, -0.3725115750996493, -0.10569791116602911, -0.1599521941705936, 0.006710806245930789, 0.30216615036981187, 0.3882686764545572, -0.22784392726277936, 0.10974996783960023, -0.32602178372489976, -0.2534416835756387, -0.47094194185630167, -0.2861770077496587, 0.02786396639016564, 0.10754082916228258, -0.4378476380025158, -0.3042465749728869, 0.03349608492866296, -0.07914337473316146, -0.020683159535990092, 0.4807531217372364, -0.4670342348607387, 0.06116113745300278, 0.21461859845537523, -0.3746011918769343, -0.4786206848588367, -0.4439342237706524, 0.3098019859093093, 0.42544653534228805, -0.16002861343324604, 0.016632875940637226, -0.42370654201914737, -0.09447357060293304, -0.3665691679772435, -0.3572058707914597, -0.33287097515452857, 0.06781982966706035, -0.27483808429463075, 0.06312318841045372, 0.12803447699208126, 0.20354205178277, -0.001048955786848165, -0.3207605132020288, 0.06717891901050174, -0.19411944753105864, -0.3655273879667562, -0.351407847051234, 0.08127746118817744, 0.2595682996671269, -0.055982884618962336, 0.18591931978903875, -0.043150723157971256, -0.4067112232509226, -0.01566254555388858, 0.034758487934330576, -0.24046904228485222, -0.2572790479245276, 0.08745280101856323, 0.45175852250632187, -0.1197058198206955, -0.03270417342850662, -0.24895928660702638, 0.2839051364559859, -0.45022935321289426, 0.272175475042029, 0.3055533556679193, 0.23830248507555485, -0.3746786876230638, 0.010028403880617941, 0.1000557906035683, 0.48535885158458597, 0.06202537160641309, 0.21099647274347216, -0.4665531800078679, -0.38035472642843543, 0.3816647669525307, -0.4270103708185962, 0.3927986719794684, -0.39208954559179054, -0.06104275499998124, -0.4103013961002718, -0.4597607659555266, -0.1405838335967308, -0.030015451492919207, -0.11965497396416064, 0.467019466214323, 0.03362231115811542, 0.4667673348262124, -0.2478202247071688, -0.48995279021258165, 0.19965345848545002, 0.3780277910988057, -0.1589387683728385, -0.32474356263101445, 0.08324007969606717, -0.30313146740971114, 0.22565850734980406, -0.4496533860932153, 0.19524344840526558, -0.37023406732292086, -0.29268756770786764, -0.4576549022974548, 0.09969162547811054, 0.24717379381121599, -0.16679631697680375, -0.04820861424273523, -0.11140170836945834, -0.2291413846655355, -0.3204367097942501, 0.2255009718359454, -0.06515983418343507, -0.42230151359703527, -0.33633258155147977, 0.4315786207100821, 0.17970341815388624, 0.26616094681342023, -0.14162872642571633, 0.35082198197400505, 0.40197698664352555, -0.10637372512461962, -0.34970271022135424, 0.21694724599158577, 0.44817475728463213, 0.3811826848409905, 0.07031158924391083, -0.24651125013114517, 0.2410675745251104, -0.12101872361330701, -0.22349437070516007, 0.014344877979079932, -0.1166171659708994, 0.49231838968196057, 0.4127808692816348, 0.17758924071889667, -0.14488795781310132, 0.18428643806677392, 0.3318452332051063, -0.026877495010365772, -0.0998174966166831, 0.3563580333964144, -0.4143832540300877, 0.2855078217757336, 0.3913079708431557, -0.11168710793848402, -0.05390580326567856, 0.16810320837261386, -0.033702467712399486, -0.16662179236425234, 0.06697432829914733, 0.3890996404071993, -0.4018356793229284, 0.10419867649953045, 0.2598771217982232, 0.4416893908243601, 0.2921189458872727, 0.15294938380865608, 0.2026017938043546, 0.5128023674880599, -0.10300103849035054, 0.525337413944899, -0.21813213884356294, 0.4441655610904854, 0.11841077792063194, 0.02367306679355364, -0.028994459292981313, 0.39892452200245154, -0.4146563621417026, -0.23931364738828423, -0.18134498797132537, 0.4177283460690991, -0.2334297523581023, -0.19228312184813573, 0.4713940777422476, 0.3165158902115567, 0.32565383217100985, 0.2522974580904861, 0.3647863325099262, 0.19512405649021547, -0.3552484061354319, -0.019852576226292207, 0.09105672427731533, -0.022365893094532577, 0.22009218751097612, 0.06264891879387856, -0.14070822488868595, 0.5182055213687458, 0.039254996008663404, 0.15343698755726723, 0.514731827716635, 0.14572797620123104, 0.49770750026469146, 0.07066335996340088, 0.048208908886769104, 0.4321106102990844, 0.1691906671670914, 0.008825634688319293, 0.12612688307925532, -0.15600097677162472, 0.10941250495555567, 0.16788949716476745, -0.23040804690092678, 0.11300046183062401, 0.22162304916372047, -0.09156311826953356, 0.07276708925386918, 0.26610871122784263, 0.4354064847940709, 0.3705722615560096, 0.29938580271951204, 0.39513051351654827, 0.1021948560125393, 0.12689179311822935, 0.4602845767638603, 0.5958314285359552, 0.509899425497974, 0.46263769296373, -0.03482773170954593, 0.3899619230451708, 0.04024402434997737, 0.5445455544234732, -0.008671666438508745, 0.5840863962686272, 0.18156010049308177, 0.15717254143559395, -0.23061852175435357, 0.028500679174991207, 0.0438980918470445, 0.2774383448504958, 0.4777710446225931, -0.35419387450956735, 0.09400905107883842, 0.4826469698891295, -0.14080462756879816, -0.14173328078657352, -0.11902069086393352, -0.24934321811688528, -0.39216308972054514, -0.3293798528647311, 0.26930957086289214, 0.13469981242237464, -0.28622936092009804, 0.3696179224830576, 0.12250493479255053, 0.34556318561887434, 0.19695436890638127, 0.7344368085106052, 0.4492047702490422, 0.41420102350581234, 0.3870736058961888, 0.21648498246539413, 0.1756678289387592, 0.3683582978153538, -0.09497601588962191, -0.32718728488865306, -0.32649593767446666, -0.289467874390031, 0.024031507922580374, -0.3663693576612681, -0.23540110095185346, -0.4493064156294603, 0.18711085229694419, 0.39052405111245597, 0.16497265716026072, 0.25879402645795546, 0.39281596520473977, -0.03546257515728771, 0.2126074644151853, 0.3664311842543047, 0.26733303254910634, 0.11748502165182613, -0.21694101162510926, 0.16165867073141346, 0.6649973633113362, 0.0014823093947974508, 0.4779266646954059, 0.7207998320812077, 0.5824464646440971, 0.5746875341076811, 0.4810714859633193, 0.6181585164887704, -0.04847754697544579, 0.18835935087024452, 0.046328147166018435, 0.4882679777963169, 0.01879693520790409, -0.438667041317555, 0.2594960005845982, -0.11973422045083054, 0.35017920413157555, 0.3955581944494662, -0.08967017880371579, 0.09609897895352176, -0.1814331015651715, -0.3896832158937803, -0.22684558440137365, 0.43765686705770157, 0.06647654958273337, -0.2512928661303079, -0.2023972223015783, -0.0009096620615662201, -0.0075675605109231945, 0.09158629402147384, 0.4146993424462824, 0.04968652055040854, 0.18110898619970695, 0.5015994878665619, 0.5532518800972013, 0.01096361925195806, 0.4240704672760948, -0.16741804946388383, 0.5271800551140996, 0.20723924236824048, 0.03355490394034085, -0.40226854067979506, 0.4390822077867423, 0.13210835703475535, 0.1021486987333998, -0.29706855340445815, 0.38220760027527906, -0.40927977001452215, -0.3484074470872107, 0.19850404676395936, -0.10941094035896601, -0.16220000724987016, 0.2799212892280624, 0.32140648298336977, -0.2538682464166355, -0.2656312038201741, 0.2915920173295921, 0.36419099082263373, 0.13187237489918816, 0.2098277251953451, 0.5193270262290043, 0.2605154623319255, 0.5259815034180676, -0.3170652210698969, -0.13223460664365247, -0.31054713394965994, -0.16820374993272538, 0.469500981868165, 0.40233495592969754, -0.022925156666087517, -0.4448026447336313, -0.452764373725016, 0.05515439287783803, 0.28459201845987725, -0.46108928155038553, 0.22866430600589296, 0.01423840346772894, 0.19780592556596652, -0.016956304253825775, 0.18128734910597363, -0.02269570124192125, 0.17172750555152078, 0.5823185355373167, -0.3022067561250434, -0.10455704490926915, 0.3992207587923484, 0.3205333524278636, 0.24687180379063847, 0.5156189691442604, 0.36489533094320864, 0.3431482692229006, 0.037621181158527306, 0.5727832520745193, 0.12021338821587794, 0.1491770759828282, 0.40293056784280135, -0.27523625005892294, -0.4331253437337594, -0.2261397791272255, -0.08571457360906254, -0.3070051581730655, 0.28501957297495184, -0.06068123924156262, -0.1719073840809719, 0.0918073654675613, -0.25033499638165035, 0.3932004326931569, -0.19705121189142277, 0.2699617821096434, 0.3495114717632409, -0.009031583895511027, 0.6091745586742878, -0.11237821348239502, 0.5857932392743421, 0.3731002912665949, 0.04294863190871816, -0.16823056517310808, -0.03600813370048725, 0.007028263758391452, -0.102930548731082, 0.13841969595916082, 0.07297146436962182, -0.26098741225316724, 0.32559655460653136, 0.048470943895328515, -0.4176636346164993, 0.015412307349745857, -0.06624391775902139, 0.14211128782751903, -0.2430512565998581, 0.28213357325560046, 0.15874182777190904, 0.4462693077093614, 0.10244831934830038, -0.1414988371452585, 0.1693852512464737, 0.10897044250998604, 0.15244025120484936, -0.03923270421076392, -0.07043479021274027, 0.4646836194574908, -0.026435086859115043, 0.27245706865437, 0.6720906562792227, 0.12559447575057747, 0.25805010648604304, 0.5243922671141862, 0.4734762381820545, -0.044809133832563255, -0.36140776649976913, 0.22589127738650083, 0.4912559110440613, -0.4467414819141893, 0.41891502386157997, 0.3087549436354422, -0.04412498929721986, 0.32577901424347755, -0.3307114792330893, -0.3355769781699464, -0.13610274189784727, 0.08819354456186985, -0.05547542916655167, 0.3282046602352389, -0.0360592522153858, -0.1267191232988063, 0.46710051900211663, 0.3837249817077741, -0.27260368218897363, 0.5665167324386569, 0.7886692022287929, 0.09521546426608238, -0.018261665680584686, 0.5252001248021427, 0.574274950203435, 0.49645133188602064, -0.0029906376905087994, 0.3958139663182575, 0.07316959809407542, -0.25108936888340294, 0.3095634782307227, 0.16947621434267132, 0.35056587394563116, -0.28254191319103605, -0.2374983559476611, 0.1683437349217624, -0.28008193156791106, 0.3970295586446127, -0.09473597402286266, -0.40437862669468677, 0.09161596449927197, -0.28671415864493627, -0.18398686797290054, 0.31256150562283724, 0.22355863251957706, 0.17817492813611074, 0.6643792881094839, -0.16117190919832383, 0.47606447400896074, 0.5052903076358922, -0.0822235013263177, 0.13019383424933714, 0.5262442056096356, -0.2713229945266644, -0.283592220411259, -0.2783458966490107, -0.3948558985052453, 0.1545075709566612, -0.2945472868423095, -0.3186136096581869, -0.29056911087320114, 0.17815913808330372, 0.25967712365534057, -0.1814248251947852, -0.07227032652996657, 0.2723399163970888, -0.4405598707881121, 0.2824819583145924, -0.15584090765765313, -0.15989667585947476, -0.2575591432853857, -0.36090201412071726, 0.46724991423179424, 0.5375829897939968, 0.3960190669241897, 0.8420259147183066, 0.3839930121110049, 0.13822069776116397, 0.6829008280380597, 0.31936964474536644, 0.12833101657220883, 0.1663971718353366, 0.5169869310444655, 0.2809295669768967, 0.13939843176150768, -0.26179272012771343, -0.23198691066138005, 0.15530061562139885, -0.31773916690832227, -0.4126673275317229, 0.40988771226762555, -0.23243273199476822, -0.34785688733834597, 0.2740000833249206, 0.2601599513869017, -0.3756781847859696, 0.4365814889630739, -0.23332034217859432, 0.4560673533781532, 0.23765053100167424, -0.02391159460227357, 0.26928409693902217, -0.04681863589607434, 0.3342812046022393, 0.5095977918083333, 0.17500153268756208, 0.287755238653782, 0.33053308503923307, 0.052339504189476305, 0.6347765874625585, 0.49108334247460067, -0.007223812213849809, -0.27179768555245626, 0.4659622342799333, 0.1878428295049026, 0.4601745642805823, -0.04204133424962938, 0.16556039460101743, 0.35350593019511833, -0.019878615379752693, 0.4352655164983106, -0.12257335898605165, 0.42714870686296746, -0.160160497447733, 0.06718962607664372, 0.5409837700259058, 0.026078826139997704, -0.327481745149347, 0.19378780473659243, -0.2700299309716596, 0.48601920052672404, 0.2650000936550244, 0.5914298986773554, -0.17570540391615655, -0.090991881100263, 0.11399283242846732, 0.3689860621368174, 0.40910865054360396, -0.07301934790987843, -0.41785022894395707, -0.08864796903437575, 0.2572332521880351, 0.35432595341869694, -0.047109478491964174, 0.4523828730187669, 0.31581862676972383, 0.37904623378196334, 0.14346875754415767, -0.362706051760247, 0.2390656811031777, 0.2724954587541845, -0.3511891262230912, 0.14040521775346673, 0.228560899515213, 0.4717875543901705, 0.29843840259064963, 0.19191314102121984, 0.28580480259628027, 0.06389013857391167, 0.5407697506071922, -0.10596339821831217, 0.6176316152634466, 0.5487678938297561, 0.061931989039312865, 0.419119960401651, -0.08169684359812235, -0.17616926845175782, 0.3132129171831885, -0.3230780620968471, 0.4853395780751372, -0.26334786753225053, 0.46503139324502346, -0.30077390095164136, -0.09053741088424083, 0.17128511236198962, 0.2883903631884823, 0.29590264978398434, 0.38832307673508, -0.050222918412828325, 0.40880922227103494, 0.09403503016362083, -0.32362197269016546, 0.3095356323327978, 0.4901149565377643, 0.5232371678855645, -0.060968215920941524, 0.3768263406636915, 0.32181408924289573, -0.006228692206555666, 0.49496195590457503, 0.2695390726175934, -0.30449597441967863, 0.1597415093545117, 0.2339852247434008, 0.4720397364395218, 0.2816889810757553, 0.4920594988348513, 0.24123582974449045, -0.15549841927140834, -0.040726514050008385, -0.15561169894369184, -0.4287838558749001, -0.15099256320970122, 0.147216573502301, 0.16690355092375156, 0.321772525377336, 0.04166870443012608, 0.44621698405083876, 0.07686193632645047, -0.012850123952786698, 0.19924384258162153, 0.03706616279165739, 0.29195863581167436, 0.658484686238962, -0.06670081193072026, 0.5018719184490906, -0.08396311957069627, 0.4082388533362554, 0.127943157411822, 0.3503049394248545, 0.33577202642477283, -0.37963602323540285, -0.1942799324079696, -0.229368703727249, -5.519251957496879e-05, -0.2772005190835161, 0.03477188783374996, -0.26740370849104156, -0.020218758074068664, 0.44870868381885276, -0.22694130568154647, 0.2883434992343859, -0.3468925647019047, -0.10565025206834273, -0.35998985634740815, 0.23929725672591814, -0.1137075358723125, -0.172299377109139, 0.3491775230636645, 0.08945905179750462, 0.06497436554181588, 0.08491093139653716, -0.12528983518143916, 0.019729322275264763, 0.19874762505312166, -0.04906650147728907, 0.19667748838867577, 0.13934013077458143, 0.036328925693819035, -0.32135796048825893, 0.2043283916326304, -0.4244241387860351, -0.1349633863281347, 0.38778062229566507, -0.07260882348344708, 0.45750920040670484, 0.48997110528574606, -0.16444935217228895, -0.19101471198871844, 0.1476409963768791, -0.28864262622708026, -0.007974407717906468, -0.14403988706318094, 0.357495101091421, -0.2645436084268963, 0.2700314488437038, -0.023339893270745964, 0.28398688781599446, 0.24491505450627143, 0.1280888188428976, -0.29102322298443883, -0.2802466931668802, -0.06878658861568024, -0.11794617350407555, 0.020924797218937773, -0.40491369267416166, -0.2780186822268517, 0.4852692324999444, -0.2624267031169006, -0.12497083420119189, 0.06985230123457857, -0.06061001441623293, -0.1181191079976989, 0.33502155693446195, -0.026515433357642393, -0.0017554520355258507, -0.04854870156378743, -0.057330157738013865, -0.2778911628806118, 0.4353508150755235, 0.04914087895830739, -0.45171964836242556, 0.45387638252780516, -0.30580018297497635, 0.15822811695827807, -0.2061477933087841, -0.19217345431058264, -0.3887446234232644, -0.03184895223954669, 0.19014856093217067, 0.08320825034305569, -0.2705892247631139, -0.19109889454079304, -0.22566092164783405, 0.3609076625173821, 0.0207098099099845, 0.4144964063842919, -0.04118844660019323, 0.410801357610281, 0.23685068743767235, -0.4909523958537155, 0.10994821918334047, 0.41921251976546414, 0.2661385740423532, -0.3078309424629575, 0.15169464060096727, -0.08418741452944434, -0.4853962470441343, -0.41426272959836025, 0.3511544239681866, -0.24812334156407365, -0.31381097281881304, 0.06685326268003133, 0.27830906682995976, 0.48382236037384657, 0.2554024654322865, 0.2789128386002412, 0.033370086879649395, -0.005461881592199029, -0.2838648737573579, -0.22362617457283532, 0.3926998468096516, 0.4773334368092567, 0.28274468490744986, 0.24134502522954301, 0.2180003775057923, 0.24925693181985434, -0.019215102297094278, -0.3685283729296582, 0.25413938106521394, -0.40350960275699455, -0.18080988439167112, 0.24066825464648967, -0.37268142094077883, -0.14416677467599226, -0.3881326274961211, 0.09143785583492092, -0.42955333381227845, -0.17128793143793905, 0.025784490969446267, -0.4951413882190259, 0.20458399978406266, -0.32441703967055646, -0.00969361537169111, 0.17832296262185116, -0.03374392313805548, 0.21678957013406663, -0.3954045825310147, -0.06564560954117231, 0.16124067011670856, -0.21633146534653153, 0.21760715339611705, -0.30447727600095914, -0.2537268130301585, -0.10156719664652492, 0.4429147293872706, -0.14914773341732446, -0.4436392288831855, 0.32168668856479155, 0.2901484717954802, -0.008714072511594617, -0.11390489476643317, -0.25713648296898794, 0.2568591353289317, -0.4561781903520752, 0.3238908923672631, -0.01009137931971349, 0.34488188466943814, 0.41054586276729177, 0.023889534750367036, -0.2854548019043853, -0.03346492794219824, -0.19000502823888066, 0.25432604884838306, -0.03395815173149053, -0.4348790271994234, 0.1174151055339625, -0.11699600225646034, -0.38798451708375825, -0.47039204297801973, -0.11701199128537043, 0.257942869406094, 0.3984421945039457, 0.10514575462496212, -0.2354689718875823, -0.2805840523194465, 0.18114685481102932, -0.2181162444133119, 0.18543344278039753, -0.011619084654302614, -0.49934483872338986, 0.3251089423738558, -0.13098091199166706, -0.279013241525542, 0.2886702279013956, -0.40404609546038345, -0.4725362720679256, -0.39378237624194956, 0.1373599058680974, 0.12261524352780359, 0.31267728579811077, -0.474261250712056, -0.4490737168354559, 0.1338333714918101, -0.013783375122038307, -0.20847085360728687, 0.2650832996890581, -0.06114187208065324, 0.04127710625270597, 0.10625507183818961, 0.27079810729578335, -0.21595862747610461, 0.33295519203689616, 0.04676193790736849, -0.4212485628667285, 0.4268077082606775, 0.18599238917142968, 0.29925156102525285, 0.11461838705021044, 0.4363550485490214, 0.47964008702474714, 0.4260187982298385, -0.0633234353467724, -0.030027771313472527, -0.4194225283983127, 0.215213359823481, -0.15837081209631454, -0.11379007395788696, 0.4574419755794773, 0.11074953161774839, 0.4308085604370544, 