{
  "columns": [
    784,
    15,
    784
  ],
  "activation_function": [
    "Sigmoid",
    "Softplus"
  ],
  "biases": [
    "[19.433054893262373, 19.65393782886368, 24.319023397257205, 16.948209607277576, 23.226837410233536, 20.774256305812727, 23.40847520696682, 20.9582480370407, 28.25597071673365, 21.39554337036664, 18.226844050185356, -45.65775161587211, -44.325399851390735, 19.55952238806863, 20.98004142101164]",
    "[-4.770515952787263, -5.042308538041452, -5.411263403632142, -4.9061220185031935, -4.796591163063486, -4.600191475452112, -4.940222853771803, -4.686439813970958, -5.0132585123485285, -4.740708927620937, -5.044267273206079, -4.79924153006287, -4.957220968427623, -5.033069050112413, -4.857109626081741, -5.088481781198422, -5.102097866611939, -4.747885155781367, -4.916063053234587, -5.267456367777941, -5.004605369907007, -4.974318695276855, -5.311216449353314, -4.9073395901579175, -4.834071335108214, -4.7527977362822575, -4.7388211038833825, -4.804145091805298, -4.915515574385933, -4.672800176353204, -5.397170323961041, -5.1287640312943985, -4.702590731772174, -4.6213346124313315, -5.165631049635147, -4.864860793717644, -4.934062232345291, -4.598295907540272, -4.7233478427283835, -4.9726524780689685, -4.738959824871577, -4.6826528371839125, -4.888122685531313, -5.148313719727404, -5.296238335967297, -4.880912885378268, -4.723378142464027, -5.05419264978884, -5.011026017687972, -5.199281581587794, -5.116444527727444, -5.085619825665835, -4.745783610686116, -5.17562545071776, -4.859174477146929, -4.815491134664677, -5.096145081652976, -4.8773525416963555, -4.814572562981662, -5.031540036999295, -5.016894074266002, -4.90784497330687, -4.820783818683875, -4.709979324500145, -4.73056237535564, -4.80165909991772, -4.3782420102528965, -4.532463452313516, -4.550935322786338, -4.118514020821081, -4.131357361027797, -3.5907262732935314, -4.4569466596137834, -3.875006035021959, -4.3797040842423, -4.154140830921247, -4.241222615912886, -4.807519587218509, -5.196119526280928, -5.175041544134847, -5.137692116358028, -4.653406940590746, -4.592528962843464, -4.59918163446446, -4.928642366816073, -5.0919923494808295, -4.806531317871613, -4.806465722714626, -4.838541778268611, -5.050952220743584, -5.155023708647319, -4.740777345770547, -4.59791615614108, -4.622713073750365, -4.3601690559887585, -3.6643908087035078, -3.8759156008871267, -3.256034863809512, -3.030646032419373, -2.9696180293565444, -2.7137862907891845, -2.9130989855223803, -2.755562823271096, -2.8464436573382073, -3.979762760964212, -4.567764443275031, -4.345477960633855, -4.562171122810894, -4.874085594651919, -5.076541421990096, -5.240131916196062, -4.805123563009129, -4.729209543409152, -5.125825316796419, -4.87529772436891, -4.7392862582302016, -4.767278046771011, -4.650198386350863, -4.691196361811275, -4.444034016604866, -3.999114981459129, -3.6254445306888012, -3.3340262451768496, -3.048550453913426, -2.607665343772504, -2.255568389682176, -1.9670144005193586, -1.3848104526184344, -1.183093497727897, -1.2455818602431974, -1.4593183137375128, -1.4806294634434054, -2.2634892135501916, -2.6929763523419314, -3.57122898303329, -4.22593003494596, -4.760163742176744, -4.648006190908459, -4.951207958235831, -5.197931656010896, -4.890029832744311, -5.169832957066813, -5.078471507779238, -5.211320355341194, -5.0362134058107735, -4.415987536986984, -4.481754575720684, -3.850237127373332, -3.4739352443378126, -3.3241436919167593, -2.8569749038528465, -2.304277832179291, -1.6915556396135514, -0.9916759342333685, -0.540455840902764, -0.41393510056099314, -0.821353161950429, -0.8887717213734133, -1.1866837537879753, -1.4995204828113322, -1.6240891310043786, -1.915743825936275, -2.1668673452064637, -2.9017397641145406, -4.103465996484402, -4.895879938690378, -4.937245653047523, -5.4228844414922746, -5.00657436482375, -4.951419226707345, -4.811386020450519, -4.822075992977182, -4.927261693899802, -4.354643809154973, -3.7460940988095452, -3.3834713886526213, -3.217118955679849, -2.7156490214527502, -2.1630672873488233, -1.3840334275097794, -0.5458081408536184, -0.3058418119472745, -0.2665133656035434, -0.07020343302017577, -0.23474248251391316, -0.6522025347299906, -0.7879796394358952, -1.2323308842167093, -1.002859262500827, -1.11610647235534, -1.7810050525723944, -2.7949373846532612, -3.8572818744126254, -4.432751925077574, -4.6824438049744606, -5.0886014174691665, -5.237144990632598, -4.8558939124350795, -4.802512148320724, -4.481943892098486, -4.252035934254868, -3.6078010734907595, -3.431140309272607, -3.006661946361652, -2.705168492420335, -2.0663803237840423, -1.2133222428908184, -0.2572479052614841, 0.01783456344996601, 0.2511764268624543, -0.06067072395610848, -0.11115599932699083, -0.33256007609112975, -0.835456731203599, -1.004635608224148, -0.7854637727497501, -0.6741055397255374, -0.8746912384431712, -1.2867848448043628, -2.3859273064813378, -3.0178956098066654, -4.034410077046504, -5.116889621984852, -5.1823482946109705, -5.30827759228666, -4.903101667645292, -5.051274503646161, -4.837918444610707, -4.377007751282873, -3.7711746521308194, -3.181853692202951, -2.7561021180484584, -2.489149745358346, -1.7764732585744363, -0.46181486219959644, -0.065438002389707, 0.16062568226593923, -0.11455644855429191, -0.2400735615763818, -0.5035567921617489, -0.8884366011253394, -1.1478940689053072, -1.1509324776828083, -0.8929483119406503, -0.6079021210696343, -0.8832465532284115, -1.0637485925829715, -2.106578580560173, -3.309629051982055, -4.248466678378463, -5.127668463867304, -5.374018838159957, -4.80630797717201, -4.909983491243791, -4.854657254528092, -4.7874748387874515, -3.932664209294799, -3.4222818366487955, -3.1354167408546822, -2.6206800711227882, -2.1328959860902086, -1.1228177295702164, -0.29128151452734413, 0.045166138787307374, 0.46183329404990464, 0.02076533055794949, -0.2312736155589945, -0.624593129022165, -1.2008200500184354, -1.223023197579455, -1.1870993166362367, -0.5940489879137065, -0.5144235561560789, -0.7500947150818886, -0.7511741402571064, -1.6830954504880125, -3.150209012066504, -4.586542798799605, -4.497184920706675, -4.942474426800176, -4.885252305599622, -4.99399349985636, -4.624888972722004, -4.946869617824948, -4.358771078113985, -3.460451652696566, -2.857435882493459, -2.472712197538393, -1.6462875708064877, -0.7180263888802904, -0.08365033559469039, 0.508303662677419, 0.30838071455779215, -0.1299352677886677, -0.5646523978213842, -1.2082246815033284, -1.1916091587465807, -1.109392640822253, -0.8030847544181252, -0.27369385330976415, -0.722771969503025, -0.7317723236313419, -0.6965543727861445, -2.2036171533380964, -3.1432473664458995, -4.592042472776797, -4.680617298668297, -4.729647185270436, -4.910206087290507, -5.110061478025024, -4.850957941874182, -4.896088572396907, -4.4253878221894025, -3.2066228838170643, -2.8164307541145646, -2.2539632788900645, -1.1520975495923724, -0.13994947615827535, 0.20324592530098687, 0.4777878317272193, -0.27908684187282534, -0.8065425946385942, -1.5940167975707946, -1.9395290094240123, -1.2533671300813882, -0.8672446438962331, -0.7160688545533446, -0.8171411820205847, -0.9146404542588141, -0.5174363951134385, -0.5488763912706153, -1.7510179287010168, -4.029792902866673, -4.648324619164929, -5.065758475320006, -4.607954143778818, -4.989322611032262, -4.857813153949159, -4.80681746142173, -5.018738810621586, -4.160021928854905, -3.197274262222489, -2.689853166259405, -1.555070430669478, -0.7139921601129608, 0.09754211416934765, 0.42527485194986253, -0.3035822017959807, -1.4451576712586638, -1.9355046781055776, -2.333096718089155, -2.301133149559198, -1.6303040638068493, -1.1551570826436832, -0.7537992860214855, -1.0227774950611044, -0.8472592646206594, -0.33420200601335304, -0.4821930991524329, -1.81877019498443, -3.500926919359239, -4.605303819411811, -4.789459489865568, -5.243785447392544, -4.6995072331344785, -5.017780153779038, -4.912558199154772, -5.08946117310301, -4.365126113284085, -3.0521171249046373, -2.42033286385013, -0.8702523350882264, -0.18611210590445365, 0.35233291121799426, -0.036176411097269996, -0.9992173996400538, -1.7531079374971545, -2.0358643254662017, -2.2102244799911035, -1.8844105850655128, -1.3472241590027354, -0.6750246874339297, -0.3393280688941787, -0.5152876996812398, -0.32250185024245226, 0.16446621166902514, -0.45268285985279677, -1.672546951080282, -3.2886043045314106, -4.537239636793669, -5.003515317573807, -5.2120352562684555, -4.937731640494206, -4.891637780837176, -5.04298196920382, -4.661521484533384, -4.453672036895165, -2.9443933482953772, -2.0367285343751855, -0.6192437045271862, -0.06523979206163302, 0.14411765793457923, -0.3329919633251676, -0.947656255978893, -1.3952959852396671, -1.634267893586106, -1.5063243313911667, -0.9445793254289435, -0.53826134994481, -0.4301203604268586, -0.1137441830198902, -0.10733388892281191, -0.004622348738378478, 0.25356767308958356, -0.3756509441577514, -1.7583939099554335, -3.522255273856928, -4.840426677033026, -4.743319081625866, -5.077840697538022, -4.750174371131064, -4.8088546921654025, -5.075888487192099, -4.831060187446371, -4.367685948349095, -2.640029301922514, -1.208670865331577, -0.3710285362409132, 0.022541809907375705, 0.33871365361330014, -0.2665199984241245, -0.792476577238037, -1.0587438033122216, -1.1654149807608194, -1.1330036989660595, -0.5790853544690814, -0.47060436867792077, -0.3034879116469701, -0.13876135003982784, -0.1970319037002265, 0.08247626072322665, 0.10033605348951202, -0.4503058542116628, -1.9055571458857412, -3.517926045837238, -4.729247162892904, -4.855310091468254, -4.934678310899762, -4.723782921391929, -4.940294984811929, -4.795022519804769, -4.746566641037111, -3.4887695843863558, -2.2133762598554467, -0.9183417537603673, -0.12365286032248622, 0.2738842887513805, 0.038795620162971306, -0.627087773594287, -1.1262477328143718, -1.6805903713225259, -1.9417529118803152, -1.3028985329589482, -0.5116993306862246, -0.29690728489335083, -0.3419891913941454, -0.2281259509061879, -0.2651455744343539, 0.3028003748239191, 0.04501823487313733, -0.8507637283171432, -2.3782848335788693, -3.574192106091757, -4.574726882279699, -5.122543065295815, -4.897527493675348, -4.587994982443887, -4.732581777427876, -4.604170109609392, -4.3979233100824064, -3.40455366718692, -1.6670695632370078, -0.5990060259316818, 0.2164850540536496, 0.34749422255839946, -0.10905302753477994, -1.0831565672584695, -1.7513978385759028, -2.2826855305575435, -2.25234820711206, -1.2952025090516754, -0.5650030718513906, -0.4026597375835439, -0.23294321604804272, -0.11437904027487306, 0.05795699646632228, 0.022006375451659094, -0.46507297945486425, -1.7705633595842187, -2.8563290772749808, -4.150267297580916, -4.720455472159731, -4.926493992913522, -4.68772530487441, -5.260850568168036, -4.854255309715663, -4.904297645559943, -4.559596557498365, -3.0397987578738257, -1.2808278419580938, -0.4770599280044916, 0.12615954991077044, 0.2469035096040203, -0.5591539364514687, -1.4158681477773296, -1.9808432172476413, -2.1167103548615858, -1.5906205064719006, -0.5665264891680435, -0.1127656570469865, -0.08310273183781319, 0.31166627257627316, 0.3268019639390303, 0.3228066439073069, -0.4472730198710071, -1.7958834587027257, -2.468733300115481, -3.2795658490263806, -3.8549719537711344, -4.658548026452833, -4.957918642222568, -4.955327928542044, -5.21907919408954, -4.725021474930121, -5.083602028500852, -4.185503518589116, -2.5748983502609497, -1.0745297955960817, -0.3731120252556769, 0.09680511781529083, 0.2498003708160216, -0.19308359842683592, -1.0561706980248073, -1.4944895984799296, -1.2971991236814977, -0.7170007735859454, 0.21643954353467643, 0.5154278991481585, 0.6478332868743094, 0.5371272281305925, 0.4602990679912941, -0.41603918855590766, -1.8534016057558478, -2.4192199105813055, -2.879662705646033, -3.6315482234026977, -4.2920962489110375, -4.58341256869171, -5.129160751892795, -5.027956836091239, -4.772667003309408, -4.624161774374202, -5.186742052228376, -3.8106218819531477, -2.648815227360422, -1.2033168598879787, -0.6312992886651145, -0.2831916857937259, 0.42742006098194973, 0.2769103387595096, -0.19734024030590966, -0.4443027313579469, 0.006513840578741194, 0.5455242205278624, 0.986593580204101, 0.6914058802634014, 0.5848652301488397, 0.26028308369951464, -0.23657761437420677, -1.632004633059326, -2.523560538199017, -2.8190769404859704, -3.3971965939665103, -4.22308306380178, -4.243761365643068, -5.0222765057191525, -4.928815045287347, -4.786936782981913, -4.833861292549367, -4.995009118222632, -4.576532763490123, -4.693906075663194, -2.8786083361488934, -1.5962034350450929, -1.1077247953985303, -0.3689613911695238, 0.07383156894450613, 0.2069516478497204, 0.2612175159118436, 0.6749254411273928, 0.8697711493161723, 1.0878824067467225, 0.8765060931382525, 0.3137195803194774, -0.24471791029899273, -0.8011316923927061, -1.5808781081986059, -2.6111600215566764, -2.8893003151046583, -3.238935369490707, -3.860974879124907, -4.255149613206508, -4.590218588156685, -4.902473059724835, -4.953158337387532, -5.005067379786353, -4.891472296876636, -4.698273485297175, -5.217572851069248, -4.46375118694904, -3.135455502436913, -2.013394932985849, -1.578330676117288, -1.0475414815942778, -0.7067450115067029, -0.23881293270497236, 0.1456392054255338, 0.5292002876889786, 0.6223915050733724, 0.44390324768323813, -0.1974757682818824, -1.12652229427783, -1.5475291144491063, -1.9716356096989638, -2.868524742915358, -3.0863774714802896, -3.2579022677670766, -3.8495721892523305, -3.979932185169194, -4.858649048980674, -5.129069487009919, -4.918943182354002, -4.83987428543578, -4.87924902969451, -4.710353315782538, -4.6362991137101535, -4.7751799833096475, -5.125979716867708, -4.796409847533904, -3.1025512831920583, -2.2679423019414378, -1.7649844588522923, -1.5555991124064108, -1.2666382695438136, -0.812915584491399, -0.43805546737514384, -0.5012529401927679, -0.7454692843725047, -1.411497630336646, -2.3398102945295847, -2.9232281154048447, -3.1252636521439014, -3.1782918674418674, -3.3953708636328956, -3.870029225133214, -4.442865443984789, -4.49650093328215, -4.668855733846835, -5.128445534820316, -5.274722527443252, -5.107480597335344, -4.924757375923649, -4.63641230023627, -4.852732027362653, -4.669893544412748, -4.736799983951655, -4.961312934365668, -4.620897749187641, -3.613861096835725, -2.3132426135005004, -2.1066416133228096, -2.0582795685355375, -1.7953924256395257, -1.7030064493422452, -1.6594656890318433, -1.9529959695188233, -2.8451779496240355, -3.593511546837741, -3.638564149803002, -3.6647974016491114, -3.746837009094704, -4.033038221367256, -4.380321749661834, -4.581645718263574, -4.692444696576067, -4.7590750455185145, -5.032214807108233, -4.720694967565947, -4.988954942007964, -4.911864697288363, -5.160823149516746, -5.07915396254672, -5.137649723961993, -4.789770092871305, -4.874609191181164, -4.793097592585775, -4.61900767850215, -4.09191128810961, -2.8576121849229694, -2.5120659646794357, -2.058819312371846, -2.3513625922212293, -2.4791989322006516, -3.04132932224642, -3.658431483634583, -3.620159968990779, -3.829505932959554, -4.026422078930886, -4.194717093546907, -4.3849702668757145, -5.042380267654324, -4.661831578824722, -4.7738617279374935, -5.339509523467413, -5.039426628081503, -4.7333266385119765, -5.024469220096034, -4.625948484035221, -5.103959207073276, -4.786679190684412, -4.829859526624221, -4.657304101762341, -4.975149630303782, -4.9920589121505845, -4.95041207685391, -4.48875902229667, -4.455014575623517, -4.235425404414817, -3.881135751320909, -3.8987454898652056, -3.6655237206501705, -3.653767255378552, -3.928230668229552, -3.930517953501349, -4.175215091957542, -4.445740775508632, -4.485395719682267, -4.884047092897771, -5.188821623456816, -4.544278502315659, -4.968565178900625, -4.756207578482935, -4.916368473594162, -4.894129374371419, -4.812361591313578, -4.792805810642598, -4.6959344604256525, -5.06219538735425, -5.2089486571093095, -4.884634620283303, -5.002222486359486, -4.991951359734454, -5.110567257411844, -4.629075890484251, -5.3216839116613, -5.141777441750135, -4.813629434200622, -4.566735756391094, -4.848132155399859, -4.914260672072514, -4.627017196095393, -4.708641411701305, -4.785055734812058, -5.0876648268299745, -5.261814633644296, -4.863740719888589, -5.263775591586766, -4.888467846683768, -5.1093261393280835, -4.8824842745409365, -4.846010947339771, -4.9352363736547495, -5.261789790073537, -4.850786737392396]"
  ],
  "weights": [
    "[0.24822909692927886, -0.11250635081142102, -0.03906380146508748, -0.2597515165766192, -0.4103278437678868, 0.34359498918370546, 0.10889643838510743, 0.042594209430811825, -0.40654199930930035, 0.4153389109116864, -0.1759272510804354, 0.3647207816167183, 0.20296573618311808, 0.3217840021270839, 0.21466539926808648, 0.2416557745196164, 0.3597587036859816, 0.2686311382686928, -0.11893420649176445, -0.20157522014335483, -0.13044293122053086, -0.1304205267473314, -0.19801852616420923, 0.1219614643329423, 0.44735852304141766, -0.014163873218503764, 0.1924963490141749, 0.3508326150817864, -0.47659565620801636, -0.15117935387043435, -0.030920404592379658, -0.21433779950414855, 0.04349474781793128, 0.47058387847148636, 0.18542163429824732, 0.24615191441827045, -0.2175581290707398, 0.09395521068648013, 0.3618216377088942, 0.22776806344160808, -0.39463497462570246, -0.38812586139772653, -0.06673252838915872, 0.02359443634588389, 0.4692879280984359, -0.18105231813582864, 0.2462316586172963, 0.17527108248988393, -0.17336513949097598, 0.012368738177970462, -0.2842846435000298, -0.3426130096191653, 0.15065173053169, 0.33904501911902385, -0.4748807525560026, -0.24326377511594022, -0.41595393055138685, -0.12500914689120435, 0.38280855563152316, 0.36794892423912273, 0.3481112328897856, 0.29325771345517937, -0.33004714120557554, 0.14300998331334377, 0.31902208710124735, 0.005776990695300477, -0.279429605510959, -0.2297673873415861, -0.31749130668630254, 0.3718062082325911, -0.16783162077560035, -0.04549856331540065, -0.14221916227143325, 0.1412345168664911, -0.0735396562546476, -0.4775259929130641, -0.06667217216119956, 0.14296150571200247, -0.1577513347490172, 0.3493911373405411, -0.36651318940399, -0.10437735793202407, -0.3727440919747381, 0.4264127721641612, -0.10283625115820738, 0.05954151399372176, -0.46723235652052997, -0.4198650395195236, 0.17151950663156226, -0.20970982858831097, -0.10558059279977251, 0.3738555156471859, 0.19935848383911622, -0.10008407758406322, 0.0175728507060954, 0.3756268938052613, 0.3797953051567279, -0.21707454746004187, -0.041214827608575685, 0.5022630570869994, -0.45071440644768496, 0.17929354654084043, 0.18320471640098482, -0.30655659200309526, -0.37910349369672475, -0.09092232842882554, -0.45190410023055866, -0.005642468888830237, -0.171934504057341, -0.13254654016085052, -0.09083073276217944, 0.40504557758179294, -0.041751337687735424, 0.4122110075384746, -0.28134940644020956, -0.21157945423612262, -0.16306744561355765, 0.34727766424103723, 0.052376543231738334, 0.24869077357166783, -0.08529027547116662, -0.3788709772019613, -0.24036187147347432, -0.045581090316796295, -0.18311521549932708, 0.21355600494502922, 0.5004358157374555, 0.3198094602889776, 0.3313353500755842, -0.08659771777950555, 0.17781429169518198, -0.18333298357556962, 0.37661043503783276, -0.3036551800405121, -0.19832797600183277, -0.18748823508861348, 0.23597125705651908, -0.36381307480543257, -0.28885496406746386, 0.09278760616728932, -0.48622452501646873, -0.309387556568745, -0.16101918962900671, 0.09399637408136877, 0.026240419679800904, 0.07040208485051487, -0.16463788228860457, -0.18683198153410654, 0.015483956062579737, -0.3209203769421445, 0.6202988603045546, 0.4159372343091504, 0.43768706950635133, 0.41250685757265654, -0.3404639462393932, 0.6038060457098529, 0.5985184196126065, 0.4420929689626144, -0.3789159514809334, 0.08104418441839203, -0.24293441734729784, 0.39737326457445377, 0.11329161083933359, 0.0043434456999152425, -0.4621417014331581, 0.17717942578474574, -0.4826595355238565, 0.3134105043349983, 0.3302880255218561, -0.014990619301890051, -0.09654235501210419, -0.10455370771808675, -0.19355477317120542, -0.003314858252378038, 0.06588204273337628, 0.07151268649486203, 0.013376408979045191, 0.5495104371421231, 0.15826781876437876, 0.4611789357618826, -0.26916144837997164, 0.18895524425505522, 0.16062932474807448, 0.5559663540693915, 0.44763121525785043, -0.25992019185750415, 0.12824151245887389, -0.2558285942015715, -0.2789689808841208, -0.028012146976909135, -0.36254225670624246, -0.34195541083507613, 0.11526083961783272, -0.021943617529468898, 0.1432038152938017, -0.3384336585134783, -0.04046805764554362, 0.4117770217826075, -0.28649481530299964, -0.3929047906593067, 0.02318313833145782, 0.3172262119440399, -0.03377744963588775, -0.3833781753664977, 0.3958494184721398, 0.012299967113184467, 0.08633403164778934, 0.5267228903714929, 0.5910649541082689, -0.14665445603488947, -0.1651425301657081, 0.6177590295113871, 0.055734931679855534, 0.44647220420865713, -0.27988267289349794, 0.44163029246293506, -0.13630402913153955, 0.11968129923464735, -0.2023708908780091, 0.07367429848672313, 0.23087701648909006, -0.21095621239788478, 0.44669593998947227, 0.4115161002307122, -0.4318201657578301, 0.0401142888045333, -0.07799590318641883, -0.2737844667431305, 0.29977559218297906, 0.33308484169383945, 0.3186847265777427, 0.1745939500425452, 0.16404971484576847, 0.4789884844495675, 0.005760357600508391, -0.3186163518907386, -0.15095775841098577, 0.45827904480076714, 0.6785879421083044, 0.35543712709228087, 0.1569982661575764, 0.4088827063788858, 0.1837053364008675, -0.08120626230190783, 0.15373483659436063, 0.18918541644555845, -0.16985442632508585, 0.06824813193297755, -0.26921686796410427, -0.2974307348300809, -0.13099606122990315, -0.28474287983662466, -0.499314608260459, -0.09730480156861628, -0.06422652690240029, -0.34461196111869014, -0.07410679683068017, 0.29420952358393637, -0.28142635852399195, -0.21193916452553585, 0.1679146026356577, 0.28193723058822984, 0.3031003292152098, 0.2926088063208143, -0.24184930890587863, 0.05193621743693842, 0.28973456145716703, 0.5634120128229502, 0.2065024867779658, 0.20915110197804665, 0.48306053488485584, 0.03178652661539286, 0.4504007882463501, -0.46539658974270676, 0.32161188672411756, 0.10429073916327976, 0.11071861580220609, 0.12968190916993425, 0.08069129265487529, 0.4074599907869109, -0.3928312817611666, 0.45583187701126976, 0.08231532319294965, 0.40412215571884963, 0.5082294426159915, -0.006107132217783671, -0.09690145571260435, 0.36613713356938665, 0.23642321093312854, 0.028267749429074115, -0.31305942063401115, 0.5597581287023393, 0.030110888907093063, 0.3420668154340101, 0.3677067050881017, 0.06998163227389127, 0.061004323788974774, 0.29472610965888024, 0.13043276411168997, -0.2681031042787512, 0.14378254018004283, 0.49721192813637183, -0.28767815451126816, -0.36048491593516163, -0.19960502642023153, -0.09671588825594474, -0.2073613339468239, 0.2518214879666463, -0.29929357255261535, -0.25172860031868677, -0.37068640147137444, 0.45247694296114593, 0.30253816182115, -0.13780236224043393, 0.516961678552216, -0.18327553872555497, -0.19539849837682924, 0.29753220875202935, -0.010488791456728541, -0.310944864220072, -0.024578253153482187, 0.2224951709497448, 0.31748401427398676, -0.16942057597785884, 0.5014843656442055, 0.38410751355950945, 0.16216910781760185, -0.24173283871744897, 0.5208288014682699, 0.40867312416415974, -0.1917049376024606, -0.22595391403364648, 0.11334980985453227, -0.4618390896067952, 0.20640702963884816, -0.13589073939759092, 0.3963860197734599, 0.3889392008179082, -0.046578662384335764, -0.13266901193888203, -0.23788204929405518, -0.11260611910263797, -0.17455578203128316, 0.3735285906861264, -0.2761796830905377, 0.3494050166525271, -0.184091491279062, 0.07508608470077978, 0.050732155751541094, -0.08335269082483886, -0.039244478742962434, -0.1564214465597947, 0.41953708764163716, -0.3433923468332328, -0.0762988244778743, 0.18909528498618514, 0.0027373745368656833, 0.1378957458241677, -0.44099001466384913, -0.2753234775476715, 0.12654981273928717, 0.4818222460300173, 0.1745306096853232, -0.19683691595005393, 0.16142597940871373, 0.4903134061143609, 0.28233940064288504, 0.468841984864071, 0.22501744895491194, -0.15820745606024772, 0.489886873711186, -0.051919966371737986, 0.3790553743384532, 0.19717081048333734, -0.1169036772972265, -0.07433902141315453, 0.11290546994835, 0.17953898969691265, 0.7814840771426567, -0.11688931679697506, -0.06785849922812369, 0.3311384152190082, 0.35641486073293194, 0.1832022493904297, -0.12360865863956474, 0.260914958572865, -0.38180414127858336, -0.3708334558464695, 0.23794871328981326, -0.1827715123690764, -0.2665307114655438, 0.08834449023556146, 0.4125249091193933, -0.08027037865704922, -0.11578540438982676, 0.38873542608434186, 0.464350065811152, -0.372807539384771, -0.14649415268984986, 0.49226914025501933, 0.5243250779511253, 0.48363198260328744, 0.5424757658841333, 0.6000283883352178, 0.3503881755863882, 0.36246619206649644, 0.4679477606762996, 0.3712135146931638, 0.46901088466185553, 0.1960231272667471, 0.057327046026217965, -0.3090854410681404, 0.21644725736055284, 0.15685233570784643, -0.2005261079865299, 0.009866329766363346, 0.07773705691947631, -0.10428981340235637, 0.16061098233789098, 0.4495310019910551, -0.4728821446455095, -0.38660503545545155, -0.3089570073895187, 0.2067699826584406, -0.4153412971962345, 0.14930422688463896, -0.030159352185565428, -0.09206548266026464, -0.285976604405163, 0.38359520693169663, -0.11465162025661543, -0.057727885941272594, 0.013172374063492084, -0.06085118870052044, -0.04082680424820522, 0.5595262864272735, -0.2680170762419285, 0.5273681487408646, 0.21858116517517018, -0.3259110678866637, 0.0858559873141262, -0.2279568449293172, 0.09321986969889291, -0.24697305314002688, 0.3362000358160818, -0.4142355871633604, -0.484536089740909, -0.3958782574160169, -0.3459362776239745, -0.313874402313693, -0.13931627214357756, 0.4423527101945189, -0.3069939231257552, -0.12902331467420936, 0.48221347379311297, -0.0067118749599469375, -0.18769923945032072, -0.18757751906774875, 0.11483156322681044, 0.0967034646946329, -0.2948820156484375, 0.14045667138972115, 0.4957283976364251, -0.21569276150522967, -0.1764179382717729, 0.24049135840825164, -0.1281138312651836, 0.5335804895290888, 0.15653416003751047, 0.42335877910437564, 0.32780262511428826, -0.10573235140720114, -0.4021102822743098, -0.4683244367083332, 0.4764350184766185, -0.32575104697846036, 0.11630840627856798, -0.2668027101743602, -0.31189158120198734, 0.3052877032061717, -0.179463907494993, 0.471481268819971, 0.2528876688990264, -0.29574928803426154, -0.32350268855797987, 0.10531378737409426, 0.632188976901559, 0.11572801391217957, 0.5837842074337395, 0.5525620889442759, -0.18919062937380815, 0.384714953789643, -0.015765701963898086, 0.2750622681032727, 0.0072786473960674836, -0.29787704488680194, 0.3261507100119632, 0.03346968746014615, -0.03474941773018983, 0.06358504026137651, -0.021319619308346176, 0.3059756567174674, -0.3845875750933376, -0.4375730182563581, -0.3329227413399146, 0.05802112891005293, 0.26448499726497726, -0.276547559965465, -0.08194596604096274, -0.3522295834030933, -0.1523271111291395, -0.1195279455770334, 0.25573177975159267, -0.18079902655467325, -0.03361032273926676, 0.528725895449053, 0.31754243418996375, -0.0004305871071601855, -0.2522055156000804, -0.2697770563511934, 0.32265055582721136, 0.5487175697440606, 0.25513723911799774, 0.01994471245470757, 0.16474099651805527, -0.2313186427542144, -0.23672462673438155, -0.22056369201465448, -0.21833736378155294, 0.4167356549584726, -0.47916057687255953, -0.11402449954144632, 0.29118024877641413, -0.08074338866368089, 0.20437932534959774, -0.05958063636325975, -0.03310256591032521, -0.009812059755506343, -0.0680227859297404, 0.19137857926721297, 0.011653688199910132, -0.2192482906505574, -0.0588994338207639, 0.21349324091738683, 0.550815561119716, 0.5441425245939158, -0.13904710406768894, -0.2737983018155503, 0.21237781931931646, -0.12645186679924852, 0.25173139675840506, 0.32708583868907665, 0.20198290538148458, 0.05932812940786062, 0.5398514623008409, 0.18502241423617388, 0.0540706375071922, -0.17946929336143305, -0.017608725270747538, -0.4272843455805262, -0.11366747090780005, 0.22384533937205728, -0.26166624369764985, -0.08009312661325844, 0.11157554040351006, -0.475348033383695, -0.3845873816634374, 0.17830160425394032, 0.5364028808465393, 0.27082199617703595, -0.11266400081729211, 0.21229621486838254, 0.48313797053562607, 0.4485714215286189, 0.5044614174880854, 0.18491357371764144, 0.6003191062932, -0.11453081503854093, 0.15726100133931534, 0.28193545613853793, 0.41082290608694005, 0.19493097141286989, 0.13882671667900995, 0.21259278443270796, 0.0011017101073135846, 0.5319419427212989, -0.19634784654416187, 0.023620111961298318, 0.10493018866512815, 0.04613460766945754, -0.07684450345837147, 0.22017040268075402, -0.37952115727015573, -0.2231962258237973, -0.08712116255067366, 0.2542201272590991, 0.3608634088099816, -0.10140091057511741, -0.10960341702736816, 0.11635382271301327, -0.2230201366160131, 0.6693010966933427, 0.6207438275989179, -0.09005494176200934, -0.009671877952217993, 0.36947734193337617, 0.16914199835546853, 0.48362652721362254, -0.030120565446045727, -0.27497318411955896, 0.001772879059872793, 0.5595887090309548, -0.2858041762939039, -0.2814506670354469, 0.39151591837136707, 0.38194193246965513, -0.29977564810819823, 0.3691509761963896, -0.1493736163575332, 0.18281306433405448, 0.2500631822144161, -0.33009358461776467, 0.24667411374458234, -0.4086641409978225, -0.07834833450936364, -0.2334799328699945, 0.48705550083964366, 0.4042768700636278, 0.21063610557638143, -0.21278006263591281, -0.0787355348442679, 0.3559954024096479, -0.13661848894012785, 0.5815829142947881, -0.11319170212033096, -0.22246718051931405, -0.2605290370435798, 0.4708537478234747, -0.18495655986624016, 0.020517161793002774, 0.2966807510380861, -0.24456349886848577, -0.4481685087098845, -0.09558460271940405, 0.36870657404522067, 0.34241561861472164, 0.09428787299270279, 0.045301014750916926, 0.2043384564447525, 0.4912703632342166, -0.1523445983794384, 0.2358856664866132, -0.1568816212884056, 0.04237686527889396, 0.47644745879022254, 0.41795438066629237, -0.19759484798557972, 0.10081670842370558, 0.47018620681266005, -0.09507209294213761, 0.5644843203889953, 0.4629695826024914, 0.4005962272875536, -0.18661864990974178, -0.3981827599079808, 0.1908974024332119, 0.4821826104195171, -0.158904429664998, 0.36336658363630003, -0.06989143831927162, -0.22322493831984755, -0.025454161606805248, 0.14626726697910508, -0.47976788872311027, -0.4374717559117751, -0.07626740553766077, 0.08932642456124865, 0.10084032694855803, 0.47698685216582065, -0.21990450399222577, -0.17201327118767032, 0.5183962483881461, 0.39648314963048154, 0.19929016329603258, 0.421001135572259, -0.3247865513881114, 0.19634731214784854, 0.1184093670254628, 0.06869010875246342, -0.1982704013730437, 0.13959836370763995, -0.01596916157588706, -0.14584381279034356, -0.13596570760929927, 0.07796647659518444, -0.38627872424532433, -0.05488981082292003, -0.014557408007822332, -0.08046373574606369, -0.006432055840493223, 0.3514429257800513, -0.23621505446329127, 0.42426153940945754, -0.45286826471031677, 0.28074286446325464, -0.24087324576804203, -0.4616188262354402, -0.3440746160750012, -0.09108119925188501, 0.1874577169331451, -0.35558448497487694, -0.13510757316250432, 0.34967584474963453, -0.21283931370812315, 0.057390623496958205, 0.10277145923177516, 0.34644595470755135, 0.40993810375278955, 0.3140756068053896, 0.44715665478247685, 0.289187056050682, -0.015439230449324813, 0.1996064391326669, -0.061101186931044105, -0.03377860959671402, -0.274136436909362, 0.0630490136352081, 0.10695804036105372, 0.14308660947869334, -0.02543949204956253, -0.38615764486867166, 0.31828840969084904, 0.14513952879156955, -0.19043973495581815, -0.4775185068361387, -0.09253342382810457, 0.32667806638959085, 0.24761236868131767, 0.4836320458778426, 0.22680187989212286, -0.09370014196056257, 0.12711154204003025, 0.34620897442140525, -0.257191463095888, 0.0707370236144833, -0.10580169872295704, 0.22037115794791057, -0.38764514591081245, -0.03615871812713419, 0.24732981671345233, -0.1042625899302369, 0.10719823027155445, 0.07707106666753089, -0.3117597942982957, -0.019988527356569752, -0.10409814806601658, -0.4992928936312866, -0.04494488660410789, -0.19005677088247497, -0.09007562064544705, 0.2412153506323964, -0.4853320164348043, 0.4861470922293694, 0.13124018282401737, 0.4792071988557351, -0.4914692014775011, 0.25733339922520526, 0.32371548278835943, 0.4728411226808665, 0.2701399135906919, -0.10415584025423538, 0.4517688829650182, -0.41005011758036797, -0.396974471585523, 0.4689912496974886, -0.15589623278035136, -0.45669811174989894, 0.1331428277354408, -0.2605098435801918, 0.278511237866638, 0.3747891556596187, 0.26558784638779054, 0.11060947808764743, -0.3078494647084655, -0.3626732774221353, 0.2687750927613991, -0.15236619469534618, 0.398489401694881, 0.358876702037665, -0.12310178309929487, -0.20801313884264128, -0.35465650524950265, -0.30990964319037917, -0.442111616413276, 0.46677099301571134, 0.24291407878445848, -0.06549470714377537, 0.14432661018928306, -0.03597237639488726, 0.20369192581998385, -0.1461793271666788, -0.35875411829853454, -0.2752220551708455, -0.2767185979643385, 0.2913333301478307, -0.4905243685025956, 0.2646991889099586, -0.4853207114110585, 0.03456673103986374, 0.3780787726413669, 0.08775060939788304, 0.18849689483648713, 0.2903654550688278, -0.2661595304514154, -0.4334639877286389, -0.48373942131104175, -0.1929404156552036, 0.2510493932615375, -0.3887014642744787, -0.12679976731849682, -0.20542896175475558, -0.2975050333100303, 0.2350210386367157, 0.18371647240109806, -0.24485721683887995, -0.4800806598730584, -0.03788568407293843, 0.2846835992354258, -0.3420491795154028, -0.18189675783614007, -0.4776493394997876, 0.11237677070408846, 0.48720403803258133, 0.3743306268754467, -0.19941385941019218, -0.4701196351603778, 0.15940607927999384, -0.28262517829004874, -0.004917932107376566, -0.09770454737392287, 0.05613031626470366, 0.18365032275306625, -0.1600171602445638, -0.4068491424244316, 0.2778195788165583, -0.26478739139853047, 0.17285395258017647, 0.2872498424794995, -0.36897559567160393, -0.361545880843201, 0.13130195850505708, 0.14552710529811935, 0.0803404130278965, -0.09242313768658575, 0.4742650626403911, 0.22757915212694177, 0.039720703358609555, 0.4592351811900449, -0.2660297361082668, -0.1967117664975884, 0.20879375103916062, -0.4789880163870535, 0.4485162618991295, -0.3422864532216758, -0.31882528703482166, -0.15833201961499765, 0.3027928604032295, -0.33679810398263155, 0.3596322595225758, 0.05682509222225063, 0.2274356018920265, 0.09401782408986081, 0.34224277894123556, -0.11285053321604169, 0.25991998840632047, -0.47394881084140866, -0.2715684984892029, -0.06320573756018133, -0.18255506881133565, 0.30668593205423966, -0.06491571184818266, 0.17713464820864064, 0.10717965540882633, -0.24269334418528524, 0.046904569071680925, -0.1933103876882118, 0.17534206420812226, 0.4271636955670041, -0.4736503515225821, 0.24365246709211386, 0.2543328735667602, -0.17544740721218685, 0.4832737470730364, -0.3418251254564518, 0.19561153162540632, -0.32574960930045227, -0.04118496160533247, 0.13211182427397983, -0.19434548118492168, 0.45050816752774125, 0.17647174769433813, -0.38054560538943943, 0.45555017348611737, -0.27145842937509773, 0.4536815516716039, -0.3373392550246096, -0.29625975047263386, 0.3419129484821179, 0.45617950231231297, 0.21557167250314616, 0.05467512852316111, -0.1612023417782674, -0.41657385396174984, 0.3019946680897563, 0.1294044030825531, 0.40599533057823356, -0.16773512609412336, -0.32255459132013165, -0.10097137341213096, 0.33001017790404763, 0.46326770537143364, 0.15203345036162477, -0.14500410396028993, -0.2843846227219441, -0.04916435942656361, 0.21651265769842226, -0.17691028103557485, -0.07233183221861673, -0.13619868727442, 0.1915952511304121, -0.26759789363238107, 0.21988051965792718, 0.3223671083512083, 0.12946152806565897, -0.2748947231248973, -0.28490942460476354, -0.2883550187190365, 0.5090401051653192, 0.5273852024597402, -0.1359585884489185, 0.5410978679702442, 0.1744438659485904, 0.033174583490134545, 0.19580489742971138, -0.3245132776154376, -0.11507620963336995, -0.30832654266559767, -0.4755044388072468, -0.42820882986133735, -0.27214074399051225, -0.4509269600847467, 0.032205803795723686, 0.2097626802064122, -0.47594797888932683, 0.45158667556994747, -0.28302158801904775, 0.20501845160589072, -0.16098586549510094, 0.016630952113423803, 0.4324900278698488, 0.36202667926918125, 0.057588754561344456, 0.1471790073893524, 0.41405237096899866, 0.3116368078519658, 0.5018181195607697, 0.2125660238590149, 0.35002243911022685, 0.02635482051534686, -0.16225263382183644, -0.0075856098485781185, 0.36491021599729545, 0.37430784501631414, -0.16334093782404452, 0.22193948336346453, 0.36663054822189806, -0.09663236241034681, 0.25523054241779247, -0.24831789105356805, -0.2243431115650163, -0.4190506454934473, -0.05931368678881572, -0.349286250049603, 0.16797556267176408, 0.17907708166725034, -0.4230756490815537, -0.19649050164425505, 0.3218130045347263, 0.2990311469776991, 0.15639733956758795, 0.22374981101108923, 0.5191144883560687, 0.2623137627396158, 0.2379469130059591, 0.4959107170438858, 0.5260708047378303, 0.014241594362460816, 0.5425548048387318, -0.07625419894127229, 0.312172564948418, 0.0797748041913575, 0.47485684953360324, -0.2196153454274893, 0.3446771664153356, 0.01486152569281842, -0.04792200160258665, -0.4321755949306525, 0.49739898294032575, 0.2405037941622924, -0.4306555370202304, -0.03382284687267948, -0.1478089845334644, 0.3376031214469254, -0.354415165842073, 0.34493851400127856, 0.22949185376413098, 0.19399905816667384, 0.5711694030168757, -0.1320575818419839, -0.08989869951897721, 0.3297745772573861, -0.005403595651927455, -0.2392454518139591, 0.5526228957839696, 0.34366133622544504, 0.29120816272286665, 0.5437089665743032, -0.21890072938692082, 0.1507588534771266, -0.1531047730014988, -0.19973232543465577, 0.35099426339447753, -0.26417913388518416, -0.14849520482610074, -0.07310406426190279, -0.10129739137313314, -0.20931607776131095, -0.18962677154275326, -0.3869695235926761, 0.15953738324096467, 0.30952920624271557, -0.2864105334591354, 0.24796923803347592, 0.5046773265854748, 0.18492984120307282, 0.2451737544640571, -0.19074275297408197, -0.3335888168360963, -0.11524320167202178, 0.2591077122706679, 0.6390374997073685, 0.050908952039658964, 0.39688449158096645, 0.4981443384343951, -0.1145120322095835, -0.05162527514085025, 0.10259621865661986, -0.229753249427936, -0.3125639834564624, 0.2608620638029614, 0.021966243204245256, 0.2182083700798197, 0.12004435938709337, 0.22004512609407972, -0.35381367615295045, -0.15633013750913108, -0.12224341938892015, 0.24699630047150098, 0.1056958120792205, -0.4104898924304069, 0.17362866523536083, -0.35046985909128153, 0.2741816538143692, 0.4444229009056358, 0.32795298118444327, -0.28666392759714493, 0.4473317797143765, 0.6985608676920448, -0.22236145631322016, 0.33979278760236276, 0.5842559198975436, 0.3501980989424165, 0.6432156975458225, 0.21481054713176778, -0.11110359546871164, 0.42235716697204384, 0.10736110265490169, 0.07035456154585941, -0.1214813888191408, -0.21833421635070985, 0.43570757777718383, -0.4819245311746167, -0.2221145011660034, -0.06948847792908926, 0.3653697858668911, 0.39707506688031835, 0.36604047010513496, 0.09319489027393522, 0.13496393752659686, -0.07006536341360163, 0.22856343576308719, 0.2928761511058675, 0.25615685904434776, -0.21750080914998118, -0.12393637108395994, -0.2854523811542835, -0.3055330624100942, 0.4827313714087276, 0.32498137814721795, -0.14707812521938887, -0.1992474897856083, 0.46281760027519064, 0.30100991325215576, -0.11859042453274742, -0.3028576445055008, -0.040120566955120354, -0.15323725550194295, 0.1426331114597689, 0.09725716471089302, -0.06650085610847542, 0.19010985177823847, 0.03456675622900093, -0.3095858648431809, -0.1637356283849846, 0.3489376081603086, 0.46996864856176895, -0.24313070525074634, 0.06060824237151834, 0.6616850748638836, 0.6802282277770952, 0.1224150006208245, 0.44748428511200583, 0.21386590622815704, 0.519806041005329, 0.07231022451100408, 0.25027137914350217, -0.09718903612943737, 0.42401770002251815, -0.1525933071370228, -0.041435213029572496, -0.2103119236449346, -0.1388365370863443, 0.35780262368945015, 0.007330176868279625, 0.242380904622622, -0.13143317558339743, 0.29907523957594195, 0.2813017538602962, 0.2531122087392934, -0.059558382320759114, -0.2639595212682078, -0.23279489483575344, 0.3715907363457886, 0.42854057357653086, 0.48725534475385995, 0.0171767097662258, 0.11758211638920278, 0.1943656333060514, 0.3913200377122877, -0.22259811032350224, 0.4977565223802639, 0.08082025838226259, -0.24740610853691747, 0.05201909390167721, -0.13965535352151473, 0.441171670462873, 0.25382147236544955, -0.2709853688889795, -0.11508168396172368, -0.04157611002541147, 0.5176065925266002, -0.10966277450335174, 0.3937028737025195, -0.2668870860427272, -0.25878479284919237, -0.2930582125459691, -0.14811779706856398, -0.34892977076847953, -0.17185048113160795, 0.12476900664378837, 0.047568638078666625, 0.15434355659232518, -0.43045111897682203, -0.29559586201951704, -0.1762269601187556, 0.17444063047042951, 0.3106510760627953, 0.06543253790330052, 0.2465076476898135, 0.35765650131566323, 0.3900342576478062, 0.258147903051349, 0.15402197342473398, 0.0975419819770724, 0.12339692552112061, -0.34022913763287027, -0.24564798637592142, 0.023226308986337325, -0.2802338060586743, 0.05636936706263583, 0.02929024797608443, -0.11623791377358385, 0.2375221421175519, -0.4136744303163121, 0.09234774228385578, -0.20272976130640297, 0.1849987920939123, -0.33199753099877555, -0.04743629300864297, -0.4757959995042155, 0.2656147063831539, 0.041600813882833175, 0.01644052765243892, 0.49866573817337423, -0.37798580759025224, -0.2050268348735503, 0.23771746805802768, 0.27050140687889856, 0.4957455183479331, -0.09034758892103838, -0.2767945342212161, 0.3842955797054632, -0.05207877629898908, 0.5997746610689515, 0.01643311339115698, 0.5297567150224617, -0.29969368554986847, -0.12717796523736438, -0.3961111864515251, 0.45854365555824816, -0.05302452480850016, 0.3385876912741163, 0.08637583640053281, -0.44814750334896714, 0.054216138796276646, -0.046236831334585504, -0.3525846366838579, 0.052946865037094684, -0.18096166300975075, -0.012077378867998624, 0.4092235798833266, 0.07750164216370477, 0.07463011439740493, -0.042485031741914106, 0.2867607454974823, 0.46764867768133317, -0.28200944301756187, 0.3064494458490826, -0.27637527906672826, -0.14832155454056545, 0.25379054638714765, -0.1585460575520801, 0.25243135640238895, 0.20351858506417067, 0.2657216358072369, 0.25147432702935885, -0.1787383498511381, 0.023049159775946723, 0.15859768504277302, 0.25357917426030463, 0.16103664959334574, -0.07504875775873987, -0.38766584103992785, 0.12479140237181147, -0.38931404810724446, 0.344877274291246, -0.038721403416563424, 0.22646566018902567, -0.18679597547865745, 0.6397996132935012, 0.3882796985980271, -0.051888228921948, -0.20152572271127217, 0.4974127257028559, 0.07503258643058115, 0.4012666632787564, -0.03243372269209427, 0.523193010191272, 0.08922766374928641, 0.3937017646035698, -0.06712889178093497, 0.4583298463061919, -0.2335486845522966, 0.40278698068064533, -0.12198116993055935, -0.49685955023335254, 0.14992820268410445, 0.3729450159269145, 0.38625952394389096, 0.375485263738179, -0.36184068232790967, -0.2555582377404591, 0.07045009770616116, -0.08046087155469384, -0.23514955475261093, 0.3438948537447121, 0.2769887953456618, -0.02367041112475318, -0.11720322771595451, -0.07961037008139303, 0.03847178029735971, 0.367621341374342, 0.04219539882108486, 0.6247484438261388, 0.064538084127698, 0.6002371427598453, -0.05286256264674982, 0.3721628858167748, -0.03504432685565263, -0.31095627103939105, -0.15655638720840867, -0.38026836753556875, -0.0023548290688592106, -0.3182265071842004, -0.16106930242589343, -0.42529206131893255, -0.23636068190910575, 0.26016067186552777, 0.09061761630865939, -0.46226865662486744, 0.0005592397692522087, 0.4992959652205241, -0.2686343274626554, -0.3022673059749616, 0.10744929057045223, 0.00872448531882734, 0.3470706614491988, -0.03396238110352785, 0.34811597577260317, 0.40509461807854263, 0.25625193015832465, -0.21289439343869354, -0.2758414928382022, 0.6155898490558348, 0.06975859311685727, 0.3477407680275138, 0.23142070260727574, -0.2407100050867194, -0.10781971819030076, -0.06259170415082578, -0.04118556333694817, -0.047391407051867014, 0.13883457099955576, -0.2885886938336502, 0.4693437899201499, -0.22892159908565315, -0.4441988072707927, -0.011225906484774645, 0.25979823039777844, -0.0457707477442084, 0.404576726023976, 0.18801178546383593, 0.24287006868923897, 0.6021429660868979, -0.21884505472838708, 0.04626996266401082, -0.09832653254259693, -0.025836871781924058, 0.26763182494414106, 0.32923942298324355, 0.09986742515930859, 0.5047291696454056, -0.3163595215791837, -0.22950844351870153, -0.38062198011903775, 0.054843566906004164, 0.2937690707265709, -0.05087358187598481, -0.13767531381188325, 0.010768453829367816, -0.10705061116491839, -0.0362440068502663, 0.03101897593794789, -0.36848214759856823, -0.4166841576784542, 0.05045686881249497, -0.010421290327265796, -0.19264154878874695, 0.26642587917195326, -0.39377389652170447, -0.15911341580303406, 0.04499327623542279, -0.10082220060430763, -0.14537141384805854, 0.4352121912132458, 0.7109547694892554, 0.15362140547833772, 0.4394906940307451, 0.20475698017315863, 0.0015396250846424842, 0.2713087631085058, -0.10739279365972598, 0.15689456502812424, -0.35155594760462255, -0.07194755785470018, 0.48001835167167173, -0.3095132349375842, -0.47482706991870366, 0.023057149687486005, -0.3428191836098372, -0.18032374209747926, 0.43098023240006, 0.3284785484075436, 0.49156659011979414, 0.22600880188790012, -0.05989321115806018, 0.34628998378101816, -0.22829626356342336, 0.5489942360985925, -0.0024537310532510436, 0.21127491842614807, -0.13918154423660864, -0.18949593858708524, -0.1682950779421288, 0.5080518235244101, 0.13322148177857115, 0.44348087783820245, -0.03472012022726676, 0.18106630640287966, -0.3436956975234477, -0.05278530628763947, 0.07130139602326524, 0.024316458190606693, -0.38997277017723997, -0.18905035944316653, -0.25980460927859794, -0.07237758209437681, 0.3930336905023225, -0.13497641483798206, 0.46141599687191776, 0.13177397926075202, -0.1727296207088718, -0.21415986755900354, -0.018111708989615286, 0.14094650863502187, 0.49808239622093586, -0.2536534037047024, -0.20970220705372733, -0.26614566721127664, -0.1692282424270072, 0.1146332037382453, 0.05775857403070427, 0.01056694061366079, -0.1746454412881726, 0.051417899882945664, 0.005136420178731075, -0.005714991748529716, 0.19008757709046406, -0.3569480948662755, -0.25213020867246205, -0.40621745021141953, -0.2199393756598594, -0.41984809924874594, 0.10446118380780092, 0.15034113863287854, -0.2800049007704264, -0.3669558835936755, -0.13476976332726953, 0.20411968063754227, -0.08073809349659758, -0.36160491351396196, -0.4898429322238475, 0.5019033257773656, -0.36479516961606046, -0.08233779444245028, 0.12335125583158868, 0.23746894844950175, 0.02586973381351719, 0.47852834970208036, -0.07846355243734975, 0.2634584927867461, 0.3992530235292111, 0.489223061712344, -0.12883354799102148, -0.3926579950296541, -0.4059622263725205, 0.10121008745439229, -0.20591539561881786, -0.414258517952712, 0.2066883862392046, -0.42109091943479765, -0.03163649303231682, -0.3390850654955416, 0.4711107810607089, 0.2880778029149693, 0.19454303507229487, 0.23619237613761013, 0.04711018164869843, -0.008228654524525798, -0.33147468331712715, 0.4682858302458307, 0.20753076994649183, 0.2922774398859582, -0.45921653279003144, -0.20375755617587105, 0.23245100844421296, 0.02848022304397394, 0.3139272883059272, -0.07102834879824992, -0.016271848200337752, -0.417392799484618, -0.031140651551616307, -0.4254866909507263, 0.10214023717124257, -0.13239811358662645, -0.4888251951976136, 0.41213991903153413, -0.011594401838631373, 0.45097140534380803, -0.3862871123441549, 0.027108757113995186, -0.326795384485425, 0.02710705217116105, -0.21347336885708568, 0.09817601279345511, -0.4509373276457177, 0.3103776008068353, -0.21192782187011752, 0.4806286348380325, -0.15841953409173118, 0.18399439503417728, 0.416804964789084, -0.38213102998544946, 0.32815709524636116, -0.43071577249689397, -0.309241996155101, -0.39464585943367286, 0.32642042584921666, -0.47008317464154936, 0.11940535359633665, -0.44090173869967875, -0.09866945159907013, -0.3152299993401154, -0.4615155795622628, 0.30186245177304644, -0.4833577042601908, 0.210164888465526, -0.2966078997880569, 0.047901214086462196, 0.47775421431976717, 0.0038759146831359725, 0.2736289210385944, 0.1724296354317334, -0.15453157315251365, -0.2929307895285871, -0.4751781718521998, 0.2124831326451576, 0.10506813595585418, -0.1270919397429304, -0.3195929186784314, 0.32143328052575626, -0.40609057589868613, 0.3270053210656169, 0.43057824136708345, 0.3117395605973412, -0.3797262054920513, 0.2697799773345806, 0.0870199007818895, 0.10143096024799425, -0.2568372638117738, -0.17480717634478166, -0.0956253657245688, 0.4002522044287661, 0.402966806303395, -0.04978120725172874, 0.2656264513185095, -0.36897421942687014, 0.32249475885233425, -0.3008146633804395, 0.32200000216503055, -0.213286169874907, 0.25719750482856485, 0.27859191932339633, 0.08038478359739953, -0.06524654782715356, -0.2991299937845583, -0.08712361760776399, -0.3201303355049142, 0.09263733622020387, 0.39036354596564393, -0.13812212965236648, -0.35473888434341894, 0.23277724650790277, 0.09058411810174527, 0.09389529579176292, -0.35644299749259545, 0.05062798611392494, 0.13426060987550892, 0.4331686590932786, 0.05882257013290215, 0.003013745163584547, -0.2877304694577284, -0.2594653047360712, 0.012749173280668824, -0.44414549252457347, 0.22253553252151848, -0.3119166444374597, 0.39165866645883785, 0.3148740794376381, -0.2675945446725889, 0.3756595526319422, 0.36004229316853614, -0.4755672972840146, -0.21187006777965678, -0.16134897410249469, 0.0739117714652879, 0.37445084429066056, 0.17141719832420935, -0.3199518171590447, -0.11985866898592168, -0.2898497813479303, 0.012894024939242398, 0.04110485529092993, -0.07791456524662163, 0.11193031734235907, 0.4605583282949294, 0.4348314159634761, -0.11646623853183691, 0.18903533602421618, -0.15611153944660394, -0.1401918569910462, -0.12805704319485534, -0.3168297218768379, 0.16139789970253038, 0.026397145297900715, 0.1424960352495589, -0.038871895467866624, -0.19135862874433096, 0.38904742524975744, -0.10075396599600762, 0.4553955473903268, 0.12848921549339776, -0.47991867023250173, -0.007340125900524621, 0.10170380733097814, 0.25578893589182594, -0.3751916328785779, -0.4923713913066085, 0.2358922992120444, 0.08472834368579814, 0.16740495068366743, -0.3991026047576154, -0.2358807487962826, 0.4846334567052656, 0.32267535679262543, -0.13049982591773626, -0.2774114282122319, -0.35950573588589396, 0.09259143907618278, 0.1313107160369733, -0.2411320392759848, 0.0892515120290166, 0.35834194832950905, 0.45009550756285166, -0.4648004127324141, 0.09445116843709567, 0.06813403665044676, 0.3283091063663617, 0.4661058793929068, -0.04218873611419558, 0.07307303535471209, -0.39912609441037555, -0.21313066661998986, -0.04850537274746992, -0.1483941166196409, 0.17070722496533755, 0.0153988212395731, 0.3875718514026638, -0.10403759162982175, 0.011156054903201693, 0.08572091322180375, -0.412458994063434, -0.17700160237692866, -0.37501666198499234, -0.34502138582264263, -0.12569720412471633, -0.22383568804210174, -0.029471070014184704, 0.14418487485876885, 0.415282884968626, -0.15225236107367235, -0.3976446498433466, 0.21042760735515087, -0.3259415643612261, 0.2817695459108409, -0.32207329165066223, 0.13171587511404598, -0.035904599427586344, -0.48634933842352307, 0.2324540193530123, -0.1957889226665304, 0.2159370902269551, 0.37675594120036876, -0.07569246994578321, -0.16860777405875216, 0.5854692605385025, 0.01947193501006681, 0.6256920298682893, 0.3832696142297467, -0.20872376479139085, 0.3212350175045446, 0.3581310997467923, -0.003874653491306311, 0.2777959903711338, 0.15949312426398926, 0.25795465059877287, 0.4384111991572867, -0.07865765399467095, -0.12369102662858722, -0.23772412764075063, 0.13585941257047368, -0.027964932220404085, -0.20814855928238643, -0.0053163434705013266, -0.20653732989447343, -0.4192588639363954, 0.5653344758081432, -0.3768439182308226, 0.6224574928794364, 0.21587019202393115, -0.24456990967504227, -0.059502282520699126, 0.5629801627807196, 0.48822694666141825, 0.11403603740083268, -0.06678633269420534, 0.2982437724882409, -0.19295061741405606, -0.16094618411229986, 0.2434378960581441, 0.21847587983744138, 0.2206539675243221, 0.29317047269788316, 0.013424548094204455, -0.44989081801184977, -0.39671572912863573, -0.010801213058169279, -0.18853352225332976, -0.21071822447108726, -0.09566368324457664, -0.13556655717198834, 0.11253877225927776, -0.31467392450626763, -0.3811190411280451, 0.29542398145265614, 0.013252803488045056, 0.1632898102685981, 0.5863073943874415, 0.13150491804539602, 0.4786000578605904, 0.15826034681002882, -0.3095674018134971, 0.16768915507062462, -0.10258783867839918, 0.24809415577008406, 0.4727619742309768, 0.10153621003416619, 0.22842533086318034, -0.04407481571574396, -0.1004588260546435, -0.4143326130360219, -0.35734276012896765, -0.03851031250060705, -0.3656638709922549, -0.19799750090404633, 0.005747221248639684, -0.004297428933247325, -0.08983805624194657, 0.13054896824081563, -0.325334877545682, 0.0465733543001531, -0.2951905054891352, -0.1204811231395798, -0.26405166683591796, 0.26059675330700943, 0.6612254929394963, -0.3272433877564259, -0.22969597314081136, 0.5871839397561569, 0.38222370264451067, 0.7055835957955254, 0.1699516661533794, 0.014769098065422773, 0.2166747350526906, 0.28850522215782864, -0.2663625022289975, -0.2780670330212394, 0.06609126234034501, -0.4496255821322598, -0.1336917528834017, 0.19256105016230873, -0.4867918173541327, -0.022680869726763753, 0.156363622700984, -0.17164302891402447, -0.2986056413239428, 0.49905506034265096, -0.12256138518041723, 0.16588347816989488, 0.026923475554763644, 0.27296346798672405, -0.008956475919534166, 0.10078858541966769, 0.3430524643014981, 0.14774429004862444, 0.16303457375681374, 0.33824225619070786, -0.22173824981810056, -0.10236129320477859, 0.37710041658151844, -0.32277745700288474, -0.35320310690781936, 0.2945780711243923, -0.2216301408830899, 0.23755171613239523, 0.3337169648134086, -0.06961208114441922, 0.10598432987151596, 0.23048399169414255, -0.1532873248553816, 0.21674803709889146, 0.0847399060685997, -0.43964707514965506, 0.3130779287161262, 0.04714987370951545, 0.41498924494501505, 0.34655103568596873, -0.3844299525550222, 0.3157674172280374, 0.21787669990013475, -0.16279381232408507, -0.10320607071838389, 0.22808127389710375, -0.02837023581171178, 0.3476239275650378, 0.6859639183667028, -0.09059507506256269, 0.17713460981366697, 0.49212648369642337, -0.31050101595151824, -0.00834255142361084, 0.45895721024014574, 0.3547458310074721, 0.011177395452619105, -0.07648997369878403, 0.3709882107274793, 0.03727063492211043, -0.10598996708087087, -0.3430300994493606, 0.20743118045643724, -0.4003703954891334, -0.10025726778448558, -0.3486744827449784, 0.16807993330456777, 0.09246029103652298, -0.1648615423490158, -0.08344889708278005, -0.20062630727355685, 0.24027459522131084, 0.5054235947735249, -0.3133237620512816, 0.289883434155595, 0.14195162372457146, 0.04758732586626831, -0.020325883221207448, 0.3769495682377592, -0.2500389022443162, -0.15702815837478742, 0.6043372979776991, 0.33357362749689984, -0.011432483300076991, -0.23415318235994348, 0.4377796089321797, -0.4030459074293783, 0.23491990047370076, 0.049249870974531554, 0.2142266307465952, -0.031179622730001213, 0.22175095313164891, -0.062220933041327954, -0.12340261435862028, -0.05395786684275819, -0.37577978842349136, 0.404151324092872, 0.07769162570850002, -0.024293131874645667, 0.3419765128679359, -0.14892862217885564, -0.049781024170103, 0.10754777301739189, 0.10647559457145968, 0.07467517539512235, 0.6164066642252397, 0.38980558985803987, 0.07995936615642038, 0.3297923658093939, 0.2236976542962156, -0.2845176988079894, -0.2900346390066827, -0.36363658585653574, -0.13862242242262596, 0.00716093092209222, -0.31531645677452635, 0.39102263741490484, -0.27470667699653983, -0.20563861032140474, -0.22167227690668867, 0.4642388649208684, -0.4181829148822217, -0.257105245788485, -0.19343679601940242, -0.07111924296740214, 0.015079919758561246, 0.31785044672826634, -0.12593950138523322, 0.4481115431786326, -0.02129131403960484, 0.26041505292123596, -0.13859491772860405, -0.2303086516997067, 0.15730902958346185, 0.5396201473020632, -0.0013523299788509291, 0.05138915090037026, 0.051383534228286246, 0.40510224172303555, -0.41393962274958024, 0.4654575982040917, -0.2897785699571628, 0.16661874765383303, 0.3036404833607257, 0.19266019980894533, -0.16229411537444316, -0.17401150110982067, -0.409768559611497, -0.11508587688734034, 0.2933808808350647, -0.43881359172695406, 0.13325923452850164, 0.286415945798049, -0.05016753699487961, -0.029795806117286088, 0.5105138321762739, 0.34470538540684287, 0.37230104537447384, 0.1840078609785191, 0.626705003628776, 0.6667667154287229, 0.4566488780871392, 0.1781550676349848, -0.007765497927585622, 0.2903803619713312, 0.3525883949379641, -0.03816011796778602, 0.4464695653013875, 0.19615676139588686, 0.5018483063078043, -0.0883964452442351, -0.21518545033166692, -0.018931436268084356, 0.08980581749112237, 0.4101486769083491, 0.05683585832303539, -0.1957827457034923, 0.18055764442389904, -0.12671603360796518, -0.10678558601248485, -0.23787951065005045, -0.3409648113107045, 0.1792658811267003, 0.24607597565899578, 0.5279649943713459, 0.13397561089826493, -0.012743568651639555, 0.4274713639388788, -0.27262831495337514, 0.18478187736089122, -0.3526991200299066, -0.24065494283050706, 0.561099754055055, -0.16583199012095812, -0.4025613980136959, 0.35364351200176214, -0.29252338218442014, 0.3345741970438057, -0.47777157242160384, -0.0887771085149146, 0.3830972990219673, -0.30209558093309763, -0.24151417736693792, 0.09093983475217851, 0.1240338205071597, -0.17010943612618348, 0.23049312924566828, -0.3709823877874951, -0.29111809098367913, 0.019011162050237947, 0.12786328477104905, 0.17313506362207154, 0.17430131356014644, 0.5694659796341901, -0.2643442552536751, 0.13434719753266056, 0.48735316618476987, -0.359533455513431, -0.08144524402564259, 0.428245097678422, 0.5872325150887617, -0.18389709818828898, -0.16812454701463062, 0.009683890596800733, 0.4025248473244815, 0.0742434708747967, 0.4653429308712598, 0.12552047355819448, 0.12765962861808655, -0.36200171213628085, 0.16951022351038025, -0.05960705871747179, -0.3345890364108052, -0.24483459512739647, -0.30059294026085737, -0.14944274387198836, -0.28394488944225266, 0.6605961121086028, 0.6269488733827822, 0.06137507213411645, 0.5915509171925385, 0.009680417645570557, -0.11590695930534027, 0.3072114615003678, 0.6200569189442623, 0.563576377227463, 0.583032524811341, 0.6502118902631512, 0.05916179430100912, -0.33367392658854905, -0.21366011855681458, -0.2257855115035206, -0.3091678142903376, 0.2148102316628547, -0.08201923238086867, 0.3225007536934389, 0.38926283249263727, 0.0987059413092981, 0.25172612991636967, 0.09636435785839739, 0.17803657502065612, -0.07678948291592701, -0.4505076664868604, -0.25473176047982926, 0.5451031261382361, 0.15450908080769354, 0.04736426947792171, -0.04412802652886491, 0.5666069384772427, 0.314222568493539, 0.530856149230122, 0.35950434851682617, 0.1559379485549126, 0.032391154535884065, -0.06162442616644435, 0.7084862996072344, -0.2447350961126492, 0.28416054946411495, 0.12296855285121316, -0.11089837502631049, -0.4259267690002556, -0.216059963372061, 0.215943934359727, 0.26571695975502646, -0.4300391263688227, -0.020855962884872015, 0.10985414496013345, 0.3207475020558502, -0.18040796610109147, 0.2752243879854402, 0.09954090897479756, -0.29222587135695305, 0.17877531600839888, -0.02361435034113995, 0.22068498570087577, 0.06274033992427225, 0.01343043610755639, 0.2294351560783109, -0.06096372049114425, 0.31368301931525183, 0.10234285123509214, 0.3417333432542985, 0.476050531086656, -0.048744939264286705, -0.2169603006639195, 0.4815918215525495, 0.16021994741202789, 0.27091279191740203, 0.15552191157481057, 0.24668448329154763, -0.3351267497922179, 0.462214756060377, 0.17925596292080942, 0.1979608517618039, 0.08909080688845103, 0.24177478676124425, -0.36582147343158833, 0.06693853802153892, -0.17588532434127666, -0.2983025734734026, 0.47468547234073116, -0.1868728726531181, 0.012983207644833813, 0.581138437688733, 0.40968033577739577, 0.46344733796128307, -0.25946580486314696, 0.00048628980869724105, 0.2541044334954798, 0.28406559773279766, 0.4018690847581904, 0.38393973802879333, 0.4330487168606619, 0.18947444429373364, 0.4571046516344412, 0.17087210647937792, 0.33868064682146176, -0.4099723255653444, -0.2605598674528263, 0.07274773337708566, -0.30749408980084436, -0.4583326265292451, 0.23341281816440795, -0.1024184291053682, 0.30123217560992727, 0.2836422787478885, -0.12856073548785873, -0.014676294658714872, 0.5192493550023921, -0.3234458272032001, 0.22890702427463197, 0.41691839469041275, 0.006280974092534606, 0.3212926915469659, 0.6921792290550722, 0.11903543835544701, -0.029580442488322724, -0.09896202685262805, 0.45314239227727193, -0.18096990302270563, 0.30366546635691954, -0.07374079584514494, -0.3434811915749844, -0.3481270746766203, 0.5713549753505109, 0.2613302680437786, -0.0449683038181578, 0.4613596216046621, 0.15289510607732093, 0.20599837385325137, -0.4912580881992733, 0.12987681157482717, -0.3125652137804415, -0.1616763174026507, 0.11605716101441203, 0.012188836052784546, -0.19645434319168376, -0.287033196332352, 0.6214070655447991, 0.509480657957271, 0.24262122407916875, -0.09243507930959546, 0.6315854852652022, 0.12983461053537468, 0.47913823596459076, 0.6775469022151347, 0.44746272726229136, -0.13393713913661934, 0.5996084642027646, -0.26178382390979205, -0.28558310363536976, 0.14914026835024946, -0.17878575476461137, 0.037585346829436525, -0.10598475890041213, -0.21135181810002454, 0.03211664792144808, 0.17880469914724095, 0.18745709506876973, -0.24543105068036397, -0.4730828837529067, 0.44611177693071147, 0.12123027804093922, 0.3819480403005723, -0.1653244812083495, 0.3719672313317997, -0.34652059654892126, -0.23460206781469828, 0.3055966304417906, 0.34245768088060063, -0.10845339487476957, -0.08589248309619472, 0.3644949453825093, -0.12340699404733672, -0.042945784128929, 0.6608636656187111, 0.2965446124824966, 0.25781716246384134, -0.251027201628857, 0.29266718566134203, -0.024250776590534616, -0.10087648974551698, -0.016161896263793753, -0.14871840616682616, 0.4553846421773783, 0.27668706151767397, 0.0033829219191356457, -0.1279902470722431, 0.46933803106586647, 0.06142031514725882, -0.08181314178470185, 0.03308353875693258, 0.31696808039944285, 0.14526050246529346, 0.040367887208636447, 0.40525302841674044, 0.03267244580273708, 0.2995549906044827, 0.038413384987982184, -0.21074075729830355, -0.23636336799255478, 0.1621032507271819, 0.5621006007899322, 0.40525728193951527, -0.3526497694590945, -0.020404645131137544, 0.4204579763998262, 0.46158613160551, 0.23647729725117567, 0.03241907113883898, -0.4363842199997546, 0.41819761686988904, -0.4622305307390109, 0.44367987034036205, -0.2640817925401645, -0.1437163335991305, -0.4579836452055035, 0.3600127001428039, 0.20785223335519468, 0.2408292759804621, 0.03765252765655366, -0.4458798975597743, 0.08869393964138612, 0.32716013416308076, -0.5281535712222745, 0.17657068607995624, -0.027892097663657526, -0.09597032714681049, -0.2733863038874688, 0.6405099703283981, -0.15888162942094416, 0.4461804735313059, 0.12176671564709794, -0.07863604964834159, 0.4945020493425702, -0.00017230994978607755, 0.3507778916780008, 0.16566773886024957, 0.037779950135881264, 0.15397902562401744, 0.37091393268878015, -0.4760246073114759, -0.08486927782491493, -0.260887854270911, 0.2679941904317038, 0.3068882343651807, -0.29252075669663585, 0.2893073750059682, 0.3880837828768781, 0.3410844359079142, 0.3343727711656447, 0.01670321473199181, -0.3357449153899175, 0.2369462699250397, 0.16152428207136454, 0.3632446930870045, 0.2665982416580286, -0.2077566875157332, 0.19758621693521833, -0.48751255478615774, -0.27302423716677804, -0.15019364998419935, -0.2664716458775468, -0.39389112336681953, 0.28563707881803424, 0.34378502865971794, -0.37135727655425127, 0.12950613252880483, 0.38727151468118437, 0.11478519353028316, 0.14227481720169388, 0.10923715522044675, 0.2939803655144688, -0.15788271704804885, -0.35378971996733855, -0.304114799564606, 0.28737027403842047, 0.41922084414673516, 0.47081332043575597, -0.47965103337085346, 0.17993864790488967, 0.18422575146886522, 0.4676319232975129, -0.16542717223052306, -0.31646759565683497, -0.0900869094739674, -0.3437116692377303, -0.222720966915605, -0.09386719806085114, 0.3488954743188541, 0.4934260786516313, -0.2994784471873525, -0.3751390376866633, 0.400660858611459, -0.4953743307550327, 0.3803538016932102, 0.2866577046575042, -0.2689392973215202, 0.43261438212060244, -0.4907361181071881, -0.4829108252500295, 0.10689575130780993, 0.3539333268077277, 0.1742341661738563, -0.35751008952643526, -0.32788656125055693, 0.05843146406490912, 0.43241182927851324, -0.07312938757670935, 0.3142781341196097, -0.00654925572072193, 0.38913673942422167, -0.44316530182074276, -0.24662285949603113, 0.2986719647199194, 0.49128918828743084, -0.17550515705498254, 0.20427551390736687, 0.3708794864716461, 0.28605593694260945, -0.4835627341027079, -0.2551357183976013, 0.08648339741427502, -0.12297524403765936, -0.3715411591968715, 0.2522097562491188, 0.39260551651701303, -0.13083680616357896, 0.13474149586624273, -0.1701573879002457, 0.3543388840088221, -0.06544047189341684, 0.16119135838727605, -0.13383841636242721, -0.334190341548147, -0.2921012917765391, 0.4555909113335048, 0.33690759175048335, 0.13413259747150963, -0.004390923990113538, -0.3235755987864688, -0.16005648541888418, 0.1774165253262281, -0.01307203279600655, 0.10679925977660332, -0.42728332945209524, 0.017041066189384835, -0.39282873015122677, 0.36097921766515173, -0.3598791799083121, 0.39098267159276723, 0.0557037228711702, 0.01116179727463018, -0.4029840994234496, -0.3556832450925085, -0.1627303892256825, -0.3196055163268149, 0.3578717044051054, -0.4674879258274749, 0.21394057381570225, -0.4186339092419105, -0.24838204137046282, -0.3819868792743267, -0.42387106318296675, -0.2985507251025854, 0.05729903234017584, -0.2302592834031676, 0.2853414803016205, -0.17329738857958585, 0.055159215513722534, 0.24482802393603903, 0.09255191869911258, -0.037431758509026955, -0.32422501637969126, 0.19942446152159865, -0.14664611844223185, 0.4445214613980303, 0.3377765527355221, 0.16967340288516375, 0.1691998045116131, 0.2885567756440478, -0.18703093461555598, -0.15489409223385786, 0.36065142230941183, 0.02439314973302764, 0.38731145756288543, 0.3467494201935614, -0.014798854431178142, -0.16512230783412454, -0.38374004110114884, -0.20588144121911522, -0.07100536080656823, -0.05131686482311377, 0.1949238541209342, 0.1969366403690608, 0.14406214758102573, -0.06733597344194084, 0.27680548324960424, -0.4176909314373562, -0.4711308709494845, 0.3694319326121571, -0.016876543371454517, -0.49159102004807964, -0.10311510448680077, 0.3886571537574744, -0.4339746601698716, -0.3746962227019589, 0.36762613818979306, 0.14497756476849954, -0.23378231867016486, 0.14268803422762955, -0.21321213412031448, 0.3666000045023523, -0.17737348289378752, 0.4150648490673546, 0.09543805934357709, -0.025911966283438195, 0.4785743000843835, 0.15150495298473515, -0.34648196684739835, -0.4119645547886983, -0.05853242516798651, -0.43736339490413656, 0.051373384035891485, 0.3590205116734849, 0.4990351693972053, 0.2976958237323544, -0.31750210987401783, -0.44553758912425595, -0.08036350287470455, 0.34105173361615865, 0.4848399780852719, -0.4098216444120246, 0.10943965135188778, 0.04223643607017375, -0.08632390973851445, 0.37639221419286895, -0.10934852090930192, 0.22374483783585386, 0.37864469508830556, -0.25352428634017754, -0.07162919468903191, -0.40397968465431977, 0.4115009796144036, 0.33116300030023327, 0.22147108171481383, -0.11028697381607258, -0.13693836407947635, 0.5115841757344707, -0.09983329400280411, 0.003354051703670247, -0.36207438746191617, 0.31161605466004083, 0.3073723184649782, 0.2467476720762559, 0.18257119983059703, -0.06899260850719675, -0.20885592478683856, -0.13370999376535284, -0.4370393785557408, 0.18995414924659407, -0.43635103675289866, 0.3559218624656482, 0.07091667386130975, 0.20906787749267108, 0.21336309736358228, -0.40454610733532304, -0.3559653798046271, -0.2275804081372118, 0.09418249416815237, -0.06461084611369827, 0.45431099105442935, 0.462499806950716, -0.1375292658672229, -0.40157201787769076, 0.13911791896064987, 0.04784783776253886, -0.22210153455568363, -0.2449028627649394, 0.68719263856297, -0.25895179568446175, 0.3844820846581493, 0.2480624717273356, -0.3228906889813146, 0.3424437534638786, 0.30341933241047725, 0.3756466860751533, -0.10070327113834898, 0.049844828769967424, -0.24688876709758112, 0.39586167132126193, -0.2249917665315497, 0.3335163961445625, 0.4003688255824198, 0.10211882726751331, 0.20859958403842105, -0.19606118135894315, 0.24517112657622864, 0.3276636745478085, 0.007477569376798652, -0.17435346090929285, 0.1712950630409206, 0.5243493727234529, 0.22626981700770424, -0.19378684417168163, 0.3717759596529023, 0.4665603651198117, 0.16677463346696766, -0.2294383634746733, 0.15992359570433973, 0.37336694394445163, 0.5851700209684274, 0.1549175177062221, 0.2834127829465059, 0.060790108671931346, -0.3571520862276471, 0.1911208349053039, -0.12721618088082512, 0.01507993387358412, -0.2382332986677925, 0.4880060907325807, -0.2987722636770995, -0.33576039764109916, 0.3718688394851255, -0.49811653674391226, 0.37005633367011553, -0.22241638382932202, -0.12023170199020707, -0.22515777030244716, -0.1997195227886054, 0.32068181829238057, 0.5054520118076054, -0.01801276264923841, 0.239074523195662, 0.37054021125978076, -0.2318575955735374, 0.07144507199547889, -0.05595358054613608, -0.20792685618649856, -0.33556705876567466, 0.48463530137278193, 0.3524151786863316, -0.17583687428381986, -0.019907503008791384, -0.38896511474208006, -0.4508508071374702, -0.16210662148426333, 0.13541466313434816, -0.1360732185552137, -0.4688796095780837, -0.023959302591999763, -0.4220580698485627, 0.25403495638732637, 0.09661281294305392, -0.43627340633598194, 0.3892508025537182, 0.19092119506941396, 0.5774473217878621, -0.29663365350690085, 0.4805141184052498, 0.1893945925572447, 0.3148701747597328, 0.16765493628529818, 0.39961529971025483, -0.2711733051123199, 0.6540297389133835, 0.26934925502614465, 0.46776439813690335, -0.008238191831682343, -0.05269752084602248, 0.10351399053186111, 0.29329895605469003, -0.3610686560287419, -0.19183399523231, -0.2781081486345306, -0.43391848886840484, 0.4211067334124976, -0.43181190017031884, -0.4937734384169658, -0.4122492000093356, -0.02559012050703858, 0.30749632317761116, -0.4513568780731804, 0.1996657898025156, -0.37589922833109574, 0.1478101141555324, -0.23034477243818724, -0.19543954579053924, 0.5414722631973242, 0.2644750134064468, 0.5041030423619739, 0.13610973770057824, 0.10799896386616145, 0.3428565664224576, 0.6851027256083732, 0.5292898153919922, 0.04404260005133157, -0.07916654323243424, -0.12686602826696983, 0.15021639265263495, 0.45759816438770384, 0.4305971933850452, 0.2323247591558916, 0.38371449342653285, -0.1268985445992611, -0.21318514384725878, 0.20873113667126472, 0.4807724546126148, 0.06649395475973806, -0.1661852872200083, 0.3042684435960607, -0.2833820324463475, -0.36196460021842075, 0.5187259679259275, 0.012731344114725974, 0.34695507774780276, 0.1262136647129709, 0.4336823628483626, -0.07230264489632482, -0.18123227272339992, 0.33151509410039426, -0.21524888837300843, -0.2206112955609008, -0.22231329148581327, 0.3425725111999123, 0.046719608633705764, -0.23585771853783027, -0.3410936464834947, -0.4561733701391918, 0.2533317847149761, 0.47933572849259115, -0.3878922088369663, -0.1092255441244147, 0.2834580632144138, -0.21713850248563515, 0.29135251804553197, 0.4841559419554741, 0.4052791134606405, 0.25624665639850086, -0.4242250307004639, -0.07107783271884388, 0.1886909461913493, -0.26655867735025596, 0.20269795176204364, 0.14088520008221697, 0.09379260606542837, -0.029980864018454494, 0.5052523793320415, 0.48275056469579025, 0.4353588914266531, -0.06012823029904444, 0.26306097569140474, 0.48937772316645417, -0.12797514537917493, 0.36134321747008197, 0.04970543808904888, 0.345138914164783, 0.10510999820843236, 0.007064180078924648, -0.22818036580847567, 0.20286852021993115, -0.42297540766549024, 0.2166107884614901, 0.25688691107415573, 0.4723499824250299, -0.24251881605111877, 0.15797048955727674, -0.11043143313155739, -0.16592656461521213, 0.28543359753940994, 0.44931912860904083, -0.22329673730270774, 0.31550372108904323, -0.036223274250169066, 0.5800579658695518, 0.3108251069832319, -0.14009139214546662, 0.545484109169176, 0.24274905926941442, 0.07524119909216669, 0.3979474919074616, -0.018375586692093396, 0.19931874184528559, -0.12817372133905988, 0.08291672123802998, 0.3162471125765302, 0.27561278091694535, 0.3095819768137301, -0.08326233883110612, -0.3992886906894374, -0.3313845764253614, -0.0469706694730462, -0.08303370817170135, 0.07561014433347021, -0.05140490582850862, 0.20532763959474248, 0.1582633198562008, 0.31503312743879747, -0.19427291707082192, 0.12354232549683339, -0.29062145063844824, 0.3787280754365636, 0.19374450541428972, -0.1689526636202562, 0.15322075257244924, -0.0373778472177434, 0.5259224534554815, -0.269238187700883, -0.11592489166396343, 0.02504137728844628, -0.17635720818342995, 0.03684363280367538, 0.29049084097707567, -0.07598598387260296, 0.28965166633982925, -0.1345858299741993, -0.43990172927663174, -0.4863507131530572, -0.2905543504902657, 0.4993356886212007, 0.49041902585737246, -0.40396651271022654, -0.059681982608116434, -0.3806673413050273, 0.3099019772594083, -0.21124332251922934, -0.22037853740745536, 0.5177142020218231, 0.37388032350677447, 0.4799676935280814, 0.5916278877150938, 0.23639231459922294, 0.39713850996196953, 0.14825685477112133, -0.21823379081085012, 0.559477672436015, 0.08363966873636984, -0.2788858210346541, -0.33431837176010143, -0.10360815461876897, 9.450728413872644e-05, -0.3482782163876611, -0.36715324217080636, 0.09982242032858235, 0.42865469650456844, 0.3923565510582161, 0.2824367970155196, -0.24636371440515778, -0.010159349951132182, -0.15121057592338993, 0.19660692122952717, 0.07997745066900865, 0.34388507890098985, -0.05754995528332542, 0.2033680190540249, -0.23209088777261755, 0.341275273467961, 0.3279670892963645, 0.39542157361574415, 0.34721818292131645, -0.2501225431217005, -0.14689745521072606, -0.33521471264489333, -0.3571209995448152, -0.11226651463562273, 0.5252639913600565, -0.26333208574917455, -0.03672715912310184, 0.059505917541906844, -0.04701011177919246, 0.4102160011356832, 0.2974397699451215, 0.20328012428477946, 0.42766512865877204, -0.42478345048224714, 0.25670727313996133, -0.3897229911225767, 0.1446127538411405, 0.16385447707254505, -0.1481181554740223, -0.34604699698119085, -0.1215989621997433, 0.5318692151177895, 0.32647933437441695, -0.0022444940794562945, 0.1401030127466528, -0.17333456163584174, 0.7095601324586002, 0.4099423797143132, -0.019193848508758538, 0.4540778025878022, 0.22942801616456027, -0.19431141211490532, -0.09332410650160874, 0.13161762821433556, 0.17267007336708257, -0.04032711211321577, -0.1296888796741408, 0.022813184131923576, -0.12618098989265078, 0.1800535353544401, -0.04028772934398961, 0.2075804728430154, -0.0742326953179735, 0.2410332429597768, 0.45906840543183275, -0.4706894619313355, 0.2334685101488052, 0.44852447513993493, 0.4789976589264095, 0.037201809496177234, 0.08930299210714261, 0.5340268012966027, -0.06343169389463461, 0.0330631584525132, 0.2403164451404033, -0.24921691466762783, 0.44780439097660274, 0.12891525917544447, -0.11215651331694332, -0.24159286943912633, 0.01117410541618175, 0.10446086599753285, 0.5373607810568843, 0.5222193402136538, 0.054511614555059054, 0.17813967524997834, -0.308645534987527, -0.12743792469913914, -0.19116735705883348, 0.2574764117933274, 0.4803258257242811, -0.24556354824202573, -0.029466973806433594, 0.2744106256311637, 0.4433953019697976, 0.021363321759892175, -0.20783385349934572, 0.5048327794544537, -0.44039452230941606, -0.24947168311902487, 0.5230183509336293, 0.6507104452041312, 0.12267169939387855, 0.2798673791656259, -0.03681666797529711, 0.2546911351687217, 0.5469100150492017, 0.3751475415158363, 0.06296399715801695, -0.3885871233579367, 0.032655165203195814, -0.4533358348701647, 0.45094143619841875, -0.37931199986171343, 0.18405954438945926, -0.19972772880967618, -0.35113058769541583, -0.2480969681003758, -0.12706752895730636, -0.1914938617610175, -0.2858978663703385, 0.2689189892561332, 0.3994080200593646, 0.23789662939467793, 0.07415341599103424, 0.11557361200727467, -0.2233574432230641, 0.05938262534740155, 0.4260574463531912, 0.22450512249183835, -0.18574932327269228, -0.18938628281343162, 0.3548725560500136, -0.27292291488586257, 0.44209362018581566, 0.2993893592465727, 0.38243880540253744, -0.25009127171407214, 0.30378022813494304, 0.03602114182243846, 0.015603803636944122, -0.1758873750803451, 0.3387544478895799, -0.0009046656324114194, -0.03612862736703992, 0.009484552956383275, -0.3127417178044105, -0.30893866377171214, -0.48988278324653123, -0.44878952121239435, 0.45296398645968755, -0.35833079211660923, 0.08695304388719734, 0.02871231493983376, 0.4113587761123021, -0.07010071724995695, -0.14108472560289623, -0.16172808945187406, 0.33199330819795975, 0.14237893351730826, 0.5731737912453673, 0.5965587137817998, 0.17304477449322164, 0.5683297256115408, 0.5228694562148971, -0.0053752074393215955, -0.022083763289461156, 0.48791316383718786, 0.13598781863543533, 0.009386758660054216, 0.3056767121610219, -0.028155791711001354, 0.24479033569348796, 0.04156658986642725, 0.2993613756086951, -0.4047608092098838, -0.45079270319863074, 0.45300928183919315, 0.06773319950664014, 0.2636006934352293, 0.4059107365406085, -0.2805828067933842, -0.16310673299944703, 0.34572907112957985, -0.18148364883894047, -0.15102380701676665, 0.5828218798139717, 0.607970620718261, -0.17615039316943892, -0.04032668327414357, 0.2851590448002279, -0.35393282973550294, -0.3402123187041777, 0.2925113362018778, 0.19747454920124272, 0.43849633642109653, 0.08465970901005329, -0.27889738893470856, 0.0898389422769602, 0.1431222631429433, 0.38805901839803525, 0.4041830855611057, -0.39497272212601875, 0.17865377561313367, 0.3319254412516085, 0.10959043130372705, -0.2675907088207497, -0.10207844761207299, -0.02603350830044257, -0.028548165354823338, -0.2097566253987615, 0.5941553134572695, 0.5622146482425909, 0.056928191100705496, 0.3176001620949863, -0.06409953177162007, 0.32274250226516427, -0.018604632947326772, 0.2103572534297385, -0.24289145408192273, -0.08541943344932192, 0.3667082713142116, 0.3855637297603788, 0.4977252594076608, -0.314815618648436, -0.18594604491394057, -0.21995299348608646, -0.012785320441128012, 0.46532297568264014, 0.19767527350221537, 0.3486071425850897, 0.49947506798902724, 0.3108904999621056, 0.4633196974263162, 0.040048005313522345, -0.4375009484734937, 0.3376295378898232, 0.07054955232364657, 0.5200014368483642, -0.06754014640972898, -0.026101491723661854, -0.16204255497028203, 0.005868574250939074, 0.08531640965734082, 0.05868775066872431, -0.22938484677508714, 0.4629523653511248, -0.23088268429484696, -0.329807592942049, -0.1678381369666957, 0.37846049477886234, -0.2674522251280944, 0.39123904501473183, -0.28777328815603814, -0.3017841969415783, 0.4973430373816754, 0.38594961930676763, -0.22002892692888976, 0.2792027522793167, 0.25593657701362016, 0.2412470020332339, -0.017264671429079934, 0.17264888386947003, 0.48006682983806875, -0.20792473900162114, -0.08106456942309154, 0.23799773252992454, -0.17537658952548962, 0.16670081749859983, -0.11220399320977639, -0.28410295772418037, 0.08989014151470777, -0.25201650200895614, -0.04677592895527733, 0.2893166626189538, 0.2287453702479832, 0.4663813768968504, 0.5016848975123462, -0.32954927853492766, -0.26446929345550896, 0.2518563313733332, 0.27207605108798294, -0.3722480778198183, 0.23075087407910666, -0.30765877090222316, -0.347437649359996, 0.17006716261546306, 0.15044213733519282, -0.2241905268630123, -0.12790017234190704, -0.3539714635176158, 0.017581366233644032, 0.08638094298639089, -0.11857150852330363, -0.07940716786697255, -0.334511284981272, -0.216705233764852, -0.320953971244252, 0.2624932401233505, 0.4852958284452634, -0.2556885235287042, 0.3338237443210821, -0.3409769289911971, 0.3362861719683455, -0.17686086401617285, -0.36791718513200755, 0.10447830467173552, -0.41117723521452876, 0.041805039364189035, 0.13601924361725976, 0.4884713857534648, 0.04289598815194817, 0.07102548158560518, -0.31037874203809945, -0.15529444860602948, 0.006145627397146192, -0.21828666561780025, -0.1246172706382138, -0.3602691088859417, -0.07799084792656873, 0.28262509222872506, -0.40753817480347226, -0.32285066940254004, 0.4570451620322595, -0.270525871040998, -0.47393316156041915, -0.05228690962445734, 0.1833482321372509, -0.07688001753510638, -0.4878956222637449, -0.28936203528074833, 0.2600070364227544, -0.2630973720500418, -0.02774909912048273, -0.45864273794941784, -0.11168237403518227, 0.11640193813676841, -0.4200655381077769, 0.10051656727319702, 0.018765412269502235, 0.23288584309506255, 0.12093102225838948, 0.12221023566450384, -0.17351683779053395, -0.027110072933852813, 0.25992136449455483, -0.08409679587308726, -0.09344891099924846, 0.4368981959570365, -0.3410277853790956, -0.2991215646016749, -0.02665512700615069, 0.21496232459070708, 0.38197132146387275, 0.08579950555861607, -0.18219242064588242, 0.0027580126854311934, -0.4949051295544615, 0.4439895310383026, 0.3203549101496838, 0.24849456196150463, 0.45501044863763135, 0.23162150409130133, 0.20128967176230994, 0.048448236778570686, -0.18456043445303905, -0.10906879128936686, 0.14851552065603923, 0.17842349684519143, -0.08306216059700999, 0.4815155091087844, -0.1728324842161365, 0.2084166682295443, 0.06909166299689196, 0.04593402132990809, 0.24730364089918766, -0.12150461127098111, -0.4038380121962535, -0.49013614867321476, 0.4177779597608243, 0.2934365962018104, -0.24382023357730565, 0.41091693860174194, 0.11394114900273844, 0.14487701651905427, 0.2492471526912976, -0.1408058835669439, 0.4763016144422588, 0.3626853032518539, 0.1714233595123087, 0.4647825672506771, 0.2400672747422593, -0.45078303027702105, -0.10117131059229068, 0.2140184401885319, -0.3242533596125525, -0.12772409358539594, -0.258567399628703, 0.3345239747472062, 0.43887391297682543, 0.4284099982578372, 0.30924140678917944, -0.0939486538166151, -0.09857653145761379, 0.283897272093266, -0.32718595512794657, -0.18464164042763503, -0.06804791339022159, -0.14344046979896885, -0.4198032242141818, 0.32880476178826773, -0.33513685516460995, -0.05603709714234253, -0.1685473019737356, -0.14237786657067425, -0.07205301337175596, -0.3957826092416706, -0.040192058116236495, -0.3712177996891619, 0.2387420212196677, -0.45332491943804687, -0.21461891794340948, -0.14587120111166973, 0.12123402358669999, 0.1086962306313276, 0.41784466309917734, 0.08959877834126284, 0.09590644684168259, 0.28370976043570595, 0.19394124790474498, 0.4736371775468529, -0.2442161520829487, 0.11623422360834146, 0.4173964882428395, 0.4382180466418102, 0.039248604199792106, -0.4563695952655123, 0.4124437771434096, 0.3863155553328937, 0.188091031870638, 0.11238202223251915, -0.48294355306434, -0.0715967573511202, -0.03451657020344955, -0.43710673057028754, 0.2670351818102164, 0.3756738498283751, 0.28727600595829994, -0.3784590068779348, -0.34390468618747394, 0.12587021315519797, -0.4786707045209505, 0.24671248028282022, -0.48881966349509065, -0.07284891332258003, -0.35206747302882724, -0.3190455735479563, -0.49197201179307437, 0.441330180341687, 0.20385683439284588, -0.1846878345527444, -0.3881195496462083, -0.21096027829012004, 0.3210177804601301, 0.26682569869532746, -0.07368402700860001, 0.7428391479254391, -0.0823919737958756, 0.10443925196772692, -0.09975326036272424, -0.06415999935756249, 0.14549884683636732, 0.43730787887709593, -0.31320779733083487, 0.15185647469057573, 0.45869610952429, 0.39346703042697817, -0.27290253942304055, 0.4607416490556816, -0.2553949805353539, 0.31072354182932393, 0.4437226875464517, 0.33398319467914994, 0.15522618811934205, -0.2398274799841043, -0.220654125099827, 0.018285906762240355, -0.3229118777722007, -0.47501358230920526, -0.17279965094584926, 0.10335944181976986, -0.12789674005402346, 0.29860363758160363, 0.2410611516547938, 0.14038382631599197, 0.3863772110607418, -0.1951080534305689, 0.06957437677659263, -0.2185851114967644, 0.35890747379042137, 0.2331541075270183, 0.21807036694691098, -0.20651980286435753, -0.21452470802535178, -0.15291461524909344, 0.325076548221685, 0.3007300640311461, -0.15818124941904976, 0.1985788823089183, 0.34914786579384627, -0.45950960719663575, 0.049761044818265834, 0.05962347672932954, -0.16708646692056767, -0.2505525054616251, 0.40731265328750316, -0.04098400900740159, 0.7244823063324943, 0.7449452976575056, 0.34720371842989584, -0.23420765050540737, 0.13017731502639945, -0.20970533870430755, 0.5814955327855501, 0.6680356959665469, 0.02484578193340277, 0.06989491767670207, 0.15155130060342775, 0.3935917693238093, -0.03358649755690378, 0.06125574466189559, 0.31937869264845853, 0.43233219240940046, 0.127000895800746, 0.03409339117459571, -0.01872356935600117, -0.45345170087930786, -0.10219995779393543, 0.1320011710921347, 0.45621150902773927, 0.137475763463363, 0.04007224951619578, -0.13833468310666097, 0.2910371509921914, 0.2095086392866048, -0.10138293290976035, 0.10048486891512884, 0.5052586759913867, -0.09443471614450186, -0.2725782755162585, 0.06182282242968811, 0.17180344113871143, -0.08405479178877619, 0.35995674878779127, 0.24470024541463173, -0.06766633827512764, -0.37351940090860497, -0.4000242195888489, 0.34978778598043864, 0.15004972778456602, -0.4704568713366014, 0.28937555804327625, 0.13822993379144174, 0.25299813624513634, -0.1831173641736631, -0.31354876945556026, -0.13580601034742232, 0.26910813302233966, 0.1849600781548216, 0.3075028142440163, 0.32898458035353934, 0.39171966231541516, -0.028971450162195243, 0.6189926434374928, -0.1594338027308975, 0.03487475230341841, -0.24148987003959577, 0.38234661575495316, 0.5032355367346287, -0.02200421188677132, 0.07107940113204966, -0.04070512525824165, 0.4835093968189971, 0.4649624210757327, -0.31262066080558637, -0.2367418636542082, 0.2287285923556377, 0.33919046015956916, 0.388444069072554, -0.21333017708266896, -0.3201969460495645, -0.47362300694047754, 0.34162819408951006, -0.16888265476753608, -0.4334512777170026, 0.44885513301532615, -0.038554543228166656, 0.22451594033490782, -0.4026433288498794, -0.07514306995407874, 0.024205326938701074, 0.19938740403650934, 0.0670538034352712, -0.24956205871476878, -0.24819648414448617, 0.4800536930277013, 0.4738056052688341, 0.4851034718623212, 0.760867667440162, 0.24505291283984515, 0.5086500726199953, -0.10618127133166924, -0.03644524200011223, 0.22901508880628293, -0.44338990712900544, -0.19563679322898084, 0.3420365343591355, -0.4653597791576079, 0.24735830515851032, -0.10482627141253457, -0.07598807693425608, 0.19009917208359925, -0.06393595764423504, -0.33649194168387375, 0.2512283775874454, -0.44711076031103314, 0.5149514698874789, -0.20920846272461888, -0.2993584067629113, -0.02521359938275397, 0.35350700139540436, 0.4082202995324939, 0.290285708821947, -0.17192723379061445, 0.01129127307833055, 0.6274349935367738, 0.18553512500509303, 0.31270533604347034, 0.2364095276168772, -0.33083700207957567, 0.3990720319010481, 0.4394530255358823, -0.007969876263142911, -0.33650451243791085, -0.17051545136801471, -0.05873927964536546, -0.36313689802918153, 0.13434741734092795, -0.15037698839437164, 0.11785142356414825, 0.4055429685000443, -0.4530589369194241, 0.2484835737137553, -0.4539076941299538, 0.36723998964131854, 0.18984597603976147, 0.4942756393476398, -0.03414419133917537, -0.2785220672083302, 0.34427670637444346, 0.13930473139947927, 0.5853428671595549, 0.5552963979822466, 0.4987506741070942, -0.2157885141451003, 0.4522182008828355, 0.26926208337997654, -0.29483655754584576, -0.3931891333543091, 0.11545105346020465, -0.3512521321462071, 0.1910712792223005, 0.3267904650921679, -0.48678598886942404, 0.16505287141088476, 0.221121732006073, -0.4390014806556691, 0.2838974312642386, -0.09579230775203612, 0.3272605238047219, 0.015403164630735346, -0.2726024069490507, 0.4751530379180611, 0.13867063997584175, 0.49529494462346824, 0.35095356033975483, -0.10367521158352004, -0.2624883426850762, 0.3395976495285679, 0.07143602006743431, 0.628360858170148, 0.544710645157195, 0.07330608804758532, -0.24981163732936384, -0.09124284429894208, 0.007219881180683934, 0.5128961377286432, 0.08028451898383186, -0.11076712965653286, 0.1274289856941511, -0.17590716279823024, -0.20731019155417685, -0.48538743532946005, -0.1531522692937769, -0.19726961794894193, 0.15433006439344713, 0.1081356821148509, 0.13314008971979552, -0.07292228262140929, -0.08881687910501829, 0.4005267711734033, 0.4217564257556163, -0.32531512315649425, -0.25597424355892284, 0.41088301615824285, -0.25880139525019535, 0.23201925491430608, 0.33260398972194066, 0.6441201709662389, -0.2737789766669891, -0.08033490840852531, -0.19979292252995515, 0.5885537787290682, 0.4025337160641349, 0.08017290741188446, -0.2877287125039922, 0.143928344309177, -0.22051958336316718, -0.4050171497754479, -0.10042004468116648, 0.07842461683836657, -0.28174561193993386, -0.2985677739906709, 0.41939298554767335, -0.4372968243157639, -0.4848888106767351, -0.27207439816098344, 0.12229182554986984, -0.09654154620576944, 0.5341832029832343, 0.3892177660012755, 0.052193012491528155, 0.25946524019191924, 0.1570051135652729, 0.5613555694442405, 0.29263236951797805, -0.11676331965918069, 0.45580041107492997, 0.003182227041451558, -0.12909164901925604, 0.3926846901275916, 0.43485632167015736, 0.5045359031295455, -0.37404441096009344, -0.4656013936439905, 0.12004912428679436, 0.18242054478190314, -0.08299611479027497, 0.4386487866465754, 0.2934674421487453, -0.4633009540046318, 0.2440257556131199, 0.11014098343162736, -0.21035289704173638, -0.11070323006451727, -0.4015437610535811, 0.2515100386412518, -0.4154930729116724, -0.038882845951110155, -0.26081390025043805, -0.1853972737377963, 0.3415002226717468, 0.4027269292184152, 0.2565341920546191, -0.3010865660522699, 0.2811890990468161, 0.364490905891193, -0.267936111410626, -0.15561062424443586, 0.39756707913606854, 0.00835598036727833, 0.09538258745736164, 0.18387797455810043, -0.2819237828018246, -0.20338726607227073, 0.0883343156158956, 0.06683592857371212, -0.0016208063140644713, -0.427185141243867, -0.01637377250943506, -0.10366459683454853, -0.37060937330958854, -0.35097507427990265, 0.27955634570657384, 0.26845156351845895, 0.05158199436745425, -0.16664443480676713, -0.09678082179922085, 0.7373023850540652, 0.5730272233565392, 0.11886573609789018, 0.017681402936319566, 0.20262268378359743, 0.5514933201526265, 0.25263860590214565, 0.6302429589664535, 0.09677898655999576, -0.2818397154294771, 0.1434579124518956, 0.1955465280681323, 0.4976033805614568, 0.08335601396557754, 0.13674450448672132, 0.40392494710427507, -0.029795217363639992, 0.23175346525073365, -0.14128850857852016, -0.04449311569278743, -0.168530397946449, 0.3976849011445327, -0.13965742603251635, -0.2100839460454948, -0.07597223810999022, 0.19723365614141974, 0.0291403276725563, 0.10521477029742833, 0.07796090957517657, -0.08432414101449097, 0.21847420281892804, 0.1346089390110089, 0.2614902505756881, -0.19066502321966264, 0.147390399425715, 0.12148969470797934, 0.1359249011382887, 0.37496928290843473, 0.5201699869832259, 0.22066514063813242, 0.36460181817094556, 0.18267190079848977, 0.33775213733751636, 0.33801139295671734, 0.4278984544779672, -0.3970229993458631, -0.42811392895795075, 0.42143627750711166, -0.37870580462461517, 0.3876945601464433, -0.38729474999106206, -0.12622384027823044, -0.2688118433886345, 0.017167656013156046, 0.39805851799284614, 0.24694871954061873, -0.06574901464784418, 0.6702234193845201, -0.13160934298287566, 0.09364585220421016, -0.0986441554801468, 0.3674747276022874, 0.2976342114017862, 0.07733807615555176, 0.2872636942695867, 0.0016056639474314137, -0.09365202555340808, -0.0028911456779091545, 0.5064814444795659, -0.3981962571641583, -0.48315533508268405, -0.18289181607538205, 0.3194630013322741, 0.11741798361712329, 0.24042568836446931, -0.07015795096736932, -0.4944370303213343, -0.3448676988157926, -0.07928286627940816, -0.09748652373451677, 0.34305404656818644, -0.48017728134639087, -0.05660678472283266, 0.7375158884063805, -0.054413486788674345, -0.12612566127262478, -0.029484741334044946, 0.08415566146140042, 0.06620917845384797, 0.09635802440194272, -0.22567227915843022, 0.5364427822670438, 0.6016726836044181, -0.2776563287265684, 0.330836661540595, -0.2938794187345855, 0.08914290768498849, -0.14691042735906754, -6.715096099371035e-05, 0.026443320389850106, 0.45385180797381386, -0.12657798153416225, 0.007649384361234635, -0.016047211723921158, 0.4698410107324144, 0.19679639818598654, 0.09976307306653863, -0.3914385961859911, 0.23250189019611386, 0.1000705707408909, 0.6760296891678073, -0.02896873569931332, 0.4724488447941286, -0.23248549108455746, 0.6030072628648534, -0.09796344205931512, 0.24689680061632788, 0.05453868674031268, -0.22416255586448686, -0.14303234589828892, -0.022148310235261683, -0.2529454427366063, -0.06670954437650145, 0.425255978942126, -0.1666635101228514, 0.6455675293385165, 0.3651403167920387, 0.09758670627260391, -0.16309851933707065, 0.41649865232442734, 0.361800051902619, -0.19269437609609433, 0.12328284886396014, 0.07911510063484421, -0.1358004397936404, 0.4649841141262295, -0.2526597679252536, -0.0830746552294025, 0.10139450352501185, 0.7643297490248216, 0.03746405981665363, 0.7166244640551275, 0.1964961979120118, 0.8051737110479106, 0.38605135618689246, 0.23895809508883553, 0.5635579379545586, 0.4342700241560149, 0.33675735576868326, 0.7080935790576938, 0.008233336151522217, 0.3864355932529717, 0.2099517262536409, 0.5449167821981764, 0.25098983807556224, 0.2610050751422704, -0.29731860612098227, 0.3443982213081971, 0.12959371553977173, -0.1350267142396836, -0.13675219910832342, 0.3063577379340692, -0.2223470285055556, -0.352390574825083, -0.4338770251746828, 0.06977895432959093, 0.6170047585577979, 0.2619461020345718, 0.5587946980443464, 0.004643925301444401, 0.28717886640421386, 0.42514394420682133, 0.04671003301802926, 0.5928927897415469, 0.27649751316734855, -0.06375296655136771, 0.533981812601682, -0.1803880699846791, 0.01807510465187294, -0.0939303895126183, 0.6099537512607796, 0.18555842628795272, -0.18479201241241178, -0.25107340549228785, -0.08889231491760183, 0.28879747632863506, 0.05913092949816734, -0.18787215354502484, -0.434552523291162, -0.27088866259948746, -0.23038724696115198, -0.4022464905920175, 0.03576659663752816, -0.3085375880995513, -0.038219015991866376, -0.2920214868656714, 0.5527178686958218, 0.4692985596982366, 0.26996886623293426, 0.4114256408931107, 0.31484580653927396, -0.010518203444078517, 0.5990312879693587, -0.167245508213558, -0.18339350555078318, 0.4998727502048771, -0.0026701189441209728, 0.4138812483811747, 0.47039120010095, -0.25924650428512896, 0.024751194431605707, 0.10995796992749678, 0.42471973246239186, -0.16954401707439692, 0.021071145820289794, -0.2592836661853637, -0.23555937322667947, -0.06238959621360906, 0.23867503403811782, 0.485909370067455, 0.11435580259440933, -0.024316895167524697, -0.43643684647663833, -0.17036419669144284, 0.12055084555223285, 0.22059669577819035, 0.47145029188151555, 0.24571557064359986, 0.3460095500178345, 0.050656991397516955, 0.5443060273179001, 0.2843866113260702, 0.49103491368169294, 0.20593364213951784, 0.3253757608500804, -0.4894909897267833, 0.3624697109224039, 0.4227769617991012, -0.14203276333752213, 0.22591880435309317, -0.03007273615393745, 0.10398122260368048, 0.22274381042596703, -0.3246471036425249, 0.026237246362967537, 0.3896690695963763, 0.17742759138155456, 0.41650755997549865, -0.026036920455258895, 0.2906145646818212, 0.31990420684035503, 0.4678152015251713, -0.1263692524332807, -0.08216962175723982, 0.10719658552107349, -0.2978727599088272, -0.35436719758769775, 0.40469060578279203, 0.23704109343840235, -0.27698992247006626, 0.3600891167842177, -0.16040728011028285, -0.06396417173870807, 0.14681273371156187, -0.208945272913413, -0.14990088260971443, 0.420745614832878, -0.28891970054112914, 0.46365125580294975, -0.20067186942352, -0.1959036403427208, -0.42843324022067963, 0.2988446053279553, 0.3689096654556103, -0.23628230871600095, -0.4498133381600736, 0.036134272280062135, 0.2884310807829501, -0.056484281009799714, -0.10863319258205498, -0.16813331988925523, -0.20150329906048162, -0.11837244774121726, 0.4911717926230024, -0.18489717191331512, 0.39044509128732263, 0.03706630528011905, -0.4807629081366853, 0.43952682555885364, -0.2019643391197999, -0.06419128324491376, 0.4842194705597724, 0.3243372406809221, 0.01066617082426815, -0.41301436370278005, 0.3331568962346034, -0.053374585533647045, -0.14753525851010374, 0.19803038867029332, 0.04087984201176942, 0.377432277684593, 0.14714209900468123, 0.39997931475899456, -0.15835902945871644, 0.4239568078424731, 0.11168239702794984, 0.45362600927453933, 0.31977012068713284, 0.0211268306052816, -0.2692831625024294, -0.24425836215336663, -0.026544074526466652, -0.24711920779016927, 0.20483858285001688, -0.3107299111815738, 0.05821681273254597, 0.26058458881268154, -0.2417099072971921, -0.36988214220698273, -0.20602003097961902, -0.23907753551990157, 0.1939449772385494, -0.03939817210012989, 0.48140266118786035, -0.0007042614692555071, 0.0401317829865635, -0.01894351621763568, 0.3094563984941231, 0.429547761042648, 0.14186286649784297, 0.4889928380589351, -0.05224635602480465, 0.14077849935002537, -0.20851202055650145, -0.2543139672558486, 0.31643919530270415, -0.41338703575212626, -0.17250576573004417, -0.09151690943105055, 0.047813606615145055, -0.01343363254813058, -0.05333156982248594, -0.1797980594065765, 0.010912177851345163, -0.3660921586990198, -0.17320239234208357, -0.11890838631285724, -0.44509269981232513, 0.13023710387555676, -0.010563038002169067, -0.14694125799354452, -0.32986338837286533, 0.3760218372120081, 0.47816807716082854, 0.3033535209485624, -0.3109460857837737, -0.00932687910599761, 0.283203827099226, -0.4364228828707698, 0.03582278036584008, -0.48981541623123726, 0.32209159033232804, -0.2058439336317408, 0.3723402786269773, -0.42188954882318996, -0.38254124260226263, 0.2863494759125811, 0.241308326008567, 0.35222809556790613, -0.2654851010078022, -0.433437591855275, 0.4873086505947597, -0.3557870113329604, -0.10738739937233477, 0.36656966733062746, 0.12789725712550004, 0.46409529492146684, 0.0800770177677883, -0.26634793722155914, 0.11841285373570043, 0.10503777582363216, 0.4762463579885311, -0.16494398832333257, -0.4720744948201695, -0.22162097090959554, 0.05320280585200776, -0.3478308099235172, -0.15507295337680832, 0.39441135509524117, 0.4324532873658685, 0.13860456482385486, 