{
  "columns": [
    784,
    15,
    784
  ],
  "biases": [
    "[17.962535051346705, 20.387395383981968, -51.956468386743865, 16.094581465980784, 16.807146370378014, 18.569758746874005, -12.608651282603095, 13.553198619462338, -42.697132135802285, 19.112221947184345, 15.346306828252091, 19.995952016366047, 18.653033117951097, 23.3676347275109, 21.216948234926654]",
    "[-5.31950311875088, -5.0245054072131445, -5.543544737834619, -5.230701435483643, -4.986491520457753, -5.633668972965655, -5.166496786831859, -4.951629272196513, -4.971137889021604, -5.340196293714798, -5.279755012354166, -5.157046712584688, -5.136302336616541, -5.278118457027872, -4.76042723273135, -4.711051370459239, -4.863570650205776, -5.072028591900731, -5.696290340298563, -4.9169062691708145, -5.145531759313529, -5.128902001534531, -4.858822060976507, -5.214967771756661, -5.0041767653873475, -5.137268578922629, -5.1125875120158, -5.142426219736478, -4.774487306469657, -5.58599414448836, -5.185991124310898, -4.959859311443509, -4.946047636486947, -5.286751826580797, -4.929253530521616, -5.3397098967597545, -5.414561797320376, -5.021871986025614, -5.771125280693294, -4.495791384660578, -4.566772543127688, -4.8429003152477605, -5.483863088561407, -4.711443388088415, -4.7651305415957035, -5.376783931479177, -5.109279174595203, -4.914031791131836, -4.762230341122955, -5.462533609431328, -5.054553148333492, -5.053033724553762, -4.9881393448446, -5.072435580275205, -5.284304778830982, -5.173852025357089, -4.833136509353524, -5.6016217898239535, -4.715264746622101, -4.890801623377366, -5.0324543540846305, -4.73301221327517, -5.076327949649219, -5.419073406341316, -4.865344865331143, -5.2303327915640825, -4.588017919422199, -4.968052493015159, -3.879592877743081, -4.017308111333325, -4.944391280615953, -3.6999561085222936, -4.505680587446975, -4.402985189368071, -4.500276751107123, -4.449132773680146, -4.777203888330591, -5.328642191553269, -5.0517979868147265, -5.019390810928588, -5.065790199096424, -4.9638874088233855, -5.194537159318193, -5.187525451608628, -5.057142191064197, -5.209723947541897, -5.064432133203482, -5.173714353372156, -4.9522715984602845, -5.280318574689026, -5.416853884224565, -4.96885302043872, -4.747956777375376, -5.0732270815796685, -4.343419693561424, -3.56778015859281, -2.9622246172857594, -2.7226216654607707, -2.6171421341125356, -2.5239500536461645, -2.424261005760047, -2.4492254281812147, -3.062345627977394, -3.1847299078204383, -3.476118355814765, -4.557078522267146, -5.056638606462181, -5.405367032303656, -5.253928498591417, -5.077513230049823, -5.108512132495933, -4.7659541510004795, -5.313568484819975, -5.139351095788116, -5.608875974773766, -5.350302661096917, -4.986364633393694, -4.846657060506018, -4.745969345108625, -4.239100052564657, -4.721277938726953, -3.096532109841066, -2.8000598042559943, -2.348958856646621, -1.8306188032648942, -1.2565076974568654, -0.8875854741743157, -0.1707543396609145, -0.07476833424076947, -0.3027587277919777, -0.693936035092552, -0.994910824171762, -1.776753261123994, -2.3178064391858486, -3.8477002774531535, -4.839030797493638, -5.056014337858836, -5.182464707952898, -5.555372455197475, -4.951027957353884, -5.299711000193228, -5.414803527871623, -4.681075530342275, -4.957564931533876, -5.351758245980287, -5.1740902298606235, -4.496835985224277, -3.6494376046178716, -3.0817144969118493, -2.559054731960712, -1.8405305032225148, -1.1528059013491911, -0.4646988250380036, 0.22325880305435006, 1.098914223950461, 1.4490072440431225, 1.383280399776133, 1.0265872661510629, 0.11394552105230747, -0.5150866676192463, -0.7830698698879979, -1.4513885256614265, -2.1512533595822187, -3.0255969368480344, -4.372265232265319, -5.23581333353726, -5.200576372678439, -5.168015238829121, -5.579225470156972, -4.7634510517999615, -4.926230883329259, -4.989504941667695, -4.2057204305875935, -5.036568527654195, -3.977476367819153, -3.1506393777607644, -2.7771238997292143, -2.015860501507413, -1.244356173986694, -0.22583848975236429, 0.869896747803329, 1.3749500970393285, 1.4991433005524746, 1.8183541285018603, 1.7690017497738437, 1.5232121754459578, 1.049660134351638, 0.29181187783476414, 0.22615481785287347, -0.38024617890687146, -1.712080370563702, -3.228705251403674, -3.6937875892264773, -4.80569630488662, -4.988570864681739, -5.730267726378622, -4.9476746713970465, -5.257193318465809, -5.329798955845672, -5.3018578087211825, -4.6242861632337675, -3.8182197423371433, -3.404767743419203, -2.9640829361212124, -2.6525711639701113, -1.745904058612297, -0.7552241200511556, 0.5161339691846982, 1.2614963342619467, 1.3222971364661122, 0.9625653872159285, 0.8525222384910977, 0.6518706542688579, 0.08331028287192269, 0.13269507355987542, 0.5168230323024151, 0.3966166562276717, -0.10236871774551333, -0.8428882495396773, -2.550781282953081, -3.3222325218171327, -4.065689900054226, -4.531470099971751, -4.481825072318889, -4.645722457477938, -4.961399533945854, -4.759077070455345, -4.569943889202289, -5.029042097904898, -4.303937814464149, -3.3978095738816387, -3.2797562014224875, -2.8187914324755945, -2.175485576623804, -0.5254322014737187, 0.7756819246174831, 1.0871539983700111, 0.630023253329705, 0.06769252270374655, -0.3859845425505345, -0.6967324724335077, -0.8793759115348357, -0.6047333659604601, 0.00993468383441737, 0.031743124696222154, -0.23238555474428935, -0.8758997316793414, -2.4192616995241023, -3.4461907471680875, -4.1640249448159405, -4.377162009263381, -4.756181533343315, -5.291596949455756, -4.651250610455304, -5.052702912022525, -5.1944886253984075, -4.2491553421333546, -4.2532948103291215, -3.415572375498697, -3.3734995296733046, -2.7313805669982827, -1.5236510158791696, 0.13622920296283322, 0.7449971599334004, 0.9400108797629345, 0.1582201545963695, -0.7077524846897213, -1.4430375549131962, -1.8084508694879673, -1.4929196352682959, -0.984209483732215, -0.2061944088248796, -0.07946351701210362, -0.17570213522992678, -0.642608555408529, -1.9341115345717983, -3.557801471478618, -4.4063782848372846, -5.161563590273717, -4.8114274933037215, -4.725182966375503, -4.540437042741876, -5.3140546654124075, -4.5597020269933015, -3.9689583535993544, -3.796245993752034, -3.4746149013083025, -3.01412760881034, -1.8457588303099692, -0.6765809581167538, 0.3507511531092462, 0.99875539210086, 0.5226024838452342, -0.3103416482329577, -1.280884341610411, -2.2792793656002006, -1.9919129124020145, -1.6186385694800163, -1.0908027659459743, -0.29847530221663765, -0.2958157062647273, -0.18815453282848293, -0.5564345766618167, -1.7083175880484784, -3.2440011844202896, -4.566893453715964, -5.003339106075423, -4.935388690337045, -5.626667236656869, -5.12135004510585, -4.9619570508316615, -4.752935266046534, -4.831957982967556, -4.139077032555951, -3.1475261427678416, -2.5046074573870776, -0.9089712208911919, 0.2875135476897113, 0.5388902740253321, 0.91926622999031, 0.11934134314142592, -0.6228334946703551, -1.7088550304618773, -2.1933164529171747, -1.5837008684066762, -1.5097253857325283, -1.0546016350868987, -0.9377086119046423, -0.48736831503317646, 0.09172750435176638, -0.363682358701057, -1.5291791106689379, -4.019888372289191, -4.886710626671763, -5.595271123888212, -5.293468805259233, -5.006738112366231, -4.820150663985476, -4.799185309903785, -4.375943478904746, -4.911284581639634, -3.3455149489873297, -2.7117296688568513, -1.5057820924257193, -0.12875307807040284, 0.6266443611314879, 0.854058885021, 0.2120980085259355, -0.7754306470662616, -1.7682133944245428, -2.4587930534208904, -1.9783336402706924, -1.3528065292097775, -1.0685573538630349, -0.7647140049861709, -0.6965930482450099, -0.10379419966895805, 0.5427057607671162, -0.1117365617459412, -1.376678529372981, -3.1721748126439118, -4.560664391113098, -5.015509199648497, -5.360975979871893, -5.505744408707407, -4.863491814775513, -4.814699207929919, -5.40769617737418, -4.746626317295043, -2.60708640330211, -2.26922703080125, -0.5322158417146106, 0.6195456499258993, 0.9087559644705575, 0.37314637362175784, -0.37657974647761666, -1.275693307814393, -2.0824773217122186, -2.0099335823805493, -1.255311541764977, -0.6707798931821737, -0.019037226999234914, 0.2782372553910551, 0.17530484867752855, 0.5814748072293209, 0.8892493002756883, 0.026457253859314474, -1.4858409415327505, -3.277567374294725, -4.7779236766387845, -5.128897820998011, -5.419641262398671, -5.387386439507513, -5.138357312697106, -4.8525715517062045, -5.291432121750053, -3.8733449390195167, -3.0809344089854322, -1.8917616407573545, 0.21419896551777834, 1.0597277840652946, 0.8067497166674265, 0.1819652053215206, -0.41442227206713295, -1.2863210246428547, -1.7499755714283218, -1.3699572008388299, -0.9566620784589657, -0.022236072195107606, 0.45756329962963105, 0.7217676386597637, 0.8994353637905999, 1.0369604946847182, 0.9940100689967988, 0.1650347969196517, -1.3492418713387064, -3.669476013389079, -5.108781386106166, -5.310744198170166, -4.798306515508155, -5.354347903592198, -4.6521961332850585, -5.761000199722864, -5.059207965594474, -4.781845126619696, -2.37527123630948, -0.8480089466590804, 0.8406760117278799, 1.6811547181112108, 1.3605355808226, 0.536935843828794, -0.15747807873871525, -0.9659090349788714, -1.194857255160507, -1.0301132242684157, -0.9381700780769237, -0.0890577584431907, 0.7765308258517138, 0.9578250463775917, 1.1304308323691226, 1.399526120409821, 0.9421201405304606, 0.06642932305679208, -1.7579258545764473, -3.4679504451995653, -4.801764173527726, -5.314953919712724, -5.031875295917838, -4.988751730470934, -5.2458698682698754, -5.87825982847453, -4.956185586730536, -4.751132033772626, -1.884449897427806, -0.27394352390676335, 1.2619141249718284, 2.1122201466658965, 1.4964244749122297, 0.5336181336226696, -0.4550858506292487, -1.1515449668682323, -1.5635771314612292, -1.7681571422098659, -1.1456599680493673, -0.09079761951937863, 0.6208428179615504, 1.2864939730970688, 1.499005180764139, 1.6118717274932848, 0.7979804526510151, -0.08853920253911413, -1.957528285540646, -3.9259891336672883, -5.2205725046598985, -4.974636851644851, -4.476917461795788, -5.388876413043362, -5.40421605636483, -5.2732867195272695, -4.810263934655446, -3.6780720633350383, -1.4056736653252853, 0.18703992927407154, 1.4970912862812384, 1.900289144656518, 1.3172797155854374, 0.00023887232417241049, -1.134937350932261, -1.8888911723047244, -2.169583461116838, -2.39775784679192, -1.2794572395975548, 0.07569348617460565, 1.207717224692798, 1.609326698280338, 1.8349481534740781, 1.354351696148444, 0.45074693717994296, -0.8225594328124185, -2.3955167977410796, -4.568171844873797, -4.996344708003164, -5.218631456521582, -4.737415448681893, -5.154328600068706, -4.754984901372742, -5.188754185224372, -4.879543486074429, -2.5547208572491824, -0.8376121535665957, 0.4309304936024484, 1.3680206194291145, 1.6814256838418853, 0.7789278861499185, -0.4205985701911853, -1.3862828429939336, -1.7126438098523122, -2.0648194582395556, -1.7835598569763964, -0.08183002616039642, 1.1151921720857254, 1.8898495865343412, 2.1994765909223823, 2.0287418926792533, 0.8482785505614119, -0.5127962767242356, -1.72462233646227, -2.915537282438975, -4.354441461703367, -4.853719660420698, -5.382922688501112, -4.7069530772386035, -5.065277458989576, -5.20723663118937, -5.486425194777612, -4.375287107460065, -2.7424385536973537, -0.5364205133147231, 0.6119065412233389, 1.3208404108107181, 1.8448356080206005, 1.179276150606596, 0.04902530473435828, -0.672312642167536, -0.9778234801642325, -1.24225492774442, 0.004033536605849021, 1.3664496455665784, 2.178616521513835, 2.2353461432685653, 2.0982265752705893, 0.7923758910838964, -0.3957401102880716, -1.493526850575528, -2.304525890128222, -4.03657532933202, -4.432136669989076, -4.643466555834851, -5.073676377972145, -4.593494818126879, -5.461761165851385, -5.294617574047228, -4.837658089983652, -4.222366300871608, -3.122503711117469, -0.6092323711492895, 0.5510361222140405, 1.0494760265846712, 1.9153134172987982, 1.9374707676422933, 1.236309293547219, 0.48661746674121564, 0.35407661022033077, 0.8986691524424946, 1.8255828719867027, 2.0747989819300052, 2.1957051169483814, 1.4626416756684164, 0.7334955582056828, -0.3553010365569303, -1.6879374301275263, -2.3840019629125337, -3.0860268566335165, -4.013846439025027, -4.475038474132535, -4.948025530137719, -5.27889872770939, -5.102506491893074, -4.521943492373057, -5.543389173659812, -5.057925583732144, -4.768907060604749, -3.5355678370684798, -1.0672881806647172, -0.007157068714480833, 0.9025736968953703, 1.62853520343486, 2.177911503691667, 2.1422620446819325, 2.0292484005969924, 1.9395861000636794, 2.2107458846541097, 2.2591807620973174, 1.7606981910147383, 0.5614310941722314, -0.08996459783332851, -0.7192057636676807, -2.0901152022679046, -2.425698200664994, -2.9687242362410244, -3.8252329268973284, -4.3371379056675075, -4.399076867768155, -5.0193460228827185, -5.162352155503166, -4.7702214274151284, -5.506412349775096, -5.071006532503326, -5.141522050107119, -4.654976274084689, -4.382770386678837, -2.0407128842529225, -0.6966708190943206, -0.07734326958805349, 0.4002806802386892, 1.006869032176357, 1.3786722148051727, 1.6093745550735123, 1.5958777735866894, 1.3350501186865062, 0.5123684770362741, -0.6363678694621117, -1.3605037576600176, -1.7722587251175355, -2.694282217044958, -3.0370661428075327, -3.082956482986546, -3.5011997244153767, -4.215217556594732, -4.72055477545832, -5.69956699901796, -4.925615672872594, -4.555033252721339, -5.285436641468226, -4.696995815169804, -4.75291067712778, -4.932566098627355, -4.678094722403743, -4.587716946763914, -3.538379648081003, -1.8856196378652803, -1.3205224117242007, -0.9512611150038631, -0.8809630160791847, -0.6837086365146202, -0.3884989007095615, -0.5998815377397003, -0.9205700353989641, -1.6482600510909455, -2.5919204642202507, -3.2910374930666566, -3.9017184177761965, -3.5855289593030673, -3.800005006112867, -3.83847106882401, -4.2888558880168945, -4.725080999982664, -4.458985079711417, -5.355638030781447, -5.053750785886333, -5.00954479420617, -4.916965104236264, -4.6339054724517, -4.851837796917169, -4.891682419020381, -5.109795727240285, -4.9013673204403645, -5.051161433459752, -4.687108405806852, -3.036889094351134, -2.3800673870488898, -2.9506806904248744, -3.0705875080478657, -3.295519786415925, -3.3289275270526097, -3.5286156391498045, -4.008065211023121, -4.650237184426823, -4.74512225478309, -4.446282445712422, -3.8555341728660144, -5.011741654793349, -4.807221902773883, -4.950271071100693, -5.3581136798089295, -5.081104550693194, -4.974275417975838, -5.051824136372961, -5.207713787564449, -4.753789818402746, -5.3440143840865275, -5.4444988516859585, -5.281968240825391, -4.607446752593023, -5.815618906186599, -5.1364607054458125, -4.5968471881967155, -3.981263612051876, -3.5779433054789314, -3.35023671049769, -3.172011059144592, -3.8890626654697997, -4.736112330603867, -5.21217139593901, -5.292854551130842, -4.560621961868432, -4.118752527098424, -4.250425609019473, -4.052903836183457, -4.753099539872108, -4.5456977879798925, -5.182895479005718, -5.077776847849265, -5.003801266590625, -4.92815432125317, -5.343354264536818, -4.961319350143314, -4.633189731113396, -4.526816934898281, -5.524294554921404, -4.2867980229033185, -5.307689663214722, -5.163205913340586, -5.0165058498216535, -4.873954476703422, -4.3778146265072815, -4.621819803836364, -4.179522947330413, -4.025053622805721, -3.5812419911898767, -4.075373553662495, -3.9175033151888825, -4.2293339901112565, -3.8459505863428394, -4.275839478476323, -4.647118508007884, -4.584903796511895, -5.067518302346403, -5.198827109799757, -5.387435333663223, -5.099624274867253, -4.815170760745318, -5.051509778654599, -5.1882749144109965, -5.229595236109447, -5.387912794657041, -5.157281342515645, -4.895747228489883, -5.289736249632747, -5.429454986610168, -4.807529869713517, -5.252899870704168, -4.987622674394044, -5.008160707136909, -5.020660518652779, -4.902806365235112, -4.890313630878471, -4.615261824180911, -5.286158117255286, -5.068565094805604, -5.0005061274601, -4.940503145071046, -5.098137797887479, -4.886170526725382, -5.176550822938069, -5.647640403785483, -4.9933088758165765, -5.116074381616992, -5.00290104808022, -4.700485979566325, -5.264635369176782, -5.125632388476478, -4.74808375765615, -4.7480104017805616]"
  ],
  "weights": [
    "[0.48303817065892407, 0.27554399348204717, -0.013678409742284847, 0.43019588625784155, 0.0485687348701791, -0.14226757223651443, 0.48562911557992583, 0.2854761909942658, -0.4154181607602172, -0.1330918209056262, -0.17716310378905908, -0.1312187450006036, 0.37452352658593, -0.48553144211395194, 0.1400872029702649, -0.2506812439314229, -0.04416339384491419, -0.31141943157748975, 0.14240844119106466, -0.24109741301873522, 0.05839108170269558, -0.25225844976102907, -0.34200321458696803, 0.08120853436337705, -0.3558770797345354, 0.008837437566318607, -0.2972753152920734, -0.4250622431528637, -0.16875432865658013, 0.4316010467955067, 0.09024633962315431, 0.3601505701687665, -0.2971846724319438, 0.42633553809219643, -0.24586855432421686, 0.4789442584926682, -0.12342216483152804, -0.4337399808483739, -0.4097745818681361, 0.05934222660397758, 0.25136055634707516, -0.1119847420172264, -0.08812063596556238, 0.49805712013409736, -0.30996466818815777, 0.33439159421700043, -0.3672530118128107, -0.1477558979827951, -0.26120154706673754, -0.07562051019534555, -0.27784092747304945, -0.31675220728125175, -0.4095339453362208, 0.1444684606428971, 0.27372764623215473, -0.16304543366407975, 0.1974702657304116, 0.3550443313287249, -0.2582665327431165, 0.04828874184116405, -0.19676247851645534, 0.40120573231551854, -0.06708072094606984, 0.45852395398286994, -0.2553181671674751, 0.1384889879666387, -0.14421188525180348, -0.33981859246784296, 0.042029654986005485, 0.2743501975545215, -0.46986593035624163, -0.03212244926868001, -0.12272705025141005, 0.25719114556122685, 0.1003531323951586, 0.3112984592020007, 0.3709063523512099, -0.4253221016385744, 0.03063400431919686, 0.41766043517150525, -0.4377774620276747, 0.452007715335217, -0.20178481713662566, 0.13913860415020274, -0.3406199912426737, -0.33672929467500345, -0.003782186394729159, 0.3074758165489456, 0.16433368136095883, 0.455310169682068, -0.39241941546044473, 0.08885531630905238, 0.18616121892570617, 0.42873169438856346, -0.2798334187663815, 0.03510901779479789, -0.3292143166841806, -0.41815622414946096, -0.39360362304725216, 0.4527854326177858, -0.15446354122610084, 0.2845162421045243, -0.30925164410262795, -0.1721294796578714, 0.16580559325065708, -0.23500061480079953, 0.33816911175199293, -0.09251696134530871, -0.39791788353030794, -0.060400472286843906, 0.32623709861404027, 0.33686301426706566, -0.47689146576990404, -0.21275967430776133, 0.040978631976293145, -0.4297889873815341, -0.40395168641891194, -0.4759571369729578, -0.1841796407155281, 0.2507706358805059, -0.06249964949774509, 0.2734464369266143, -0.0017124721657093282, 0.2439701662609294, 0.5086563736551656, -0.057266884018484614, 0.525259509365666, -0.18953151452955583, 0.20291026907570664, -0.2687429415231973, -0.16308117422407697, -0.2675296850570467, 0.40031075176411574, 0.4048413016579514, -0.3809516979399081, 0.33322770434916554, 0.11902005855956642, 0.2516498646301374, -0.086183435055097, -0.45354783695615375, 0.31495558213631847, -0.12499739618116762, -0.2430989448070396, 0.00133582122564188, 0.2556327059102912, -0.338833778198895, 0.1622478132210218, -0.14803647287138835, 0.16033291906941016, 0.38530902128482725, 0.42700298860731517, 0.020917530482701393, -0.13858709424846755, -0.016369724792149747, -0.06467322922300228, 0.14308322088856118, 0.08743150055162371, 0.24565840657301294, 0.08247536988413956, 0.32538206714652185, -0.4183796474539815, 0.3495145891711766, 0.2813207004533255, 0.5160843365076397, -0.1699642025770716, -0.2299789868533569, 0.47205246400129497, 0.3922660207967662, 0.039857831211062233, 0.08992489433676742, -0.08403505848209855, -0.13136543650218965, 0.36658376931647707, -0.2344982487400812, -0.1275699908729606, -0.36373964782737833, -0.23040980786932413, -0.34160284221649306, 0.08157119709665045, -0.30534892375275025, 0.029597946740721612, -0.08481423590536617, 0.05788932918303499, -0.0025428102633631936, 0.30173621741766143, 0.22058917003200867, 0.3995627481785042, -0.2796011495709963, -0.2712440562481481, -0.3702130213757842, 0.16166097388606512, -0.12985315773044218, -0.4518003374872645, -0.4685558975105057, 0.488311509862443, -0.36772786974878524, -0.17995788421841818, 0.2442673313467774, 0.03648255738069366, 0.05570782965373609, 0.36649575244549953, 0.2818475595795931, -0.43596773412904655, 0.4849887410147437, -0.2727131899921076, -0.23463645827645388, 0.25704958021105395, 0.22746847856912203, 0.5388368562676837, 0.16749394034105536, 0.39520455388865877, 0.3755819503089466, 0.20218189281099214, 0.2875696365242956, -0.006532133140003658, -0.15048670971874978, -0.14959376361746282, 0.3932825765296614, 0.41155620749387134, -0.2828233067169486, -0.4205365870713336, -0.18185713335052348, -0.04970675690442693, -0.19366015088318692, 0.31379403501117686, -0.3930483381725814, 0.11582677066690471, -0.1558218663344767, -0.0901483638209918, -0.13230427694302405, 0.3624610702052763, 0.2616812554430079, 0.3339507668881387, 0.08367354864664205, -0.32531561410025667, 0.5000441351398937, -0.10660650853777681, 0.06851308985910448, 0.2768755009525584, 0.34920438168867945, 0.25326613414480575, -0.3708842024014883, -0.2071364865362951, 0.00401838520595486, 0.21855693422668407, 0.049465401571217316, 0.19899216626426194, 0.2105354499724915, -0.48810387858339227, 0.26227798681388487, 0.3739229349974006, 0.050895047455684995, 0.025625592289360254, -0.47880273361260917, -0.2013225035010749, -0.10429001825565869, -0.46812465327933694, 0.47398763622015094, 0.17897885572897526, -0.31299297804545023, 0.23708701760308049, -0.17668532534633788, -0.23972690533640498, 0.19145367119084222, 0.06272440224665549, 0.0274701977126306, 0.0015921203731832261, 0.2837310165158189, 0.3800320567669268, 0.12285625447038391, 0.502882823846182, 0.31900291829594163, 0.49294961426353523, 0.1732203823739584, -0.4773817049375124, -0.14582298132275304, -0.24509069116169502, -0.2657516623213351, -0.0677101464052174, 0.44116787433137017, -0.23475300962521917, 0.04998383295257585, 0.16845997073302682, -0.31068591437977355, 0.49084536407095863, -0.1315441505613142, -0.3558768112258153, -0.017674000192762628, 0.08699377292554662, 0.0663654947154945, 0.5541809694751682, 0.2959363174644004, -0.23346130884950034, 0.5347471952682319, -0.2138710591926539, -0.061525257519676815, 0.08220249124826999, 0.5177719361361055, 0.391330086014363, -0.3519401950806433, 0.54763865611374, -0.4060618795502368, 0.1003114863397945, -0.1497058040255466, -0.2722840921180566, 0.0708892868752403, -0.4510139495227362, 0.22720912244490343, 0.4407175255846194, 0.21446678443270717, 0.2204617977332705, 0.01791029171242234, 0.38996428213002754, -0.31165136780392333, -0.3168255187370796, 0.1831162701041755, -0.11107286103778485, 0.5923766182772587, -0.15907359281591302, -0.40432474674522023, 0.051476544450888014, 0.23692720275767284, 0.5537417777130638, 0.48983264542329497, 0.23638555251373877, 0.32413722918037496, -0.21804651074758766, -0.043994416494706694, 0.48889813144542793, 0.5147787060908908, -0.11728822754975296, -0.1444591627981537, 0.2906164885418282, -0.40566627061686683, -0.01168752262833091, -0.3036040910565059, -0.13890828735729221, -0.14014373500779428, -0.3241821941601789, 0.4586114927751166, -0.06809473080158455, -0.2167935939406476, -0.14148610048902735, 0.01143906068813935, 0.49176315900259093, -0.17114570804607282, 0.4145790661075156, 0.33568098862567475, 0.3150451881838698, -0.09495052019195893, -0.2217043311787656, 0.6410676777159107, 0.2996603878857998, 0.426789877711558, -0.1774504394578169, 0.3638798561865072, 0.3925136573762659, -0.382232421009304, -0.22323987438109333, 0.14601861924972848, -0.12582070126299277, 0.3702223590135616, 0.27781466009918504, 0.11433515941193162, -0.2191499521022109, -0.484874911547924, -0.461810981711863, 0.27599440108515483, 0.48588152053512035, -0.4691708225814805, 0.4061861221756217, -0.261371221937537, 0.18140602740376247, 0.5672822687415476, 0.15183723863424575, -0.1422105368012717, 0.23532051830476072, 0.5087038081099452, 0.15493413747359427, -0.30347728263508245, 0.33938870780569225, 0.5428537044819556, 0.07782734403626318, 0.4131451369395146, 0.27467666809595376, -0.3279710448130033, -0.3435116987775588, -0.16008414464417642, -0.3884787147820739, 0.2831490612213552, 0.42872300781357486, 0.08473704770065904, 0.39528301489154805, -0.46545149992709534, 0.430951442661697, -0.4670814204912096, 0.36054052303815626, -0.1797179868150486, -0.03026997082097673, 0.06582446753312295, -0.15286545576467936, 0.0745938157288707, 0.47021840561194866, -0.13170468158302093, -0.36947467128076056, 0.22541356003844587, 0.5574228812763982, -0.2366111192269555, 0.038916483880203974, -0.04150139648872333, 0.45763719755022086, 0.38612454412618386, -0.1599465719976536, -0.15026796912596632, 0.06502872566907897, 0.012486085335693288, -0.22296741076312895, 0.0979743795914341, -0.3597212349704459, 0.035812833264794564, -0.1795000405670215, 0.07118375241464003, -0.1382253743922172, -0.3033534683171592, -0.21720918152910412, 0.5156136563197374, -0.39229432501808076, -0.45346582680800124, -0.27163189488236206, 0.5903860917159358, 0.03419951966920258, -0.31058635341663726, -0.07947676857872135, 0.4235634220678164, 0.32933965296810164, 0.6187490215934722, -0.24875221401752162, -0.05142018439543784, -0.13434921447815557, 0.20483515796622906, -0.1669150409278394, 0.49420186036777675, 0.08778487035262922, 0.39123446069388146, -0.11609709098385373, 0.43549065656625824, -0.22239408824373436, -0.05809552922589067, 0.17962616254702535, -0.07463723030047126, -0.20606979229066033, 0.290526372449361, 0.14121985157453457, 0.4243910957680318, 0.08037338425172832, -0.18936575128610605, 0.03228729109767918, 0.1842162819446337, 0.4616371229839401, 0.4052008546412968, -0.31375173911517495, 0.095501889957705, 0.03986768187742651, 0.15587809647172343, -0.23198868380313203, 0.6226844746775279, -0.2693391104829959, 0.16749877977864114, 0.43400114308714904, -0.2902166088244412, 0.4024731759549462, -0.29338282447030556, -0.33010704722081813, 0.38636087901775884, 0.027742252924788633, 0.4621164474746226, -0.2650683398959317, -0.1761106128213361, -0.11125767924776209, -0.056950521022033226, 0.43648682760963087, 0.14488561767204916, 0.446223687196502, 0.4327290225934519, 0.05767933944882526, 0.4493203004267896, 0.29856302643258514, 0.04563610600778805, 0.49750555779327604, 0.09934523269711132, 0.34326591250342864, 0.5411931684465419, -0.24713072070537723, 0.013754054293681152, 0.1333569320550995, -0.41495966947748275, 0.00880033459331986, 0.03640352645492866, -0.3245327323064155, -0.05865082904609891, -0.06129635358353997, 0.3908566530952501, -0.14060594817151664, -0.32708139142724857, 0.08358152163412624, -0.1551302986731544, 0.15493370959051253, 0.2473050594664157, -0.26157849749904927, -0.37830750081463893, 0.0019504765074170015, 0.36183181748392856, 0.33210315261082446, 0.0721910676816614, -0.04151457323187726, 0.07833372078587221, 0.25882054048962566, 0.2041609097279099, -0.26217413087031316, 0.3550246138458479, -0.2967849368342344, 0.34669745610826486, 0.4672429431741373, 0.5110584416000741, 0.1603695919369124, 0.3424517540331915, 0.2600397692045386, 0.19221864945348702, -0.42701044772817365, -0.23227029365923585, -0.3262234671177297, -0.21768146694311502, -0.4096983459652713, 0.36675918306514016, 0.2794104761504905, -0.3052428313142668, -0.16385914448047373, 0.5004515395754757, 0.3730633227532102, 0.4127325147988702, -0.4154698173939176, 0.44764284319550135, 0.23504624508327707, -0.18148011521375615, -0.005104479701345965, -0.19133352409696877, 0.39272624338798, 0.5451033231106549, -0.05032474087335985, 0.17376594374237517, -0.29511865097421447, -0.2568882844900861, 0.38402875850107054, -0.3312670006920184, -0.02917471002223273, -0.36017934053938405, 0.474001302074432, -0.4199529618133097, -0.09401164163470843, 0.33315168474614026, -0.40066504555222504, -0.35297841892005966, -0.14961335005533646, 0.4285096899781267, 0.3450497863984535, 0.09801734833567041, -0.4184198082398501, 0.25031624754731424, -0.24896250824728694, -0.05142599821497549, 0.2783327481335454, -0.17214077461664568, -0.13393422283918446, -0.07721428565347775, 0.02047208698301181, 0.10278914144761254, -0.02484192504674615, 0.4934669486991019, 0.4225066567422069, 0.029791092107546963, 0.5644710651817427, -0.43948876308717605, -0.37418936749342196, -0.05127649013741578, 0.1584094721580189, -0.37513180707767374, -0.32167305076881597, -0.02206377768340173, 0.03384985233810711, 0.2584642842217494, -0.41800958161532364, 0.3894431942074331, 0.3634366481394545, 0.49729635077722867, -0.06351793253687954, -0.07025651452216197, -0.41266108424534326, 0.26745123744169513, 0.1623335941383736, 0.15826593864473154, 0.4516196687164728, 0.6397708364555763, 0.2964148710384023, 0.5641400874600141, -0.23002902023766636, 0.47949866103333794, 0.03919748987546312, 0.3030775540560098, -0.22782452696988614, -0.12465017770660443, 0.2124603797840694, -0.06149812484368508, 0.18839158659441455, -0.0007602675120606184, 0.4355402126706218, 0.339234935709796, 0.1320860980012275, -0.10285412449344677, -0.10188712955155449, 0.35470873101843603, 0.4464527304458892, 0.2888506089854555, -0.44208366256217896, 0.5122486317233844, -0.4244755821633225, -0.34016423212167274, 0.047590650509004837, 0.49166541980579564, -0.17217941921595534, 0.5352691174398467, 0.03436943189095217, 0.14695516804323971, 0.04349269420517445, 0.1919423311478694, 0.2649191641452288, 0.4302618896541962, -0.2466883295134361, 0.27935465015477023, 0.31882336366880876, 0.3012161698392497, 0.06342593634469795, 0.0977976556637672, 0.01683327361722131, 0.3179636372378525, 0.08370201410312805, -0.48540110611558646, 0.31829516362645677, 0.3615264596570254, 0.18665273279231737, 0.4252056195913071, 0.4118652007003815, 0.27696070263070766, 0.30320948573222, 0.36371440729759386, 0.09714307002661661, -0.10758950527473816, -0.026770601350535404, -0.12462488812997473, 0.5532397472579874, 0.3811662334029035, 0.37979379176372463, 0.4572296802273034, 0.13476001707219812, -0.17095309685863277, -0.253335452765238, -0.047343280554630336, -0.38951748636089445, 0.3638573627675188, -0.28758550966689583, -0.14833869104316846, 0.04638169860437, -0.20562647516935062, 0.07029184499998953, -0.3745324207672398, 0.1347353985395806, -0.4493171814513069, -0.05019900336701227, 0.0090158665761667, -0.3779118309857854, -0.22158298287476522, 0.40530768323197075, -0.08205051037283828, 0.19070969095614076, -0.2518551986130588, -0.3072697271638644, 0.3416169468354518, 0.3876957623685516, 0.3026948592170579, -0.1853146209094982, 0.3438416208274252, 0.3221455482748202, -0.34277035387692234, 0.48211622298836787, -0.3735085013342756, 0.44661937952654945, -0.45729097978581323, 0.16483425041454206, 0.30925345170079926, -0.0100346121258591, 0.16778891275052865, -0.13272557416983555, -0.397207096825106, -0.3672260640439381, 0.22093943038203848, 0.2896910924701134, 0.03698528362174291, -0.2861076313619749, 0.08396063760590064, 0.21529940110580773, 0.008069380584149098, 0.4532329896493065, -0.334996429826178, 0.17273498465514486, 0.03175436125812206, -0.2753882310953929, -0.09938575929883232, 0.24450172075833357, 0.14808968856240257, 0.10927144456116668, 0.13019439220457052, -0.43359618000715583, 0.0021333730088548522, 0.2834378541126385, 0.08589184927899879, -0.3854751176674834, -0.16797134159787036, 0.06890685290837306, 0.16312308786329377, -0.26381613456393926, 0.4165544272019184, -0.03158245172851948, -0.19242826974309346, 0.4774950349934691, -0.4734828322299394, 0.11247405596451379, 0.025964880480154183, -0.3918693891666376, -0.4735467668894905, -0.1764928775761872, -0.11175891934654972, -0.06862852380342391, -0.10457766166522255, -0.2900685826937, 0.043842658943168494, 0.1436335116645936, 0.4191294480198557, 0.46190066906604327, -0.1431264006324676, -0.4718094424400928, -0.30725147426493277, 0.21408637949443954, -0.2612852751234485, -0.01710791912932442, -0.07490711261948957, 0.2559898331234566, -0.05202226931501697, -0.3381630054566306, -0.2121172615493666, -0.006724772273290935, -0.4831430786276397, -0.03779003760115596, -0.4539104883485259, 0.3679556540701507, 0.14671162214316277, -0.24219886795088552, 0.1146728029171356, 0.1897101468982859, 0.39892055842557844, 0.42980328629168246, 0.16856225066151953, 0.012050220059889538, 0.12796240465550884, -0.14063547785123712, -0.026729198720041755, 0.06420465919166164, -0.22075427257727426, -0.23425583977662184, 0.21546477239346937, 0.3656628809740551, -0.06343988230711672, 0.13657769197134362, -0.1209219135357612, 0.03768675372170738, 0.1806143980335656, 0.02590232731541975, 0.12463025737352607, 0.029277950190774504, 0.019992676359809836, 0.15530487166662488, -0.2901223575180335, -0.10558590862915329, -0.24730551858523464, -0.039309585103766476, -0.405717750543067, 0.38958872897190033, 0.3471777272134694, -0.24884008694154114, -0.0019052246604757128, -0.19152124527012182, 0.13478588601783958, 0.1777020835980052, 0.2994165887167525, 0.20427502709466772, -0.28284592552513355, -0.15456234629926358, 0.32983806293739615, 0.47752652539007, 0.07164424244174883, -0.062079030024055126, -0.01246243100475164, 0.4414739980157929, 0.1431185377785018, -0.08361083198480457, 0.46018185776302123, -0.3238810210335913, -0.20644702040117935, -0.25801658523237203, 0.04335153475606434, -0.19118792349389716, -0.04848823054951977, -0.15959884061507476, -0.3742447148037255, -0.1196609322630443, -0.3891749239924011, 0.10462281986274402, 0.17010346383574476, 0.020650822085434395, -0.030177150562192154, 0.23004264821517223, -0.3988276410699999, -0.3325321728768808, -0.10144284424252659, -0.3160183641509718, -0.37002785837067476, 0.22131496936434414, 0.06633092537284113, -0.3349383012641374, -0.37659019455665643, -0.42712717757382823, 0.43246066201014066, -0.43874019889065197, -0.26862771193925983, -0.29479068285321364, 0.44613482387677605, 0.39753401155623513, -0.41856538089765605, -0.31642100802592094, -0.008189767985486505, 0.2467916174265881, -0.351466770659895, -0.022978547364488233, 0.3596460156343061, -0.10989002878211446, 0.38002697112698997, 0.45894625156471724, -0.02490079063469882, 0.316623890881866, -0.29517152873046476, 0.18640266105512007, 0.4712375655174917, -0.16246242840705064, 0.1743657465387323, 0.31236816997977734, 0.2222889743561588, 0.3065083432269214, 0.4876765941111415, -0.31996704728537007, 0.18592324282302164, -0.39425410520117155, 0.31627558268085443, 0.2582007376133636, 0.35344059328131383, 0.3526038451783705, 0.4757261462286013, -0.02641154371247033, -0.12491256167773955, -0.16145408867256084, -0.21983483629142114, 0.37527815921716884, 0.1536912764783124, -0.17173972736731885, 0.21143231812755847, 0.22585304101564874, 0.16880529276970024, -0.2354999738713878, 0.14934233320339468, 0.005654837783269952, -0.22396621687709664, 0.3948491183401303, -0.29465165621986145, -0.3366551894695972, -0.16468551186650732, -0.225211013427113, -0.32471983435523527, -0.4672877593558504, -0.14276355896823623, -0.3893359228744835, -0.47891149809254463, 0.4489393604647388, -0.2430218921288714, 0.10244778213128043, -0.33358942409025705, -0.1342212492311381, 0.4241924815544577, -0.369051038607394, -0.27407547128464466, 0.25066584515564, 0.09492061646892987, -0.18973870948959246, 0.016615880417477, 0.3598116923635661, 0.4629185968248659, -0.07443118681735493, -0.21274990047992884, -0.16692544839056386, 0.19811627936129894, 0.41690644348269784, -0.44758951155171944, 0.4651388742247043, 0.33614643950179374, 0.3641895762082705, -0.34722568907569507, 0.20700067121312968, 0.30289708071862786, -0.427353991699431, 0.19427295414091217, -0.16698379178687378, 0.300676744756677, 0.22534308919532445, -0.08690000632777964, -0.0937757322345124, -0.46771191358013914, 0.04744565324029511, -0.38409282583331306, 0.013982332686930318, 0.01283489294297196, 0.14063468554404926, 0.08283411303068618, 0.0662282687530457, 0.46713947286870433, 0.3490860930109288, 0.3303329478867538, 0.38636527767985873, 0.3592836890497583, -0.41097409863383105, 0.20547574038810001, 0.04278086823026792, -0.40055243735690443, 0.005157328013968993, -0.4176252305773822, 0.3871199808869005, 0.008706203855122219, -0.1344532399632693, -0.47788594434914744, 0.3270386434835878, -0.3903814747708209, 0.06476953198393115, 0.34857898485144917, 0.11775297036351907, 0.015539371619933694, -0.07741809914762625, 0.44743938908165426, -0.2515083423173056, 0.013136414756729897, 0.31372718764418694, 0.3679783093188253, 0.49474870621418715, -0.013145775906651726, 0.29450127397943565, 0.09769844994656789, -0.15390933578404958, -0.42050470810254087, 0.24409091112385614, -0.27635594154996923, -0.4318899267066685, 0.4499108582936263, 0.1977848080868878, -0.14313213948122427, -0.42228146718621823, 0.020260156687595236, -0.44553858865596685, -0.09698013961926337, 0.1274046678918728, 0.04517566021066978, 0.3044684145291076, -0.08909065470074061, -0.007752472173766011, -0.29306539734907416, 0.11919818344982246, 0.5634012114179435, 0.5366381656169467, -0.3355037977405688, 0.4695565197531664, 0.4032482345365581, 0.43304369066531734, -0.05087451673939964, 0.7178547603255845, 0.5723518515731404, 0.04647088256866143, 0.3635956238176802, 0.05243536952447244, 0.41704919659355755, -0.3429586270856395, 0.2426362788990425, 0.3773359923818399, 0.05576324907700398, -0.36878351818787986, 0.060197629141260756, -0.38061788265653673, -0.16332005721898943, -0.26666931430032276, 0.4772453084159063, 0.08683057358403391, -0.43652079538119476, 0.12663986832679106, 0.15103798034763172, 0.4811527709568239, 0.1807433602902165, 0.45739771711267485, 0.2585017679378929, -0.10165233246877652, 0.2095052151349005, 0.4539433652231152, -0.11843808193116341, -0.1143689740805425, -0.19658566237212607, 0.5394773779527228, -0.42054789674553217, 0.20634281086041095, 0.046970333286459706, -0.3039217529292178, 0.4614973405712841, 0.039682761772841725, 0.0878610061658665, 0.10041688592973376, -0.13995941616226346, 0.3781831518132858, 0.10594708685997811, -0.4933928455723495, -0.06189590567422969, 0.27934421315572466, 0.38927093461315315, -0.0296104721369754, 0.3282802724139129, 0.34292396151860116, 0.5693204078590154, 0.024626562115107747, -0.2506448877154287, -0.3069344871334517, 0.188584970145398, 0.5107575686422933, -0.10808809057499921, 0.369719533550539, 0.22339846305713085, 0.002397440259387964, 0.5671203811851685, -0.34846031374990244, -0.387733932253922, 0.4333073900063993, -0.12803218831152724, -0.268369943817447, -0.2982915685233655, -0.31591230373482615, 0.2386021983534795, -0.2733188077758196, -0.07760502336362414, 0.48959388834673734, -0.28323102155816265, 0.37845336339207525, -0.3235501240732244, -0.14037246881446488, -0.43825349164259775, 0.38103932981865685, 0.18468300616108352, 0.17986349449943287, 0.5583465070762755, -0.25644228469870634, 0.4484743798605716, 0.15094288924546648, -0.13783968148022038, 0.11324492646620195, 0.3132641671233892, 0.4112025508032078, 0.4726794907879199, 0.3931656326522846, 0.22401761253923635, -0.09727475198844739, 0.28831072110387196, 0.25144305607776957, 0.17363796413205715, -0.22473182544010198, 0.21538350460742686, 0.18794160991195974, 0.3424351668480815, 0.020730040559833764, 0.10619042610435123, 0.4546956733087704, -0.3740268744075708, 0.26390141924125876, -0.37045668452875763, -0.10341770524557649, -0.2724265093245073, -0.009735180333773566, 0.14569119258876853, -0.15811558039692963, 0.031247159104005953, 0.21682202352500024, -0.043092295956582365, 0.18202410099095678, -0.22806232376338448, 0.3844037679417041, 0.3260726598379223, 0.5055390799819481, 0.48761365522430944, 0.20476247121320346, -0.266479560663363, -0.06332338106371951, 0.19951095101360422, 0.19494176096145954, 0.3299994991816704, -0.20660192356836016, -0.09767923091189903, 0.23551963820116154, 0.12156352807656887, -0.34030634321434855, 0.09563225264283602, -0.3925071654793499, 0.42479730446492886, 0.17028844918688313, 0.08378339107249003, 0.47834627821891257, 0.3495728777681213, -0.22973087797132008, -0.024827199296228813, 0.6556523209212243, 0.23507801284225388, -0.204525092167736, -0.2020037857595469, 0.3721198875896003, 0.224433267560172, 0.41294068038325227, 0.38037354195212325, 0.18967646537590405, 0.49879753088075185, 0.41515890436454567, -0.1983704978423507, -0.46942931859227993, -0.36916917081302747, 0.11582713854361748, -0.11660889078793676, 0.07868925562961185, -0.03141857153629522, -0.47503912221131883, -0.43002412802512846, -0.467072520637936, 0.2399612773037617, -0.15910041836575972, 0.5079211367047162, -0.14663158134654358, 0.0418051791571998, 0.5312553384042114, 0.5996216006156289, 0.7222655700567708, -0.17316729751491, -0.013100544173221096, 0.5628451430868863, 0.1208084534601154, -0.01653427093522957, 0.2534815501636015, -0.11383471183106687, -0.30884721344505967, 0.22505451380563002, 0.48259239367323736, 0.06704457226024393, 0.09708341163925249, -0.016234741504457584, 0.14307868392728518, -0.3723886526644288, 0.47724659392663205, -0.4957767240589357, -0.03734039667028678, 0.4507784727486379, -0.46138575206004606, 0.09965029202832802, -0.15552521077695736, -0.31959981621024625, 0.2001467901337987, 0.397073282094346, -0.0408644908517113, 0.640077356521156, -0.22947735417876433, 0.28360745391463676, 0.46527699865200184, -0.32118209709398315, 0.4351121027886257, -0.11754357577639361, 0.477577695563806, 0.5090797171291216, 0.1776667892686717, 0.3754458890651874, -0.2447424862237044, 0.3368340364268154, -0.35140987450607347, 0.0019283410121005984, -0.2665125080855455, -0.07979304542725474, 0.23213114060668902, -0.11363411847288522, -0.3562904198682388, -0.1275300912137967, 0.11600615343945943, -0.01709129056750371, 0.5724262001846939, -0.023246708788887155, 0.016832378062873715, 0.24382012881575116, 0.5534621475761586, 0.0806157193799844, 0.6597159335181024, -0.04384186315823874, 0.19692311820284403, 0.24471409419785375, 0.4133957757783422, -0.20497351969480332, -0.09718312421568046, 0.3573123375857055, -0.07435944010495234, -0.021917916390573652, 0.14816943970163707, -0.12948167043199257, 0.18113356394412086, -0.21548889246846112, -0.004282707485799175, 0.07101886184728486, -0.43205981484958345, 0.30861731959447064, 0.0811531030346723, -0.2389649669553921, -0.1641060332852589, 0.11653298862618672, -0.23103431293495366, -0.14271357845326021, 0.5595028633000849, -0.1723039091523154, 0.23883028547410273, 0.7014227370514738, 0.04949661191615012, 0.14879732483582908, 0.1809278411807051, 0.668663104078463, -0.00043604844834794847, -0.35795698553959493, -0.04961054571139993, 0.4430990470244927, 0.3053272509247939, 0.3544144132228576, 0.25804147347177164, -0.47127340047664346, 0.13616123269093952, 0.40398024033338104, -0.4618348615286091, 0.4287803993513146, -0.3900556465539355, 0.3763944273699555, -0.10268772315664013, 0.2501789822883037, 0.2682666134853485, -0.3718689554417006, -0.03836835920946377, 0.5324851066408657, -0.2296069163708378, 0.3859516981670055, 0.535028783729028, 0.2386948805945185, -0.17383230686387097, 0.37941534130489046, 0.2672210939468818, 0.3504917025896566, -0.05066639738570147, 0.07023128673687463, -0.2693031359842191, 0.213947630284492, -0.013321211644699677, 0.3384344574202692, 0.06617448967028199, -0.17723830998541035, -0.22126893387719157, -0.15471465299077627, -0.17940857652900077, -0.08125829658461024, 0.09976434317816442, -0.44123205280631417, 0.40014741497651324, -0.49581104270996823, -0.3866643764334503, -0.07779132323850729, -0.2378725384575024, -0.30365804924891066, -0.2634214071366741, 0.42421795800476525, -0.05993100005997486, 0.5471801000616946, 0.11022148315757813, 0.4965604207897109, 0.45314374523584416, -0.27202335520286136, 0.33177545412558307, 0.5517238401234473, 0.23155544890810756, 0.20909558284559981, -0.2851017640399562, -0.1482088965528778, 0.43892109521918304, -0.3456260589357102, 0.29301419832406167, -0.23209672958523697, -0.14070357840181513, 0.020949701071797965, -0.09028908886446406, -0.4779672335183853, 0.33959447609342774, -0.1578446449699531, -0.3088109133881346, -0.3019685672133763, -0.06981001849679816, -0.2558626711493992, 0.46534914177125525, 0.4162752587911597, 0.08525246920153888, 0.20303812523172537, -0.09495221854342124, 0.6027323520521358, -0.2363473533396523, 0.5067047237270863, -0.31762755219879285, 0.36938531828016646, -0.16861826249326767, 0.41356536444131997, 0.17198729818589176, -0.2844457959858843, -0.17525629526904168, 0.18253448452739263, -0.37714010318540653, -0.018232048033177444, 0.10708400103338123, 0.07116197579051875, -0.3072150314212256, -0.437133643080969, 0.39263812478969606, -0.17445888281159078, 0.4770624289836334, 0.124416713207452, 0.29215023219868846, -0.32759900052750857, -0.2025087985056746, 0.19574180180451228, 0.6619025491937421, 0.5941090347470273, -0.09156332009077538, -0.25299707065271043, -0.2296200050008362, 0.4767798921321144, 0.01613263029386027, 0.07153392139870855, 0.07791715733768187, 0.5020814929341322, 0.5176108623438891, -0.15175054472124247, 0.5216857985649523, 0.1327743763208906, 0.061183961488273444, 0.39644233128849427, -0.04554948207008236, -0.14367999491743355, -0.2386720005323714, 0.47901822041771136, -0.07705076554389385, 0.3231402500691817, 0.07929497318771496, 0.24202762679290946, 0.522560618305389, -0.03544872471705073, 0.27497374388861245, 0.28556926381342546, 0.4963046658384952, 0.07135278979546335, -0.1082703202753766, 0.38811680620582134, 0.2924497141091758, -0.21719594835950892, -0.1821522785448219, 0.15594335669579024, -0.16333453658330885, -0.23995763414634919, -0.10446854365881891, -0.4243111672026661, 0.5162505448845511, -0.38035580920742496, 0.03418578357935876, -0.2533191693055097, 0.26097583355621645, -0.1524073293194943, 0.2960539557741277, -0.2524102169792618, 0.06119497032271158, -0.318787352417298, 0.3261433145392096, 0.49136883424104094, -0.2759546945329071, -0.00988510850917841, -0.2718150583748831, -0.18993806154620763, -0.0909776045552967, 0.6400049130240143, 0.22840283261990607, -0.2665414751226665, 0.2722012936644156, 0.059716531231792144, -0.18234932437520338, 0.2092799443250123, 0.2987929100914144, -0.021523275985416947, 0.3676160731904767, -0.3023159147957616, 0.06438531373888229, 0.006166124727014751, -0.057963227240735424, 0.16407238586980288, -0.47498192517717563, -0.03767965362543791, -0.41710908272153707, 0.1500446612891393, 0.2989199605154692, -0.2919558878141056, -0.14192436993402885, -0.05077221788849687, -0.05026438732198762, -0.43501774492558554, -0.2147487207835322, 0.5088839334343012, -0.11853928913646558, -0.1356876304023525, 0.26944392292683456, 0.026000283329881073, -0.3094079844564447, 0.609762615546289, -0.2541864283439481, 0.36946430553569604, 0.29963301781848184, -0.034795362355318486, -0.052323044975463466, -0.1426422181478835, 0.2684526210502295, -0.058582518160325094, -0.12202728933236216, 0.19870771723291314, -0.26330895732232773, 0.48438074024699906, 0.21398233410035206, 0.30175648414734846, -0.24118778075265762, 0.09243706823828378, 0.16158521851010685, -0.3987210004597915, 0.313690223032211, 0.11894284510571229, 0.20574401345728607, 0.33462081918275816, 0.08296194538228764, 0.041634699756935865, 0.27753426202577103, 0.4057206316112322, -0.04804895849546058, -0.21040265759994423, 0.07356014559758275, -0.3580328604967423, -0.20887904041886143, -0.006379867155881708, 0.3930634564626129, 0.4406187898451936, 0.47129338726889924, -0.3146032441174182, -0.28011257534465417, 0.22941475267799205, 0.21175118481380095, 0.4472095184175511, 0.04794674227516027, -0.23000001083953694, -0.0005455031323886454, -0.47926297279543184, 0.46169551980736284, -0.08015883346057956, -0.33376228714095735, 0.11866421629497287, 0.3126567095869376, 0.03921822760614395, 0.27575448108012657, 0.5064138931129543, 0.12714285497672564, 0.5171493543785585, -0.25700919791362004, 0.4560470206674629, -0.3999285352652847, 0.29963860741247045, -0.3323798335878017, -0.22472622602408934, 0.3594429683730384, 0.02055840606463713, -0.3178368491095658, 0.020669577283995322, -0.13108504293984424, -0.35476074821566184, -0.27646836515255213, 0.26934073820577575, -0.11584351299757001, -0.1899400450437071, -0.2257613593697143, -0.2301796296109774, -0.024498954394699794, 0.07835582902916848, 0.015599203327044245, -0.15682060807850642, -0.43617995860594, -0.21216294072474656, 0.3172692387429456, -0.21720398637296431, -0.2977547693332602, 0.44403397455908983, 0.4742372722702974, 0.32113082757939004, 0.14284800706420192, -0.3282910904395053, 0.3839895362189031, 0.06155451756613824, -0.2799615383590492, 0.30995312124755114, -0.15749754866509158, -0.3323202608175524, -0.23263689428141143, 0.002612156810140487, -0.15047226859701068, 0.4197872870574836, 0.30231817553647744, -0.33664430382631017, 0.142674837325529, 0.4994896659470355, -0.39473243975696304, 0.24259599052842065, -0.047885822551956926, -0.13962434510159225, -0.26103416331990814, -0.2791928825146221, -0.19611643971597706, -0.495554905867019, -0.253179728660907, 0.23668007162582563, 0.09048592928008045, -0.2742307774166035, -0.2970001737904815, 0.008656137601218306, 0.47708006951088316, -0.12767655391969854, -0.2305753442853654, 0.012184547164753368, 0.05932250775286352, -0.4093435581325151, -0.2906568396708378, 0.461946202407967, 0.38148286306620316, 0.0024567124209189384, -0.35394362540198343, 0.4805478416196861, -0.0867133841331369, -0.07247191651120322, 0.19829911442604586, -0.0287011432080142, 0.3270365653939171, 0.4974270069056065, -0.4149506689917487, -0.0061544260546851914, 0.20763175155819602, -0.4237192249737929, 0.2091666053353567, 0.21457757837029923, -0.428889234793844, 0.22310624288194025, -0.4592326779615531, -0.10695041361120239, 0.2716987680194076, -0.036198019419200866, 0.20904012855850618, -0.46300235308806303, 0.12979271399422865, 0.3599473831794121, -0.0011740255693032386, 0.2921527461233311, -0.017510510012368474, -0.4297808196850841, 0.16649421803122, 0.12135304822329696, 0.4955205185904661, -0.49400680741774605, 0.33942513565651644, 0.214611060501699, 0.13495855445367644, 0.11327175552178465, 0.17515911655473776, -0.1980430246402927, -0.21870266529499582, 0.33461541064876665, -0.268127605224185, -0.3679673710284145, -0.0759233092300108, -0.4879689890210695, 0.3273818813469648, -0.232980292696842, -0.08456954530318177, -0.06738150340777582, 0.024109304050382696, 0.24885766100959206, 0.19568872815211347, -0.3433321848078069, -0.24991749058604784, -0.23027252897677142, 0.12145703167850108, -0.15744337208142767, 0.03216917096774963, -0.24443802327379993, 0.3730422218949415, 0.3897046243435218, -0.3432709859350021, 0.2957972087426338, -0.45317598917248697, -0.21861718787517515, -0.1390737696686903, -0.497187440859274, 0.17610408786630286, 0.18049697981541354, 0.24904249461778458, 0.042167180783717596, -0.3779625711387005, -0.051917082661716664, 0.2957572651780803, 0.3472947184147117, -0.47841259879140474, -0.037182011103175094, 0.3348555008625189, 0.08990683484997844, 0.024291726146078, 0.41045523317476884, 0.056545900670518234, -0.20389944795458614, 0.13299842019832664, 0.2064734252430135, -0.2804832283850094, 0.47881094186698014, -0.26019464475443005, -0.2118391306122253, 0.46089146954067056, -0.14960440073959103, 0.27841020361247676, 0.036054478794826955, 0.03671016392569454, 0.06828152009406258, -0.2580831398572993, -0.4259108172200598, -0.17794419606412967, -0.34707793901534734, -0.17959740803733715, 0.3257575525064281, 0.1262408636282359, 0.3161127623265162, 0.4707923579397176, 0.09684329590431018, -0.18514321968036654, -0.16471609810689375, -0.22082539962850753, 0.29311479228105525, -0.16667416430414042, 0.37446526973514327, 0.3944484201742757, 0.4538983672140846, -0.2194565937262547, 0.11372679639319991, 0.205103784659485, -0.09125867099213075, -0.000972278992994161, 0.2161809759947804, 0.2641240994829669, -0.2605099249896891, 0.06847780425685297, -0.6786461265727335, -0.9119924246500614, -0.46535915818087087, -1.256497220428245, -0.5166143248201533, -0.6406373577504948, -0.891333591249972, -0.48533071876221007, -0.09520438773173669, -0.42765734774215697, 0.18897760630117644, 0.4572581079890587, -0.0399947203662295, -0.3939874254310662, -0.24415518645461168, -0.38137591552577554, -0.23697613521005279, 0.08478327741780967, -0.27868544557121167, -0.43357517775077653, 0.2700730976782845, 0.5043528682007377, 0.10742304380484277, 0.11905840362264469, -0.443625923091956, -0.11534207268906958, -0.2689751132995156, -0.4111424624537243, -0.6603107843456827, -0.8837431435505264, -0.9603300568922537, -1.1167529641533949, -0.4127357271232514, -0.6721896256839863, -0.4456602118138337, -0.473562970458622, 0.1294673364628003, -0.08543778919439132, -0.15337558688424752, 0.10415096169611707, 0.3630249739461909, -0.5635272001191363, 0.22465869396307672, -0.29794253942019494, -0.3750786319777534, 0.3841599309668833, -0.45453689031142896, -0.07364644239332421, 0.21325203624073638, -0.41594711937642587, 0.1708521203518655, 0.308499985409877, 0.05303958377236102, -0.18113245629023525, -0.16146506278044223, -0.3841461834019702, -0.5619133292770189, -0.5426977321465573, -0.5812381376300774, -0.4390954647936204, -0.15326945826685665, -0.6535267789108801, -0.5491297453903717, 0.2729792225131507, 0.5199617997850783, 0.16553365299116066, 0.5509415731016019, -0.09708304364159952, -0.08737507042292317, 0.1415075491691884, 0.19448825723555518, -0.21561497787108536, 0.14070024849646992, -0.12541087711200216, 0.16157064072706775, 0.16686310994981948, -0.20609789508224902, 0.1670284449049339, 0.1539497994569045, 0.10658417527230755, 0.3465750096796507, 0.3267231557764854, 0.41845135440240266, -0.18440106421137675, 0.20374551776381392, 0.10043671220618383, 0.33649793308703474, 1.0083928177965902, 0.08285574272770636, 0.8412192461691655, 0.309545796871158, 0.33183716527239127, 0.8206252003689833, 1.0490140643574881, 0.8842546661065271, 0.31392614552629955, 0.1071845555345183, 0.13246758003515008, 0.25579655395780104, -0.41985496420263757, -0.4728831692680253, -0.4923555788257593, -0.09359999881475546, -0.4255004858107282, 0.35111061302045554, 0.3499172519666488, 0.2594402644148246, -0.046476396201376544, -0.30549679611357283, 0.49258701912045966, 0.3931468037450966, -0.03009170307481687, 0.20867664565906796, 0.14595564890438167, 0.0431518432295358, -0.08218557740233667, -0.16675639466488362, 0.1894268941673084, 0.18672024043288765, 0.36262715319166583, 0.2771278771481562, 0.3026312321853591, 0.33121275829489205, -0.045506208188236724, 0.15092438243563738, 0.20739061454703883, -0.08743948056387003, 0.08345307283043585, -0.471133577712418, 0.0016825886611040802, 0.20280495606902874, -0.3468963103875048, 0.10616481809060083, 0.419407334350265, 0.24691276611524765, 0.37824430047632124, 0.4730174771869095, 0.14372205904848454, 0.4954536298463861, 0.6690298591620765, 0.7531293331768463, 0.07375547667344295, 0.24788337896405052, -0.4395799774376479, -0.24970991993090255, -0.05968019453557554, -0.12967456573377403, 0.464858737652399, -0.06099914774528251, 0.05820155590670559, -0.038308686112265726, -0.01894641021584773, 0.13111225453810954, -0.10618642265545294, 0.00046266844528264546, -0.3971195936420333, 0.05245686545061809, 0.11163575268767238, 0.16623367862462948, 0.1086171879195467, 0.6094828655972935, 0.01118937078298215, 0.03327791067495927, 0.1888323229245203, -0.036514371057574116, 0.6790134747983928, 0.978128464701317, 0.3191876564627354, 0.8841594877832534, 1.034374369275684, -0.10194125957555411, -1.3119156741005586, -0.2731696758321588, 0.06468711019213068, 0.4530693572208797, 0.16665078410629247, 0.10025244422634716, 0.566063717961003, -0.3552941746827174, -0.15465788435550118, 0.21440552221969458, 0.1346000897862536, 0.18541521543745498, -0.35718287689758677, 0.2020720653378884, -0.23795497980303884, -0.29909235525830585, -0.09293984637492866, -0.12957681865108206, -0.1607866767057773, 0.004977814711780113, 0.21616626568585276, 0.5395704903008991, 0.5011553842115206, 0.2996345266705694, -0.45415596500060756, 0.17483565776856888, 0.42161941460164165, -0.6680946204867702, -0.8315920870514882, -0.5880538186833933, 0.07534001343073317, 0.6839631998538753, 0.27442202965737683, 0.4714316240263787, 0.13565339294812623, -0.49538493117090443, -0.6787596601577721, 0.11024267147417287, 0.1848885547647906, 0.3100141213999712, -0.4830203955422691, -0.30315743895428443, 0.4992731407868759, -0.06289282126608493, -0.2472071572554162, -0.10494465659524824, -0.23866608228245484, -0.007237340208231601, 0.10123281029471785, 0.26925206633568666, -0.20065357593069816, 0.40959296239008935, -0.17128599086868576, 0.03361203808053859, 0.3205439088388407, -0.06471441027281317, -0.029211940376905166, -0.12949555152198028, -0.2633523325852577, 0.24999694641838333, 0.5540413481675437, -0.06336272440632205, 0.2033642482343899, -0.28957137867351856, -0.3718963656246874, -0.16232058568159183, -0.5933852905171827, 0.1410552626306995, 0.32415768339502143, 0.010184034106326956, 0.3759627300877354, 0.1906153248879841, -0.4864583090414169, 0.22583195106859513, 0.22085304347141807, -0.06797427315561047, 0.29322240049354953, 0.2659403057638954, -0.07014213738026058, 0.17046063935692166, 0.02157985675074903, 0.027153731386029854, 0.1972744908628635, 0.020338082749440656, -0.29860522218281327, 0.21043524852273846, -0.2372737470448832, 0.46795350526858204, 0.3466484254298023, 0.026538021371677996, -0.06166300219562523, -0.998878096828553, -0.5718599413336202, -0.24011854457226622, 0.3711674114411127, 0.25601269069202565, 0.12475817553442267, 0.17271401615487592, 0.2431385256820321, 0.3555930945326844, 0.4679174988510948, 0.24314444134192692, 0.3024541162907859, -0.8425763665317568, -0.5571452373673054, -0.11067309153982743, -0.35067325774283203, 0.15317665324002805, 0.8145885926038358, 0.3775979271740172, 0.7474594025023328, 0.3354649812933471, 0.5319413526326455, -0.00829164909353587, 0.18315317109305834, 0.4951274640292138, 0.2718968204814026, 0.4467344130453881, -0.39008035425646975, -1.2159942792450997, -0.7876399020321446, -0.08980923371157644, 0.06473945074042338, 0.3967313286682074, 0.21334104897697412, 0.363322542464948, -0.07958564319239847, 0.4472729497256843, -0.17685038048734095, -0.16578068648580307, -0.3245107350148283, 0.05281130607183706, -0.7021292625096363, -0.547897095834086, -0.1269247734923356, 0.39100035839572, 0.5967203493478223, 0.24002704154959953, 4.1398454465076614e-05, 0.18170916119077762, -0.3307547779518637, -0.036770316369439, 0.9412563999185471, 0.8262556010473935, 1.01167570727601, -0.1571892691496403, -0.5550459852195357, -0.5986074328032339, -1.0875278718551307, -0.5690276107789489, 0.028210736561399153, 0.2542329692536603, 0.2864264092996259, 0.14543304365056325, 0.42077701081171526, 0.19753664255179706, 0.02041936060797704, -0.2236589540670691, 0.5065818892384552, -0.2643418152888813, -0.7007977425951902, -0.5080881219700156, -0.7600782027355685, -0.5495182865730831, 0.2866099776726834, 0.13388900260348904, -0.19036104396230866, -0.16789496872925916, -0.22879135559388397, -0.27973844276044696, 0.8805948978835313, 1.1359431244564704, 1.0192983868573617, 0.34652330408110493, -0.788188474861037, -1.01890873148551, -1.0147463447120715, -0.43378625714591423, -0.5994001724370919, -0.1636430899870924, -0.2827288161897701, -0.40640680290433695, 0.2660040451539132, 0.2338120271559727, -0.07223081265119362, 0.06952574599367871, -0.17581153497978783, -0.8096546277889004, -0.9221995897931247, -0.8751042433913921, -1.2170020979210265, -0.607767189683157, -0.36386596652219594, -0.47323268192101664, -1.020367513811551, -0.7540805007348408, -0.7440043373204844, 0.43397561390206907, 0.39976994010555345, 0.1584077641247253, -0.29583221871619075, -0.6428227791565362, -0.5735931290253327, -0.6880457913867384, -0.32381979878705514, -0.5226937549184835, 0.2824723236884604, 0.33667986978743275, -0.43301975240966856, 0.33341380485765554, -0.14442759386783377, 0.49821387901648917, -0.08613969540608564, 0.3192703969619912, 0.03978915356313298, -0.3777182522907823, -0.9486985293202758, -1.8425179082909127, -1.2320064298177587, -0.7069430089835228, -0.6889330764339228, -1.0155435381539801, -0.9059824926010139, -1.2212728867719107, -0.4822211928699206, 0.8244384678063003, 0.3448716695137003, -0.49575073371902867, -0.540710284181482, -0.8244038677039467, -0.6931817304524072, -0.8366606780603255, -0.6772087585988187, -0.2807807081965803, -0.17111189779087752, 0.13703453918022546, 0.2901305855383216, -0.34925637476636445, 0.09133551628449299, 0.28842386640855794, -0.025138869243452627, 0.7132616051089324, -0.39183588446483697, -1.1713461049386507, -0.8710418075049888, -1.1313229648443544, -1.3205771962773887, -1.603829165846168, -1.1669338297729923, -1.4535828076657742, -0.9783103167891637, -1.2321390481343304, 0.23863306345941668, -0.11076486174618844, -0.11784584264562942, -0.2896486583970162, -0.7060331550502551, -0.9268035591034683, -0.5683554389413027, -0.4973427745670382, -0.5103547588933047, -0.5011845816662497, 0.19835242991695268, -0.22434522119383726, -0.40871770243788247, 0.38108511516865745, -0.3429748791071866, -0.10069498438960593, 0.1587575664675745, 0.4208800069938931, 0.5064427527354627, -0.28596446801659503, -1.0422418925943597, -0.8803535512908691, -1.1375411784125116, -0.9033354715395979, -0.8312418976247515, -0.9570390853353844, -1.1060872233723735, -0.7743146726289254, -0.3370559138381739, 0.3413112787245071, -0.3113557616679848, -0.7261284155589368, -0.2121182504790908, -0.215314588402446, -0.6478899822340126, 0.09896412276799695, -0.6168857965645832, 0.10444278315318113, -0.34741733767797184, 0.011487423726731732, 0.4321626304092041, 0.2680219982684586, 0.3149580641496017, -0.3363870321278085, -0.17771332446198398, 0.3828687189041167, -0.13729033028927762, 0.5375257759679426, 0.09321750167114355, -0.28018005735180784, -0.2323918351102279, -1.068798525751189, -1.2518900883239399, -0.964455927275359, -0.5134232014617485, 0.11008572029835938, -0.07083327980310714, 0.13962327926308735, 0.25098870709034743, 0.1981915878848966, -0.29627827785164934, 0.00011012682307438717, 0.02772405582676066, 0.3863025169802819, 0.280644879439956, 0.24811769425655877, -0.3859788110919153, 0.038453474506304236, -0.15685810314158713, 0.24839839991071833, 0.06693734637962201, -0.14910891354822442, -0.2859251939082861, -0.27344627108925607, 0.31418252336733477, 0.11414371413834289, 0.4389202600423664, 0.305951814861629, -0.14783576570178286, 0.342719661639322, 0.022935801098568645, -0.11580788478391005, 0.34635580108308744, 0.501994685119082, 1.1755605021845448, 0.6028322472501585, 0.35785294217114566, 0.6346290292916449, 0.6085717380784275, 0.11710612335884325, -0.15694123458666856, -0.22719541788210149, 0.38687061736324657, -0.45260103075342045, 0.23900555062876103, 0.18046721469924032, -0.15373245931651627, 0.4238326240284084, 0.43813791298926374, 0.4221742520974775, -0.03463424394414371, 0.012742534343346474, 0.20296972665093213, 0.5538968718779047, 0.16676681411255392, -0.021451114713260177, -0.09331306861594621, 0.31275187950495437, 0.8231466750651493, 0.5734048084499893, 1.1813840172893126, 1.6681026222276596, 1.4411366509384418, 0.9526889685570076, 1.2659563976989003, 0.4067340555849289, 0.14061786380933863, 0.6288008987395604, 0.12351625854348798, 0.20911146654852292, 0.30149690020229997, 0.27728789878058957, 0.04317920806789783, 0.20842609598929204, 0.2062773689068216, 0.1591857029242688, -0.4334369618089271, 0.25528668006610533, 0.07730157246117986, 0.36853211587112994, 0.042363671134317084, 0.20222614857280824, 0.00921316506793997, -0.17292544251108852, 0.3228985457054623, 0.22895877451440105, 0.23857608124672416, 0.5320050817040058, 1.0086796774074815, 0.7063049895708565, 0.6127098322400243, 0.4612163950207004, 0.5955285850525215, -0.12470442505252936, -0.34803572867861965, 0.024075072426881693, 0.34260928028916604, 0.20116678601985694, -0.19887094543990905, -0.12883790588748806, -0.4549781135919249, 0.33382492507604533, -0.14923443405076053, 0.04347805592009768, 0.2518363450661192, -0.23012897322645742, 0.042591501232507545, 0.0022223423764200865, 0.04924506990234002, -0.14129399823175345, 0.259014477619759, -0.6160142980197251, -0.03104078101257275, -0.1479301087768596, 0.7340879797686479, 0.072750014148526, 0.09785760653643387, -0.07317392596414567, 0.2851267771124698, -0.0939862325396752, -0.022775140604258674, -0.09148472632273057, -0.29293140959020664, 0.24542723040970682, -0.38443778063896816, 0.461307646956097, -0.36701521384497976, -0.4007180218615916, -0.07798728243312356, -0.4062938708476582, -0.4794968407765967, 0.11209561129883994, -0.07531891638664479, 0.4543688713155305, 0.22319616549988175, 0.17643330089380738, 0.18395641935946644, 0.19631371204870926, -0.027379036811934238, -0.04479114459527549, -0.30479793874778277, -0.36396076792273846, -0.261278658067907, 0.024079803665230364, 0.4506463484805799, -0.36574010050680833, 0.25987700463554564, -0.017165736559244055, -0.23610295187727795, -0.20121977585050826, -0.3447414289958413, 0.1699793092714249, -0.06302471053676444, -0.28981367347735465, 0.266470667543243, -0.23795530040650786, 0.2878818236469827, -0.48790725449311523, -0.3144931795338288, 0.017107565762755517, 0.2664973756966852, 0.3952602611087812, -0.4330714432536903, 0.019453941025582178, -0.284370616113948, -0.3453104596372685, -0.07667474805170886, 0.4817838825172071, 0.34964682349907816, 0.17497215185595483, 0.021043070212409323, 0.015606713112088038, 0.396440799214426, -0.3852252956943105, -0.2071726901576926, -0.23338386326322694, 0.059058355742535644, -0.4168152353115877, 0.4069166361242217, -0.25407566111308744, 0.17670670923394619, 0.2794041823042556, 0.29793778812451155, -0.19988357977844395, 0.335212295576526, -0.16215314886525778, 0.040594127476057396, -0.054765157952077814, 0.36683163870304614, -0.4740937562504204, 0.23053519003974288, 0.44021624417618166, -0.24562540759147866, -0.43530142094668567, -0.42937016847799314, 0.017453989717601037, 0.42476334784767933, 0.36693616056351186, -0.47029108725770374, 0.08831473639822929, -0.29182825190980066, 0.26863506911323154, 0.3258232617627449, 0.09672490431914427, -0.11206220249473209, -0.46450546527107317, -0.14544925953077859, 0.176678912869076, 0.3939157786215325, -0.17012618582045824, -0.17414504170492928, 0.08125958084879359, 0.45895178458099817, 0.4285217957037719, -0.21005958195137042, 0.2759364789267319, 0.14177698944902795, -0.388082455533336, 0.1727527421192241, 0.43415535642081393, 0.08766250828375888, -0.3997283724866343, 0.4232324364520929, -0.10370875980404558, 0.07134599402191397, 0.3177932586125684, -0.21759198637346266, 0.06526636932773665, 0.45797727761634033, -0.16067840087951182, -0.19267417717241841, -0.4500559949207854, -0.2878369759934729, -0.21931314015453318, -0.05166419842241404, -0.04895748693603154, 0.24643542895547152, -0.4901938499204622, -0.16400317208682924, 0.47178494111071023, -0.49876027493723496, -0.32228265989421745, -0.09179676882323162, 0.23525236619982948, -0.0150848434257016, 0.010757177738978996, 0.12303679359981257, 0.06532857975813966, -0.13144919436779745, -0.07503034297084368, -0.35212936501418435, 0.22814036491823902, -0.1130960293776002, -0.26367985580138587, -0.4764424931242726, -0.4120446996948561, 0.4742429839562449, -0.10162704457668222, 0.1820442690459286, 0.05470649265160101, 0.3954683987263495, 0.32739743490004913, -0.41053011504678777, 0.22974369505653197, 0.3738990936808008, -0.11182279888487981, 0.42115117437134014, 0.20463310934636625, 0.21730739825515674, -0.41226923568619644, 0.3919449778018793, -0.2206107956948724, -0.14081811313846027, -0.2214352062808136, 0.12771692463161644, 0.31512583338208544, -0.033745823988263084, 0.062130940369531214, 0.11450478092848167, 0.08157546224197251, 0.2008493252586473, -0.117098401756051, -0.25946916942224285, -0.3637339381132271, 0.4132309949601384, 0.46116596721818726, 0.5014585433229071, 0.15281216985095822, 0.17013027985850088, -0.35022674031623885, -0.45251080460082027, 0.273904896286951, -0.11094342000921643, 0.2567694243150922, 0.08481719065114492, -0.04265372612983127, -0.19972449557101013, 0.24255778876304385, 0.16991532059450792, 0.06792889959479864, -0.27591931782741197, -0.46729870297093823, 0.4749305291483279, 0.4090123133111344, -0.3963067375281463, -0.3043753892775039, 0.19083181053305368, 0.35109377564208305, 0.43033539826116424, 0.3780848202497083, -0.4570971288149706, 0.15026348155062924, 0.06206737313741709, 0.5051478106213273, -0.20911926427255556, 0.03886015667367945, 0.14768111877715398, 0.02342666405093995, 0.46144340817595975, 0.20489534969845213, 0.2199574478380572, 0.3090790842468721, 0.08538800502353162, -0.3898310774851741, 0.29480796151483324, 0.23553895965554225, 0.08067163040146251, 0.255477972581428, 0.35873497814604904, -0.3150491546516431, -0.012018595386463988, 0.2711097696075393, -0.47964662795547336, -0.47388357152515, -0.04235878313741658, -0.45707191461319424, 0.022382683437128396, -0.4274609885898168, 0.06410895198545158, 0.4962842518547867, -0.11831735128474682, -0.07583550909625796, -0.02549807561082154, 0.47196461512623994, 0.009667928151339166, 0.1985069394106977, 0.517129930716895, 0.367200294047555, -0.19733549846134768, 0.02307262157254643, 0.48648434670337487, 0.3668849151961889, 0.2540419876338, 0.42892995558923314, -0.19985830218567333, -0.36255833830368334, 0.047168125831279384, -0.2489488826729087, -0.08581564343649485, -0.183824270080933, 0.46789198278229005, -0.3223524725085405, 0.2999954480937965, 0.0355667508734759, -0.32751162087314684, -0.19444571685000311, -0.018098507806687217, -0.19326028154434682, -0.10057960290711962, -0.31393152011777803, 0.23111233409884074, 0.08830496060716753, 0.43676857008048925, 0.269183539208566, 0.20220965108602948, 0.20551011209354875, 0.5705291256181907, 0.004148551814246106, 0.06168249767414349, 0.2693421381114994, -0.16148280623922232, 0.4868534315633019, 0.04929523793450664, 0.1639850910312531, -0.33004205536923403, -0.18107543423094696, 0.3769725817026386, -0.20687535479836658, -0.18536263949224863, 0.31688772310699, 0.16372341383317632, 0.26460019072430707, 0.28690525713249987, 0.1693109339316433, -0.08984927927269482, 0.4549787111908008, 0.5508094519913178, 0.5192819524333142, 0.06834417815495865, -0.19559382055812694, 0.18188540454003851, 0.28215563954090744, -0.3691649470458621, -0.09615115713227683, 0.43352312645160457, 0.4651454213376956, -0.03336945965018732, -0.4270745903970008, -0.27372817630190777, 0.12026432503186786, 0.0006305987828381055, -0.27452855553832717, -0.4602697584025742, -0.4820752093427143, 0.18869732401780942, -0.35760757663779263, 0.1594722091786421, -0.1117275778840821, -0.4102151947336583, -0.19198374016416986, -0.2964549814414475, 0.5738269094077126, 0.168772960300303, -0.25658126209760546, 0.4450881038593537, -0.22055494102569287, -0.08239777727582723, 0.1764341279321724, 0.058969943934449785, 0.5045690877995875, -0.032116456995062694, 0.08511364541113836, 0.07622091617498265, -0.27860802298649867, 0.015835795101634676, 0.21905796849492915, 0.44257213339480583, -0.16810272484025704, 0.11006105494210312, -0.14996890957767012, -0.18770315787678188, -0.18013392889729304, -0.18470056644923208, -0.3114935567503434, -0.431350613870047, -0.17532792802368236, 0.13446656068808027, -0.22769893422490692, 0.16395953508094943, 0.5950314729124654, 0.048822774060523794, 0.5706109638030763, 0.37870604322453283, 0.5501818957875074, -0.05662717882090617, -0.007731184490132537, 0.10200116464879029, -0.05606194576640876, -0.18685474149540043, 0.08294678923850587, 0.3036676820182911, 0.30795720961162903, 0.1951836739205218, -0.1848665501056672, 0.026712566142388598, 0.4454041076770177, -0.1861265239064068, 0.0072190361810905036, -0.20652710359066714, 0.42826650896721086, 0.3718026220180038, 0.36241380893936065, -0.4464815175157134, 0.481484331404569, 0.4240864989396544, -0.33676967661848156, -0.31224506963118204, 0.14396702531270347, -0.3479224296426518, 0.4951678124444724, 0.10971594736459918, 0.23114558620161552, 0.5930851553033872, 0.177813730114465, 0.4573610838512481, 0.024561942500871282, 0.5312271794952945, 0.1503101700079929, 0.47952501775460754, -0.04148678266503574, 0.3192342448862273, -0.48591242000218765, 0.4741317600502961, -0.3580413343881636, -0.4422614846399131, -0.21776261071725073, -0.056948179998289446, -0.3095215607927852, -0.04033617669906051, 0.33729482000209715, 0.1741268871002124, 0.2795049020780085, -0.2239931677523357, 0.17934614972618088, -0.0972295756072377, 0.14461210493843024, 0.05259361493655952, -0.28659527879322055, 0.319321525528736, -0.10136137924209258, 0.33690867828481447, 0.4925345666918149, 0.3829338828456935, -0.10443468082869277, 0.5321845744612725, -0.0752006285375948, -0.03954817408089857, 0.4341921985859197, -0.025165406134047667, -0.03226287025570244, -0.22896258898141525, 0.29612387687992336, -0.004447719511477995, 0.13481823794235023, 0.099610131084781, -0.16741625604859442, -0.2099325898350551, -0.048731298125169666, 0.37936708238910005, 0.11825737754246651, 0.1958600610785838, 0.23133292867651864, 0.4204010515009893, -0.36394383947001674, 0.33572035143117446, -0.02050924944677917, -0.4201526890465663, 0.48439635030717376, 0.4780087829540019, -0.012300348912259453, -0.06897557316677462, -0.059391297087330354, 0.35399744626912694, 0.33071134808615865, 0.33842511008067194, 0.13717166408044712, 0.013901918030563709, -0.2788117346000501, 0.49831521617662544, -0.45329314274370885, -0.19240478253872073, 0.26557466862834644, 0.4688276252662188, -0.11359561995376073, -0.20808203908513404, 0.4519037112789728, -0.39475747123760324, 0.4645029263022306, 0.3001661018507618, -0.11222790343106905, 0.4320171466336198, 0.5688903307564134, 0.06944778958107321, 0.5355841515407499, -0.371156780389614, 0.417166714523701, 0.044603550952406625, 0.33922298968991477, 0.1497666202106472, 0.4688539980659492, 0.0701035379185199, 0.10832384580918747, 0.028311384141646065, -0.1326522367465277, -0.0019602690130708484, -0.26384403986855604, 0.23498766627660464, -0.06988771422007524, -0.13123430412566062, -0.09624849056365503, 0.06736923877413525, -0.11484103505109189, 0.24211399518691817, -0.2238362563971669, -0.37872720508022123, 0.07785159384822567, -0.39287084971161845, -0.04700360681738837, 0.2900465389534259, 0.5458664152540283, 0.3020366582587227, -0.187828573323757, -0.10087829660155227, 0.37090157193705725, 0.08969096022030303, 0.4954284555516659, -0.1428077898342328, -0.28626708915773985, -0.1856637434100082, 0.15239507939280994, -0.15884797211022414, 0.32785657696939724, 0.4492865753267284, 0.20216308241052075, 0.022196866503512554, -0.12473484483225236, 0.3144760501294556, -0.06158586525940424, 0.2343124184181321, -0.4188578329253124, -0.10789574776458134, 0.45205579775853766, -0.2214729406377526, -0.1727281091212939, 0.09094510110519985, -0.12197408320309824, 0.4122717128408581, -0.26654358872343115, 0.35875753490495216, 0.34742101251903, 0.4970451619121197, -0.09858666769129627, 0.30887672138656896, 0.49133844195895016, -0.07979763771076816, 0.2226367949891718, -0.24171077233530344, 0.29191491029237404, -0.005098769858873206, 0.2742356820399396, 0.25712979525813046, 0.4275747048798332, 0.1698319692368084, 0.15356938318417965, -0.32757013674402546, -0.45781367862484534, -0.17912859323023766, -0.3831683534995971, -0.2553175735489015, -0.39200179312351713, 0.13002874531508565, 0.1895170066138538, 0.08156773960539497, 0.2834634242870753, 0.4866038310441937, -0.24716304036608835, 0.49023579309868376, -0.17156897711851607, 0.44134152104340096, 0.12315735334282717, 0.018026530395316532, 0.5323085422434434, -0.29211505138231475, 0.635051565872188, 0.2770268507075614, -0.33705037343494737, -0.37882837199540537, 0.09485401383855577, 0.5414733196909894, 0.08729797091070646, 0.24985496161051518, 0.043281057187168334, 0.3164631259750556, 0.1442832820390976, 0.3332782189899042, -0.1744490712484673, -0.21200846222788355, 0.4254104536840681, 0.12652084442794817, 0.17594602010279348, -0.11983215156529838, -0.18659981364552153, 0.4147753122593633, -0.08565902173662525, 0.06866755224105012, -0.24747978619517433, 0.3399744739378609, -0.21308724683397948, -0.203817612795255, 0.5315303506605239, 0.5132712099753194, 0.23760192865286495, 0.16599005495266858, -0.3389309989503547, -0.22488542079667626, -0.35743017776095654, -0.33330578656819615, -0.054449232097845135, 0.31731537546389754, 0.12186898805622165, -0.18032169199940945, 0.267801173062307, -0.387398116554996, -0.11825966897975387, -0.0077885473483320705, 0.18398260034768638, -0.30056411560510843, -0.05961980708498786, -0.3378255537702263, 0.08785766010896788, -0.12195945697081449, -0.21213845388476565, 0.17388577074247857, -0.053428750130275836, -0.300152519963975, -0.09272876957823616, 0.6767625669304524, 0.5362444130421241, 0.1775292353132324, 0.13934162264042446, 0.31438829894779613, -0.2092189126328207, -0.10033329682174603, 0.29965065056542584, -0.08194682322977767, 0.17424865079967553, -0.10125915269051586, 0.4174770819628338, 0.47425624288891655, 0.1361754033933866, -0.2930998845899432, 0.48716813253932434, -0.39495827543355444, 0.10865226349735381, -0.2622338533270903, 0.2219964628279189, -0.14445166381578994, -0.06021624189966986, -0.27509467508579694, -0.20120454330858173, 0.43713802614360653, 0.45358909513454587, 0.2692606478726321, 0.5526922299477978, -0.27499597524090413, -0.17556444735563592, 0.5422021828831501, -0.09678754156875004, -0.012333926198121762, 0.1352016828369498, 0.3459994147882568, 0.4745856068297666, -0.37675669663596323, 0.011057328094690882, 0.45057455801954904, -0.14670438197955818, 0.22502409968391834, -0.36749407264732703, -0.30141515697819055, 0.21403469058727026, -0.45025499719103435, -0.13215980775062233, -0.38373109444919457, 0.18703927364044545, 0.188742835205626, -0.2763933265801341, 0.0349061874550359, 0.3878181724515402, 0.013282763461685004, -0.29487335310218077, 0.1999205533111092, 0.630128105403028, 0.15184929732301872, -0.2603043483181152, 0.138627681642887, -0.08408617704880614, 0.1129408563945002, -0.10364052848547917, 0.2660683181228418, 0.23133831631419977, 0.16289465494197908, 0.14121194519081084, -0.14691353894579462, 0.11596867991847741, -0.10672595175326496, -0.341522358903102, 0.4437624157426957, -0.025862676779375704, -0.266079767897935, -0.014409250513594755, -0.2906512157438644, 0.2945745605988829, -0.4857208685755039, -0.2102261878982474, -0.07373234343140835, -0.255795619514798, 0.2670255090739888, 0.14657751633262267, -0.15974802317858774, -0.013434102435461554, 0.5260086438974062, 0.5932706127863934, -0.28136852246598854, 0.4160671634263486, 0.21108454930840553, -0.19578875398231316, 0.20025480296243378, -0.39901033375717637, -0.3371348405280081, 0.34885190582334785, -0.482783013622809, 0.30772692222801173, 0.36794120889971677, -0.2162753989145374, -0.02148747243307081, 0.2998878987817081, -0.25240922298133484, -0.3523343449371283, -0.2654576773914382, 0.14703986808226466, 0.4024341174586709, 0.07234762452334421, -0.08642309818663914, -0.019650660286515503, 0.16028288208467592, 0.49293635434278565, 0.38343192537420706, 0.36568621215370145, 0.666639592127776, 0.08597836945024499, 0.15922515313411847, -0.06760226219720503, 0.32628760719390787, -0.03669595648046845, 0.30229946825500437, 0.3297140041341026, -0.3169182004944544, -0.1807596700385886, 0.21744926844661347, 0.19254997701406867, 0.13417224372593678, -0.345228169280007, -0.39169800637930274, 0.1691801221055785, 0.36973603046225223, 0.4007020268038244, -0.16720573873246675, 0.2258453307279418, 0.23890721386401714, 0.2740863557915003, -0.002912666157635032, -0.4232984589347423, 0.14076418840992388, 0.6100012602368581, -0.041939291815793006, 0.29262258827628684, 0.2310501117571399, 0.17010479444260765, 0.21726126657855116, -0.1560509385068706, -0.3361531860390338, 0.010516709682369159, 0.3645083563289128, 0.2505142384174906, 0.4694978690877729, 0.1664945724337603, 0.1702269282800612, 0.2646990022584461, -0.1423234941781497, 0.25209548535515736, 0.21474203212701626, -0.2551183548024277, 0.019179719799124806, 0.21845304771522212, 0.2590446137621103, -0.33913123708020965, -0.23050349528716946, 0.04608611092660137, -0.13741236311443064, 0.28180351903905365, 0.1945451261145775, 0.47095826966157156, 0.18140323012973994, -0.0558774587100134, -0.15000546179790802, 0.42032151086318187, 0.3008863644894869, -0.08584248283526016, 0.523170765127736, 0.08112212480638849, 0.016316972981614487, 0.46004531877434807, 0.3077339836539902, 0.48446101803782154, 0.08702659195955384, 0.06851493750299957, -0.32519564245411714, -0.24960629561014913, -0.4415185854512611, -0.47522499235946136, 0.35106697843643886, 0.3704985314556006, 0.03818868422414001, -0.2765710805231599, -0.4804787732244364, 0.14445374665047395, 0.20709226343780834, -0.10501370326469317, -0.23890546551542524, -0.16973541770454773, -0.23958208175874252, -0.29821648672857765, -0.21272610396659833, -0.20079205567740852, 0.26876394294851336, -0.4506393875779284, -0.37022006269971103, -0.04870675749084637, -0.18223488174383862, 0.12755820987349725, 0.025073643652917487, 0.0015909858469909971, -0.28965729847493304, -0.30001534013816133, 0.35156703469216866, -0.25225606562501124, 0.16977333212770052, -0.12075656805298329, 0.3262932038416769, 0.20416813708402193, 0.026440504517682456, 0.15657716712463154, -0.4172038287399462, -0.407439940300489, 0.04365689340656918, -0.45514174966165094, 0.2331616169372257, 0.5126317509086714, -0.32647735163893987, -0.3543535484633664, -0.18690755757841152, 0.17056489005145112, 0.12543738543873872, 0.12448965158980588, 0.2520429101526442, 0.41219413741227956, 0.12063154304323297, -0.13167421239896515, -0.22519623357691038, 0.15617679531898584, -0.12115717767525316, 0.07917014795854826, -0.032661413047233245, -0.3297690110425471, -0.32742722215694275, -0.47275268271360626, -0.037163328327453615, -0.4666585713463345, -0.33530061616581774, 0.4422179142170608, -0.4270746183401286, 0.4854781151496599, -0.25363349726010687, -0.07612433848544563, -0.06531942959358217, -0.42956935720278355, 0.17614509038409543, -0.3087215495927126, 0.2817679092980335, 0.08335160666353235, 0.3693534497668668, -0.27885635907957185, -0.29918106273352796, -0.13120833474299343, -0.4370774980236571, 0.3513247061382854, 0.019745404942898892, -0.181530814134506, -0.19549435176096852, -0.14724310596730916, -0.33401651931323095, 0.4734037053403326, 0.2511720510834421, -0.21907657592375274, -0.2594073205985976, 0.10200557850493253, -0.042980876075158436, -0.2760368375898471, 0.36985864570961846, -0.2917339303277908, -0.1843277367135725, -0.26227359758745084, 0.24473825956568496, -0.3041907354993778, 0.05804979727113291, 0.10501017057782225, 0.1546786605999061, 0.21923340226370003, -0.2061214740262488, 0.43943830834631425, 0.2059787714218283, 0.24478266356606393, 0.16131969517990752, 0.36711413116407854, 0.18022027876000668, -0.09269611161868396, 0.18110417287399194, -0.4821516204148212, 0.4179635965455458, 0.052400262963844924, 0.1671717720539776, 0.40467418374150854, 0.3658780712070595, -0.4942493139851972, -0.16830660850392298, 0.13121691857732107, 0.010410514449925573, -0.3210967238431044, -0.004607132011949694, -0.05151531848455266, -0.193586142872049, 0.4884896262123036, 0.4633600864023936, -0.2851235255078879, -0.32583976698072553, 0.22383574578500048, -0.012303662725370989, -0.436974967971134, -0.43625328315466483, -0.20133240741664807, -0.3605097649329213, 0.37123727833180775, -0.26434312621226597, -0.16926921556264574, -0.09494834549787923, -0.18159214897247222, -0.38919142054776923, 0.16980976864530395, -0.4147954243588119, -0.3426753448471518, -0.14673947483443017, 0.42580736908049943, 0.4693208006482542, -0.3610257629758151, -0.32167947734763924, -0.19288426402944595, -0.03702986735567964, 0.20054718177017666, 0.4527663698223911, 0.4488314873265046, -0.4422680625015815, 0.4908303628124506, -0.483523861319239, -0.013301389455078796, 0.3214623196966922, -0.04403463555166186, -0.2563577161193462, -0.31626922111066974, -0.0912179490629949, 0.3076122671179046, 0.13981995149013168, 0.1641416687173327, 0.21327702332533985, -0.024880081856732184, 0.4499340155753442, 0.2177649664436656, 0.4104632052534022, 0.03893219656951441, -0.25546394727524047, -0.09685923392630746, -0.16270123337110326, 0.4359748064491689, -0.34485517546088224, -0.1294865224030797, 0.2628666274249225, -0.4721944387251375, 0.009877899094998033, -0.007388081805676386, 0.3720186753320802, -0.1917172112766159, -0.12609815977478414, -0.34150503943783633, 0.25113517943047664, 0.42488023872552527, -0.256340740053021, 0.19004548667807825, -0.4896008980340499, -0.49683477660373276, 0.3589707589126248, -0.3399087652460983, 0.21329471561719937, 0.3166683658444303, 0.23981253882213419, 0.373733005894214, 0.29796414903250634, 0.09672270071011346, 0.4585749917165379, -0.06065844731830574, 0.17122711672688068, 0.3892010173028835, -0.13276204391348978, 0.3274460140494016, 0.1921945484305875, 0.2197485385347682, -0.40111757461137787, 0.4887143500275411, -0.3792711987316916, 0.5459172667661414, 0.37365330325285384, -0.25528445650952175, -0.1944506545034854, -0.0998340660641102, -0.27768715872097627, 0.08380297284443908, -0.32021603212336736, -0.22973661955500932, 0.11029575987955344, -0.0211793065374119, 0.03047489706714604, -0.1009639674411411, -0.3542166416931576, -0.01825651158875352, 0.14321791687509222, -0.14608245903765635, 0.3736020673983003, 0.3260208760758721, -0.3107315732073252, 0.042376862170952434, -0.4783151247666642, 0.10954108554960433, -0.38805765157343614, -0.002428625156706297, -0.3950852910278359, 0.2278635986407389, 0.39085971667501174, -0.246670446998572, -0.32441898588568324, 0.34277341773497394, 0.06785857324228262, 0.6201520318321332, -0.1352805504811516, 0.10047806624808082, -0.4051374793820255, 0.20806111760727738, -0.14285235395170717, 0.37777221750038437, -0.44329364533733384, -0.127532562120503, -0.008935819085500247, -0.47465140189881017, -0.014078481804137954, -0.12192695149150601, -0.1352717751261879, -0.2377877503817398, 0.40604504510269895, -0.3792948458867169, 0.24416407611890772, -0.21393121433857132, 0.29167358039044383, 0.02247543419982691, 0.01427987301581984, 0.42449312387074173, -0.2671157447394194, -0.15948289662429946, 0.3143228064768086, -0.26856931197133005, 0.22972371908367537, 0.4407073205702819, 0.17688098483719703, 0.40385326019515255, 0.39118390061541536, 0.06405407381361379, 0.4018927040255593, -0.4743925027683199, -0.34497349762112467, 0.13635262777879428, 0.28500732655045447, -0.38468763495433556, 0.14215955970717387, -0.23929476350814816, 0.2503269266860777, 0.34877675951110837, 0.21043416527766567, -0.2983197847442956, 0.010875681964613406, -0.16258119280684216, 0.022422660450317634, 0.542697599953363, -0.22048921339774905, 0.3944964084956405, 0.1033475511848212, -0.1914363163916068, 0.47005501676614425, 0.302300080682306, 0.056656704939810607, 0.37295117155998025, -0.32085466813773295, 0.4809619340335872, 0.07245376770098365, 0.4302413382866113, 0.4330024330852008, 0.020116362763301684, -0.31077537011097806, -0.41367857086324966, -0.08369541279282294, 0.4370121275443735, 0.4599185084922026, 0.4103117455472493, -0.35072693204386596, -0.3263381476432761, -0.3190129337650037, -0.07904035379974321, -0.44047405683529034, -0.4042677751467729, -0.07568290218642156, -0.09322688224495405, 0.2172382480499106, 0.58095983960551, 0.39167380127551266, 0.5645578892532229, 0.295594367638271, 0.016726789691759576, 0.07824276315045996, 0.21977094448579235, 0.21646735728802738, 0.3562295145300425, 0.28857589093728714, -0.01242943506516303, 0.2985087177000305, 0.24938556702635395, -0.11886607102244744, -0.13570769367995955, -0.07643885865939312, 0.18181999562669496, -0.23049527293871644, -0.4293307811185318, 0.42379395375785783, 0.18448349491712412, -0.0715816051363033, -0.2784766571669714, -0.07639823854991418, 0.04668541802971623, 0.5314149144924466, -0.019145465842169942, -0.23493863533899306, -0.026436294138007854, 0.1568445886619892, -0.07039894889525601, -0.017427341538169383, 0.546866563021426, 0.39897741005635445, 0.1526163837967898, -0.002336318999896431, 0.20561968812435535, -0.34929127890051653, -0.22216481232864793, 0.14902185344719301, 0.30397601624489, -0.43907407498343665, -0.4179717048266451, -0.34257362137059905, 0.29399317344434395, -0.2795018168452566, -0.29816673248494185, 0.17502455160411792, -0.28837755128092674, -0.01629628277545998, -0.16086367257771642, 0.005491203922785711, -0.23377207047472415, 0.32711430307916156, 0.10168372794061224, 0.561127080159059, -0.1366072754486818, 0.30262779835675097, -0.15908060292678988, 0.6243842336837434, 0.2070760458200822, 0.342587076412158, -0.04270593729372077, -0.425872444453675, 0.27457443861506353, 0.5717320351798552, -0.09628929288622774, -0.40539340373032945, 0.39224895227513024, 0.4955935005360383, -0.08107093095598811, 0.0541857737863984, -0.2479245558100694, 0.20017059887611205, -0.41773835430809364, 0.1289006173137606, 0.4870386657446168, 0.10448810811007304, 0.002095284117590456, 0.2551924868232363, 0.04734113120999044, -0.23090067983880425, -0.011928700142510275, 0.44670481782310656, 0.15967464313422491, -0.40576300247772684, 0.0837998132049862, 0.027167102045876555, 0.07379499057460219, 0.04886045929234116, 0.1588894691948382, 0.3005585737282287, 0.32239762960334933, -0.0991522974929615, 0.41767624566303313, -0.34823139420418203, -0.060513077573814446, -0.39103798224794745, -0.036416512808048945, -0.48401197620418496, 0.39302226310411326, 0.1738884746745567, -0.0729044126602444, 0.06430496876343758, 0.24345635720896808, 0.42564902836424834, 0.33401891997642524, 0.44585466930526063, 0.4555772528163803, -0.3397332228114871, 0.33234944930676896, 0.48355270809344403, 0.30472446132005854, 0.5622952735008958, 0.31461831606264495, 0.11642527578029759, 0.4900485119837515, -0.11573450239910485, 0.23183771230378816, -0.044565214843959346, -0.37878231216576125, 0.08875551738501893, -0.35265607045293307, -0.28450346253265063, -0.04782811343608968, -0.4538627700578678, 0.2917157665548644, -0.017818210717292678, 0.05414855190483492, 0.3279109758552984, 0.3645259132416174, -0.45143856548738936, -0.07107982542210416, 0.07572979687367423, -0.4473680172399745, 0.4490172348542436, -0.3736132049029265, -0.06062634240821677, -0.28664210415121927, -0.12975422834842684, 0.19867244769886264, -0.12576251319451742, 0.5728592566624211, 0.3360484722245598, 0.49220961493874155, -0.03763455772159309, 0.5571979476934256, 0.20801496012097967, 0.28381482868551716, -0.18365513495328578, 0.35791100118889047, -0.1433653185164466, 0.3438502459543768, 0.3632456217021612, 0.48641955915862484, 0.4672711774422173, 0.04527142399434214, -0.13227370335108024, 0.20141077192887724, 0.36310910249937184, -0.2799640419986711, -0.4664408601640446, 0.14772852886654525, 0.12225571312022696, -0.20103210735812976, 0.42075272566072963, 0.18528935629134646, -0.3577030973265479, -0.18446741568133704, -0.11969093188971762, 0.38759667622176713, -0.17915588710419192, 0.7053204176341615, 0.26299090838167194, 0.6165291157928253, 0.0031404466368353165, 0.08787464492405449, 0.3002339595596984, 0.15503999741171945, 0.38730781992617747, -0.09970076667647819, -0.01953451651492353, -0.22760752207030363, 0.14949990635119423, -0.016341475130549843, -0.07495141524213789, 0.056688604853987856, 0.25899057715743873, 0.04155713036060954, -0.34123754236326326, 0.038956313596767815, -0.1929425252192962, -0.1817892647427919, 0.10765934661322539, 0.29991625417796086, -0.17898096016248582, 0.30731732848524473, 0.3982824476273485, 0.5097116651914477, 0.035235538797082064, -0.06430868521314595, -0.22727454958439333, 0.21656166272642824, 0.5887232235981226, 0.18385038853116176, -0.12044625316776476, 0.09611666045112709, -0.17152004072449661, 0.2074519570513585, 0.4294671603265338, -0.24753931886628075, 0.0881063176735345, -0.19808962764039456, -0.07414666439053685, 0.2854424386072762, -0.018953063980468237, -0.04464554709621438, -0.4317862245007421, 0.2323561618885538, 0.5023931968072192, 0.42253184571073404, 0.5245676110149173, 0.47969529704997327, -0.2717755853568613, 0.26630715901345947, 0.24945531056604675, 0.7258905800140293, -0.012214618178742526, 0.12866942094758269, -0.2811656487747366, 0.5808182286092117, -0.28271521472762795, 0.11905698556386751, -0.054023797395280126, 0.3513871104959757, -0.013983901173886315, -0.15330402973756818, 0.3522777613018129, -0.04036626284264102, -0.023787538689184165, 0.16276515379086678, -0.1673258980506772, -0.32833503687132193, 0.3475838720718552, -0.46427891505060565, 0.1899386407153144, 0.047841834215747496, -0.4479724000212092, -0.4686887084893946, -0.22451185222957337, 0.2549619615143623, -0.2206050030813023, 0.38390205857042586, 0.6011158328853721, 0.18153275527544432, -0.07806824321303425, -0.07300285906207506, 0.3646318608514639, -0.2549052518928707, -0.15770233254198426, 0.5079511010812444, 0.4936830888970495, 0.2614520032944485, 0.5017237175888376, -0.012167489765294994, 0.24045931619854208, 0.4937745440549268, 0.3227542849774697, -0.12883824259944296, -0.35942237392258714, 0.15350397959751805, 0.08983063375173646, 0.30176264760107774, -0.02323982999118247, -0.15685374983285286, 0.29271176866821236, 0.1603499912020423, 0.5173487211438031, -0.4376403187085709, 0.01341402710710484, -0.0982335956989696, -0.33867957684164063, 0.18895195990921898, 0.18896053516632486, 0.043629479769863755, 0.5778109927924816, -0.017307719516744244, 0.5461325546622902, -0.38413381328492535, 0.3852403001855461, 0.05879349295172381, -0.15238245707731488, -0.39582686863851835, 0.13915955744845546, 0.422116052469925, -0.3579999104013414, 0.0818693543481229, 0.463687918519323, -0.08581029804261575, -0.09330059841598948, 0.11899573582331582, 0.14719239681444712, 0.23685947404374974, 0.4672310330961604, 0.3586848031147755, 0.034349382326960366, 0.38055000508605175, -0.05987205737920392, 0.421284542506257, -0.04983045692388859, 0.1376799490242803, 0.2879780025148022, 0.49192592061593104, -0.044927376265395155, 0.5590685292758332, -0.3075596759697614, -0.33852636864008095, -0.16753258234288634, 0.5054487966354757, 0.3425328458702161, 0.3088730130479374, -0.33971964145242806, -0.20196637721142607, 0.4819373061620564, 0.11268379420637276, -0.49093662662331206, 0.46681727958669506, 0.45278653901079036, -0.43159560178580647, 0.052325154028472834, 0.42018496712887443, 0.0896763774946352, 0.104526879262953, 0.17569988947808865, -0.01349087091400035, 0.19211268191676933, -0.10834320729500502, -0.10102794430825328, -0.10686190299843516, 0.3922777044969622, -0.08487984624469384, -0.130179849334359, -0.011887973560548944, -0.11641542439562844, 0.21860384853895368, 0.29716473546643435, -0.03713938178145593, 0.48510745522642384, 0.40634836394271584, -0.19498121233032104, -0.44327905497741327, 0.381350243243429, 0.33402746245335135, 0.38508020676765753, -0.4734310260003215, -0.4928754290965281, 0.38586481361076125, 0.03294459593712404, -0.318096498347231, -0.23295564217025047, -0.43422859101390576, 0.26442286781696184, -0.29200771609378195, -0.054268330586479514, 0.41494727943046966, 0.601080493712079, 0.3994815765704121, 0.2586735085867571, 0.5065701076827986, 0.13911548653424025, 0.2541249390967945, -0.34526914900869526, -0.2946264750433122, 0.21209392032966076, -0.2634914049839762, 0.16864869470889582, 0.29635483029826515, 0.4023186414902743, -0.4487266038427281, -0.4110631166842941, -0.06041337156617144, -0.41810186150628503, -0.0697743540585537, 0.4600132017384929, -0.07123115603442079, 0.30037874428802086, 0.449571662776825, -0.07982573464579017, -0.39237597581029815, 0.3487429652724137, 0.5272491630877135, -0.09706391603897606, -0.2855647886882154, 0.3394439562697477, -0.05646655056836898, -0.04515947827761557, 0.5205437576066649, 0.599239751116609, -0.1155890338513515, 0.4044258675549519, -0.19640388418217158, 0.2557544990282176, -0.2606256921071337, -0.10416118417958094, -0.3635730081462645, 0.23128310333265087, -0.32768649788848225, -0.2621713778889696, 0.41299395133708927, 0.05414183808313855, 0.41099757670061504, 0.475600824068535, -0.15088208349192425, -0.3483330856932851, 0.09664500818792485, -0.09922391056775835, 0.4390954094805479, 0.18643378413398903, 0.4446951246430446, 0.4599858370003053, 0.1724823448755211, 0.09570133323357251, 0.1644640133931617, -0.4111869508736238, 0.44113913135486876, 0.36078854267132215, -0.2340350823630849, 0.5193537615709011, -0.09403592490761355, -0.40923617171563037, 0.5481728612799966, 0.1230177639881316, -0.23729958269440074, 0.1391631530110281, -0.19688475142381706, 0.4003906185034103, -0.021868790911927394, 0.4599578521555623, 0.3608730876326449, 0.08534095095535532, 0.308842157557947, 0.13741496047486576, -0.13260023053019412, 0.3656965551031758, 0.30799598329431227, -0.24467498312373673, 0.4149933750393038, 0.40394499449402377, 0.22219843704395426, -0.41087762805162764, -0.33341048768227965, 0.3115135129855215, 0.052109170972327416, -0.38170268316976386, 0.429864661000065, -0.4200197818087289, -0.441804954856106, 0.1982528629269964, 0.26489998825352684, 0.47647815805988836, -0.17951466326657192, -0.09681407472519024, 0.29381515120866686, -0.14684246352999553, -0.41165597836130974, 0.31133494419044305, -0.4832700080111225, -0.4351421370665235, 0.45389594874303074, 0.31785435012066937, 0.27386360395118303, -0.21752126926311638, -0.41700805767015425, 0.07747305010286529, 0.13820188703119726, 0.4773392022314662, -0.01897147341823312, 0.3864390776874053, 0.2524013805611227, 0.3656173455111238, 0.14229106931102614, -0.07438507284821685, 0.1771846957986376, 0.11324391193583506, -0.41683090387389704, 0.07856344935823216, 0.22018113637285014, -0.2625539615109563, -0.06085289463726043, -0.43731514495687046, -0.16424759226721042, 0.1261067339320675, -0.039944839094908424, 0.2924035779163303, -0.25884216251063497, -0.1614308177713949, -0.18011959388598753, -0.2962481216861483, 0.03396161659688639, -0.2865897186051773, 0.38962751755984953, 0.3783085145467411, 0.2836369919501478, 0.09447704669672675, 0.0862098011656407, 0.34711904505083313, 0.24107023694379096, 0.23997066995227515, -0.0022226935140839603, -0.3595671385296263, 0.3993106143502163, -0.14053833927996429, 0.06575530593213502, -0.4425714394517543, 0.2833081864560446, -0.2638504918123276, -0.4027352934569359, 0.3439213455941025, -0.4554968183161998, -0.382368662807519, -0.06392435874828994, -0.11596003266373456, -0.3508587002914396, -0.16781638554199352, 0.49093844946473286, 0.21389544556225282, -0.13713544433807856, -0.3765896634746064, -0.4988492513118474, -0.12103936468346897, -0.27315240562849685, 0.11483902007313053, -0.3629194072991563, 0.18856777134449873, 0.4490443541268445, -0.0822038695562438, -0.3573660094787822, -0.017893855465788786, 0.1012724175895294, -0.4110530219755584, -0.08464918865635937, -0.3761887410930428, 0.3700778819168484, -0.4398144097892124, -0.11479783450060199, 0.25980799591581005, -0.24695368909524262, 0.1422873543741915, -0.3180308244918345, 0.48630888108709547, 0.009196976154932424, 0.0016310034939719387, -0.38175639906640235, 0.43449273234333086, -0.24317902053675056, 0.3069103006815632, -0.19388030007810964, 0.376867720988613, 0.3779386236205591, -0.1289153083844189, 0.4358832037992074, -0.12022828897526339, 0.2814388815923643, 0.37376513807874356, 0.3860971951686363, 0.051681972795318054, -0.3092842197837351, 0.2190250683853493, 0.3909071332332956, -0.22257659046996758, -0.14670650467914526, 0.2531681851216353, -0.43008159584993966, -0.4162485983533314, 0.12078383370617851, 0.33371153756672367, 0.2708568091658794, 0.11547465689014313, -0.3322957271428928, 0.12619152892284424, -0.2210258472419343, 0.31977813294457846, 0.38861408014824234, -0.4095463930967427, -0.05977953949697902, 0.05065801438315544, 0.45918066829568677, -0.2700919718716149, -0.17295781361758217, 0.4426877494620997, 0.11829491465719984, -0.4176544007494414, 0.02928339656148267, -0.3397392490559228, -0.32796482196975485, -0.4297373804641904, -0.33382409906915494, -0.02185712624892194, 