{
  "columns": [
    784,
    15,
    784
  ],
  "activation_function": [
    "Sigmoid",
    "Sigmoid"
  ],
  "biases": [
    "[14.003870101056167, -12.387475820655514, 17.047906141880123, 19.635726986388327, 17.75598934977246, 20.299372942501854, 20.462218373718372, 18.986851794120195, -27.7933444948147, 18.130674340876833, 2.1988055083086446, -46.74428905979446, 18.681243461026064, -2.460417192249083, 1.0394232742097174]",
    "[-4.684716194450408, -4.305989345630035, -4.440139401874436, -4.526447728529563, -4.340013727394435, -4.97425970723306, -4.85206267083264, -4.482224610106515, -4.882744137529853, -4.411476637826691, -4.570710536704658, -4.374376120407737, -4.587840573251698, -4.059718912115357, -5.196750375406131, -4.99864846296925, -4.69757294456378, -4.258692129658803, -5.165131531402139, -4.22119245679595, -4.288566322913987, -4.6364910391690515, -4.319883304773359, -4.478589447204614, -5.1639894236296415, -4.966218220587449, -4.512022034971017, -4.811952514847142, -4.135633169243981, -4.911833202889343, -4.331192283120326, -5.152646395019455, -4.698933908546731, -3.928853436229331, -4.640347183185433, -4.8357674893009985, -4.31573867552376, -4.7196686875158615, -4.9676448982727885, -4.8487838097153055, -4.24162131310497, -4.813595938218115, -4.99700637150876, -4.047836831799387, -4.659632113586759, -4.80829630732546, -5.192123497332658, -4.65613214702364, -4.534484702376039, -4.454726081881221, -4.7159006284151, -4.6636633219429, -5.077148972370811, -4.908310655538263, -4.602717134789795, -4.918742163283559, -4.783482792373715, -4.278701352448171, -4.556782893109153, -4.565862759245658, -4.666108378458777, -4.068042296756014, -4.430213516253725, -4.486983172274349, -4.721195797251491, -4.581018252254595, -4.250943171449721, -4.087643206184459, -4.246700542270965, -4.03506394223051, -3.432585824380971, -4.1802847779407175, -2.6804544048089602, -4.212999151819772, -4.450099966954183, -3.957810571357255, -4.984981492331309, -4.014119922842676, -4.491014019271598, -4.22639985737998, -4.419039864300198, -4.659427645602213, -4.940313372459843, -4.487970695879646, -5.283051223766784, -4.572297550942429, -4.1803742455145665, -4.167477197134445, -4.3649831632179446, -4.489460313054473, -4.487024108900909, -4.807363221812307, -4.333784791631193, -4.598940006750148, -4.165430282154339, -3.085774680370135, -2.666513299770375, -2.4578926603823983, -2.0778741971882004, -1.7075748295962085, -1.36522878207354, -1.96731220514812, -2.542464124677553, -2.438346671259186, -3.1333825290474753, -3.796923296128238, -4.011673987592324, -4.283833850044852, -4.926506982077342, -4.834540317350024, -4.785731132849614, -4.547114890963323, -4.597383532595244, -4.803406992909693, -5.038630916951404, -4.500671523344904, -4.490685342224756, -4.412126332934316, -4.760730602233015, -4.3510571609740785, -4.044399435898456, -3.2398957204819605, -2.506633842481175, -2.404967972618936, -1.7269823010244134, -1.2031520638361466, -0.7479699775602073, -0.015197213205244262, 0.09370390072876836, -0.2359280957333343, -0.641398719566701, -0.7015288197157502, -1.5083142529294216, -2.571522210535627, -3.281903389362084, -3.7388758593050833, -5.061020450589557, -4.449658002454207, -4.62919539717011, -4.912765830548543, -4.060329354164619, -4.56483686114747, -4.745834936547603, -4.680547948171812, -4.36233672990902, -4.79764583811256, -4.224728613820754, -3.369289398438663, -3.2590346132284496, -3.0477923371990188, -2.531117911861262, -2.049755848166621, -1.4338310711103077, -0.5770333790509686, 0.8382950830179203, 1.4864299486414931, 0.9480454588922342, 0.3844282832096985, -0.3323498096856638, -0.8144873326488337, -0.968122205442887, -1.4623083637892462, -1.8709578135700486, -3.104694747550367, -4.297891357621492, -4.283494658215188, -4.20471983398276, -4.594482829053323, -4.156961120532543, -4.444667568177889, -4.294863327665402, -4.488953345408955, -4.585754118000013, -4.16445678286963, -3.7166552453842483, -2.9228297981960956, -3.5064518920757566, -2.835802035926335, -2.5290123221806207, -1.8379890305774294, -0.7250484311546539, 0.46840495564715806, 1.2029936676070987, 1.54895121312042, 1.0661841558913254, 0.31680154083469136, -0.5082233350768325, -1.0956365882434262, -0.9053818303357514, -0.962183928541767, -1.4954617496794356, -2.2793368924122377, -3.601310945085766, -4.211863898448922, -4.577013311235387, -4.791270754667504, -4.512102741089583, -4.274154815030704, -4.096475037261063, -4.675148884238167, -4.659790659691966, -4.100400340573248, -3.4568151685903925, -3.590365121087839, -3.37481521744645, -2.9575978288178106, -2.248699819254483, -1.0897198148949114, -0.15783615819532634, 0.6244001488051824, 0.7565027633984941, 0.7497380942958352, 0.11032770136599448, -1.1924965473278062, -2.0007588119888347, -1.6407730093957447, -1.353185067159534, -1.2138607981096623, -1.3053487421976284, -2.3095925650348548, -3.307629406379443, -4.3997632351677325, -4.8968353418252875, -4.744145938270701, -4.363517891788533, -5.219834483196434, -4.349295075578473, -4.400572185177793, -4.600559786670429, -3.7822608523460883, -3.4131414242860667, -3.797370654481362, -3.722068686006004, -3.1496148401064943, -2.1106697800269667, -1.0346306645955743, -0.13191650222935541, 0.11016086640944314, 0.19806923798331472, -0.13569244746022505, -1.195244874762903, -2.601765882692759, -3.4152517926477386, -2.8197653808974628, -2.0991947012682615, -1.4503072096188412, -1.4284687677214467, -1.9129173660700365, -2.7852239929456593, -4.048127368807606, -4.471243685370215, -4.522888603171673, -5.3148027236505015, -5.123854971748125, -4.549675013737283, -4.4418650078070625, -4.602098198043347, -3.736668779189193, -4.109961684388198, -4.11401638455522, -3.771986039096298, -3.0849632510325264, -1.7836509090662132, -0.7251066229840637, -0.1444343657507571, 0.04066335214658416, 0.01422297985326489, -0.7247574345846315, -1.959700501031444, -3.3266668169329936, -3.8937408580768724, -3.2885809076956445, -2.3718421820209765, -1.3369213623168148, -1.0796092835762743, -1.841501424546167, -2.7306816788978963, -4.040198323965846, -4.457521919335585, -4.185536305084404, -4.440963722433012, -4.481255820252458, -4.307839454844874, -3.990314290515834, -4.646494712048673, -4.151628504590345, -4.022573969480863, -4.386773863687121, -3.70887192715, -2.493077080162255, -1.2713349098285076, -0.19341489175371301, 0.018294632246007615, 0.29138621858976144, 0.08057447995002831, -0.9891306706883651, -2.1163963440692437, -3.352496816427627, -3.7535036822305914, -3.1747796102809995, -2.386287380343614, -1.4341101632897133, -1.4367730533460694, -1.69870953430895, -3.5425392171795926, -4.388963621363062, -4.013588188932189, -4.715543348584997, -4.142771242480543, -5.11864908976454, -4.353268758012548, -4.407519016866961, -4.6890891857149075, -3.883818660267564, -4.190430352949889, -4.286448596515707, -3.0390532251990776, -1.4673974572253632, -0.6768716478031239, 0.1963521731433897, 0.08827192197550271, 0.39758895214212314, -0.0643095877925011, -1.1366657533034388, -1.789623703288412, -2.9074520856500645, -3.438276508029502, -3.134223108726532, -2.450543591239479, -1.3554022923567004, -1.3680955930770071, -2.040326559150003, -3.580185744494246, -4.456069847385191, -4.250125011909158, -4.617852306543246, -4.689086180398036, -5.018950987718389, -4.070256290232282, -4.560062198272658, -4.272334902429739, -3.2415176071635545, -4.291731879760486, -3.7332927330711208, -2.183348397305149, -0.998798187010878, -0.13919505948364602, -0.16324035824409244, -0.38223905395495156, -0.6559871809301601, -0.7079227153403184, -0.8307639382941284, -1.1837561759201858, -2.035733244850149, -2.2524813048262837, -2.3079145976306012, -1.9287918214681563, -1.0737520378890142, -1.0720026657123114, -1.9734167324417577, -2.937872384760732, -4.224249478517017, -4.993965460891824, -4.339457822340352, -4.323064682389742, -4.753716107012798, -5.034879138442704, -4.687906363007959, -4.309760977254212, -3.626913845314451, -3.984636072847528, -2.8124820668425117, -1.4769498091798667, -0.6690245629553514, -0.538692715168439, -0.7996161509199337, -1.3659842346191746, -1.146644577962381, -0.49607288841448266, 0.1406074022204489, -0.3950981406136083, -0.9603844655391343, -1.0877647376862862, -1.4728947047968355, -1.0999125080878502, -0.6293933531109226, -1.0412831814588621, -2.1739878684323495, -3.305792342467293, -4.4822157309799895, -4.774336688929267, -4.669600652001165, -4.014888234381721, -5.0118547137250475, -4.520078774695611, -5.137775843078086, -3.8354430772617967, -3.25499104785669, -3.5343725558277685, -1.8722831542239937, -1.040094991654603, -0.6822762914568038, -0.7372247261130652, -1.0874704838119447, -1.3837851469738152, -0.5069770538089302, 0.4570143159548737, 0.74328548704821, -0.1028263701967002, -0.6917741831935859, -0.9679664380538707, -0.966582419926808, -0.6742176063610332, -0.12568381538029516, -0.7241270476305286, -1.6796077905011295, -2.8232449873646104, -4.278804483548742, -4.5718920693002865, -4.524695244477417, -5.447878106077932, -5.08805928151575, -4.840935012024141, -4.225807739450402, -3.8222928078633895, -3.0507025807376573, -2.221476290964303, -0.9720887435669077, -0.27029957991113307, -0.19895362278156686, -0.7595665140368895, -1.0690370327627026, -0.9059053271071058, 0.16061684600580325, 0.9973131949424187, 0.5226519978209588, -0.5641923905840265, -0.9173037018046389, -1.211354455394544, -1.0730520246684452, -0.22164608974423008, -0.06080505481321295, -0.5746660164162245, -1.955848692979378, -3.253420818682154, -4.176689063109771, -4.67318642836816, -4.7013818341812526, -4.3623597456382095, -5.268956449438543, -5.440501783410211, -4.5794972390060655, -3.2607296688242102, -2.5196149662848835, -1.2400909592220881, -0.2923314157003535, 0.5203363822634762, 0.3599326134376119, -0.43743891699426185, -0.9857830831778408, -0.678763449854433, 0.17548049030764823, 0.4499263321765841, 0.1367097904612299, -0.9935877052753381, -1.7057846543238142, -1.3122817822722228, -0.5872559112548117, 0.2861143030603073, 0.028732971049356036, -0.7774820939964892, -2.023221990564026, -3.0355197536692, -4.7587530972922965, -4.589978093651663, -4.865443188719835, -4.219050177239581, -5.182032836715561, -4.38723562156017, -4.582168171303497, -3.6493273431318465, -2.0806761126860502, -0.9565671085253251, 0.20190994140878307, 0.8212231442156942, 0.6809223045403511, -0.3131501802402113, -0.942239308525464, -0.6565939356287338, 0.2139712582047784, 0.40571551481625107, 0.13000801556035144, -0.9264195956143985, -1.5121965086153173, -0.9766495694278196, -0.09561205174213622, 0.20957060487023368, -0.2792454421974445, -1.4359631126244055, -2.569424460613952, -2.9406855167840544, -4.3302835847441425, -4.297426621830099, -4.967226308809158, -5.317176817643942, -4.93426246953204, -4.922043263341467, -4.292572997044873, -2.416002075724476, -1.576040391222114, -0.5813289603883616, 0.24581950004960418, 0.7703622268239287, 0.4924524330214708, -0.09074438691445227, -0.47471037368806007, -0.0759536377419305, 0.806951260071192, 1.2430323036007271, 1.045158082039085, -0.09299820581678366, -0.6674168754685893, -0.2981579948243991, 0.06332068771842284, -0.30182684473934784, -1.15154626769924, -1.9732961028686236, -2.746869030896394, -3.9535923198476994, -4.008001946745636, -4.1861777720628455, -4.653518211295333, -5.277083529741718, -4.975867181895051, -4.133055327079187, -4.217937203170222, -2.345398233626169, -1.3722973226731454, -0.5551028721064964, -0.06702212673983188, 0.7514865455037678, 0.7775001870370027, 0.7176174269993122, 0.48561386173651866, 0.9154558151602846, 1.4115131732686228, 2.363969250512737, 1.793428361024326, 0.5853260050843146, -0.1601726076991151, -0.4013503163276671, -0.9478582271654753, -1.2521663317103149, -1.904249445927475, -2.5013575562329637, -3.0744845272374297, -4.0919619880959255, -5.175288586014656, -4.566218540518786, -5.310991902153404, -4.981530912712068, -4.26220683927255, -5.216507659550547, -4.304936077341326, -2.442814261319126, -1.4427200263328532, -0.8645331912199744, -0.3739425869250302, 0.543367826156155, 0.9927836905503363, 1.1554156928047077, 1.1492247251899836, 1.5273245604535586, 2.363946761534506, 2.7091730299362293, 1.6871106991557294, 0.24899879872502176, -0.833952119343279, -1.7948499661220416, -1.9658198941510396, -2.4177329048130973, -2.644668867149829, -3.177314914895222, -3.4129681466043014, -4.282949566112918, -4.244266927399039, -4.840986847944683, -4.001640496482782, -4.746812265485305, -4.865738576693098, -4.136398760666045, -4.201509566349186, -2.8664961913058598, -1.9477898968494092, -1.2546994401744498, -0.516335435831465, 0.03575038646683879, 0.46806277779350536, 0.9452761501791894, 1.2302572607226643, 1.804088315235643, 2.397524502331579, 2.108575843469342, 0.7094949232168737, -1.3099531803930933, -2.6632166010836906, -3.206150951268151, -3.5423164788027615, -3.3528450339525917, -3.017196129125117, -3.2649662058715534, -3.769117950916352, -4.637531195563217, -4.850629748073897, -4.927691537764742, -5.014411800400978, -4.622440707124275, -4.2931698942271845, -4.835056399002841, -4.427020600098746, -3.985932865217429, -2.629685827754889, -2.006445017393717, -1.5222601955665893, -1.3431918025673448, -0.8432993416195251, -0.3854106496615125, 0.22096214556563787, 0.9006316451116984, 1.063061938118551, 0.010088037753007479, -1.9755223395137431, -3.397452467060303, -4.430276730987992, -4.947546286155382, -4.437755930437812, -3.488198513702833, -3.503398934472858, -4.219592988235776, -4.2805970166463805, -4.329304658254222, -5.018930049560138, -4.678851125393343, -4.643826086822318, -5.081912673924379, -4.817147814939134, -4.635313091409044, -4.723094030847357, -3.9468701156244155, -3.703872124669885, -1.8386815501386637, -2.213903797910103, -2.083663080253693, -2.141078189787346, -1.7658032345905033, -1.0921953812153076, -0.9279213584613581, -1.0462020107201773, -2.0549552775410223, -3.5606574543247693, -5.012751754437822, -5.688721058600508, -5.012869436279305, -4.287464168131231, -3.632345188815828, -4.194347175803012, -4.701314207844301, -4.445975259127025, -5.113252902021806, -4.128479124735392, -4.73289311807772, -4.191102954602813, -4.579507169126927, -4.571329494147983, -4.707740255095024, -4.860783242333612, -4.523295199344206, -4.182217485557754, -3.5616865458575995, -2.562009940187591, -2.8279669035142896, -2.576398844475361, -2.6922356620017216, -2.6941138132550884, -2.6870562971872887, -3.025129449277944, -4.266462841449379, -5.753143134532939, -6.253697211139322, -5.897273958044522, -4.851096860542411, -4.622495830812623, -4.150625624938399, -3.961630751555826, -4.228386881593833, -4.43175191856365, -4.797725688050471, -4.415435687536952, -4.737898460233195, -4.968226042653736, -5.097207886099314, -4.111811708905211, -5.19179496248754, -4.335129245064157, -5.103196176493968, -4.589549940598723, -4.56562400845853, -3.670934818229009, -3.585336229432794, -2.367456389387663, -3.391046242786397, -3.715286985801399, -3.9504514314813783, -4.3775954847388405, -4.995641729375968, -5.302678061507408, -5.398088201364205, -4.778938747928395, -5.026788213141076, -4.060578572661755, -4.663502876205411, -4.7963319531552635, -4.533557118802774, -4.69145212315957, -4.257384718381987, -4.396468773317612, -4.5774461834678615, -4.447095760366158, -4.410519215094604, -4.875996830223576, -4.053411052026666, -4.457538784941905, -4.420215228172197, -4.789063544196282, -5.179508425359609, -5.387368667194333, -4.399366828229066, -3.488197676339616, -3.8988048007334073, -3.181969046945336, -4.276566314763637, -4.05677226460663, -3.753355739114543, -4.147858272257642, -4.690761243889198, -4.500049716645322, -4.716407989080708, -4.482702800301273, -4.2245096978298955, -4.899072924172906, -4.80387468649002, -4.901526528146347, -4.6411216954519485, -4.4064901587014065, -3.93291133977711, -5.01963377900976, -4.611226236331575, -4.412637253102331, -4.921823075652831, -4.963594312728136, -5.087731657547352, -5.016217695793122, -4.5954826542614375, -5.137870789450846, -4.807836582413388, -4.62393593942848, -4.156994973145314, -4.551180123594877, -5.242181807840006, -4.859442334759205, -4.782581285332886, -4.679773527421113, -4.61737005723124, -4.382378297326589, -4.88606114493042, -4.515745162965656, -4.504942123576827, -4.86395286418049, -4.990258082493986, -4.406337813467244, -5.106051099975882, -5.06817860135068, -5.243566185066909, -5.332713353994551]"
  ],
  "weights": [
    "[0.03693056466034239, -0.37019090827020895, 0.05868995600991078, 0.3841771293571927, -0.37259264123055746, 0.1981811228989171, 0.26737594037931633, 0.2603976947409634, -0.08428873329506092, 0.3116307267535061, 0.19830907028820144, -0.04835144893366217, -0.44221470795286144, -0.2014660141941209, -0.18482369974790547, 0.4156271911770193, 0.33316745523837654, 0.3112478861437984, -0.41252304331639866, -0.17429793589488618, -0.3686710214231713, 0.03564961305043657, 0.08531598631008686, -0.08789660879092254, -0.3218812311531566, -0.464383259610037, 0.05180852393821955, -0.19506206196700826, 0.09112480773297016, 0.08563212025011058, 0.44164225799513546, -0.2518032592060069, 0.1901440665377605, -0.05767075928493505, -0.44597273366826934, -0.08571471190358844, -0.4862576143458818, -0.1771744625922442, -0.46616108676601853, 0.3911344296227422, 0.4487487338533524, -0.3400191243809194, 0.3705682369425929, 0.46601262684716516, -0.3590006137288307, 0.26512101455225184, 0.35853483611120984, -0.37802533116990433, -0.3982134134341276, 0.28609181667790085, -0.40768672966953134, 0.39906144816845324, 0.2928618496044998, 0.19900030624880893, 0.05158836177182269, -0.23599052800549303, -0.1615679006476025, 0.10378034907584843, -0.18448577728604243, 0.24903142346343954, -0.09889741868331003, -0.3114532811098036, -0.43667210305961474, -0.3713382049562735, 0.37309330559428694, -0.3043199692252529, -0.2979720652371971, -0.5199022752345166, 0.40721131981684316, -0.3888066382029658, 0.2618157571075218, -0.13594661141349063, -0.11022132187112882, -0.11340787805559772, 0.428639972635888, 0.06918306474031555, 0.10175660386151748, 0.37211087156364, -0.40141490742348745, 0.43578104750831087, -0.2614625899151106, 0.3614231411012375, 0.4108859158625042, -0.2829066697902338, 0.05745456765682222, -0.4191348790353371, 0.19899626350209176, -0.3826067847547058, 0.22072658164107484, 0.24448810612576388, 0.014418177851353508, 0.22013168018200607, 0.08558795899850832, 0.18678665745303066, 0.4233671640903155, -0.35738923038816245, 0.0011091392198085096, -0.08197970680708626, 0.37754720433482947, -0.10159967774082569, 0.09643506083309067, 0.4579689846323649, 0.2905313528724942, 0.37284162506358326, -0.13360907597881225, -0.201832193835819, 0.28456441962099066, -0.09051457360936951, 0.3855381269914404, 0.0025649904977721044, -0.4482644186124218, -0.17806164231687538, -0.21533259481943512, 0.35606635046573276, 0.34646675456426024, -0.047114776741286245, -0.3346433027853682, 0.4099573078025232, 0.12267075792037956, 0.3241163396700987, 0.4394501754822335, 0.47275566619200926, -0.23814853799706817, 0.3802446032149984, 0.31909781595017267, -0.11140066979444402, 0.09294601772268533, 0.14733847056454397, 0.3978513493827984, 0.21093046925876727, 0.06513582651206581, 0.04805128925370146, 0.2523060163029664, -0.0945412693957631, 0.31335840918283697, -0.3170416295511748, 0.2845947593912196, -0.1121434437296164, 0.07996209060412748, 0.3046571740610442, 0.1582096835326382, 0.04932846186980884, 0.07123623397327504, 0.24615276192169952, -0.014800443693916898, 0.11524251695479261, 0.22352848063482103, -0.244633316871057, -0.1333213593118175, -0.29315716977352946, -0.4226000250656227, -0.04625168233919502, 0.17483883889560295, 0.08446209014203397, 0.26846917727681646, 0.5561518940746694, 0.15445374393228842, -0.4413111276276262, 0.4467101081046219, 0.008290306350705795, 0.08741333218841744, 0.13646597321914372, 0.4422083282576573, 0.5353940984590129, -0.3553659179940645, 0.11006029283986656, 0.47658754537407605, 0.3362268335747354, 0.4192874760651851, 0.23254754398652366, -0.4475470227006347, 0.20451931898818065, -0.23463520733954593, -0.06146150000529979, 0.3857222304540619, -0.09307282767109874, 0.5299877585531293, 0.06481204603442796, -0.02668774699117427, -0.06086374432571934, 0.5027078544201767, 0.628466249916774, 1.1837923352952975, 0.9471264425386245, -0.4249670603721873, -0.4716507805255929, -0.6759011380026155, -0.5956657223310118, -0.19982292985660352, -0.32723740606261553, -0.04822590971928985, -0.3510688717054911, 0.2142802300847545, 0.15778712113001622, -0.1220351366420466, 0.0903586065771798, 0.23350718095020284, 0.38620083204041267, 0.4009803896004632, 0.456712902369995, -0.2826183313618106, -0.124430793597606, -0.05491924897796871, -0.04431373840291382, -0.35695530658669494, 0.005495343577315328, 0.19606289920898687, 0.2729667027250185, 0.4482206826112858, 0.7572131588710201, 0.31156186623429705, 0.3183496149487433, -0.17789601478549574, -0.4457917206544189, -1.0991173382286, -1.2652224385983821, -1.0658360348686144, -0.6512571140912772, -0.23743393853210096, -0.3843481750277718, -0.4517971627053128, -0.42015359491005505, -0.01608617826881219, -0.10608447529010293, 0.29745422748487604, -0.1224336265311401, 0.21365607121493382, -0.10804062840916102, 0.22988185744045148, -0.04836539216774061, 0.8964367667449384, -0.1062715723251954, 0.10749038023420887, -0.15470750419498486, 0.09029254007982734, 0.18586394091347522, 0.40302386152325503, 0.8632661184053713, 0.3765613130303215, 0.36913616280932976, -0.20552205886695946, -1.154613547247167, -1.3947408529020946, -0.7760257535358404, -0.8693416395086593, -0.9544977037910807, -0.8050751699732869, 0.0074683893920482105, -0.5989896506247393, -0.2392145547666625, -0.19072893184548292, 0.35988809236099323, -0.07328253716965537, -0.25643856285112965, 0.1636906041654595, 0.036429222866186765, 0.2047805942912105, -0.17012183620592325, 0.4003325564246071, 0.11526380327399419, 0.12555261983777097, 0.17370823370494728, 0.17651607741921818, 0.10252028831458498, -0.18374030437941338, 0.4961646925723849, 0.10691925516209094, -0.2423304267473722, -0.5691014753892385, -1.1873853295468841, -1.3208387486934061, -0.9956169687250146, -1.1064879541920272, -0.6539689628901159, -0.08543442990332378, -0.2829160862175502, -0.4281993112262745, 0.2720986375562521, 0.23605251682512202, 0.1207035827123538, 0.03270654813975241, 0.44817696801887574, -0.15208556547865068, -0.19365012292129793, 0.31405388645611354, -0.053742929713257934, 0.0843932699938632, 0.006277129767991526, -0.3635700291436961, -0.3566790817161249, 0.5229815396995391, -0.05643424071310196, 0.3622434921513243, -0.14552090885608773, 0.015943598912252117, 0.14273498005599128, -0.248067308804319, -0.7654407895031743, -0.49600997309021083, -0.6943776715783945, -0.3454219799556766, -0.3310947716370469, -0.700707354140983, -0.283966258910238, 0.08592663396128944, -0.03656043794401033, -0.42087383868003164, -0.27985014281778575, -0.37834498826296337, -0.3384515400062349, 0.4895190457323972, 0.13404761104047924, -0.2850484265931959, 0.423177702218714, -0.3382409732790994, -0.23749053067569842, 0.47549892601909094, 0.7295186053153554, 0.19433568684958202, 0.6827157042600389, -0.2963286956834632, 0.29856056795357155, 0.20014787698298128, -0.2653737032896967, -0.0603219417339422, -0.3203547799683064, -0.6480404695331595, -0.8637401373256981, -0.7118422953821942, -0.43086695111614876, -0.26457077215726005, -0.3850963787108457, -0.4403160023141507, -0.035052411253497444, -0.09371560063001363, -0.43856170208012935, -0.07672032293560027, 0.23067323916921922, 0.23762219919239955, -0.14276905804538065, 0.22350484104486038, -0.2669167578212873, -0.2900711670155033, -0.43600888761051726, 0.43582732551802644, 0.28473679877935787, 0.38483935045414325, 0.4888453797332143, 0.2362906227664886, 0.44216017511158096, 0.671949205540013, 0.0557774322666452, 0.35596662264713436, 0.778923017609588, -0.23885068209116808, -0.06856911819351902, -0.26346820273857574, -0.2036648063491896, -0.7863892759808703, -0.374168308611996, 0.24777914121341438, 0.028527453076480705, -0.3812957980689256, 0.49647381571060434, 0.47413203395644343, 0.14000202931128627, 0.46671212395233685, 0.147493991526925, -0.16949721969637624, 0.03564779721159856, 0.06604905974590529, 0.06675945869387036, 0.22895135533171673, 0.056819768563554064, 0.6760979323937024, 0.46365340370348124, -0.13038627698514077, 0.16974829711317216, 0.46965040318265894, 0.6676707417069226, 0.7183662180036963, 0.3488578599834153, 0.4972432015208636, 0.31416102832252246, -0.08920344630356845, -0.4847432277320908, -0.30641837128871835, -0.2961670828517939, -0.23038873534918564, 0.3375414960839306, -0.3034439448398867, -0.2745591189557164, -0.16127780949321446, 0.11351569635976977, 0.20087293613624285, -0.3600804190887893, 0.043148219733752546, -0.21205842076200007, -0.7078847658679516, 0.030577544320310384, 0.025872586928419837, 0.4955179631099123, 0.5520206039382287, 0.1718848424350896, 0.5564485344191458, 0.8190225427674099, 0.7687651546059218, 0.5524008884895122, 0.7877979595230908, 0.582298971906896, 0.4910498916513626, 0.14011070502864587, 0.2646392182862899, -0.09023776059009048, -0.11436754170565477, -0.21975619606119698, 0.06495736110252939, -0.4541374486005578, 0.20369203840365002, 0.334196920859285, 0.08837619007391262, -0.4766606819044006, 0.15633472902279807, 0.18800396372804906, -0.3684775969183281, 0.2425397295509204, -0.1654233047798945, 0.10960593444619823, -0.023603260101123767, 0.31459069096471365, 0.604610049577983, 0.4177720638610345, 0.8934362399837885, 0.7306850603211212, 0.8561482691978803, 1.0096935134874685, -0.03222850913650321, 0.13111359274937245, 0.14539457587400836, 0.6129814672548611, -0.13984873656356397, -0.006373896406952181, 0.10560185104797909, -0.09317813660450582, 0.0785833982361456, -0.25162893718986123, -0.47066756774361324, 0.3040987318204295, 0.29200534417446533, 0.12032615113921095, 0.3183753507554787, 0.45371635825230355, 0.028670810990995447, -0.16070393152482293, -0.3374055438742854, -0.13414061856582124, -0.3923930009368961, -0.0012304901237389831, 0.2616889635986138, 0.361225336401098, -0.15394881236332586, 0.3983844791096881, 0.38400452210605057, -0.18097595365253147, 0.1816643933698535, -0.39935412265921977, 0.32745706416021164, 0.2223658380325524, 0.3820374903179339, 0.10356724044256184, -0.36066785022459735, -0.013459784615649777, -0.35865208982519814, 0.2574938241482608, 0.10236558566396256, -0.01984576793639059, -0.33345014733336986, -0.19363796078760553, 0.09897453891980744, 0.4322800999802555, -0.5413073394275922, -0.41566748639876566, -0.15291792551997774, -0.11858840073361356, -0.6414310720530039, 0.14284551242836208, 0.04208358395337101, -0.3387243313900281, -0.07237368654543297, 0.13945493396675465, 0.7817532595076631, 0.6678890075939461, 0.15583586169845282, -0.003406527052629259, -0.28944455508296274, -0.24226553758786643, -0.0893662857186917, -0.2125573332979343, 0.04032640872782559, 0.12273562693021033, -0.3904094882145941, -0.23567153444649414, 0.18226233670038103, -0.005875064844466397, -0.15555952761759462, 0.4868460759987151, -0.3705901309244844, -0.015798219916698126, 0.29239313387835564, -0.2638465644769548, -0.9319027693953137, -0.3590624655325783, 0.09342083804983634, -0.10437463898258953, 0.2913146847609448, -0.11711479033351353, -0.571720092228765, -0.07222863358663224, 0.1146624994849091, 0.7427197209950881, -0.49583020078689816, -0.4306573755485963, -0.25564293353719714, 0.05980291037036358, 0.054813895022118586, -0.08434120796744445, -0.0770459151288876, -0.603457299051691, -0.09502220445540799, -0.2534589502467519, -0.23834814117085248, -0.20432646200672747, 0.4705665651748273, -0.18527434612273216, 0.33091868539902325, -0.12778921754596834, 0.05842940223481505, -0.34633813207130365, -0.2866927679373702, -0.2685544503066472, -0.2992519893149236, -0.3760006686998362, 0.2125454393074695, -0.6398816238435805, -0.25282021634114954, 0.08244733039726736, 0.6354298727031125, 0.47985127742590516, 0.6200653745516989, 0.04967149213115481, -0.10906328191473966, -0.3827566271068682, -0.2602508468590299, 0.2404341456441912, 0.40950133282473616, 0.016574833049437177, -0.247199984437531, -0.17208869737878654, 0.05446381687552602, -0.38965279342107545, -0.3779781761772115, 0.4514524192593291, -0.02330643077976131, -0.1534738511073475, -0.0897144416145066, -0.31076304781718556, -0.8503733139245553, -1.1330074197472975, -0.9961798475457174, -0.5862881777905181, -0.524934994940953, -0.7090204899798908, -0.6412424979413579, -0.2258867820180967, 0.7535468975117721, 0.4983280823401027, 0.5648277404326097, 0.13258885284070665, 0.37210274653218284, -0.0269508904284716, 0.1332023240538642, 0.2663193911648285, 0.21569041951756307, -0.4524862271980924, 0.13935253504067066, 0.19736988812756975, -0.22465998748499602, -0.11983998837417431, 0.48425034259711974, 0.20839569632735866, -0.06396666587997059, 0.2861192177335402, -0.1440346727839169, 0.3182404187337982, -0.4496298053902831, -0.8954814790575175, -0.8401900745617129, -0.9486156804405587, -0.6740979801812912, -0.983425592062124, -0.4586536492995417, -0.1145019048562276, 1.0391223700313568, 1.215455773228342, 0.3575981249429701, 0.04505804211303961, -0.28460198407680426, 0.4674550149711142, -0.009877193348182869, 0.20530246806852528, -0.5252552960857665, 0.19121512641714503, -0.14306398623713415, 0.031003089517770196, -0.16833051661239173, 0.27408898119890124, -0.13779894412541405, -0.21307852343793365, 0.20946193919928716, 0.4676837744060774, 0.14344946216852036, -0.06920112193151962, -0.3419004996566718, -0.9608348194381585, -0.5076106501511728, -0.7380177595721494, -0.5704492287918846, -0.3889933454398339, 0.2816526060433543, 0.5067419557110046, 0.7214180427252597, 0.7036422220007209, 0.4425514699165667, 0.01245730813727497, -0.18149795848587585, 0.28424979961957614, 0.5458664797861694, -0.04241319175649612, -0.20347608215523091, -0.4455979973827558, -0.32536976751054886, -0.23106109989117815, 0.002652648825353771, 0.3933652071074939, -0.15204458114080344, 0.2031527047882757, 0.3995975915005971, 0.10739602524358124, 0.37957202548739777, -0.4818705958061989, -0.14982726879808897, -0.5801918894930468, -0.5057837663653225, -0.28260096985359623, -0.433373646235051, -0.23594100888760564, 0.46474707687872047, 0.758817281192461, 0.9337288378540659, 0.46906767702633706, -0.19105760867365953, 0.2652787496073106, -0.06851553499417612, -0.06465238018742692, 0.4065314287169442, -0.4095189031190872, -0.09182215920403612, -0.0361372001973989, 0.27132356978862887, -0.3005589329745378, 0.39901418191854704, 0.3414092251521166, -0.44571869608855075, 0.47995064893099404, -0.09964445541339595, 0.44335801969462296, -0.07122774568297004, 0.24643711523913311, -0.39344846727739907, 0.15902642599511493, -0.5024877226468093, -0.17652384339360766, 0.31092574453807953, 0.3162896400387109, 0.4819592575684792, 0.8485081469789926, 0.6446018989054857, 0.29295251778579234, -0.2201837810318914, -0.30116370526111297, -0.16280767341636987, -0.28373899174364264, 0.4306086772395858, -0.25876872346835794, -0.34524626168401423, 0.1907616134501988, 0.23869424804633493, -0.2300158560905239, 0.05571989586559922, 0.3318461519565359, 0.356199017055265, -0.20507803481441, 0.06342151795576023, 0.4382922119121758, 0.250477242903015, 0.40013924753243174, -0.07291604714400148, 0.16731427808813765, -0.238679428149755, -0.4711293799968166, 0.05671816962326149, -0.06652152950367318, 0.3325174325270458, 0.2412512803210236, 0.3005536630533151, -0.31658889481754643, -0.2534718210109118, 0.16678240600402094, 0.07506478435036702, 0.5350306081272728, -0.27540221957219363, -0.19098849509397553, 0.46874783517531093, -0.1101245749067786, -0.29605838430116677, 0.3058724578458948, -0.16039114746009575, 0.37653994089297604, -0.05433842247604792, -0.44159006635714715, -0.3829045959217281, 0.2317353704487939, -0.10589681023528673, 0.48306908466406906, 0.29977848820717906, 0.41785154285114734, 0.511709612830515, 0.2727582681866368, -0.11618476986218594, -0.0019282977692123594, 0.2959945785138516, 0.07730471178672092, 0.2281385530851593, -0.09075633491476603, 0.01948727159163988, -0.10453974180363437, -0.08276928512588133, -0.5086208620481611, -0.3707800207355248, -0.23879440787421718, 0.03017814686179102, 0.42548681800846194, 0.03476154761707782, 0.23980722933022913, 0.4770659177393922, -0.08368107998086383, 0.23101247846777617, 0.03986707322466532, 0.2846932945637479, -0.07750914824740818, -0.0063506364585081965, -0.4663064366432219, -0.3130532938182783, 0.34958197829529625, -0.3420962843024991, 0.018174349948875596, -0.25716819254475093, -0.4906953736173766, 0.005712021494966299, 0.09940503719632467, 0.15198174893402508, 0.36625831963797645, 0.3866661653685656, 0.10545926795033839, -0.11193640861766833, -0.17568367769646823, -0.510823957765648, -0.4569990937394675, 0.02115486006670597, -0.4739367444167404, 0.3667720248581553, 0.40296259456114714, 0.08317991716892648, 0.30476877216271714, -0.42532058930693895, -0.4462817685417899, 0.03169731265267639, 0.35147860642554996, 0.16838486396429397, -0.3484435075676068, -0.1230373671081233, -0.3832325435829267, 0.3998669648590848, 0.02024405876067137, 0.3896001359192559, -0.14433242925316891, 0.22550055570219607, 0.31649084497139324, 0.30701018646391354, 0.26319118163618394, -0.32826101395179985, 0.1403220864283401, -0.4998716911385388, -0.13401179044019706, 0.4160617541669225, 0.47899915481528743, -0.38568679443469556, 0.1399123788788177, 0.2282222110502482, -0.30062019852802935, -0.40456067967034304, -0.10857783185596281, 0.42869370805621865, -0.33462486916018785, -0.3500940735253413, 0.3075437440922105, -0.3487135907441581, -0.39097268990467354, 0.10254921607042292, 0.0893546523982937, 0.4336880387243095, -0.04325125941043104, -0.3595573460551314, -0.24572227784487108, 0.06690967768039349, 0.23032928419751572, 0.20321304001716325, 0.250823650438331, -0.22616901050065163, 0.29986601254343365, -0.04616784448378581, -0.4477507133451451, 0.26385629932225796, -0.2812070644896769, -0.4957244647912695, -0.21022794462787586, 0.3897647055420723, -0.07719099894825743, 0.3807038164039821, 0.12238689391597435, -0.1506340453316386, 0.4523094468856932, -0.303349941913751, 0.4821258960207271, -0.10900429474658768, -0.04897488741477393, -0.4387839470263966, 0.48016041102443907, -0.25041355563315476, -0.09928192333494347, 0.03825291483535437, -0.12181154481239612, 0.30199179178997454, 0.36788320451055967, -0.010113909390651966, -0.37557789301666783, -0.618006188483227, 0.21550572420729594, -0.10092895510298758, 0.027468422679161032, -0.3398401312271312, -0.28563632927371646, 0.08194917810190008, -0.29693328469909197, -0.09844417905798755, -0.4116111489069627, 0.47610277870038165, -0.268396070092467, 0.34258651442816135, -0.20094630554670223, 0.2416153228906508, -0.0035732211201058295, 0.4341775492236789, 0.3688686770351817, 0.43210592604469455, -0.2762256334818611, 0.36581549016032266, 0.05536402265783194, -0.1103999020118549, 0.2702489003072916, -0.1068717202982173, -0.30485434945838474, 0.1790662438623789, 0.18655195624195978, -0.583494900638531, -0.17247594224539972, -0.3820175158980256, 0.11181466766925338, 0.23781300352227017, -0.4154908129466489, -0.2824938934819819, 0.38471877048065395, 0.06868245162628028, -0.4516383919622093, 0.45012245689303904, 0.02127316467120588, -0.30726752667860735, 0.1568324391444239, -0.15790974152710757, 0.27012107097558197, -0.2369777770058198, 0.13887829338995794, -0.5232557414233695, 0.3207185922915246, -0.5073423990750064, -0.05892550205600128, -0.16515946645481197, -0.1061288770581786, 0.2749864715461277, 0.1736510448940036, -0.1196237174352259, -0.28742003725379095, -0.7296892551984206, -0.18983906889501548, 0.3567100099829225, -0.2557133315283774, -0.06294080702697846, 0.45552512029660164, -0.5236372165901055, 0.2262377826397625, 0.1718474296018327, 0.3341435377266836, 0.10566437859022355, 0.3064052698368831, -0.21688354002105203, -0.04596574242170899, -0.18045349009403983, 0.14006310161263463, -0.3496753491834707, 0.03356542454823125, -0.060905924784736526, -0.16424209415497262, 0.422144755942832, 0.6268984100462905, 0.751120663816165, 0.4977631277769365, 0.932488649910567, 0.4586344277207522, 0.7393580664537364, -0.06407584518647326, 0.16496862804042683, -0.05009434802393434, 0.22340406072142435, 0.05406012188584507, -0.40113529879377, -0.47244419144408367, -0.21249437469793803, -0.4177798696734474, -0.26630263252309844, -0.26613044342733644, -0.20249436723514816, -0.15938974903999614, 0.30020816807988504, 0.4703220941560011, -0.44768393708484594, -0.11790284473615054, -0.5007629404082751, -0.15418336710144936, -0.1469390615203916, 0.29091597152252413, 0.19356692130808886, 0.7190465093101365, 1.5994534075178324, 1.1196892683972064, 0.9313363410887443, 0.5691602811523908, 0.5697145726047566, 0.15277294075013984, 0.2233081810806979, 0.1360096782426391, 0.5540799140850414, 0.7862311266918743, -0.1689941617922194, -0.31672071262119766, -0.170472178684983, -0.3225319252434162, -0.2464781322761351, 0.558330216071282, 0.30193952818920805, -0.047661413476410994, 0.333626047990205, -0.15687341926983026, -0.07190173274051939, -0.30429205053565556, -0.23342520800651798, -0.19298747982170023, 0.007699997823360994, 0.42100710266968316, 0.14164712590420736, 1.208762053264734, 1.1970071253186143, 0.7633936194126503, 0.455113544610714, 0.18955204421113522, -0.3170865152379843, -0.07078727926626534, 0.43102654788396527, 0.5439806230011881, 1.0404969003679607, -0.1536975431361209, -0.1578001720649719, -0.16441915235718355, -0.4356833968537073, -0.09092295615450911, 0.19798706387060608, -0.22181561973296876, 0.19142217201618447, 0.28549660166694046, 0.01763962605455982, 0.20506535145292015, -0.23445225612254744, -0.06624952237079018, 0.040873006230657476, 0.15614930888244147, 0.4609123947285856, 0.008710848762140634, 0.6340095874702689, 0.7342271505810395, 1.0764882588312887, 0.2531823364535323, -1.0235843211310132, -0.8220096007456796, -1.050374739803585, -0.67219206612593, 0.17222313834620404, 0.5031596659794861, 0.6783214530282078, 0.21532997528485387, -0.7910124877110587, -0.08024516811080348, -0.09782598421278507, -0.4606502839783565, -0.02563844257829831, 0.15090246550405917, 0.22263359845680109, 0.429170738491632, -0.3236517683546147, -0.18896659914544733, -0.2568833719520118, 0.4298214325161335, 0.5662932035711131, -0.03245605782826566, -0.0560754781869174, 0.7983997953539178, 0.44627546806791946, 0.5032038843736688, 0.39395490028296376, -0.673004555240722, -1.510318427330973, -1.7167033597667412, -1.4069112629929625, -0.9754864910322377, 0.5010579613470292, 1.1416248547770358, 1.1298694407392746, 0.3002845454518012, -0.40592089895544736, -0.432921042191992, -0.1916943357358414, -0.5793830686481574, 0.034037752190624715, -0.3618098383619468, 0.3342638900529456, 0.13937213920337724, -0.38466748983319343, 0.1324851347279565, -0.08532001565241261, -0.08834280945407791, -0.248077067602686, 0.44399395703250727, 0.4441798197736937, 0.18532548063646262, 0.021800546469525044, 0.40577970930515317, -0.055913634598024224, -0.44124405137701905, -1.3288026037882796, -1.2504229591249574, -0.40703193091951323, 0.41447045627243695, 0.3250601003024659, 1.4931796672821598, 0.9278597326891646, 0.3594097810272099, -0.5605149970868895, -0.591187512790619, -0.7394786521999591, 0.24186194745248696, -0.4587896394729589, 0.05221355112245802, -0.24423572707136082, 0.02848791642334398, -0.3941627723187546, -0.3915575069316445, -0.26588496757422253, -0.2862586205662423, 0.17437927866184164, 0.44410275584038056, 0.1957514468625887, 0.2639065259413726, 0.6876143895956427, -0.08407913235361468, -0.5859710553804927, -1.0573800172588907, -1.4513687968735118, -0.33587325563645243, -9.095693031786146e-05, 0.10713167509146022, 1.4477485445885439, 1.285204570473703, 1.2589666099129353, 0.1175381129068926, 0.03368248066821584, -0.2151225029220375, -0.7206134644374106, -0.031009993131942516, 0.6407730979799904, -0.39845704928794096, 0.14688704270577865, -0.3343464337576201, 0.42969436607227574, -0.1790031838874539, -0.33448223442536235, -0.15539272959597203, -0.3615189320172902, -0.16883515775177627, -0.052477214997283965, 0.25905184736255527, 0.25180377146832733, -0.46751696543429994, -0.4282865986985072, -0.7546716974761272, -0.2230422224862646, -0.7708196446981245, -0.04091044719714572, 1.162066808321184, 0.41272727227969414, 0.7422847066651914, 0.5712068543082119, 0.05607895331509011, -0.30838406785731387, -0.5443542986598315, -0.7533776547919607, 0.6133457376901681, -0.24772342962763985, 0.42551836099213214, -0.2898316603324465, 0.0012860408190110695, 0.1642258842706853, 0.3485181978716467, 0.449207639419044, -0.16414876827449595, 0.37493449092351677, -0.19208536599361653, 0.19888655080659406, 0.515636656678787, -0.3614401198615795, -0.21961212957185816, -0.7369597820819507, -0.5696354336254857, 0.16350570794019562, 0.09528191204497644, 0.6452941195176881, 0.29201642821764273, 0.9846888285650763, 0.7658611376049068, 0.5053637908519766, -0.12622436145628754, -0.16260046602909894, -0.28886841784842326, 0.019068757055792026, 0.34260259095084655, 0.23854684853052074, -0.1428326937416413, -0.12572220442716933, -0.09336634057374116, -0.13798140197268505, 0.08488619172521417, -0.1387871462130298, -0.25194170031904767, 0.0952566041844343, -0.4572841690915311, -0.03270899139052984, 0.022253387713226692, 0.05314870470914533, -0.16967822846150063, -0.6246168860554167, 0.2468241300380633, 0.5707424820009215, 0.20210542295828057, 0.4898222165651001, 0.2824952865970714, 0.7430575300515863, 0.3434951159531574, 0.6742964281193614, 0.033620053041804224, -0.6898407810404656, -1.0707587377484264, -0.16211661418004966, -0.2886012287843892, 0.42968737977705485, 0.03426829539292142, 0.20556682490597192, -0.17905617127317253, -0.4270166593801129, 0.48458010704457566, 0.45230460190054195, 0.30064039699971407, -0.3030384086282035, -0.18447206986436213, -0.0886319787360952, -0.22831832642464045, 0.025683947438740296, -0.2207115173894969, -0.09482070642339198, 0.31987067113338724, 0.21863996218775014, 0.5771638240934353, 0.26238531850572794, 0.0692274947300633, 0.6528790823261825, 0.39089725171981393, 0.6810007712085101, 0.34085147504091184, -0.17045879308861556, -0.7138208780757044, -0.19874239508967226, 0.07681034609463629, 0.13302183076409757, -0.1094459667112814, 0.026496234227212173, 0.47026112960077954, 0.46406860463716937, 0.4911328220800191, -0.398034431766762, 0.2985662580282757, -0.369569872389873, 0.24502689532362248, 0.1806349169456197, -0.07062011051171624, -0.6475875161972662, 0.017980398616189917, 0.0768689219928134, 0.523249768857596, 0.24347068600854868, 0.5659694190826294, -0.08532753686290824, 0.06063772538682659, 0.1556482378143431, 0.7629545368773362, 0.8632561034339102, 0.17411995596284904, -0.45788674532836643, -0.4173599298441779, -0.10115383736161743, 0.09243509755145285, 0.09509833330416316, 0.04536496796414399, -0.49165997540080114, -0.2514672925018165, 0.07924517282124599, -0.425013717069751, 0.500670165266423, 0.26810629260700136, -0.3559728702399665, -0.11125098345940199, 0.5714525641134837, -0.7321342068027596, -0.3376983954359702, -0.18059231668734868, 0.42107994644549546, 0.5181419772263368, 0.2897070243110384, 0.35348118044780763, -0.6808662777550017, -0.473584158372909, 0.015724811705869993, 0.4651262840472694, 0.4458592500367567, 0.256203468710522, 0.4086460856771688, -0.24245437796720057, 0.15265211894338598, 0.39321165646391393, -0.0056937369311413815, 0.10273912360094864, -0.11691484993628957, 0.31363731788562055, 0.1382192227143414, -0.009053656288518728, -0.0020296535150467377, -0.124922655266967, -0.11167576785453986, 0.28654692331297843, -0.14499526926479292, -0.48489083602313576, -0.3125727099274139, 0.09661365805833438, 0.1727187132700586, 0.3349307346032352, -0.002056654968920224, -0.4905670164559265, -0.5577299881071134, -0.39259072191318695, -0.0059464385465892045, 0.7588630242294013, 0.4550009543491034, -0.2129890494162442, 0.446699792881867, 0.25223438709789414, -0.08338401260306715, 0.12290973751610451, -0.5054495807878139, -0.1253777310946389, -0.3247781123167676, -0.13520741244334042, 0.07944612867399503, -0.15847917603999404, 0.3133383917925557, 0.20136734330877565, -0.028692236673944008, 0.05364605251870247, 0.02315429110686125, -0.11037820031537517, -0.7356498862083706, 0.052606214532218594, 0.7679768207837502, 0.7870877479708381, -0.06823765551358817, -0.13039524275970812, -0.6132310132311274, -0.7453676107794421, -0.6131805108610359, 0.3611642420929307, 0.18120557316701894, 0.1410191398884549, 0.45877744532793135, 0.13509506327545473, 0.4773417496395023, 0.3503167953792824, -0.012341039540382646, 0.39714312736984825, -0.16661535070474462, -0.29473440100401044, -0.2258213404098689, 0.0720995584017394, 0.31082936789166427, 0.30764156379173907, 0.38537695113921483, 0.5362152152160159, -0.02649710495777539, -0.6953250227494543, -0.5850751420261743, -0.4324836155974044, -0.3165673007129154, 0.49417893491946735, 0.17267817670580812, -0.43963547133618797, -0.7500608976094756, -0.10862899567380717, -0.06361067411680368, 0.7176990636317185, 0.714294228571611, 0.1927948001277466, 0.4404714150122651, 0.5408249316417971, 0.26407689949509466, -0.020903908655327843, 0.26172690691013106, -0.029862246383378355, -0.14132397226385943, -0.4018597003936186, -0.3051548705606474, 0.4121813802472055, -0.3221592251517921, -0.000806316392980861, -0.07435162658795504, 0.6074665951633715, 0.03691066931396516, 0.30093207168879066, -0.4582341225083969, -0.09638769326638708, -0.095034081068931, -0.3555386143644308, -0.6152077568035432, -0.5243750782443414, -0.46887517002418033, -0.35172255429746885, 0.49042578247005414, 0.31746051649095186, 1.0672642003465613, 0.677478078876497, 0.6843994188509542, 0.20006858967765534, -0.020627688262162328, 0.14258474131044, -0.3146042384035698, 0.17663665237625403, -0.48194198058528803, -0.06561431134570972, -0.17319838047932734, 0.27437402872115846, -0.24390863444868136, 0.0040719713822483985, 0.5794290652773486, 0.4566778909051333, 0.5146454750316733, 0.2706177301006892, -0.12863647300230974, -0.2171173173361002, 0.2346633552501693, 0.16609912558329512, -0.5402812362385655, -0.43453350525748885, 0.08490514239847836, 0.22023915468487326, 0.35548226673613814, 1.1349517490290484, 0.8023314893165697, 0.05346807707931631, 0.09987459989754645, -0.08697712126973738, -0.04842610738274167, -0.2851097737129023, -0.22119686418979323, 0.31422108358891876, 0.267858935821292, -0.43214775407592476, 0.26933252772013017, -0.45758411387387793, -0.17896420933552282, -0.3694714324730749, -0.3267749110167264, -0.0825821649249725, 0.13624087523368042, 0.08371876956150492, 0.21119377676023113, -0.19442024082847648, 0.02423963095083733, -0.21665953689337686, -0.13121897644819092, 0.17871382851199138, 0.6237048584960077, 0.8302676714922732, 1.0943016539947266, 0.29003465900771835, 0.6145199942213688, 0.1686258698538196, 0.07377488918116243, 0.40018783779409933, 0.41669340296639373, 0.03243523849523651, 0.43706379114880073, 0.304911566990844, -0.270364062403079, -0.43726173474662233, -0.06758203495132842, 0.37318891882139305, 0.16074386532440677, -0.03679101710855676, 0.03401063350021185, -0.03951665335654964, 0.13989025541710307, -0.05580687141207294, -0.06084228727853681, -0.21210176582449544, -0.47328339377741874, -0.5530920121913074, 0.09610651470195432, -0.2480264934173521, 0.029520715092417917, 0.5813763731598709, 0.5462363984200165, 0.02838725225909707, 0.4016665841718332, 0.08117923808052936, -0.3706711593485666, -0.4123598522949009, -0.47027930182564615, 0.34901337166458385, -0.4658343937440991, -0.1303357561477308, 0.0032834484938910613, 0.09593535336153303, -0.3380031669185609, -0.3172595266902528, 0.15742935782985956, 0.45107905415719585, -0.4830265186497448, 0.05670579216758326, -0.09464398195836052, 0.23888975938827609, 0.28029313262274697, -0.10541860238991091, 0.5859630596707188, 0.11914645221408628, -0.447255679506316, -0.033399562132971974, -0.22218082313973103, 0.3377803567473014, 0.3354994346831096, 0.30535418427387173, 0.3649930961462397, -0.28093534880714827, -0.12433455692565322, 0.4564455903545982, -0.08968885003124673, -0.1764121036655107, 0.48011278655843664, 0.4687968443862662, -0.17556689080924537, 0.023966999504905107, -0.08359068965700778, -0.08235212935434211, -0.22869739929952382, 0.1945030970161986, -0.44949232986552434, 0.3617945649330408, 0.3555998504326284, 0.0063841775826707445, 0.1637828416309151, -0.2514121051797111, 0.27590619022263263, -0.09730308545798431, -0.23938266688111498, -0.09934414250726017, 0.3426085067641372, -0.2708614712857282, -0.08013183917196305, -0.15340562862464488, 0.2505143524338495, -0.20412619209074345, -0.2875470729596677, -0.35607373078900834, 0.16843615908285517, -0.17325188318306609, 0.47324703598547496, 0.3751506356718818, 0.386216738936229, 0.17761651864335715, -0.20007020992555657, -0.3541781439800594, -0.010861722752240843, 0.4840064714065587, 0.23824451704414173, -0.2609396146884265, 0.40480106510810293, -0.48982653591275743, -0.4586924559271204, 0.26171553683983956, 0.08844655549106258, -0.003621808194152494, -0.1662217673939263, 0.03571600796518213, 0.12051335322240786, -0.08264436773496185, 0.127807926003361, 0.37631242745705473, 0.14948250549040368, 0.0604000810140679, -0.10221689236164823, -0.3376049803726907, 0.04915485089137106, -0.013863422714637808, -0.31377688208344334, -0.3439358947529709, 0.08423100846819154, 0.2370387428144527, -0.14196503360698598, -0.12453724592065318, 0.3553475146879195, -0.11676256120438655, -0.15361837581779658, -0.48134308452715313, -0.1170244135170313, 0.2406997571123689, 0.4795922563742565, -0.418864741872927, 0.31581120385762984, -0.04778938076051831, -0.11622091436374293, -0.1281867032481202, 0.2662507506238607, 0.03931619534009134, 0.005928979295748316, -0.3780063533382374, -0.12552635399840772, 0.32557170448075645, -0.3801324007382766, -0.3693070221454776, -0.2017204792438163, -0.19616185594070934, -0.1417692092350581, 0.4338992013599846, 0.1743102129675589, -0.2192023988796623, 0.09394978320843939, 0.3259913813983524, -0.39423517098758964, -0.2556472602187513, 0.40761136553514465, 0.064309313378251, -0.390320326308791, -0.3142264692747139, 0.3788290533598198, -0.18608123148906472, 0.42654501682417495, 0.19057945462506398, -0.006089888046161979, 0.05462131611252772, -0.07366608418988746, -0.23331605278382153, 0.19529919599462653, 0.29933578724529153, 0.2704746895713562, -0.0020751715535568447, -0.254379799544838, -0.2668619377676187, -0.04126766999250997, -0.22227284967660077, 0.17025500467784727, 0.030720195488772917, 0.33762777556881907, 0.21672021523843366, -0.34292734438479255, -0.47995384408258523, -0.33748411676396595, 0.17661781114393438, 0.40788128638704957, 0.1287787010428656, 0.40771567091169764, 0.261784831516693, 0.19396365063566823, -0.3136236634652523, 0.013915102027633441, 0.2086527943567686, 0.37901204746467676, -0.47799405519331745, 0.07307217204958778, -0.44977000366702563, 0.39220506505622527, 0.21117226963709737, 0.19498157200746882, 0.12987872645774506, 0.2849820549788749, 0.16899054530431923, -0.4471393619996878, -0.19238993020390074, 0.10005525696440473, 0.07319328427307004, -0.0547494227605102, 0.13719460561929853, 0.24730397177955343, 0.31879275498705595, 0.41112975502798765, 0.006877977416351766, -0.16964902831858827, 0.2987785296001225, 0.01461551587458582, -0.37972340152836037, 0.04005992774352389, 0.42324843325700784, 0.037744945551862634, -0.05796634156123152, -0.24071448574694673, 0.42149650078809947, -0.45375646900956473, 0.27809508557004575, 0.2838961262527835, -0.10313332583479204, -0.3036988649083632, -0.38277500859053415, 0.2868314514954915, -0.2704352295266477, 0.19781487252817492, -0.4583154459467448, 0.2853848174000867, 0.27378589536465603, 0.4479301932962846, -0.30863705474980185, 0.37559936673658845, 0.16945379229708868, -0.4193498254488649, 0.3239892787814184, -0.1627432816106083, -0.015202922566060203, 0.2490866127411324, 0.28899716731406955, 0.024516144082555116, 0.30693558192448833, 0.11581752642793114, -0.3376617750782749, 0.2459571610274744, 0.3523916208268821, -0.2059306366920507, 0.40631107041393155, 0.3156625117490259, 0.4194081202580945, 0.024051049538708135, 0.38582169506569625, 0.12907971256561795, 0.18690348442221139, -0.33495697284146175, 0.49617495185282795, 0.42600943176674644, -0.4278860651994043, 0.036008656277664836, -0.3743610670728573, 0.46281334508599625, 0.058326732234154265, 0.1931065489613569, 0.019187271946100905, 0.11929189382921108, 0.0009630300638076273, 0.4292368175786777, -0.42210167318690883, -0.20831530404000492, 0.030720654645163187, -0.29962818420953474, 0.5209339961597069, 0.40089665072891156, 0.2603199880997213, 0.23473303732209055, 0.11233851597242492, -0.35394426706052473, 0.333417099021616, -0.3750144393131957, 0.24836004981715573, -0.258429028548621, -0.26554273680372015, -0.037724511107126504, -0.4208264676305656, -0.1467461560932397, 0.43630409043465046, 0.27223443316445267, 0.052233707044097466, 0.4610816334516403, -0.4339156280570925, 0.1676975630967091, -0.48424045769481355, 0.10249779249131503, 0.1737767974453879, 0.07929725024620085, -0.29377756503076535, 0.3300061266078784, 0.6101956612760862, 0.3507928873790209, -0.10988105399480642, 0.531267133252331, 0.6294467799960478, 0.057381905655936316, 0.6953680525865311, 0.08449267607210237, -0.3487230320490147, 0.06724968097553417, 0.10063055244481132, -0.15000795356691485, 0.2694263045735008, 0.2581112626604781, 0.28951229899043324, 0.14601315140550075, 0.42297908709081283, 0.03317654204310353, -0.3507810244015732, 0.35687089173103903, -0.23195720983137147, -0.46582875382117966, -0.02482845333715022, 0.16606079286556713, 0.2585611916225766, 0.000855740605619185, -0.0026773446736816295, -0.2909674779151046, -0.19314134415731285, -0.2271382875223411, 0.18200063674168424, -0.039589353827395556, -0.06925451002800316, 0.01597813153969172, 0.5531346674861557, 0.5293881874625458, 0.60606521930485, 0.47184378795865145, -0.3962889118497345, -0.0016934259438984387, 0.14697577154280664, -0.10216332180806852, -0.00234110281364952, 0.24995289233692825, 0.2193794148260558, 0.13832627044529222, 0.12358465862550688, -0.15864072076023938, -0.2070355303915467, -0.08911066942014885, 0.17860912604395657, 0.24373249349235795, 0.19140166609319306, -0.335610288084864, -0.2731611291162174, 0.19026439487359234, -0.29475198793925367, 0.06057936739681171, 0.6182009327310777, 0.43642324853605835, 0.5355760090684224, 0.0989731786451775, 0.38316345363960247, 0.6314118151692824, -0.0937849386896216, -0.12506955403099942, -0.05298202679207103, 0.10167108877837004, 0.28205260223738055, 0.1271281523358339, 0.3549076191260838, -0.21284365986144513, -0.47527995473529006, -0.20288758888725625, 0.11456633641653388, 0.10740653346349517, -0.059259898095766546, 0.1954057703203647, 0.1690545286451005, 0.089934145757654, 0.28186081548155817, -0.2791986246084212, -0.26535967967333346, 0.44894468699462525, 0.3504933936676026, -0.4327268959109078, 0.4722985486155744, -0.18749470215740885, 0.2819676696049322, 0.06370978131797776, 0.005358166003440236, 0.06964227015376818, -0.18213333578082064, -0.14253649170405416, -0.18091843373895147, 0.10089507064948074, 0.5238059624653512, 0.19355721321058786, 0.4460746717330874, 0.020918282174539837, -0.4072418247660984, -0.05509782054111973, -0.43967723924165497, -0.13257111135429364, -0.10246228246765425, -0.42613071842937794, 0.32106011559459413, -0.21666627295483368, 0.22327571719675957, -0.04249522071211324, 0.4351364230046947, 0.15698332929857595, -0.4037321006324102, 0.3674881087349799, 0.5700411683227724, 0.1474025957985069, -0.12473975432382428, 0.639970143760268, 0.3040236945180429, -0.19713497860109447, 0.6684395000589772, -0.11226455699316888, 0.34076477254495036, 0.372867621112328, 0.0066967874265012476, -0.4037413557641044, 0.10893376487154581, -0.07563944585301423, 0.017253252466570636, 0.24590359785810295, 0.1631644255161061, -0.12206472353538143, 0.21355261254972738, 0.20576497780873715, -0.11102786589502313, 0.07727640957952354, -0.21147917440885844, 0.4812891529846863, -0.4165529960799747, 0.3830588054528059, 0.4388715778896804, 0.44691160726992973, -0.28409715009588743, 0.0005151871807939312, -0.0854844400476894, -0.15786457701856005, 0.6477446885030099, -0.02032725117038782, -0.07063269768504835, -0.3251961284407615, 0.4923268508625169, 0.12393726350309302, 0.19978329596577712, -0.09122275298011095, -0.33017848741645756, -0.02255646651464951, -0.07052020813292, -0.35964790413688213, -0.133399918527567, 0.21576262600048202, -0.35344845261598223, -0.023398299578495516, 0.34223538090512207, 0.5025057831743415, -0.09607037935039027, -0.13600189285226483, 0.1733468180044418, 0.3078172518184834, 0.506704242076619, 0.2044877647267549, 0.4582759168278542, -0.051834899884711017, 1.6402137090320758e-05, 0.4116523276520208, -0.23445047708832475, -0.02450571759449412, -0.34374788566329406, 0.5572704989607877, -0.17512744919121664, -0.33827118107483034, 0.5055902026327036, 0.40951634509096807, -0.016973484002732697, -0.040287625243942894, 0.4471620123637557, -0.08330621220416144, -0.19021058068719232, 0.272443875563651, 0.02518270684047513, -0.3131505936853777, -0.45356342178066344, 0.44200624850095677, 0.2573320244161957, 0.12233172744153172, 0.5152317685922534, -0.2449716345691662, -0.2988869378010876, 0.19617745571971745, 0.1511776831199562, -0.28305287721287226, 0.0825093272705104, 0.08499554394970138, 0.5809878259089485, 0.23844509620539275, 0.5468426075866889, -0.06106664024198706, 0.4196859792324448, 0.44979959710560125, -0.2216742904370609, -0.3671739611740174, -0.21435561326970212, -0.18259755270365435, 0.4317014483996466, -0.40539905385791636, -0.046908962927213804, -0.10222174588687039, 0.19924452918371316, -0.05336619517714993, 0.12215063904259293, 0.017663845547057893, 0.13425959255304035, 0.11257615047272398, 0.3364284324735893, -0.3985036048184717, -0.06413989031909377, 0.2787364010118223, 0.19677180359688595, -0.06788308864402286, 0.29949402327508373, 0.5714220347277071, 0.3413004990132846, 0.17942894813767055, -0.0942244256297379, -0.009219154973172952, -0.354845510435685, -0.11813674776722756, 0.49889056273230514, -0.04238123896315176, 0.06310823452929798, -0.05142243689083512, 0.3984034599630636, 0.25740567461005187, 0.28825331745666327, -0.41238218217262346, 0.4867962543602018, -0.3808932272808104, -0.004941999589510624, -0.09222594285279727, 0.23774237642899831, -0.2609537833887024, 0.0477830042996387, 0.46049527162736714, 0.20978382449379832, -0.31001435177024034, 0.4916658551746777, 0.3188809042006601, 0.3528180103405256, 0.30618987276343185, 0.21085452567789564, 0.4921313947701387, -0.018462762599309998, -0.34541307995862736, 0.5772840447196613, 0.0743096799946442, -0.14436527173193198, 0.41808262488452613, -0.3120317825455557, 0.21800063483557328, 0.49317285946583955, -0.11536111573457428, 0.4140238203311178, 0.35221910800354883, -0.3960724671472386, 0.2980472274634324, 0.32605141485266653, 0.36832399447765646, -0.28670519918614834, -0.19166150396604428, -0.4678907748745967, 0.06754798477666153, 0.15120645466109617, 0.3963518384072246, -0.10596306350069995, 0.17918548784485766, 0.08410422251996286, 0.3887183015277684, 0.529189048104008, -0.2762168597426967, 0.22961827133212315, -0.26452345801601135, 0.468366112066948, -0.06886925862170135, -0.31671728927029236, 0.3287291663711078, -0.12810848982162978, -0.33577242808717317, -0.2270707047487083, 0.18997411434199893, 0.2864784607338563, 0.28336148267127526, -0.47912132497229454, -0.2943050055654762, 0.2816407062765766, 0.4118498032528739, -0.4308307282787422, -0.19041632267702097, 0.29097176021786214, 0.29849899402116836, -0.4140895227754206, -0.0186308310678204, 0.30444673501019603, 0.1337342389046039, 0.3100687833789594, -0.05685473866748793, 0.3097953698746886, 0.5291653137189894, -0.23908415904099892, 0.6128801644978619, -0.13219897045503207, -0.13901231163292735, -0.31110557531822997, -0.1797959982734691, 0.5179349177177468, -0.2988841507990886, 0.3261131015521449, -0.14966802095370224, -0.34859253825995307, -0.3231074263518531, -0.2846228263870806, -0.3045319362645536, -0.3052075855163136, -0.26641725560739005, 0.2973909225675999, -0.37878337548610963, -0.17410075910039188, -0.02997390829397663, -0.1989655645013297, -0.3255577842303243, 0.05117838940693541, 0.30660244003332476, 0.10586360687892171, 0.5399101365781133, 0.4577252787360432, 0.5294547733123603, 0.529834693569094, -0.014647385306276971, 0.24605846343564794, 0.2512251359144072, -0.2803633785482718, -0.14339551410254558, -0.18745782271969885, -0.06148672632977496, 0.18811959094104966, -0.20224384528662123, -0.38186135795771825, -0.09943221903949717, 0.13580272248580716, -0.023470381624635498, 0.14497259022880435, -0.37311354140005887, -0.11097960519743127, 0.23062454068155855, 0.4309424827783197, 0.5582962526094599, 0.04267913598932749, 0.5409649864951643, -0.1873629981953536, 0.5292778595682769, 0.39240075235109434, -0.21733957608652943, 0.09109235678034011, 0.03780478143735261, -0.07540760778648987, 0.33861844667238383, 0.490128617230938, -0.3282566329010353, -0.12461800163946134, -0.4019972697432637, 0.16203810795236676, 0.010392223806706673, -0.39417100103446345, 0.1071793088272411, 0.09411278794954667, -0.038336046588216544, 0.45908994925213326, -0.15003176198466392, -0.4764302681190354, 0.32617133595235615, 0.24961664074859882, 0.4071729270087095, -0.44666257073107185, -0.12982484399499597, -0.2568323479135589, 0.1793269589939364, -0.22457941137705642, -0.06982347591021903, -0.2893013595129111, -0.19643134581467975, 0.07904098477309798, 0.29737332013304396, -0.07847584249532755, 0.215742445820617, 0.15363620727165164, -0.0751864627616038, -0.28692505790311806, 0.360840761316429, 0.234246036282048, -0.3300511282719479, -0.04883460303745648, -0.4022707643516941, -0.09492120750797828, -0.3883455548333492, 0.467794368197025, 0.41031319762891766, 0.08060291823362935, 0.2547364023969888, 0.16171584510091, -0.2850346119887433, 0.397797497414261, -0.24217086252047634, -0.23472774487652392, -0.2846704920457673, 0.02113998717194022, 0.1588379196463105, 0.2258617961604794, 0.11239239915654317, 0.6470582076951359, 0.7064902118805839, 0.30778709264620663, 0.056806819482246494, -0.2530887060635187, -0.020788634804127286, -0.4080144760226022, 0.13921226358755298, -0.0520967344997459, -0.3719236744190233, -0.22088995908471082, 0.36291291428445366, -0.11701043801984545, -0.346248037457491, -0.0011252870079507815, 0.050147438661125, -0.034999069756596404, 0.2643301370760665, 0.33866909130537337, -0.4791446100619094, 0.33379578489030376, 0.15227436299264618, -0.3367721474710349, -0.04080862600610589, 0.18649113494846983, -0.23140189846127066, -0.23860056812873123, 0.032533292404722754, -0.26022927885736125, 0.02470275126381507, -0.3310731608257203, 0.43887062109326724, 0.5281674575395001, 0.21220085122630872, 0.233964357662428, 0.035216904108100626, -0.3033717626809787, 0.1536222836494276, -0.03706430791295635, 0.3571908730088929, -0.3700216898579166, 0.22491614230023826, 0.1848721691444146, -0.4671713203142652, -0.4368777735421912, 0.06862587861743542, 0.09638407356480622, -0.30860368280803846, 0.507902326942392, -0.0072518854636185286, -0.013653801148893186, 0.4641396138345442, -0.20608469396205104, 0.5000342075159403, -0.19912133152847594, -0.2253735770329785, 0.4446095539695464, 0.4439137184162676, 0.14833579297395308, -0.173431177988479, 0.15849605779409218, -0.2846555869654715, 0.1830515075426723, -0.2577362250970713, -0.35395157669738786, 0.25127202905795915, 0.1440910191374371, -0.39920673756259417, 0.027719342773772082, 0.11992521606078987, -0.3031952671648104, -0.09551618123537065, -0.07243631282355034, -0.2169778507166178, -0.3615810859900165, -0.13188082239883972, -0.09940204530143056, 0.1931972604387417, 0.35318262659622957, -0.36388873107476816, -0.23540355247316896, -0.020557260075858882, 0.2450207895770544, 0.07925225057226436, 0.3967564589169512, 0.19722375024165462, 0.39901901723165645, -0.26208447792741224, -0.010609550402407027, -0.28423061887318374, -0.41283074412039583, 0.19112683197276747, 0.2589504830212593, 0.2274920286378635, 0.31817495554684855, -0.22519107648104242, -0.12686470371689829, 0.35847063817346625, -0.2687618028845191, 0.19138316373339892, -0.05373899162745747, -0.0734856211821697, 0.3362134456520367, -0.15777002585263425, 0.3090216057413712, 0.48939710657767926, 0.4217692493996692, 0.27253591394788396, -0.37582908858048625, -0.03633011261881489, -0.03880606438766209, -0.15310389021901205, -0.31196150839898495, -0.26700817852449876, -0.32307069137326977, -0.3466846988309662, 0.33830937446703785, 0.019115729655643534, 0.11121342098870157, 0.13553355471385037, -0.1920213904505256, -0.49705053956892914, -0.4436482999744986, 0.020145205884310236, -0.14825116774073743, 0.16252954393445151, 0.3336797678042367, 0.19083695422691216, 0.46805677955892133, 0.24460429653727694, 0.47867570926101227, 0.17602218454409985, -0.2725849450611543, 0.2989373086768721, 0.15232607251071517, -0.09669208705110702, 0.08142446848393549, -0.4829554149845987, 0.24942868767992685, -0.237888965737599, -0.07032217693901305, -0.23314346107179854, 0.11421935472460437, -0.1597731155213107, -0.09925634534273366, 0.22749995777441592, 0.09964146658619152, 0.4597429586690251, 0.4689577130535376, -0.1580076607957038, -0.3716339945618491, 0.006431903263056427, -0.3332107289178028, -0.31646063404507363, -0.20240266580506827, 0.1477844360910079, -0.3512164315026223, 0.25739722848145685, 0.20613509739143898, 0.1066009539124303, 0.055667488248441255, 0.3387132541706738, 0.29986996802774996, 0.2739499439503827, -0.41134817678857766, 0.07526594978288911, -0.024119962733264843, 0.01448624492954407, -0.16236902256237637, -0.38801313943946814, -0.3505584048431945, 0.4162859715723947, 0.35861767128031835, 0.4718151287207491, -0.10435527308809758, -0.08892215946811, -0.1491753323516517, 0.0832316386380022, -0.216631241418054, 0.45088754295537714, -0.26051423843122645, -0.15482742434145147, -0.33357197303510155, -0.10578617336560381, 0.16833857778630346, 0.3653644715531874, -0.1470522088317242, -0.35192080274707904, 0.03641642364495523, 0.06694388822772035, 0.0758561793531699, 0.14721868168741037, 0.3761057806128425, 0.31359196792930755, -0.020423599245654178, 0.1836735994516615, -0.1823840216555057, -0.3776495532733811, 0.36448930333054663, 0.4165325697095289, -0.2951442471231853, 0.37598233769100564, 0.36982818187783106, -0.45882063642433657, 0.3831530877764662, 0.05737965944810819, -0.05531062669897158, -0.4633817723676681, -0.2511089268676634, 0.01646016021028085, -0.12380107335132973, -0.19847176897459662, -0.4663496415082963, 0.29948467361746045, 0.42496350486925766, -0.15778870315811674, -0.24936084024522776, -0.22051482466330863, 0.17230092016679713, 0.35677958288270023, -0.13917770028449586, -0.2947384111335997, -0.46947612605359124, 0.12155906965070523, 0.28477106061708957, -0.49851651425597415, 0.13197590614187235, 0.3884399954860512, -0.20236448757689604, -0.2882870384286031, 0.06436156765395928, -0.06467796520102487, 0.1475872802079956, -0.06704521670226826, -0.34334972005291997, 0.3738648278174821, 0.23069677102618136, -0.24885069021265682, -0.4612580566386354, 0.4175693310451116, -0.31955485198513434, -0.041099317882837716, -0.4825795587313857, 0.21720063689366015, -0.23711331960785484, -0.38264384038010263, -0.20349089613776453, 0.39349971328036576, -0.06912360541909564, -0.011277152033123504, 0.16287652815095857, 0.014041140588741428, 0.4561668323042554, 0.04074281594394673, 0.34601957469568073, 0.49601750749744056, 0.3237133405844312, 0.2889742165172181, 0.007875433104116938, 0.27083109182114407, 0.03753210977264295, 0.1594690727885197, 0.475194028874966, -0.13813209132476023, 0.36561816903459965, -0.2299232745904215, -0.28033740336894075, 0.1982425450973757, 0.4296387204050244, 0.3465334984182979, 0.03705138820926791, -0.010803319081441646, -0.4812728988624161, 0.21787652371116398, -0.3910850742529785, 0.13305874770802192, -0.02828908119243173, 0.2966054100769403, 0.5709155282386924, 0.04297721867945718, 0.03329354919306469, -0.020113982964508136, -0.3488383629778033, 0.3145539026346996, -0.08930027118033346, 0.39419347738381855, 0.02421138638566969, -0.13773141576451248, 0.014641737189843563, -0.4370672167723516, -0.46870038970634514, -0.30930273634547506, -0.20879008930579002, -0.43401466508932907, 0.0836395715920416, 0.3035963575931898, 0.3298083609411069, -0.39561058666304927, -0.46539993996205103, 0.1339957703410605, 0.28438641901594686, -0.39627853690024023, -0.11538790017833388, -0.2648587989962983, 0.3009909048745351, 0.2844667461783179, 0.1385681036053524, -0.33464411998451743, 0.30128869906070865, -0.11786767674461343, 0.4711206790257208, 0.2549883516508338, -0.22982055054508085, -0.4251390347107371, 0.09085683855780696, 0.43062597292231347, -0.4902811603381737, -0.0947955869615387, -0.4201875457232535, 0.1270141854539143, 0.12381081446285214, 0.4963955478675728, 0.062124379819165534, 0.4799877683482073, 0.440485620547573, 0.3937512362164002, -0.1825891228141796, 0.13734127371487245, -0.21410851378247045, -0.09439187262915905, 0.31909870814218294, -0.20991356568567826, -0.3942527361816767, 0.3362708961048515, 0.14035483010942118, -0.23216771820270904, -0.1168998023874762, 0.18647232434390407, 0.35628778908196995, 0.299241692105567, -0.13113854568754954, -0.11822431513634285, -0.2840093817789981, -0.37780269200792665, 0.3250261003629893, -0.22218548237352978, -0.3404015986279247, -0.3543353335056633, 0.05168687270110295, 0.1003573610455919, 0.43081225004954316, 0.4853064003786692, 0.1709082533783429, 0.41858203003110095, 0.18940496946903485, -0.4301948323185221, -0.16624260380538378, -0.3748689445212956, 0.46240545742236794, -0.059152922407536064, -0.01425182320680043, 0.5760052434885286, 0.5101827686084034, 0.4257022741016534, 0.12745356134923702, -0.18180494831598798, 0.48307643715274595, 0.15496584897532256, 0.28706769089554385, 0.24411165217878694, 0.3938626558243548, 0.1115388042435515, -0.2637617242384596, 0.2645697868733897, 0.2640221666646908, 0.07461269283113064, -0.13370196715760888, 0.31354117326120334, 0.3633635195823239, -0.28578688012323317, 0.29802312937358855, 0.005874771904819418, -0.10744995698444326, 0.39443095905955783, -0.12141157749402758, 0.09658663546079664, 0.5313983906200794, -0.26347873784728587, 0.3919644664932307, -0.29460239951437056, 0.43294248077596653, 0.5534359617254725, 0.6019353977871204, 0.06581626865711213, 0.4526035177192862, -0.3558967721415347, 0.502469053038007, 0.2505018409228785, -0.3134715949162098, -0.317693234297848, -0.1024341067620076, -0.3176201092555258, -0.46073191852510015, 0.33230860610531704, -0.48695378462802485, -0.23660959590186004, -0.3675705147542979, -0.2581459629890583, -0.3207071154682192, -0.22839341541530922, -0.020080635198449978, -0.19409397760746386, -0.15108682512092908, -0.0616595040513823, 0.5707210937962254, -0.17295237949410835, 0.08860683201145064, 0.12355494353499424, 0.5604346079036672, 0.004450943992109839, 0.09198407434719232, 0.13940338925765386, 0.02657206150563582, 0.40398035886280065, -0.34200703383058306, 0.4610408609847049, 0.43430829680757127, 0.23973583450732108, 0.08007835059971961, 0.4801725920353323, 0.11982793984311636, 0.22267648605483026, -0.418894710626598, -0.21110895180280229, 0.14630090330086387, 0.32406717547289987, 0.29657853894088854, -0.4823364665361287, 0.08490254950414096, 0.17065657653557648, 0.45214482054892896, -0.16576440421639502, 0.0269854004403773, 0.003733157406362484, 0.4652171169518929, -0.37910900672377884, 0.5673196941879248, 0.43898710717007694, 0.03497235236687086, 0.236334147655923, 0.55470105190667, -0.3339924745484613, 0.38355715690307407, -0.10554898600607515, 0.00979746095734671, 0.4109339502274348, -0.24525396146671308, 0.2027064927108027, -0.4685727205415313, 0.16409224507782874, -0.12831776429899538, -0.41561275503629697, 0.23276244302177848, 0.4084751743925853, 0.02896501218218372, 0.2380438625665786, 0.4303619559755719, -0.32370815882878534, 0.48703564174710823, 0.3506263813003495, 0.010370375792429996, -0.20779998328805757, 0.5398263002302333, 0.5068207354071174, -0.17499916523052356, -0.2979041292540517, 0.28085523412780306, 0.16530569148361418, 0.5378116506868102, 0.03896261008884573, -0.40653101000495606, 0.3777490956101726, 0.40494425826067787, 0.1971096047179708, -0.19858279664856718, 0.27444398085014216, 0.16372850039707904, 0.43549367530483696, -0.11470136384156056, 0.3143388979400332, 0.3911596235741695, -0.15613805302120634, -0.23514791530444717, -0.02330286398989043, 0.002542353424881659, 0.3224370300623092, 0.35760869927230476, -0.323101586281761, 0.4316597224574243, 0.41646427346913706, -0.32676360665480014, -0.039631303537472504, -0.22043069371400217, 0.30616834290674844, 0.49592266393335815, 0.4123730516064136, -0.19313483927814779, 0.2530426903380658, 0.23674791716342355, 0.41201483754736484, -0.13373308251133006, 0.2135471666528374, -0.16183333200870031, 0.12327669676680575, 0.4822598559822109, 0.41112998412202534, 0.4931812736254792, 0.32127511769942085, -0.30475360841114824, 0.4025327219301738, -0.3739286605828655, -0.02450434626278703, -0.11012365541516374, 0.21745610402356405, 0.1293667193549971, 0.13358660718404056, 0.012226453433411949, 0.07243436060811213, -0.09803516860530266, 0.4181711874003477, 0.5047663119216932, 0.16422112688153132, 0.1345701863665106, 0.5813822666051823, 0.00014349456333391, 0.00019091642274485213, 0.3609886800022104, 0.21953756034449046, 0.48219916073218616, 0.18576834400070885, 0.24233306218030776, 0.07849498041768949, -0.22606306694709957, -0.47773381847027907, 0.43141649581406627, 0.08854116115766697, -0.4700153240018756, 0.0782912821794825, -0.36420674304906014, -0.020343760253245385, -0.37349768976326375, 0.18874381348074515, 0.4241872642193977, 0.252893786309249, 0.36959611233556566, 0.07611682728595139, -0.0528094872632646, -0.08016399872009909, 0.2862040939530605, 0.22419627635879114, 0.24563365645618668, 0.22833987177432832, -0.01657501472614862, 0.15244986447468503, -0.22887450153648953, -0.06417200692839947, -0.14424555591726657, 0.43373874570228943, 0.4157381733238648, 0.4443192286333146, -0.4598991123052792, -0.25882599738042594, -0.27569006086656467, -0.2508872771474897, -0.09798090172804308, -0.15000436040686635, -0.40477906124772284, 0.2398416371758013, -0.3484710849173731, -0.11202827536843477, 0.028987304415703873, 0.07383397741467206, 0.2166074389903066, 0.49114968374383455, -0.06899730712293389, -0.03495056397302167, 0.5308806866866402, 0.1544272001161715, 0.08218098038355924, 0.21060706597149345, 0.012445656596508476, 0.5228645307522105, 0.10832239329174301, -0.16114619476681968, -0.3652323775239816, 0.4299306520719389, -0.12626206993109365, -0.05469717592280196, -0.3174561844808109, 0.08608791946106466, -0.09960618140141675, 0.16033567015328531, -0.4189483819977299, 0.4266274298027081, 0.06532433420099204, 0.4730801989669547, -0.4366951988236187, 0.25675518281519566, -0.11170952466767486, -0.042712721002325815, 0.5853101580230896, 0.195446138958006, 0.04089319099377144, 0.487372779011214, -0.06691715201542954, 0.4729481335717365, -0.2670594670190466, -0.11921612002443717, -0.2065510961183696, -0.23834509634348874, -0.2673039644190289, 0.3233657097783231, 0.43845946162287647, -0.329483115737654, -0.21777007801903975, 0.12434212494946971, -0.4099763520499089, -0.49495734582853096, 0.26812770734265795, -0.13884188898456973, -0.45126069707415367, 0.4135360862807086, 0.010699083804006568, -0.29510498554068476, 0.04352533977532353, 0.3611709504546682, 0.17351913284911757, 0.5459867944075251, -0.22491932558792324, 0.04259723787530734, 0.333667291033023, 0.0440270248480961, 0.31893540082989746, 0.28017078148927155, 0.22445305453508022, 0.3457159035852126, 0.5934908508401897, 0.5273037834424567, 0.4392228756358262, 0.09221283184920841, 0.06770850762562236, 0.10231819228215232, 0.19640435970279743, -0.2541984164905283, 0.038239005936809185, -0.32889721839681313, -0.4248448935531872, 0.1486223752691983, -0.4127244065159483, 0.0038082366609109987, 0.2110852340894178, 0.45109790947518386, 0.23191271154338253, 0.3448342136318412, -0.10514302780418486, -0.23221117378489312, -0.20475070268490825, 0.3679896739828246, -0.03647973372900652, -0.21765053227985837, 0.4460561931444737, 0.06108306513822538, -0.19506223913169776, 0.24903259427006366, 0.05321929251165942, 0.5099404688550747, -0.33735941608048275, -0.15620304959233816, 0.29737814853310574, -0.1077018334548653, 0.12872704748408506, 0.2010661175490355, 0.23838449705215847, 0.2994142509784886, 0.45271749201761274, -0.15015666105822756, 0.4050580452632612, 0.480469918464788, -0.4120041026466616, 0.3536817887132216, -0.1401011116773175, 0.15680293497484035, 0.4716218130646572, 0.01075942324045524, -0.23996862790894857, 0.005782574859679003, 0.26159903164075965, 0.4518704879628095, 0.4260877380990424, 0.21219585028410534, 0.1344457372782357, -0.1861135409175635, -0.25492603100996086, -0.032664970964413585, -0.18675582317129172, -0.11262756450260104, 0.01322145969450897, 0.5018061997295351, 0.416870848652812, 0.3288469737731542, -0.05936931630217619, -0.2285970052915159, -0.04123794826967282, 0.3935463167998331, 0.49125096883443986, 0.31940030723924884, -0.2188291953083158, -0.13926744393013438, 0.45929202114866, -0.012162901210096867, -0.30835955617883115, -0.13650816568805738, 0.14910759479971492, -0.40959978151259574, -0.11466634429380225, -0.25789575140340437, 0.31413736107115764, -0.10348522603366835, -0.022599553969188214, 0.3796501754819902, 0.6366462465979887, -0.1772320919634041, 0.6330716195222729, -0.3794735586655908, 0.36226626224804903, 0.18008891417354267, 0.2847700585809405, 0.30615378756410394, 0.3682880239711264, 0.2598541610059607, -0.371908092095866, 0.0843281769282016, -0.09617152207704507, 0.2461936845693532, 0.4623648030154862, 0.4349925777225875, -0.40788179576381955, 0.12676614472978973, -0.37641131588052085, -0.03359360912238314, 0.02072123558532017, 0.38171052604182487, 0.2077556494034346, 0.5206613141836844, 0.652545016544547, 0.4160918599896366, -0.1321031766680906, 0.5217645781196982, 0.5791540949532079, 0.2406813789608074, 0.39079401264274966, 0.01475786581860023, 0.32279012513377586, 0.23082231740234196, -0.019797111615021287, -0.005897536490810332, -0.33664704380099203, 0.22105697768364735, -0.1726679457068181, -0.023195974418758647, 0.3268185641202427, -0.46322859806133393, 0.443980881474619, -0.14873454629324895, 0.25389870596696046, -0.3480793153094115, 0.3265739764638007, -0.42790837710131147, -0.2314156187215407, 0.1920702448223804, -0.2786492640887157, -0.2462029091934526, -0.0020515042116976243, 0.02220947021316398, 0.11471351688397749, 0.014762211325376856, 0.17023105349118703, -0.3824189302307155, -0.10810429677339353, -0.0025042762201388344, -0.023189459025501548, -0.10333316082279378, -0.03562151013950227, -0.0072778286322380805, 0.08482292461545614, 0.012065749250079536, 0.1887868873740085, -0.4173464250058233, 0.027610864563041182, -0.05086471631931548, 0.384592111218143, -0.24027089252742875, -0.26265210218315466, -0.26825851116263744, 0.4695479214463511, 0.15211398709753515, 0.018583300483595598, -0.37729574000188415, -0.024641081322345413, 0.35296795174731305, 0.2136135296434912, -0.2388448873398538, 0.1309217779144995, 0.25691296216171094, 0.46601833602564596, 0.20045376404607926, 0.29385450944563873, -0.33395149116308337, 0.03232980297401805, 0.12058924442186175, -0.24011231953058076, 0.2491066218995041, 0.23283495228470827, -0.4003788217455708, -0.2855440075791945, -0.10183419238923208, -0.07523144379938794, 0.41810379813242093, 0.4077650906315805, -0.3339661839269929, -0.05482881943643538, -0.49529489193328935, -0.34207903279871665, -0.3813289393508935, 0.46494474707482386, 0.33524640400587663, 0.1032360236680881, -0.0557460867768038, 0.5586664361435031, -0.044025751764113906, 0.46456872127745635, 0.23332269191229377, 0.13636397052454619, -0.4045359814336389, 0.23869917561279527, -0.41195430891503265, -0.2681181518628779, 0.5059394992903982, -0.21931510459849118, -0.3225066611970875, -0.3702427807148579, -0.12419038164150635, -0.35865096310378075, 0.4205222876355085, 0.18000551663920372, -0.025851118513299465, -0.363508854837177, 0.13602273295205264, 0.034368646760698944, 0.0762195069991458, 0.06113807459148685, 0.024563547083602914, 0.09052395425557834, -0.2760812184768398, -0.4185662414843991, -0.05123931208343724, 0.3723921796037429, -0.2217506774382383, 0.3080482890152501, 0.3964857761527355, -0.2276650871163162, -0.28588672717723024, -0.24577078101174654, -0.12429242966386932, 0.12349945808340386, 0.30737641081030415, 0.12285149169270336, 0.47346158007165606, 0.20649969952761632, 0.13425426654222905, -0.002422757034039158, 0.26191888662844154, -0.07350986462704157, -0.4271171987191271, -0.21614247140737994, -0.2961732060175199, 0.4666892932269217, -0.46151406601233963, -0.00529564211673617, 0.45377256977078856, -0.058925356318472746, 0.16732124492911135, 0.07318195277017904, 0.4764790339726534, 0.11542600452489665, 0.1648725082971812, 0.4943490536196298, 0.3045563990253277, -0.37391895079289605, -0.1596746883414598, 0.49013560474480933, 0.1473435220104823, 0.0997298491092215, -0.05050290112536394, 0.07612385985086745, -0.20403392889241867, -0.07047973941722914, 0.006161670344943193, 0.12486566225260454, 0.0394557352054864, 0.19212072195196428, -0.2854413614541449, -0.0888062757275857, -0.26548434617500327, 0.1579036226907675, 0.2911854053611518, -0.22282154039718982, 0.2970112816817987, -0.18413521015633688, 0.4326668608327254, 0.29612501829498883, -0.12802053792815477, 0.033780563537878554, 0.4785504393179644, -0.0037090717269195176, 0.36529738360565955, -0.0006097407892899954, -0.05319944148321544, 0.42101718548043027, -0.4586803247587327, 0.3286017677739575, 0.3329816968390509, -0.3671926868086817, -0.4078472910324196, 0.36443234327166385, 0.3057589019318361, 0.20915088915407754, 0.3442341868907972, -0.3461294106988545, 0.19707369607284653, 0.11615939857866653, -0.4982646112639081, 0.4062272037018211, 0.2628710345632542, -0.34380199100981784, -0.0817205140725714, 0.3630482996192931, -0.1433528369002504, 0.05047962581428049, 0.10211002221699064, -0.4572080802215173, 0.12762347486381342, 0.4079478757907795, 0.10810634754404806, -0.14300720281263185, 0.48963757968634025, -0.1485121246094765, -0.4867325581877266, -0.3097741414673553, 0.03227891599754107, 0.14690392135200325, 0.362746062035056, 0.1297276234511031, 0.3893650372035359, -0.22315738084540382, 0.14357250480315165, 0.3521349420036395, 0.05402152616839673, 0.27241716989783915, 0.1284039611131056, 0.4823725739268805, 0.3811661013204296, -0.2954947409125591, -0.048347167856750195, -0.2860534981107232, 0.35335179959266005, 0.09962433787494185, 0.3178007112685116, 0.2663276629099899, -0.4806488221437223, -0.25462920765505614, -0.21386282723227112, 0.40909906201744906, 0.12964012882172649, -0.43643943118897066, -0.4310058794681675, -0.024940275743829732, -0.4629350806519871, -0.48081846659083505, 0.10906545505769039, -0.44072615686433947, -0.4076568719135658, -0.01398256736884218, -0.472843564231034, 0.35119393699753365, -0.20349828161880357, 0.10023558368886276, 0.01239955471008869, 0.4579934440844567, 0.26189439855330077, 0.14389195210158878, -0.21786369950731965, -0.052778428638821324, 0.3737019501641111, -0.2751796203194124, 0.20282943633103281, 0.07227261849865127, 0.09302587281952891, -0.0476146278738931, -0.13385693008676103, 0.3733761525913485, -0.07361987566138847, -0.28220817913385715, 0.32311661526101737, 0.22518384627868981, -0.2587997887266278, -0.16288388813178856, -0.06849078444274637, 0.16752135519749922, -0.48325089168672863, -0.04319127449634941, 0.3394854951659977, 0.14669528087247807, -0.4874082832162898, 0.2984506190134444, 0.09374470482947816, -0.45067500913690367, -0.2648258912411669, 0.24619239391558193, 0.15889108264945068, 0.4449213789482313, 0.455626888844327, -0.39177948129041207, -0.26212526949371046, -0.20287114769326453, 0.09737913584157393, -0.20200377089244176, 0.07797304702493035, 0.26089710618811585, 0.46473367637959156, -0.3431522416261942, -0.12668212692974512, -0.07470447741700867, -0.3607562538588068, 0.3119014664616637, 0.03563319154369005, -0.19460289278019993, -0.08655785085650891, 0.4560908835228188, -0.2848509317114788, 0.15390314053540033, -0.2086776247269171, -0.2177246873177906, 0.3194214954736121, -0.027994125611571184, 0.16423576193818415, 0.04105453427554538, 0.08549995791366648, -0.18134947279709077, -0.09849030800567092, 0.40130631100334624, -0.43414703860881504, 0.45072071940229197, 0.14583208823479635, -0.07524928148677482, 0.23205612596612557, 0.3406518167441098, -0.4354982906206444, -0.2916242828241026, -0.0018092698834828954, 0.04900277778712221, -0.10339645140584205, 0.16871932103076595, 0.18956482661131055, -0.10090031635057539, -0.13602054596861513, -0.04658220682959546, -0.28858354347796655, 0.017739524345144808, 0.3774132269335705, -0.08224877584399419, -0.1653022935431807, -0.35474178784290533, 0.154575110630075, 0.13555609017031073, 0.02849043522002571, -0.09346524209653342, -0.21505420254200897, -0.16938305460346473, -0.10344217326450234, 0.5258440951206222, 0.4657546190726328, -0.35619891419020067, -0.18096506085543612, -0.4007103587073818, 0.255537856408701, 0.07958465431490225, -0.05392163726329888, 0.3002250623532808, 0.4279506619369134, 0.452665128895095, -0.40701318993060137, -0.2730183015248682, -0.3923648008155464, -0.02158406169295568, -0.09969305000573747, 0.446975868059442, 0.1588797907522553, -0.45817455420006137, 0.015586708176024576, -0.2043238368647792, 0.43639217432486505, 0.0019317543661179276, -0.03370425572000197, -0.11945238125281753, -0.2286780868375915, 0.46326339548002576, 0.018126780648238503, 0.5355833985604707, 0.2870687647755837, -0.3055192069487848, 0.465939735445905, -0.17933738085448778, 0.29655687415326276, -0.2807988948179052, -0.09516723708940814, 0.5288263273859793, 0.12128816761520264, -0.30436949146227243, -0.1371652354304836, 0.29280086938743843, 0.24640882070357983, 0.04717547906516473, -0.23080836910678737, 0.3849444960062637, -0.4807285840866768, 0.023824750333572977, -0.2363549924788782, -0.19535774230916164, -0.4397629562349832, 0.4938059036088005, -0.3168875962433249, 0.11366019779575633, 0.12209740542553134, 0.06272516654293064, 0.6231832818114973, 0.2924568434983286, 0.4289495702251213, 0.1481658244001976, -0.1382168455804926, -0.16929507773701458, -0.12827440064258674, 0.3302921920953111, -0.26803182483287485, -0.030536487594400575, 0.49596430164215066, -0.2827534745055189, -0.32487312441487204, -0.2902154156033634, -0.10944244939756047, -0.31940263556794035, -0.27881716529758904, -0.4935939061153958, -0.48827843431316426, 0.3050815667211941, -0.4772980777774397, 0.10934148796088412, 0.052096497987094446, -0.3484822727074355, 0.08798799360878064, -0.20801609297181411, -0.16343240847793336, -0.26939877558994896, -0.3036561934386159, -0.14685445463311086, 0.5312934531076027, 0.49269698866867523, 0.3438186263627701, 0.17763902624714908, 0.007445883188745191, -0.37702419479180266, 0.14070433606359808, 0.4327354639333559, 0.27320131251290936, 0.3028959650853394, 0.011882066884583273, -0.08004983972511046, 0.09276542361564011, 0.0173446306444006, -0.4835739225568587, -0.08092501374956859, -0.08410299047134247, 0.05732575818643021, 0.1749215108018506, 0.007021105416019011, 0.45514302918297717, 0.35635681641624195, 0.06643679985583306, 0.07928224016901625, 0.24115908507960737, -0.06699674706152947, -0.18416537370719163, 0.6210039236922213, -0.18687762407233108, 0.19257053816450384, -0.15549496158013187, 0.6510460431993417, 0.18139938046904958, 0.13479028232786522, 0.3633931429057759, 0.1840005929502325, -0.32905501826259526, 0.37663249671031607, -0.16404674510481612, 0.4135787739109713, -0.4290765142143151, 0.2846954109696579, 0.3668303714930489, -0.04133295074595406, 0.35518543243003314, -0.44281417460640343, -0.4483771403813685, 0.09549845653855894, -0.4131700247434298, 0.018903241403148495, -0.0651589234277118, -0.37844495253262195, 0.13303082959941284, -0.16082916521410423, 0.2973472628642268, 0.46444912692796125, 0.21418266084282855, 0.40150661088865924, -0.06945196294648617, 0.3055664362857402, 0.15814387880846026, -0.012457004925076249, -0.23508585888251224, 0.13204496424443826, -0.21147663663779054, 0.32975627144470704, 0.16222795391924053, -0.28518749972764573, 0.1944234779169318, 0.07731962226052422, -0.07723508863883563, 0.40526212813296947, 0.21396982181851937, 0.45096266355182973, -0.16626414093983097, -0.30059423492166254, 0.11564759135338563, -0.23627325634005228, 0.5475778148529579, 0.13723069859055753, 0.059682037501634595, 0.4750675765914598, 0.04518070602536581, 0.34504636636559655, -0.2390632083670377, -0.348652545373554, 0.24252632082613265, 0.11361838995756884, -0.28776178976156486, 0.18418254079215127, 0.28358425228931067, 0.3593896383452945, 0.058766954963920204, 0.3457172363025337, -0.4313545013350408, -0.25235269427631435, -0.03205312048092647, 0.1315851529040413, -0.24449324322466345, 0.0458017759306256, -0.16254403500226808, 0.47637505955373, -0.11809449156114765, 0.5127395337202778, -0.4201996482132256, -0.29998694397568026, 0.16858583574646197, -0.08116597645446609, 0.3067235580382566, 0.0029341481393808004, 0.21960464255000042, 0.5826833596904207, 0.39139984399680744, 0.08661822866905795, 0.30110421792226866, 0.32204128982125574, -0.06257826279064221, -0.04450862827287338, 0.5190254729353344, -0.21543953115638248, 0.2384024522170902, -0.2593522320017154, 0.30713192307211956, 0.355127981107654, 0.19754459551564463, -0.10978391742911477, 0.01314350786345797, -0.038680042802140525, 0.4654045530308296, 0.05671772633230284, 0.349292759812821, 0.3117153092325744, -0.2962262712772958, -0.25697971611573356, -0.16111124109276173, 0.4753047487582365, 0.24806333052395213, -0.30663312386461744, -0.24191638593760906, -0.08934025851277329, -0.05841523114070076, -0.004419722719815526, 0.3050022412750467, 0.41923377921620475, 0.014887753804046387, -0.2560241395568361, -0.18492606334978656, -0.3712576095740245, -0.19579242112214681, -0.14623121262381583, 0.2266952644898037, 0.14432347881604965, -0.07813610410769797, 0.2830696723956537, -0.012943287449091012, 0.23764365747187172, 0.40421317743272306, 0.3551752033873322, -0.37561456416752476, -0.005385713578771686, 0.4539668089622854, -0.4037810376900526, 0.4821741723195588, 0.16733735083478027, -0.24915096507766896, -0.1718905533717378, 0.20535642218365951, -0.1987638204021752, 0.5957888271152464, 0.1277857976585109, 0.07373059657157996, 0.5727607171195704, 0.10154004396599986, 0.22759305234527133, 0.511803569447831, 0.14913354824463856, -0.29084678172514855, -0.33030848671275526, -0.17399616277427163, 0.010455642967556142, -0.3043505024690438, 0.1610755833112394, -0.3724762918392568, 0.17988360912104884, -0.24737820543838968, 0.21606660783941112, -0.3072406145317833, -0.05815327128226609, 0.007565150530275479, 0.5108009191508436, -0.06587023211863723, 0.5747926004246078, 0.5056302521289179, 0.5818785719968084, 0.5767580210702649, 0.5730164453662896, 0.4846542224119357, -0.2636191980233978, 0.28885804432335255, 0.43045318088043977, 0.4548801348322039, -0.29915762042610694, -0.22580960500590383, 0.5323146211526056, 0.49826623375298273, -0.034638829884585116, 0.34555264638114586, 0.32214800825823503, -0.08696669618546642, 0.3398803220654425, -0.4227407147878378, -0.020131473517329468, 0.297522152967063, 0.4661663795010986, -0.34636498487174844, 0.30122506141140243, -0.0061390198133949745, 0.19920066037908304, 0.5421638522051228, -0.2039504919817263, -0.02293249352494228, 0.007508116244869848, 0.10887685321881185, -0.13945876006870644, 0.5693823846474787, 0.004225333022191767, -0.0006160402350880308, -0.14975307044628197, -0.3165616604749244, 0.32719793394822116, -0.31592420263119486, -0.3422924926058169, 0.2807542046252633, 0.2121074508996256, -0.49344611066480387, -0.23565821043432614, -0.4297937743623635, 0.21591163741969222, -0.02331755990793538, 0.48267941955606763, -0.23045707147223557, -0.4797364357558887, 0.154776802817985, -0.15576600153009207, 0.47634393226485555, 0.061107264217080445, -0.2052095353831253, 0.2539400255081301, 0.5632545934686937, -0.11473179118179838, 0.1494444619470514, 0.42246821272747037, 0.01224185121529569, 0.29319122496435107, 0.10766291565568797, 0.5387641946286964, -0.24615428101428774, 0.19038565999083726, -0.07171030801583844, 0.4494785339725348, -0.38887108218583444, 0.15950628389877305, 0.48573941501316237, 0.2335219253684592, 0.006073640489857093, 0.3317554064004714, -0.08796192646232337, -0.25851285663242496, -0.4689274864701059, -0.4322212751329652, -0.374938322146317, 0.459939140056656, 0.0006110686256284803, -0.4318263727154978, 0.41005996427633173, -0.39943825500583047, 0.33374153651695865, 0.09906734723006175, -0.18230588333870587, 0.389679355727894, 0.5097998761785246, 0.615130498847307, -0.1519539082482168, 0.31602750953917874, 0.5508428436393275, 0.3736205376600395, 0.04633398787054075, 0.2754351370239516, 0.3980391549693269, -0.1536705445552502, 0.3572356164451385, -0.4480235213518659, 0.47452632311276605, -0.18192811332255693, -0.01576933778659695, 0.2947586456862587, -0.4973862103419153, 0.1313479192035796, -0.10134973089970424, -0.004352056224872644, 0.15535710559956822, 0.17477960282336458, 0.212377322377199, -0.015267526225398358, 0.44007141343199746, 0.3153215682936518, -0.2828310423244671, 0.2066138365562043, 0.02442873228573517, -0.019904359793851783, 0.3738041431391343, 0.458989863936229, 0.29697159023747716, 0.5178194328370544, 0.37680313842070523, 0.0022159161282389395, 0.23180919001420705, -0.1394185719448755, -0.41261350485690923, 0.04630099425766886, -0.23746793326230867, 0.010727147696173483, -0.38943567817907543, 0.142239876445844, 0.14072903859502833, -0.04657784564020297, 0.004593525977946989, 0.06123902317423673, -0.33722456171228077, 0.4202763123423861, -0.17299674335997872, 0.5045558247669946, -0.2633763744234246, 0.5767651063794634, 0.4369496355816723, -0.17935087106833728, 0.498999305757176, -0.2592387958125572, -0.26030221126679787, 0.24008937331638447, 0.11754190951563927, 0.29337185446131614, -0.04994730283049497, -0.39885184626381637, 0.5210180279977755, -0.14846836832829394, 0.35017988229289015, -0.11857881433906269, 0.2237115460031217, -0.3742174056478114, 0.41221316551618403, 0.18097174247001224, 0.223974810206766, 0.44415211386121684, 0.40348241608726765, 0.4347801179052606, 0.09943384562205664, -0.1739089505072992, -0.3112905846239455, 0.163321406916082, -0.00931789881981782, 0.39967501725657867, -0.13512526819204213, 0.31707802059235524, -0.031478213919607645, 0.28004690226107887, -0.04918744349491203, -0.33707451400061317, 0.4011694438899398, -0.26963570870084064, 0.5266727000678735, -0.24924847384701687, -0.26297973900495164, 0.27168563199855833, 0.1141331742328631, 0.3418906775716531, -0.17829533692581476, -0.34852588655518046, -0.3758421755056053, -0.20634257534994493, -0.27663131094661264, -0.28911346678938427, 0.07459393824336641, 0.3355602072107753, -0.3337515038826933, -0.0013637102255404673, -0.2856824563250527, 0.0007930807196993721, -0.34009722558848604, 0.08493584620548841, 0.3829803747959233, 0.42246985122773284, -0.023895185477131806, -0.1506074197791008, -0.027515144069222612, 0.3557022495656084, 0.3916001038304108, 0.019980699949586095, 0.4743230875368385, -0.29177132678528317, 0.35061436732525064, 0.29937787455160936, 0.1211424742751137, 0.1919671935635689, -0.18147179473661856, 0.347855549745984, -0.08652307754819266, 0.014079479036961717, -0.06733087828676107, -0.13884460238951463, -0.31155620023761416, -0.30553987189928616, 0.2676417915473827, 0.39024426299811, -0.402624756601523, -0.10841638684948034, -0.05784605862968019, 0.48318177425302994, 0.4945432200906998, 0.13972969732402749, -0.17691175019263555, 0.5410138586513038, 0.4402372067741146, 0.13582354796842291, 0.009215542638960584, -0.2686340406351458, -0.1896736459576415, -0.333481511059978, 0.42106708955269173, -0.3437474607539585, 0.2102014771714774, 0.0020094004519265376, -0.47417955791576427, 0.009549987811351746, -0.4271657344789678, -0.22843955405172878, -0.30071893802093186, -0.27945067877504526, 0.04628881326160087, 0.019291331070260216, 0.3165683949171036, 0.13733911570904953, -0.29357903598044965, 0.25685198075375604, -0.16437809629340538, 0.3455035933839336, 0.19349120622743154, 0.5754595033246314, 0.44516197420447473, 0.31930201157009974, 0.10657598199261684, -0.3161356958120103, 0.16135015141512912, 0.24693439968751776, -0.017232059790635218, -0.21665192323882076, -0.06936267177882768, -0.2764997569241119, -0.4157530131182683, 0.06770795832164574, -0.14275774907128747, 0.08240941314857175, -0.038666904034029836, 0.13857602862768903, 0.20471875833391284, -0.26439501350901345, 0.20095899288491745, -0.27359937034937054, 0.5032887255732089, -0.2782457909925101, 0.07120171994391541, 0.28406067184290923, 0.40056963818676844, -0.12368712437605972, -0.32808192928497254, -0.21940469170165688, -0.10687788252928007, 0.05097279595015051, -0.06941471164250163, 0.2951547283734528, 0.05878481043061858, -0.43404203724771157, 0.13175218178297074, 0.16117332942840445, 0.02607433149513672, 0.4886284789312538, 0.34808523929658775, -0.31571815465659303, 0.46655184221417456, 0.4665892453156151, -0.18984521385390662, -0.48481948962233967, 0.4428744048816946, -0.17123284788201643, 0.17703630036827825, -0.24151531535665915, -0.1892359578992319, -0.049197991626078394, -0.320761391440259, -0.013986655531785686, -0.1345876328178312, -0.266512831263536, -0.20266416827327688, -0.13546383182406446, -0.13650758795427217, -0.3522431192492248, -0.4122420430632014, 0.21415535962872154, 0.16823713086209297, -0.17299246555027317, 0.011344926671685357, -0.1328884672745784, -0.12377108788027194, -0.007999261200750573, 0.1329205989975841, -0.28373234162585204, -0.25425682723600906, -0.31924773966340225, 0.07972731410986655, 0.07795505983916295, 0.2767612844560756, 0.030066405958030673, 0.015960667938137416, -0.14570373218865762, 0.3174440292029191, 0.3088641810722555, 0.05526502567363965, -0.4666763345309052, -0.46771910952898965, -0.3844046259875256, 0.29676272256980424, -0.38687161232719763, 0.3706080025261015, -0.2261024809621398, -0.48706613818818834, -0.13140797413891575, -0.18339435834453505, -0.37323193908651797, -0.21821174772252327, -0.2877532249641694, 0.16630405810288798, -0.2635481525882249, 0.13579169884866532, 0.25757280344837774, -0.2052864288599866, -0.14363029660101223, -0.3453402147615695, 0.4814381203780713, -0.44599471457593687, 0.48146010768215997, 0.3806399027035323, -0.20869986576309585, -0.04669894973837351, 0.0025638017676188514, 0.2527799590506486, -0.08139727347245185, 0.42715580268325276, -0.057242617209511376, -0.17465371126302473, -0.12338875797869246, 0.3355662314141284, 0.0796610575289334, -0.06297002888889072, 0.127642435696393, 0.4394982496717786, -0.45007871957671186, -0.06266388153090735, -0.267370336136663, 0.48449147187014163, -0.11924465394631245, -0.2565146099113971, 0.4384920509307486, -0.45762960748701287, -0.2963720378793182, 0.08510708557614244, 0.3205651198068602, 0.20368047113407028, -0.08914173182968554, -0.1736909515885492, 0.23400012429027695, -0.24722156450420496, 0.32878065338430695, 0.039898867142093564, 0.4537286092074192, -0.47173194550318587, 0.37814378859141096, 0.1224545428728705, 0.22998662525374514, -0.4250079411717238, 0.03398953947773398, 0.4938839418647095, 0.1577462142300785, -0.07645016789940895, 0.12190585079135896, 0.3509174736005801, 0.25498253235625246, 0.21282308884175694, 0.4599412872615606, -0.1919413011232427, -0.3861013221561034, -0.09215526425868292, 0.27977266152843805, 0.35652518163064395, -0.47761965798445816, -0.14156064461231843, -0.2131161283894527, -0.08838387907975653, -0.37850297494208285, -0.3669226314982249, -0.4368690658752112, 0.2244191648113005, 0.08867859640890086, 0.39370328908755764, -0.11277036058598626, 0.23291317772730943, -0.39287139503497015, 0.3106398282151245, -0.1732229227350669, 0.12573324219938586, 0.11208160275380803, -0.3464688009500611, 