{
  "columns": [
    784,
    15,
    784
  ],
  "activation_function": [
    "LeakyReLU",
    "Sigmoid"
  ],
  "biases": [
    "[-7.3495252565637745, -9.627862224752127, -5.9932090338129544, -9.990149419232635, -7.6969600364380035, -7.157520752345461, -7.8011083481324945, -10.051379162508676, -0.03831867097897551, 14.665594026204989, -6.011783761699541, -7.963176987620808, -7.013908138462347, -8.42646879732653, -10.663173858201949]",
    "[-4.695938738171651, -5.2530853561370074, -5.391464055766203, -6.6832372708266865, -7.178306438803461, -4.517637434181548, -4.637557630758043, -6.932063527666583, -4.868918520591371, -7.181782461901722, -6.282014882858929, -7.640331391648679, -5.447904839996747, -5.013379613824043, -7.861524173071753, -5.933085179492275, -7.358558432324947, -5.412709279015613, -4.696411781567121, -6.77223142978399, -6.7633856609758265, -5.2924127450885345, -6.682579606752569, -6.1484736932266255, -6.837264275861097, -4.732939959432268, -7.662550450046004, -4.618770446278447, -6.479099479706192, -4.708869204769973, -6.133358643771026, -6.275782329544505, -4.610984360326417, -6.168522615355626, -5.681879658023842, -5.991133294745291, -4.660277243816906, -7.091545845266702, -6.376259279854786, -8.179096477472616, -5.50107815315028, -4.571810581266232, -4.988945412166498, -5.17801298292769, -6.4184099221089355, -6.9238093915494865, -6.702969564550605, -4.98291321960814, -7.186629724027258, -4.918035147167865, -6.3185885055908, -6.273039839146455, -4.699163447029679, -8.86163970296407, -5.944634744256447, -6.5301849364105085, -4.5040392640685, -5.834871666688614, -4.926674850771397, -5.3201131116568465, -4.658943077188403, -5.607949898270101, -5.609120634433007, -4.525579452274451, -7.30946663870324, -5.273245848102276, -4.503444288491688, -6.418034739157644, -7.216742539759118, -4.5821527406784535, -4.285903410208303, -6.431354773445169, -6.106968270886576, -4.814853300572618, -6.739057295278464, -5.158641079322, -6.031026561234125, -6.2879668074185595, -6.795279221715691, -4.765611461645661, -6.0916780811384035, -4.957562017759033, -6.017041391816676, -5.060032021054338, -5.834989466943565, -5.869290884469877, -6.605625158144275, -5.214484536107151, -5.8779990872618395, -5.359858818608199, -6.122305644425397, -7.395671485108088, -4.557907716887547, -8.502633186341864, -6.5251635184931045, -7.533274440223168, -6.0041837009360775, -5.996922984406385, -3.2253662550300493, -3.620572920997267, -4.815504465744839, -4.267833846522549, -5.746036778580092, -7.5391740070576265, -7.860753642286257, -4.471395859324982, -5.610883733126967, -5.558299710453987, -6.659676231217438, -5.370991413116163, -5.365805632834661, -5.008400834344462, -6.13017896897974, -5.700395417109629, -5.485048849712697, -4.850115405273823, -5.108861284227279, -6.277944137323729, -4.608738121010219, -5.789210864833014, -5.0820303530206115, -6.522109568700106, -5.683971769894076, -5.986104992630049, -2.6722598619720763, -1.9806177711435897, -1.7270241818719922, -2.5224511822442475, -1.3669426172613712, -3.556598545492318, -2.8882288694761304, -3.977932553741268, -4.576146536221694, -8.245666481128392, -4.594938417728054, -7.4582364220745445, -4.791765550993174, -8.273580332314758, -6.175871570287251, -5.17964487805394, -6.2205642329715225, -5.597345552748509, -4.524487244795514, -7.128481049118983, -6.459737233681826, -6.455752868497374, -4.395056706973312, -4.107072126735742, -4.199733151516782, -3.339256760358663, -2.829094669824482, -2.307891916477691, -1.8612330626616318, -1.5697763419134543, -0.8655032988543676, -0.7410381177821048, -0.19977749565596395, -0.4636207257846773, -0.6617205278945525, -0.998541147586283, -0.534391467481226, -2.708580416954031, -8.00811932463936, -5.225095547386081, -4.828469844320264, -4.94910846581048, -5.5164015864519955, -6.267177087209977, -6.215643304443691, -7.348967137078929, -5.617396492135944, -5.705600383469446, -7.519609307341096, -6.474027234128651, -6.298420940689761, -3.908313976533659, -3.28296779787496, -3.253918959419811, -1.9162299766097313, -1.6757113897230769, -1.1530830541046413, -0.24249499242263145, -0.18989441266540763, 0.03769969126367412, -0.08993274601233964, -0.04692361715708905, -0.10329426653438317, -0.3790330458229022, -0.7774184012269589, -3.5985258533649342, -6.628124440435013, -6.980578803430004, -5.371067801063293, -6.891222243476446, -5.353736661624559, -6.33120171615899, -5.585046158181875, -7.109283025181048, -7.522890022389042, -6.246090747740022, -6.812156174727612, -5.764819272358915, -6.186355079480875, -3.07056110098142, -5.413275760749098, -2.386792945802773, -1.1745510762029285, -0.27272179905108335, 0.587392062906048, 0.8366556399187649, 0.15932452721854534, -0.01190094867708093, 0.08161059680310499, 0.30115915799305953, 0.048720956718145476, 0.33328448339954736, 0.8049256111169804, 0.017853421411711777, -1.4810243040105815, -2.9186301865811464, -7.489493978531884, -5.097876565453763, -4.646622883683027, -5.334623078912994, -6.4024204420881645, -5.707969655366269, -5.391580269963572, -4.671153700938146, -7.789117098627613, -7.774425677750986, -5.914479648693602, -6.627508511962613, -2.1254408751925653, -1.5437262388855262, -0.061204992417057125, 1.159491261893906, 1.4128090951861683, 0.6622915242535069, -0.18342342767996916, -0.23793395153204464, -0.3497388080795376, -0.2685268991928384, 0.1545561066647945, 0.8013683739313688, 0.6095375594484932, -0.2572705822113892, -4.35647980278865, -3.356438219665295, -4.224111697614885, -8.692357216977973, -6.0279373544813035, -5.523549706294827, -6.746370419969828, -5.0423665073395885, -6.0478265371202315, -6.320332831493238, -6.646138901714876, -3.9722842157392955, -3.737732542264891, -3.98348894845352, -1.9379816038032203, -0.7598248588726604, 0.8571814340234468, 1.5490209738698726, 1.09738433365111, 0.3602660788916676, -1.2109340632393564, -1.3159176198695992, -1.75035897112191, -0.6319680284255749, 0.16048269675167345, 0.852969773161964, 1.1677651334074453, -0.04212757196525468, -0.2878614372972658, -2.229650922250146, -5.575645512953578, -5.090293662793508, -6.2911054406461036, -4.592265840311502, -5.406574480728199, -5.024645328256102, -5.566804943295867, -8.38548658916004, -4.453962754378317, -6.780487744163626, -3.265097848851023, -2.4067591708184586, -1.675882972652816, -0.030041812520236372, 1.485082469603843, 1.4027064676425423, 0.30664929397338747, -1.065091883690922, -2.3728483922691077, -2.443700367300952, -2.101444995798121, -1.1807844799856837, 0.21950719006408828, 0.6748416936816131, 1.0620074678678357, -0.05095316922934436, -0.6244041629394496, -2.6046620516253163, -3.952278453510427, -6.527914913107432, -5.98844454692032, -5.4396976415799205, -5.135002006246281, -4.494937857193729, -8.088470717300156, -4.506257475920604, -4.981456554530107, -8.23621919251485, -2.744778884698342, -2.9375323672032714, -0.5305013109911435, 0.9076060571421338, 0.8897240918591005, 0.44483503972689087, -0.6976058473696007, -1.7495705320811312, -3.0213639721735195, -3.4284630226745123, -1.6233943687745065, -0.6645104694821513, 0.7150767204261644, 0.9588561775468807, 0.9067067595160669, -0.7476727551070825, -3.6077797603813857, -3.149127968812268, -5.357701340220396, -7.184041752726358, -6.7003253879449804, -6.234516223409201, -6.43559114211501, -5.502887940291467, -4.787621047994789, -5.08495862634392, -4.640688476988535, -6.53111513886974, -2.093107889962832, -2.5117482142920458, -0.18849384982597042, 0.7617018418746089, 0.656621170466685, -0.4636048252894801, -1.4392371204557501, -3.358618515174365, -3.081345337800801, -2.7764780059735243, -1.182846204456065, 0.421329403501916, 0.9276288899975358, 1.1948551988257954, 0.20449895139776295, -1.4190307203275632, -1.483383022172323, -3.085103982346954, -7.2337795903512525, -4.951878323514802, -5.222131411357887, -5.0894056351203165, -4.925280301239497, -6.436179895949351, -5.598392046881052, -7.323072285340078, -7.226387495402606, -3.6577982965677833, -2.6417658435385865, -0.5461365760623164, 0.3696763154006506, 0.3848684815190282, -0.4891269179509257, -1.0228667887994125, -1.4461533858392803, -3.055962755870865, -2.99444253495776, -1.45344378889407, 0.014256110459918677, 0.9996347012927357, 1.2478249578196237, 0.49371232714362157, -0.3262792555809175, -0.6858297913911748, -1.2888860255473436, -5.826187622895951, -4.545526980365373, -5.3266563827667115, -4.6060927274368, -7.469012910073486, -4.762159692654552, -5.9035046198078875, -4.765410306715174, -8.01680118363599, -7.212726498979819, -3.01995184956813, -2.3224286093409763, -0.5412871442564334, 0.5070757199102951, -0.12185404437124878, -0.5207796548314596, -1.3001216373990783, -1.2241392741393304, -1.6893916340118744, -1.3334082166142163, -0.5524287715617531, 0.8184764674046594, 1.2975083483862007, 1.2459732471628084, 0.17237054725205095, -0.2919994979114241, -1.2905772864766638, -6.510115703640877, -2.5713532252545614, -6.366237139864467, -6.345344361021543, -4.885524038969327, -6.895296158274068, -6.351028693822357, -5.966853822674435, -5.54588326223445, -4.85209465766828, -4.365255356627731, -5.23089916402934, -1.528889962381432, -0.9042872193002094, 0.7130897378664147, 0.16488468563232306, -0.2354243019207681, -0.35383822249249813, -0.6871704587917319, -0.4816496442407128, -0.388680600615399, -0.02474448016346673, 0.9566006462675939, 1.3689060902844623, 0.6699423539829361, -0.26465024179749536, -0.9147905515519946, -1.4216689958025817, -1.6389181142402933, -2.298917720286592, -7.527052967059305, -5.141833617086804, -5.442741669692913, -5.0614947445465255, -7.256022939181917, -5.902608176816795, -7.255426098280809, -4.789727282217349, -5.95551765802691, -2.1939375432974906, -2.3130846648487684, -0.29691158709968907, 0.7459630648794405, 0.4801071352189345, 0.07685771013844554, -0.5551027199230738, -0.5346232091239933, -0.5129711498348913, -0.15097757685905527, 0.5229223349479049, 0.986945120155772, 0.9355902406942019, 0.3680086637265007, -0.21458699492782388, -0.2720238653840798, -0.6344313951078429, -3.6296490711176004, -2.8595370908283804, -4.89542804700247, -4.4702228729297255, -7.427888105888592, -7.3516948629546155, -5.471278223388094, -6.314227089889253, -4.955888242882357, -6.531154517494559, -4.414601580130534, -2.3510543551486243, -2.147855903906657, -0.2287023634367716, -0.05895344376918301, 0.4809160666069219, -0.10475861984606576, -0.04696311685904689, -0.9507644599748788, -0.6824147989793508, -0.14548035164698728, 0.5419939280400967, 0.9541545344581637, 0.9537767358582555, 0.0032790342579820343, -0.2872788284515112, -0.5858776562304884, -1.245064966471765, -3.0332248300079914, -7.717873656366804, -7.888651316238306, -7.3182640491543625, -5.246794920441582, -5.735433906751797, -7.5121272193747455, -5.960769257746914, -5.68801367331232, -4.889020540014762, -6.265259781765538, -1.375543995990978, -0.28989928043829805, -0.9731629908512537, 0.3883110374352049, 0.09199906344749052, -0.09411643173502018, -0.6717895051071308, -0.6495668201009579, -0.8146273381115283, -0.005346875415773893, 0.8295715802936511, 1.14054738109148, 0.809476936699053, 0.0193926432170035, -0.6269024364119768, -1.6580487648444087, -1.8920128483280436, -2.15509603894962, -4.543765377789592, -4.34613793299382, -7.0073561938775395, -5.711937844332251, -4.967232435900234, -4.983456332488109, -6.891065204477384, -6.0420726943667855, -5.459841049136011, -2.7509409918456793, -1.4521143279425037, -0.7099367454176057, -0.7865348883129741, -0.04122279027034345, 0.00457126376561885, -0.4272277069804357, -0.7057732144437763, -0.5798721607904842, -0.5358824632941872, 0.2300275933100658, 1.0559800325936268, 1.0891109243653991, 0.4826999249952696, -0.3055541985411588, -1.0740739477173826, -2.1929320985914433, -2.9502737451539858, -2.9763590536261693, -3.9000167281903724, -6.39156019197278, -5.019701399062311, -5.26087609657512, -6.128332557904396, -6.610432109861869, -5.577469237963971, -5.059458193803338, -6.43449853286495, -3.4079687420296465, -7.36848180286139, -1.167210625288415, -0.09479565848673774, 0.013773979426015241, -0.03666974896836269, 0.07972110758916442, -0.004410624503779787, 0.19222830014976094, 0.053827361836583536, 0.4475376928702164, 0.6316607112757141, 0.5495407966789272, -0.052785936262000864, -1.1817557233398084, -1.9120895560302167, -2.229482623595806, -4.210594245204151, -6.39157561191698, -5.397165630343381, -6.222562683112439, -4.418458932992476, -5.857564573799125, -6.256517288112827, -4.799069961921507, -6.14000093732161, -6.165614603462296, -6.396679879596038, -8.260360063975833, -3.2342401283448514, -1.7490731605580339, -0.3788753371134684, 0.018927699433596613, 0.20839090100141092, 0.3660442884477325, 0.42087702540141175, 0.38378069866723885, 0.4935509573282021, 0.5833601879348597, 0.026171790781735406, -0.6019923896114608, -1.4338420321373342, -1.480946883106742, -2.840495273611658, -4.253805243879224, -4.09455610757957, -4.77854224688554, -4.207305832959382, -4.4142073031415805, -5.2216369761616805, -8.013151420088805, -4.9784485941426, -5.245627131172503, -5.611113769254487, -6.3543523471258965, -6.823159640379581, -6.776507629560248, -5.0462195793837505, -5.713385617963571, -2.249491762532401, -0.6803946145764759, -0.22480831139855373, 0.15615381985724602, 0.5576882601206367, -0.014348426548335552, 0.05934683655669013, -0.3087378026556272, -1.3817726355008648, -1.8971806708142067, -1.8576540821046783, -2.8912738747461164, -3.052121409732138, -7.081238754168211, -4.811152463256383, -6.9390878547952335, -4.4699141430203175, -4.914381203426347, -6.2801644093069955, -8.70845760388943, -8.154278612684067, -5.573991109293815, -6.9354274243895855, -4.636687227790265, -5.300687451664375, -6.446834959803385, -5.98801856939843, -3.666624496159573, -1.2946292819563374, -3.9710054110707613, -0.8875752157983148, -0.617398057101442, -0.06880546837336797, -0.45753097188408876, -0.8557633515182232, -1.388891423374191, -2.342481929369021, -3.053341630093313, -2.6608660504642887, -3.540365751326309, -5.933430528936109, -5.304673530928408, -6.116931036845136, -6.056687696111252, -4.6259484113854334, -5.70558565988491, -6.218089767785489, -5.069928254758675, -6.462077856879761, -5.626176226853679, -6.9781592966085935, -5.991342773572735, -6.75652879768556, -5.8453917663286425, -5.031338160333478, -5.8867939607034545, -4.4220247749525905, -3.299722036659861, -5.823942373775812, -4.3970071641110655, -1.716676901244415, -1.7379174646655557, -1.9069043192072128, -2.2161386898725177, -2.6077897719669862, -5.518144124495177, -5.167582059358907, -5.720653439310957, -4.357779772764515, -6.6634335354461935, -6.084191013297274, -7.694399729386671, -6.654904887806971, -7.790548929280557, -5.997703059802748, -4.950699067737304, -6.339121281940481, -6.931791006600332, -6.4077777538431775, -5.862450785455384, -5.817367592627991, -4.984656482723643, -5.596425940064214, -4.654081530679059, -4.745504305952552, -4.465242947784517, -4.1309313787395245, -5.609916436081478, -3.7931130536104143, -4.169591729613858, -3.668411425556634, -4.280959844700001, -3.6516839103385816, -4.690875015375844, -5.2831882295711345, -5.90686975384677, -6.227666772487258, -6.150433290158365, -5.138362407095046, -5.002613991883175, -6.051930956357092, -7.206226325232405, -5.3821246663267805, -5.228275398151405, -5.492231778787339, -6.253308164870204, -5.858741690154369, -7.1038618805192115, -5.899550146623059, -5.549419352466029, -5.499111505760716, -7.156056071988972, -4.438087773675613, -5.25104687326616, -5.078197443990239, -7.29702865256251, -6.53649412051329, -4.56507471985925, -5.57967305438777, -7.452133590431963, -6.991544403297933, -5.752174109467944, -4.534945380467423, -4.925836119022867, -4.6335588947448505, -6.14203494276571, -5.128596479519376, -6.618931956066175, -7.081640646730917, -4.880015522051688, -6.454968609829338, -5.140998834978767, -5.2907118522695145, -4.986780541320799, -5.158982046882305, -6.386417599201238, -5.9054065795332065, -6.400934870458029, -5.397782724820973, -6.501691420379985, -5.03001811737246, -4.606448698890053, -6.309826402634148, -5.708610464727947, -5.770076410625873, -6.605366103048636, -5.601422251878789, -7.454158447894005, -7.342248076987653, -5.26417571052207, -4.968816719401735, -7.904318085178274, -7.738374737499237, -4.671590551644829, -6.158882002681438, -6.7012689131007335, -4.608450605468766, -4.8906985782030965, -8.30548953019623, -4.70988253657426, -8.497349664053086]"
  ],
  "weights": [
    "[0.1448561968290123, 0.46451434821995286, -0.4291884948040702, -0.03468880087383219, -0.21490351182007228, 0.38439933939764515, -0.2558770529749025, 0.10091127417181123, -0.23157801367093878, 0.020881751594083453, -0.4277420073683338, -0.3966772263678875, -0.12974888515766436, 0.30809028815917183, 0.3795801654730402, 0.4088584722680867, -0.1491148953491852, 0.30615949766648776, -0.09497106449077397, 0.23942424467611456, -0.4041403269055428, -0.19024679921788112, -0.2958575355361851, 0.41594591970498995, 0.20439470476054888, 0.23456288586675678, 0.37408963547556795, -0.3434861880416169, 0.3363705910435739, 0.1484692215272777, -0.11119944666771664, 0.05214313156655892, 0.30696138563244313, 0.028441783763205452, -0.052390107000144195, -0.4160923545049586, 0.2689699315199078, 0.03275721784952348, -0.40608598447031324, -0.1733516167407337, -0.008592724610210184, -0.3659310677633847, 0.27638476660668226, -0.32246940170077715, 0.02205108439949388, 0.1795242031050322, 0.3522684384323544, 0.4405622542913031, -0.04638601636110916, 0.33469577167138287, -0.40722673469718307, 0.016994881428440967, 0.11804021174836998, -0.40526888922198434, -0.4776802220234314, 0.22435127576712177, -0.24361706995130494, 0.00480471956109485, 0.33176998647381006, 0.12263922104813707, -0.3907598183609927, 0.4228359478320311, 0.23420549398922105, -0.21338461124098262, 0.4537493361559646, 0.051321162178242265, -0.3180337247997799, 0.37657325505183614, 0.22131944025873496, 0.16980163810304094, 0.44810878955952815, -0.41510636718326754, -0.2912844379166671, -0.2827266709131717, 0.12638202485034294, 0.3154137576899297, 0.16604901584501194, 0.3488939859564648, 0.34541704244666027, -0.3407504791470247, -0.3980593978304788, -0.1389343028508292, 0.28257762407085796, 0.3224414895099985, -0.10307497240779262, -0.2820107355298793, -0.21487823390512328, -0.021937927512160393, -0.112823197166482, 0.3205054026061214, -0.21741621350129414, 0.006911066756607807, 0.3382024719644085, -0.22083248076537276, -0.4923612768631079, -0.47176236577418534, 0.20410386822806179, 0.018911393778954195, -0.2813043856106024, 0.030914106821283146, -0.3649755948173476, 0.09038353111489829, -0.13337179020623055, -0.07746647905782866, -0.0364069777139613, 0.10266281603234387, -0.3884749168507898, -0.01861383754588796, 0.39058633714603075, 0.16135102374378507, -0.16754731196982872, 0.4898363584342188, -0.3478527510955217, 0.06678538902641862, 0.0470545862686047, -0.27134089789810917, -0.36164714877869975, -0.3261212217675394, 0.08571654080472783, 0.4387065537995684, -0.1972488652463531, -0.07731870849117828, 0.46824214857681085, 0.0562465970934961, 0.18015587245058176, -0.2501467064024085, -0.09866423922879138, -0.39594445014345714, -0.05430244506501375, 0.1412877842637436, -0.20881490323892812, 0.3732113293738725, 0.3041419116800736, -0.29099993367203864, -0.016796996996570283, -0.17771489307911076, -0.4201694138988914, -0.08857495058911345, 0.2602072163082484, -0.0921167020206135, -0.034899248800694505, -0.383996604889669, -0.2034818632380227, 0.25551458716856734, -0.4787037986227359, -0.2255020389115152, -0.32791431474050337, -0.13774124474295868, 0.4361843511390907, -0.06869493539257858, -0.2508196318397893, -0.31885358161476335, 0.053455578099034076, 0.36087279716559223, -0.5522253142606091, 0.17378370376346097, 0.21828246474330845, 0.3594773947924255, 0.16439802291815725, -0.002221604060843922, -0.3729847330555093, -0.32096140165167014, -0.2198931685812914, 0.2460536655095764, -0.4266193473762236, 0.17681827542333203, 0.2360615148260471, -0.4959318318352428, 0.30593831529959736, 0.08412105441392392, -0.29935000717831745, -0.1885105880832726, -0.43568551211451506, -0.1931354472416686, -0.46979767885983814, 0.08497851729276486, -0.20729243958763446, -0.00984300767145574, -0.4252136438349236, -0.3203152956404514, -0.4235252007756723, 0.07237675570526765, 0.3210127749445416, -0.03395455839919668, 0.3029195613255436, -0.21708785349270376, 0.06860462829820599, -0.4099643020782421, 0.21383839727183523, -0.18944825989722267, 0.07846564298362119, 0.13215826823476937, 0.27558378308374804, -0.28246949846856745, -0.16411597065939523, -0.031553615899677326, -0.3514852715703194, 0.49700561622920075, -0.30527042928078846, -0.10676413965633207, 0.49011612113153663, 0.40859622453620137, -0.4904193609824167, 0.0034713219038337772, -0.15063851815910148, -0.4913831208197371, -0.17981025605057674, -0.07091175475208204, 0.20728813368589571, 0.001245783999582425, -0.43891381067500623, -0.29513738250217203, 0.3323277973207123, -0.28682066249694066, -0.3350247505156349, 0.15730983871176432, 0.1325810795928727, -0.4065030473965549, -0.47928777660362937, -0.16472053925176616, 0.39781181662229703, -0.11770625675420313, 0.12684128503811595, -0.04990548700051089, 0.22190216232953353, -0.29293217038082964, -0.14112114339621618, 0.27440116330268993, 0.004938175546679744, -0.09876646841006119, -0.017768722949525535, 0.13438127400290273, 0.3968892908427094, -0.3685538056057621, -0.4377525075034325, -0.281800195902606, 0.3069306671058811, -0.5132680258904758, 0.055932944839183714, 0.017030934500891978, -0.13338691283713597, -0.13475178455216555, -0.41329973668056935, -0.41937675897087895, -0.3375186938413917, 0.38730731561309856, 0.1618607750288981, -0.06060821244360839, -0.09507460122167848, 0.4599392189648434, 0.24351300171191165, -0.11103508109669012, 0.05875440087629058, 0.3510634412952595, -0.32675557283670514, -0.29199828321317994, 0.13566016189383187, 0.1019301971308392, 0.04462973595074769, 0.41369652320700323, -0.3772403714424923, 0.14090052727039065, -0.10577246032372557, -0.4617422082129459, 0.2870261488321578, -0.4900695058576755, -0.2905762419314379, 0.39368513335966016, -0.2075885809031821, 0.22057739583431815, -0.0036060261358355316, -0.3344359012071338, 0.2943412089162136, -0.16998889998674238, -0.08847983969570837, -0.36933879252491836, 0.41157643116597514, -0.06998182295479828, -0.09651199918607689, 0.2766118509535237, -0.03522989280348078, 0.46437981263670847, -0.013213569366722135, -0.1071082775871054, 0.18824603138887636, -0.24467213230422044, 0.4192515170836651, 0.2612995775201124, 0.324905140388186, 0.2009696430796837, -0.05729587642640349, -0.34405131695893565, -0.009165810606855578, 0.20264117422105787, -0.4440584198675635, 0.16830000399124823, 0.18545262459545878, 0.12026266694371625, 0.05876333859799463, -0.13338725703002838, 0.11966242998945043, 0.10131922788030245, -0.2930472305217724, 0.2671262646960513, -0.4703141382738754, -0.4918445511556084, -0.19124522250757314, 0.32247289066556806, -0.09696447453689461, 0.20243463888471777, -0.028525789067005532, 0.16119265073846784, -0.3936130693927449, 0.36588332062473294, -0.44275567007980693, 0.15997728878312947, -0.29029460814392277, 0.32853439706607185, 0.014987816180333954, 0.045977047672854404, -0.3629084368874521, 0.3723439714785152, -0.2118066978743333, -0.07192675103383002, 0.26493007736877316, -0.010473424294938243, -0.09252806358071758, -0.5285792649831084, -0.11976217202307526, 0.122655855334292, 0.21533235755893332, -0.44874156294253825, 0.15634895272037813, 0.4654569504270613, -0.17232462271336427, 0.1446848343279925, 0.22042197867118352, 0.07052817239079458, -0.4909410896119357, -0.30073785454602375, 0.29083458288969133, 0.24653583868450898, -0.21884568507660138, 0.3020945807607249, 0.3985161917774923, -0.5323902702821953, -0.16114881527024602, 0.3967755749608222, -0.24804069517520522, -0.3192520920924362, -0.4900578047706737, -0.48627234870301905, -0.055707850501916706, -0.41217413565266425, 0.261860988956745, -0.4329720578196717, -0.07922017179531407, 0.023052159382775245, 0.08898374825645482, -0.18588608646732285, -0.05118130781674455, 0.2204496177548973, 0.13845576411505142, 0.24867011844307418, -0.07596335288152922, -0.05434615159574713, 0.4115463357311906, -0.3289295299312112, 0.25766109355891254, -0.20530270020542307, 0.1690457002530553, 0.11163724151084542, -0.19547422996627928, -0.07729210697560467, 0.1094705614172629, 0.35299713740739147, 0.3663444053311304, -0.16861346378022257, -0.0781157086629053, 0.358538081179338, 0.1622172588276945, 0.35385511022469485, -0.020611690247746842, -0.008128304715343706, -0.3912989741999574, 0.42605256975540406, -0.16790853894126775, -0.004408597983854509, -0.4879900682168469, 0.16189082823607284, -0.40809197047299883, 0.11332072836497031, 0.07318278166474834, 0.4383000715645651, 0.3414730639951396, -0.37046182874901845, -0.01477816686931543, 0.15317113174711539, 0.28971906581085055, 0.24885272911345227, -0.5184174990461816, 0.22910651431539034, 0.1292230410846109, -0.5223517274215607, 0.26399904684468234, -0.0440559862274231, -0.10885153471751653, 0.12242739551686997, 0.1251780700500696, 0.043011742018173156, -0.00873405636514997, -0.22903355039214066, -0.09878108697008518, 0.33920486580728243, -0.42602472248095136, -0.19762733478068198, -0.4077598884410155, 0.005085031443943365, 0.09127561242444891, -0.3956970488482433, 0.41152684508438464, -0.2280367641595875, -0.05565347785902693, -0.1614977849088248, 0.04171009928306062, 0.20434924206253466, -0.21529608989660456, -0.05651684867333579, 0.40632172344197015, -0.45833643216172004, -0.3548564368389388, -0.48417017137114615, -0.058724318899385626, -0.009858226216547007, 0.2119433763654706, -0.4983272099302298, -0.09494181929356457, 0.4113535260366419, -0.49045860016879955, 0.2730311935451173, -0.1979837194805435, -0.26363262129439485, -0.22971045820101613, -0.09171336420157176, 0.19514129746787098, -0.2767224753232274, -0.4618528161122985, 0.24930646702953865, -0.2620631747944585, 0.3655777088389505, -0.24414295146246207, 0.20574250740369987, -0.24037644684344803, -0.4557053459937958, 0.30220532551402157, 0.00525268924493376, -0.11306874414433185, 0.2834647873799445, -0.4228127130058372, 0.29716783261908447, 0.2614232316698733, -0.16617140998917335, 0.09950109873273104, 0.38068318635810167, -0.37964711845675825, -0.36012408941507873, 0.02203837775409471, -0.5216903238284988, -0.03468723590855774, -0.4250818249394876, 0.11922280209415706, 0.4107552602988565, 0.08351802930498398, 0.3214356576900959, -0.27358955887414316, 0.1255441258368368, -0.3626992085757266, -0.4983092456012831, 0.19495892894581665, 0.23578575620636832, 0.14068861382342032, 0.40207055072097747, 0.3373274840940884, 0.25991267517991046, -0.04785464607604103, -0.009287448059805239, -0.26049092915493255, 0.026520954340130177, -0.2690582999504221, 0.048475589594497555, 0.25354917237183183, -0.5466614334300282, 0.047467769863901034, -0.4920587170451086, -0.4198450167897926, 0.24666523606392227, 0.11909507715612302, 0.2018622915620149, -0.1843693105670616, 0.0519615023005974, 0.27484540975796284, -0.09581882450323015, 0.4709931496893046, -0.09434096358245705, 0.1972950936156206, -0.20963233160717243, -0.36959059168259756, -0.1737674967547308, -0.09695545550360342, -0.4433246432531497, 0.2664942653074138, 0.340948748327907, -0.06951597107336221, 0.17957128643726347, -0.12386801347952801, -0.3211516435648132, -0.0754295025723251, -0.04682822634097714, -0.36213506670447293, -0.3325738933088459, 0.39696132193655326, 0.048768462621656, 0.4074414224866338, 0.39037752581002166, -0.1851271085076783, -0.5166027633085924, 0.048901282229844634, -0.005336875416047961, 0.46783834860324297, -0.3439921497356466, -0.4922337720900029, -0.3086066551303027, 0.30045789532481615, -0.23283201735947887, -0.037077419175251744, -0.3190150808444116, 0.42978977535574786, -0.27273353115163934, -0.42992810029923595, 0.17977506161104184, -0.162355324001125, -0.1169006945997372, -0.36550898816175265, -0.2582594390730329, -0.528433043738284, 0.11022229454346064, -0.056445286942618855, -0.1549327097659478, -0.2914683186264404, 0.07494424438667935, -0.4409089149589239, -0.25502756003479005, -0.4107008131057301, 0.05389812504899625, 0.3284141063161517, 0.04759301072014682, -0.2700295585319209, -0.1296155710238155, 0.2426889860590931, 0.17222501091770603, 0.3995239740223576, -0.019783399329760525, -0.4307123944073093, 0.012786336953773852, 0.29193220490398925, -0.3535492364833307, 0.35130075226676927, -0.4631840461826417, -0.036513705957118926, 0.34511461857728815, -0.009746920387104611, 0.031949379007937685, 0.2105216942293606, -0.3143016580684045, 0.2661168342833821, -0.06958190014904603, -0.4480607270517477, -0.4923813576306411, -0.5473755063340153, 0.340117396111022, 0.22834361020638858, -0.29455261381283654, -0.23552472075736947, -0.3881121469674685, 0.17709139673620575, 0.46017504495748224, -0.1519822932638355, 0.023181506643986993, -0.17170457979014242, 0.2548846029214551, 0.23031307736711418, -0.006039990771015923, 0.0697489297853093, 0.43039711948523374, 0.19250266953045916, -0.01904711646015164, -0.06471564899697425, -0.5232626144206876, 0.2767638064740526, -0.08208824950698432, -0.28180244270954674, -0.4933259607543386, 0.37152726039277406, 0.07478130991991822, 0.1305142103233886, 0.03049108280411614, -0.42651166681585256, -0.21001628947506024, 0.30652163749983946, 0.16316160443499733, 0.27010838832522277, -0.20141947204863928, 0.270890915251488, 0.28259586885466903, 0.16797179867446957, -0.41137816085407486, -0.492183923500615, 0.0648418426234385, -0.05345946250820163, -0.3326614724316327, 0.24450274614656758, 0.29117031554445266, -0.4746723373492471, 0.367526295315404, -0.4546295266626348, -0.2056487993675228, -0.18545271775505529, -0.18713958402701844, 0.38244995030719975, -0.16906261599932934, 0.1364722083620511, 0.36440778224526377, -0.21148795239687482, 0.1575524196738657, 0.31278368843564347, -0.020578890299086015, 0.10103179998450272, -0.06429343523944296, -0.39257108415316794, 0.26185982392441665, -0.26453059085153086, 0.47064713183564105, -0.15765654727469325, -0.0450810729000255, 0.06613010009762788, -0.051653801475005624, -0.05683263304406273, -0.3526835923626732, -0.01824232778199016, -0.056120150511857717, -0.14506318458317685, -0.27671969268762614, -0.003302601720270966, -0.05047886650353114, 0.3659500135165418, 0.01585924831124673, 0.3765396613849627, -0.4093723128083793, -0.19386638691471011, 0.07778156015159177, -0.2006443083990969, 0.20717095652283887, -0.0982953988971795, 0.21344565532691984, -0.058785702552697085, -0.21242552503038822, 0.043900567767468084, -0.3216126565602067, 0.4218697866490349, 0.3418321571997439, 0.2677918628566942, 0.4802012836784101, 0.07073572938755812, -0.09541899224663064, -0.2255302541042914, -0.31782698949326593, 0.21351416665013445, 0.046143076897288526, -0.06840448191119779, -0.37380550140187263, -0.47994489408515223, -0.18999947009009374, 0.4300299920661183, 0.29645953404515957, 0.10344258459484608, 0.23686953143477135, 0.1093810955147739, 0.37283345593679207, -0.17878662441812587, -0.05972079054622631, -0.4329117288071284, 0.4622608219703387, 0.386509894463911, -0.03127256812697007, 0.246314196537675, -0.011414620188785023, 0.017330589007940066, -0.21884903654166046, 0.09330504799627393, 0.36452291593509656, -0.2310246382497343, -0.3476174134448, 0.23787663591461716, -0.0452878163097208, 0.317959793170024, -0.43351288308869596, -0.46613720860403735, 0.23416688712705747, 0.4884013605045402, -0.06126402839506599, -0.3592031053367404, -0.0512355160296413, -0.3210045644339649, 0.314820077607218, 0.34900943839745513, -0.47996372511801555, -0.4848178984783562, -0.5022334759475655, 0.4854015701119454, 0.1934784141795743, 0.28754634999967, 0.3695543972650928, -0.2785876034093657, 0.2802177610493061, -0.40985121224445314, 0.26171599577382326, 0.20601342286303748, 0.23060412273175024, 0.1505568107748776, 0.07055187762126558, -0.32339312001352305, 0.0008435425306625444, -0.2253143848580169, -0.19983612366680656, -0.14642698111197866, 0.40217417964755053, -0.2899522326230839, -0.26272504841654826, -0.10637883069082513, 0.38167044764084784, 0.290651281438499, 0.1615236833948228, -0.24903104018293223, -0.09178140170893326, 0.022253031262156643, 0.3605621817706107, 0.30084164168899485, 0.010147284105159046, -0.4567772095228537, -0.4028053831257866, 0.03720452043243833, 0.36120252196563785, -0.4500108891608523, 0.08523972785585165, -0.31685457536767325, 0.24333348401420463, 0.03400319045200051, -0.3194921795908171, -0.16753962660841581, 0.4176404230568612, -0.13618162976892656, -0.27797946874031565, -0.09874806552918683, 0.251838399435993, -0.07938392604196375, -0.09288357528607206, 0.07819326414539239, 0.45198325608699225, 0.4565560233140141, 0.02773561021039549, 0.41607301436938354, 0.129403201203878, -0.2989620913131095, -0.4496256185893348, 0.1929650063841293, 0.005316074040485941, -0.1856324988119382, -0.3319286253902306, 0.07685903362696656, 0.22677736565245976, -0.3708692055964866, 0.16422790605144255, -0.07008101304356495, 0.23405572429775434, 0.3413266649068082, 0.38655136048879646, -0.4267592715994405, 0.37351857595501636, 0.1314002785263636, -0.36362241367562853, -0.497523029036934, 0.3090824387632205, 0.12659035372069394, 0.339651758971368, -0.43024124177300505, 0.4548051132026554, 0.04172499383205652, -0.11021810255705844, -0.35706416140115516, 0.04872202529169967, -0.35882754192025246, 0.1312974240568947, -0.35164483838065297, 0.3401243989853576, 0.4890390789055127, 0.24380374760346735, -0.2615010716165871, 0.1754960117039609, 0.3638868417671157, -0.22120420557246911, 0.1993852110027261, 0.12282369463786236, -0.3199317570403444, -0.04999255678285075, -0.40026487444525904, 0.4959283142591696, 0.0527720618723202, 0.4233030807698553, 0.31011358346384843, 0.36290473823451763, -0.17332093591276893, 0.12421271130487233, 0.2016434217389626, 0.3461032633908061, -0.23550613241077087, 0.05285829802788579, 0.16629511373035952, -0.24750914211190578, -0.4888464997168889, 0.15496176431838316, -0.19445483923164128, -0.4012141887799615, 0.22131359153543148, -0.035155396058528576, -0.3361114178462047, 0.03638899826662467, -0.008268756572841984, -0.4740397530407009, 0.03407709136077397, 0.10390143013578068, -0.26013711941282835, 0.06797205181294563, 0.14016930969201868, 0.1907411201387187, -0.2500148411872679, 0.13239458773775206, -0.022862204788861824, 0.2917428651228271, -0.14251265925624526, 0.07215182214763365, 0.23661814161848635, 0.3772781286980791, 0.2781660265984694, 0.3584214007556182, -0.3338513243377099, -0.04563738742046596, -0.36510367675235844, -0.4352318493904501, -0.32697166704330977, -0.08070017704882751, 0.4207230134576771, 0.07201472515533121, -0.173613999014093, 0.29631154909581114, -0.09859662807714083, -0.0974482237918296, -0.12587534421795044, 0.04112154187410122, 0.3333130084140734, 0.4692900881089558, -0.34045984264416307, 0.49171466764049965, -0.32699325171457716, 0.4714752788131196, -0.07879738875563201, -0.4346963120934007, 0.1359702880682027, -0.07830725035463963, -0.13454256576758372, -0.2843749608246565, -0.47636257652298225, 0.19830938745764676, -0.08929109507036011, -0.1530550721097088, -0.06994433681662535, -0.3867872732336036, 0.08402709800448435, 0.2703105663285976, -0.30321393249637496, 0.38768496504757993, -0.01735665416358004, -0.16790108584718594, -0.2516534143307654, 0.023283162156472647, -0.37044888957120775, -0.31361862404179586, 0.3971287751203627, -0.2895582248384362, -0.2888668181401942, -0.17512439708268812, 0.39371002765098045, -0.03976077820411418, 0.23069475530383826, -0.42900241159686686, -0.37611852144757596, 0.047434923186337984, 0.20293241675911522, 0.23748601531500094, 0.0049700583332736616, -0.36609336513198193, -0.3061902474668286, -0.4193987329408071, -0.31859323830121783, 0.0801778768740987, -0.00029553602563519676, 0.08414245714413206, -0.03604295189552529, 0.3753368716384766, 0.10507001559118678, 0.3161360483285907, 0.15693440978355605, -0.42888522013450825, 0.3066421010036772, 0.4559124437343399, 0.3947512557239149, 0.19421098987415408, 0.09940508745543936, 0.09008036649628183, -0.4732507498828843, 0.09437610534206264, 0.3432152896028356, 0.16396166417017224, 0.3630063720264466, 0.4692274107152978, -0.16677943586886176, 0.05889490112484738, 0.274579069656664, -0.4504800114378211, -0.173725354141243, 0.467212867529301, -0.3446512905799373, 0.16343561113815305, -0.33069478800959407, -0.42921927716776925, 0.3182456000208904, 0.2909870577240166, -0.03660165892292769, 0.39624556019073204, -0.012695086165960935, -0.21663101740867902, 0.1266755068343368, 0.3755721346144101, 0.3141343700627198, 0.2250454194431416, -0.0927418702417097, -0.03432250463718617, -0.45345526027132005, -0.06507494314597477, 0.08883234797264629, -0.0341484193119652, -0.304328409632471, -0.10962800492894319, -0.37045427664726527, -0.18295545876148417, -0.4160980608762926, -0.20935694425375087, -0.3760450945661748, -0.3678996059448414, -0.31968912463246935, -0.18009333578799502, -0.2716022480376761, 0.4530114376630125, -0.3535666191463185, 0.2744311290466555, -0.3328538555102044, -0.024421423869186845, 0.2639684458126904, -0.4433544709982603, -0.16340295346767475, 0.36942041924606733, -0.3177903834017417, 0.10605492344701828, 0.41062379414594624, 0.2347945875409115, -0.1655571162849585, -0.43190742523289055, 0.3385508770546155, 0.17657533993772365, -0.4512170697195468, 0.27643161574939473, -0.2783034023572308, 0.12970674568683302, 0.2073679217097992, -0.4134175445638013, 0.22918366979384117, -0.03199090307376628, -0.22624832576368414, -0.46609181230819974, -0.5164669511566192, -0.13476704941816092, -0.1144506491551071, -0.2386944912416825, -0.21469535980879476, 0.08553392598482075, -0.16977969050434616, -0.08263399900094764, 0.4681322122819808, -0.3525910492472279, -0.33839612621904247, 0.20738451372806993, -0.2815295197760798, 0.15504446610348654, -0.2260208384665191, -0.02942602894395242, 0.3558399430719365, 0.2570727599090417, -0.37690626569520447, -0.5311657412934498, 0.08476496718114661, -0.352056751392725, 0.26889892331267157, 0.13700046448576353, 0.2725218202277482, -0.13818070221690862, 0.2360349028978374, 0.34680803274866856, 0.22264247323324324, -0.48575175025151857, -0.4941571054397122, 0.4099418990636338, 0.46938852519575985, 0.2869100397184457, -0.3570945206389612, -0.04251923811466482, -0.3871566214136426, -0.24120932300311615, 0.23176971226165752, 0.4993603990201514, -0.4583660349363409, -0.21527907748912603, -0.06824784282530577, -0.2314473255773519, 0.42999555795176436, -0.32293691372400657, 0.18520488064267512, -0.34054027138611426, 0.27907303287804786, -0.5516614051305911, 0.2756381734333522, -0.20444123127707706, -0.1854919340510373, -0.18550088627111486, -0.06955353274946062, 0.1640639285276623, 0.16393949902788926, -0.5229836962732733, -0.00826310823362602, -0.4319472588724145, -0.26443948564582936, 0.03719486170335993, -0.02882615130131368, 0.0924795538532771, 0.16535952377486451, 0.025817523732970468, 0.25743121225202725, -0.15672516148704824, 0.1233845714326898, 0.2302268485907044, 0.34399168285064186, 0.2874676143520673, -0.24537716101917784, -0.26944416720485365, 0.16215709819863883, -0.0531988676043361, -0.16686995550831152, -0.37618275602238865, -0.23208952646196035, 0.26989726957388954, -0.13525074707365128, -0.5186353911839154, 0.359999151062116, -0.2884982560255885, -0.1342532768387421, 0.35514581489263686, 0.20527786943381823, 0.4480219760693265, 0.3338804381921599, 0.05541051252368082, -0.4258171813562516, -0.4884769988838971, -0.25862270824462724, -0.23908314073935874, -0.26918933072549744, -0.2110528705082313, 0.15096166003620742, 0.35753652717235734, -0.44014874413534044, -0.326600571055563, -0.31145814039562886, -0.1374932902737675, -0.2853215169902707, -0.47809076577405146, -0.08501335852874954, -0.45352620960418777, 0.29911916107814657, -0.12259294388308707, -0.00941804058661066, -0.15561789212029847, -0.5190860570915518, -0.49138276148975696, 0.07029149599743106, 0.00871972459760317, 0.3501722849271547, -0.17354087692711087, 0.22111125342895982, 0.3741321627121198, -0.2546078209113322, 0.11071542328560321, 0.46076536088798753, 0.4201486398952485, 0.4265897382710918, -0.0635933166144876, 0.1993448984043548, -0.39386443031950724, -0.35028533165589243, 0.010518005961594966, -0.3000189016056663, -0.39096085926113217, -0.056826425413816196, 0.08890090193315604, 0.001186565348848031, -0.05241816402930972, -0.2092107341745276, 0.37498992121477287, -0.24558747327250838, -0.3935161685641197, 0.12172582819340866, -0.11452940291208887, -0.39351513469884053, 0.3259354917383514, -0.4495800312853472, 0.32935991100519557, 0.23119689462077608, -0.037116876914709385, 0.07865709972612685, -0.26767220251275986, -0.44722835729942745, 0.01678197794638303, -0.2634538379197795, 0.21274867056142308, -0.06883349679399567, -0.25386323140144124, 0.008360011449211542, 0.2631617500610658, -0.35618302478125774, -0.3917228708413804, 0.18171085559034444, -0.013104841513029252, -0.2935468291975587, 0.13951712718435702, -0.020505200841082045, -0.08284685479151808, 0.09802144374347317, -0.3673097250160029, -0.11356877814943492, -0.2499157692005305, 0.4419994337652087, -0.30274508773164194, -0.4636761247870101, -0.42586938679666075, -0.14172097519783186, 0.06349479852989161, 0.23703141366618338, -0.3650329468301757, 0.3714176252753433, -0.3182496932307055, -0.25534048305306356, -0.33997290065971264, -0.30787519761526644, -0.41580223032356606, -0.4262591028424282, 0.049620948998603205, 0.3380073752230755, 0.10443865560098625, -0.10142903609421088, 0.18800007888617404, -0.3739723040126155, 0.1561350172980707, 0.11950177805248187, -0.34606180290368693, 0.10480883051491505, -0.2423295267785839, 0.2864580026107583, -0.2290752350989112, 0.03414619709150855, -0.4666605606736552, 0.44813936977286395, 0.1285253837418286, -0.06503991108592808, 0.416248938356165, 0.35822488727552076, -0.3153223883326743, -0.1534545011010621, 0.4946478206920589, -0.44748792230430434, -0.37516042762152757, -0.06209850244464998, -0.2948175637570075, -0.19982434133203292, -0.5080877849003432, -0.5033619157931903, 0.07409870824068779, -0.10981993427909473, -0.41615918884390607, -0.0989062470385172, 0.028952947706278473, -0.17659551922624508, 0.3539269726483778, 0.4231806909152185, 0.4269683275654416, -0.448309994343524, 0.02963887474736341, -0.562250975066337, 0.3322753797723925, -0.5230357638720692, 0.3856878482616635, -0.03382847643478235, 0.39920503925632217, 0.3109207227785467, 0.3224890674777518, -0.08342447155374447, -0.03410229155239813, 0.16800187552634305, -0.07600949377016572, -0.20489886732125712, -0.032535877317909676, -0.19002766183012468, 0.3170842636796351, -0.07925007147462364, 0.45103991967720786, 0.03282440337303943, 0.03840355635173962, -0.24530642110658937, -0.4044251864623804, -0.43779616687158185, -0.2690805905026248, 0.12090961850291802, -0.4875602808537931, 0.19123806561835874, -0.42675639519435576, 0.16865524469501128, 0.37503141834898296, 0.4518324353421508, -0.1297204695312244, -0.49191425430960406, -0.2684865898225592, 0.33954729901783487, 0.45696372589876083, -0.2987339874570924, -0.26979759334947373, 0.27149508743739403, 0.15072967550428007, -0.21445587202259597, -0.39545225236142384, 0.2207254685391014, -0.07940090621159548, -0.21256693679060146, -0.4775669541573286, -0.1061994078911412, 0.2964023512525748, 0.3544395127677274, -0.4033022233114441, 0.10026494182452633, -0.1603628505509413, -0.43002751432816916, 0.2591439169566161, -0.31492632771558876, -0.17634464792441806, -0.3667657207082519, 0.13564139602813555, -0.4030406460961068, -0.029591232761352605, -0.36953249438709923, 0.07042031685733736, 0.4445984710135482, 0.429078314931155, -0.05580362440740208, -0.3878232594019911, -0.025879495234222283, 0.44110765784702044, 0.25254107017415817, 0.020240392562587375, -0.2656466753297848, -0.3094250033612523, -0.025065120302669417, 0.15045082961599296, 0.21307758751866987, 0.08518320763923187, 0.17937539249157902, 0.12193903162397127, 0.23372182926380397, -0.06899956186014383, -0.28860207365194607, 0.4066477058939744, 0.21368593828003676, 0.1624055291934265, 0.3058363170012194, 0.3555555364960204, 0.10806817892500671, 0.017436280294973648, -0.3827280065772716, -0.14231831205912507, 0.2051053078182722, 0.12645059134033101, -0.33382203698044743, 0.10083894703681838, -0.4962379866758304, -0.26363717199089853, -0.09780571907577923, -0.2905143351379469, 0.2471755044005171, -0.14524810448479067, 0.08797589807318691, -0.009166113024084856, 0.4340593196185961, 0.15082950313510446, -0.16348331354418896, 0.027251130492615218, 0.289262870895768, -0.026759995122422817, -0.3089147974312202, -0.4349339970418552, -0.04605049735562124, -0.07244524948688515, -0.2077778275747784, 0.11873056208930195, -0.044526784069433896, 0.10758146411624035, 0.20836453360439208, 0.24166156259660726, -0.3588674892903368, -0.20983050581986507, -0.25951536410968556, -0.05185134817159134, 0.25998633373255486, 0.023825041578518235, 0.22121521984719517, 0.22150655244808257, 0.4236531049353695, 0.37816221856688254, -0.15401512671935164, 0.0891116892464562, -0.5064957924562751, -0.19340342690815643, 0.38171277612434806, 0.20299560567930366, -0.25063950825875897, -0.06384482649204375, -0.19103100029364956, -0.43049082821495216, -0.1953543747023077, 0.3026631091253216, -0.28525269110577184, -0.23574804023117982, -0.5016217544175955, -0.23299537898736408, 0.25284827549571404, -0.1656175497740998, 0.13495259258441153, 0.35854236342067713, -0.09992813116676633, 0.039710935029989125, -0.03845621758824336, 0.3229502830895802, -0.4010567846690257, 0.1467091971783355, 0.3021209177339003, 0.20547562196225683, -0.37699538101833047, -0.02343991229695008, -0.17575566868013479, 0.10812803348674366, -0.4494924313293563, -0.1562780774224843, 0.036345611100077974, 0.253044134248277, 0.28403772062394295, 0.17433764512197492, 0.1382130366921008, -0.35208311340322934, -0.1815063962292755, 0.10512283668005382, 0.19848905928529764, -0.24088882658585542, 0.31334958239395083, -0.05504462706143748, -0.33005549073906276, -0.046068246179880964, -0.35768575699951577, -0.15762158656984915, -0.13126392957767574, 0.2891542124002251, -0.48232962580222, 0.15811319377016625, 0.206833345688674, -0.2923875915796846, 0.23227179776643067, 0.21940541966378008, -0.019768067289202322, -0.05124542712326403, -0.4730234723120522, 0.23857009786691527, -0.252740619982171, -0.02535571017200505, -0.06313383672269385, -0.3264866122790422, -0.35129959541562567, -0.15677681303058105, 0.14161420036740502, 0.17667773096916503, 0.20542027261276172, 0.14321101896465774, -0.05844424918400618, -0.15374088839994407, -0.47656464031512547, 0.4602180356560197, 0.28148083841555344, 0.26549858376422675, -0.004448026787850612, -0.26140302806035576, -0.38836275049849023, 0.39525632641683844, 0.32779529282513664, -0.20139250911288417, -0.23512976635595834, -0.4394929491688186, 0.027396762138599286, -0.19562413099600573, 0.3426056902786085, 0.3690238414852449, -0.20100524816893287, 0.34657650933936646, 0.10395285377012696, 0.23789715555130467, -0.000448828719486556, -0.0656596389714612, -0.17155396192609776, 0.04952345383214149, -0.24617573218535826, 0.12264144586464731, -0.3359528435233754, -0.2581285477646338, -0.005725244725715339, 0.12839705414290067, 0.27730121400503094, 0.35753077435492364, 0.03181187049555256, -0.18029021919542865, -0.1664714419395955, -0.21112845663522356, 0.07112236680272398, 0.45300113809727993, -0.23925232129629187, 0.36559197521507486, -0.46508938101038966, -0.140153007486949, -0.28468592104192963, 0.16281700577468458, 0.39453970919086917, 0.3503378793868051, 0.36097731514113984, -0.3409264481218894, -0.47613787206450764, -0.37262552022527917, 0.12975090659399535, 0.08552209547817793, 0.397744389318212, 0.32815352981564083, -0.028489122674796374, -0.4054933219080739, -0.34320384792098335, 0.33466406367333323, 0.3142695281937584, 0.07287239203094864, -0.39482439627547605, 0.23067817649657363, -0.22184280316819527, 0.06764514703274245, 0.29863071381090517, -0.2089826878769947, 0.2771319404459586, -0.1735079211370397, 0.02533579910916099, 0.04158163806454205, 0.1785184225212267, -0.2917650682202902, -0.09360552275985787, -0.26196036375785586, 0.32101165791985714, -0.38937701912679634, -0.13576575745480696, 0.018608979841186722, -0.22553047166282625, -0.19418488641308848, -0.1537547631830771, -0.3708148061777988, -0.16841325291367962, -0.3707968890946546, -0.00858606102573784, -0.13598830178760213, -0.18860082486488627, 0.050967553458897474, 0.4835023598150432, 0.3971751531855795, 0.37138795242920364, 0.24953954614840734, -0.39895534317274967, -0.378804534398848, -0.1388294415188441, -0.46625731919694824, -0.09200440055260262, 0.057142375766695556, 0.0157001963752069, -0.04687206428910081, 0.31323913671678016, 0.17759767185411984, 0.4146118796685648, 0.3735584160391073, -0.18721509664137376, -0.08961966155311576, -0.1677234922645028, -0.1168909724416808, -0.1176571774232811, 0.25947185369637527, 0.41781510472895816, -0.06577254430178281, 0.266430869707769, 0.26963099222377296, 0.21838130454713767, -0.290618731136719, -0.3792924671687399, -0.03490442646987357, 0.12250595500437755, 0.24051452295257647, 0.49665511601144285, 0.21468636296544485, -0.4042450479176066, -0.38320456955976134, -0.21866919672025048, -0.21813497946167681, 0.20653399457464083, 0.4229306745444044, 0.4000528219270591, 0.17187370357790793, 0.11507041789590589, -0.01256372875427343, -0.4626137964039099, 0.04460577237136099, 0.42797483645251827, 0.1578166160466643, 0.025995312454850088, -0.16782995713245213, 0.39183225894291496, -0.1865059474248688, -0.34071854504672294, 0.4142959926986083, 0.1867437869488051, -0.15378153044729892, -0.307401243051179, 0.13999266162512725, -0.1304672807669479, 0.33039552280916706, 0.17598417304038594, -0.4468639018892273, 0.07517116277369917, 0.43497884653879315, 0.19444950232769997, -0.47942498259239885, -0.012832929539667526, 0.3294990506220239, -0.25476328800450376, 0.03814931397674637, -0.0646767567874601, -0.39337626528504355, 0.17626470519592663, 0.42380001256676425, 0.2862320595165616, 0.2619978957686878, -0.12770522582357857, -0.1504483434258539, 0.4716786607634529, -0.08719978795123229, -0.11491004625817358, -0.4079703854932627, 0.3455808326862959, -0.0586793334815332, -0.003648968893889659, -0.0328826938976966, -0.295173513589567, -0.10053918699343656, -0.26914948005042394, 0.4130285430808255, -0.04931833231560156, -0.3288360455641689, 0.3833672387825867, 0.04165718554382357, -0.41654707234941457, -0.16426093126724595, 0.26579984069612567, 0.4137877479219029, 0.06426488693276951, 0.3828407961978481, 0.4846647981510753, -0.10686695929417234, -0.320497363849175, -0.0076190115300386494, -0.31480544028844887, -0.2111084843959623, -0.36785707228287623, -0.49358880070520306, -0.03193152020881351, -0.19474699042513433, 0.056074183753649254, -0.44762390106235495, 0.07997708644135515, -0.03789716175410607, 0.18694694735891004, -0.3491548855220009, -0.27784296244024576, -0.1263561930686454, -0.20811023171565474, -0.29727560199207387, -0.3180935501740765, 0.3571938426563755, -0.4902528222943456, -0.15515394327800827, -0.1580573891789906, 0.4027942503854626, -0.20636127131769164, -0.31140354389146785, 0.03758075283245829, -0.40057595074790364, -0.0788389581353145, 0.09673463920519629, -0.1404135875792632, 0.011181088468048746, -0.15548326710586707, -0.15612656263884825, -0.15978648804397227, 0.44470175982377447, 0.28800781963387645, -0.45218952374670096, 0.29978340138229975, -0.18814403212438613, -0.24122575263857382, -0.11242776660079778, 0.2246219183233727, -0.3770815732707512, 0.12283614140024061, 0.2902532254021129, 0.3180502455147733, 0.011370806843227962, 0.4671468012908565, -0.37164089697935426, -0.2127730213441165, 0.12327988322185643, 0.46918326088566564, -0.15910478414867557, 0.3314503864842509, 0.1296751274152782, -0.3288125153518485, 0.3681978080017207, -0.3736640411473902, 0.43959002839505534, -0.48017648880633335, 0.1504885884537314, 0.2685375912942766, 0.21531689229218515, -0.002552738501994409, -0.06287529784744317, -0.27917273455681246, -0.24898677482848364, 0.48635594374382474, 0.2357431258644203, -0.09862945479367433, 0.08205640015111818, -0.3137995166539325, 0.05133401579156132, 0.4044392014407819, -0.027581035870287384, -0.20508538872335288, -0.2677064866187751, -0.5205133654234665, -0.29983957023190866, 0.423747914749521, 0.23302272052356549, 0.3514322158224583, -0.5317610880466904, -0.4483197107360289, -0.39322515998309193, -0.37955662456376066, -0.29749028523427107, -0.3302828769029084, -0.3574239771198716, 0.20861251633218558, -0.4278869946849071, 0.3575671728159847, 0.18568118552841772, 0.25925868012942666, 0.05039659346382391, -0.44102324043131946, 0.02917127426352344, -0.20769962956001461, -0.4733767100658682, -0.48006971897489203, -0.2789888457135789, 0.3767296212411092, 0.1629053196970754, 0.23165222835557245, 0.06927362376305457, 0.15868395752178746, 0.28158128546135935, 0.25672346363822085, 0.39436390027828294, -0.01790623921265034, -0.2672567186398622, 0.3701524589547273, 0.39072228707705325, 0.033086607179976156, -0.1582308377350938, 0.43403487854187967, 0.23153255142978044, -0.09699526397532521, -0.48937272278907257, -0.37083367935418937, -0.023516072298099155, -0.09391340363066958, 0.3330000311216922, -0.03545593703271158, -0.3625967303212925, -0.21041921935463842, -0.10117316603757182, 0.01782031038432996, 0.36727929917861724, -0.22401779575861888, 0.2879531530779392, 0.10283194299330099, -0.028065916924296632, -0.49891679475840894, 0.00909277963482582, 0.27813465423375044, 0.03475676344190252, -0.4853778714379521, -0.2527693637746631, 0.29256294422886886, -0.19405972566684604, 0.38867731370752107, 0.28632497510010235, -0.11201709303982603, -0.1101973436746481, 0.1839765949102564, 0.19802896625852626, -0.3937536439874699, -0.02124903900330938, 0.49552766403992976, -0.3701097542878168, -0.41629421157104396, -0.3357740186867509, 0.3953663300904547, 0.2350700995237378, 0.24729976121536695, 0.27507798404581163, -0.07228465835688638, -0.13917025231921173, 0.23524754477995913, 0.12796832735487695, 0.13783423601826084, -0.24950415201795673, -0.01445400667326235, -0.2479492195194984, 0.1706930214209162, -0.16736207882534404, 0.07559133379009439, 0.33064448309019384, 0.06162839942166173, -0.529173923206693, 0.43673048931637104, -0.22253915027304222, 0.4699900176283713, -0.016649681246064363, 0.21474897043060664, -0.06836281032217652, -0.04006499892759108, -0.49984772976943137, -0.06677509099966718, 0.39767578640393636, -0.3157430600128875, -0.3978777909046155, -0.2141028071909386, -0.11697213260915053, 0.042577638138319315, -0.19894652737668037, -0.49910541909995343, -0.3126123998595661, 0.2485034749208311, 0.029324974697158154, -0.41753913950366167, -0.1782906272615268, -0.25375569587261476, -0.16874508350245584, -0.02351880156570818, -0.40502738990191123, 0.3624908332609982, 0.09342553330352917, -0.3983589496372385, -0.34998674935303087, 0.40049442658239515, 0.3675180027132261, 0.23782040387337666, 0.4867390050844262, 0.20635638890576513, 0.28420920495790947, -0.33106187701402034, -0.22173864081226843, -0.11124728388590885, -0.2316359508014269, 0.12503460756295115, 0.2123517282460899, 0.24014056610479437, 0.26076405579859185, 0.22200637176836704, -0.2028918326596311, 0.006486433372448078, -0.3723344187081445, 0.05942654557709111, 0.33661514027475553, -0.2975096465345366, -0.09794596015171919, 0.411324270343673, 0.26797428776771975, 0.22414382396642685, -0.40104113468013314, -0.17978734072581204, 0.07033471640689423, 0.038845423334836246, -0.40919517078915124, 0.2856887608924143, 0.06780856465112355, 0.3976943890529172, -0.16522306824753016, 0.4614734397086298, 0.4258332116364514, -0.026316252715992302, -0.4902087002384767, -0.4951452326099508, 0.03618224791454786, -0.27174490599204726, -0.07418090134382886, -0.4482180809130332, -0.3363156548533755, -0.20256634787957487, 0.31839703471941067, -0.26517194356375506, -0.28894936510459274, 0.29438027701035585, -0.48470138479177166, 0.33348290900641536, -0.29110833730555924, -0.3203843122886046, -0.12417757582965426, -0.247707659471906, 0.21632979971855973, 0.4779941748648943, -0.33105482586049717, -0.011862107669492876, 0.22829659582515238, 0.47144847889477626, 0.07001112253175497, -0.2971789982298779, -0.4671544976885448, 0.44143483728730304, 0.27895855756263427, 0.3723503278139127, 0.42500634881199256, -0.05537880317529176, 0.09563825078486742, -0.5101414796377102, 0.08007440166131477, -0.33634495991995006, -0.48929646469415106, -0.49122249147913793, -0.48865081682654615, -0.2337300370840898, -0.031039307481287224, -0.18429036301937593, -0.24114866005693233, 0.24808306984413103, -0.01829186959810238, 0.236343634389238, 0.2905560410211177, -0.28194453789715396, -0.47383815980947946, -0.19077589039747186, 0.48080803570944186, -0.1689101188785842, -0.19661813787617485, -0.19721877096556054, 0.04605497239705847, -0.4976194000965262, -0.2622027360836066, 0.3979547111454234, -0.316319831076462, 0.16529753537113415, -0.03963061128134008, 0.3454897036398228, -0.10758206846120694, 0.1839527254238478, -0.3975032997893365, -0.1376130171969255, 0.32331664308589364, 0.19875844981219026, 0.10844974435967744, -0.4007849928729069, -0.3521219701790108, -0.3691276809517644, -0.4078621882040112, 0.43924463171694567, -0.5065532723252564, 0.17881674769570705, 0.4036810714111974, 0.117412435503229, 0.441065719404806, 0.23753520749900803, 0.4703535735987736, -0.09267672164501173, 0.14505565414856728, 0.11038326904853012, -0.23532750015363138, -0.3758955836986667, 0.02906319635316431, 0.0833765874002751, -0.0353930492703658, -0.49375948393497315, 0.29348672350558785, 0.3110959098184968, 0.25273026234675294, -0.2935436148412055, 0.06579253096739648, 0.05153119263464558, 0.3575429990998294, 0.4095897032428008, 0.2831778490485881, 0.2245791614232238, -0.43347601886856213, -0.39044016912004675, -0.2437123583825806, -0.4079974142280692, 0.2901707510251237, 0.24572364914290737, -0.20132148001389094, 0.03978523833499359, -0.23810532659484052, 0.28762208532065875, -0.08887859327615406, 0.186556890828669, -0.37798947259338694, 0.17445789792208147, 0.36996727478669866, 0.16380838583686116, 0.0994756586122533, 0.18645206718025611, -0.2752558298062579, -0.44720480416453234, 0.22656427799004836, -0.49822423670367333, 0.2150235797391068, 0.355875701151052, -0.5049989215312913, 0.03509932525845968, -0.2699699053972444, 0.02794095792381346, -0.31660341423171423, -0.0013035026141908612, -0.07931758013533803, 0.1299443820463333, 0.38524233284484716, 0.0683499966713517, -0.033012067263470946, 0.3303472181515307, -0.40848595403774346, 0.04461679747820442, -0.19017126048204877, -0.10833720454866312, 0.4554567621165104, -0.19871385462327498, 0.09528972541540756, 0.10609780927329188, 0.09157223773180086, -0.3732733716452023, 0.33509726665625594, -0.29090547745435213, 0.46721433225957526, -0.5383092865219077, -0.12395434752739252, -0.20115676085724413, -0.14248115259118338, 0.4303470448531838, -0.23133398926107562, -0.34580091202092167, -0.17538148173732307, -0.1904809711144914, -0.38897867624706317, 0.14985264158839046, 0.3012322640999454, -0.2612912177774522, 0.16619752179855304, 0.33238355815792353, -0.26315529380426395, -0.2633883924650925, -0.18185177924234183, 0.16907909433788276, 0.20251724357456488, -0.09282375042722206, -0.3956723976854323, 0.4250337246177871, -0.009549716749248661, -0.30846629687148536, -0.5036866965049951, 0.05972054257569454, -0.23211296128573172, -0.21862291210052723, -0.34639160473894054, -0.03455661398981562, -0.5064757015673832, 0.4423531856157349, -0.14966118930250574, 0.10531729416536799, 0.1550991304629303, 0.09115930926457555, 0.43166926498370733, -0.27222744478089045, 0.2670534208299497, -0.14404606484713872, 0.25282207381289346, 0.06773618638375867, 0.08311550545198576, 0.42459764854457205, -0.4200103392032779, 0.30422763351674686, -0.3051724923229569, -0.4066756455302684, 0.06964368980775859, -0.14387629937476992, -0.510907546476548, -0.195647621114195, 0.2827446685729364, -0.354276272467098, 0.42472605358122545, 0.3449289912118413, 0.33349360904045, -0.44527431253406974, -0.3856812616271816, -0.07900964129369493, 0.030341731802982618, -0.26531640271274826, 0.32140840648960406, -0.05817765293817201, 0.30007783902745355, -0.07036532662888663, 0.07554808927218715, -0.19510614526197914, -0.18864191503540526, -0.0022618846421907923, 0.1571725477741092, 0.23660856393443577, -0.08051796634714684, 0.4593308867064553, 0.23114480005723498, 0.18555462892818173, -0.4283003327728083, -0.28124653718940923, 0.04582882550281191, 0.28533548420987637, 0.28091203317265867, -0.00882663054031343, 0.3723331840235673, 0.04122119111950897, -0.3986682029401841, -0.49965883595052224, 0.1346096620226668, 0.31605813021752904, 0.010558310892125654, -0.17358271657452926, -0.08889528929161411, 0.28003765260245295, -0.10880003464928373, 0.460896670102407, -0.3852344806442814, 0.1775080218957589, -0.13852533594404656, 0.07017516378660915, 0.28832857553361235, -0.06939927665857995, 0.19258415384785432, 0.08362102006934223, 0.2281359270486324, 0.32185263816322446, 0.29062810706788694, 0.43844838005255155, -0.38402135092003614, -0.12938550661548112, -0.19735001632820373, 0.14746952666466226, -0.22453431183014305, 0.3701365503117121, 0.33540142039312654, -0.15850992924544555, -0.57521369364803, -0.32642816287061965, 0.08361590217283638, 0.24464346536978188, -0.4577228242856018, 0.3440054847175411, 0.03274614352162414, -0.4292805920108057, -0.062420612567396304, -0.3892188073860653, -0.05772153288865705, -0.36359609110029867, 0.3571410765326304, -0.46065661760230925, -0.4687732831701475, 0.1424600565255603, -0.08005159589199591, -0.16725699709090677, -0.011023499854074024, -0.20116095327702044, -0.40070860585524043, -0.5070114891320091, -0.24951936764632474, 0.16803177393143326, 0.36825935495315415, 0.07932220599217192, -0.4290616381442302, 0.366437863690875, 0.036986267353733296, -0.32452302208947226, -0.11796079205961268, 0.1290012634965622, 0.21040346448624295, -0.045012635893147405, 0.4342221288189278, -0.14198823610846395, -0.13580917757995156, -0.3848872881003882, 0.015468239614247703, -0.22161633547505777, -0.18107489888709738, -0.1753970649016294, -0.39109081579776084, -0.48619056479312567, 0.05491652505032519, 0.3798673386638922, -0.3570457503474983, -0.07545151717753698, 0.1968119046008511, -0.10611533963500241, 0.4152339054600015, -0.001397285424992383, 0.29736854542404484, 0.10510497109337275, -0.172607398302812, -0.00033457228193110855, -0.23552613498625088, -0.5226938703553211, 0.07396866928658423, -0.2631377010953859, -0.302529199814015, 0.09722574270312685, 0.0926199003429261, -0.03905106990838835, 0.17113173629927875, 0.15926390021910555, 0.30967084181175775, 0.49607246536581495, -0.3700722209455052, 0.4832185271205729, -0.4026766315053318, 0.006138062071310594, -0.4597393012637314, 0.1303050090046752, 0.1020278192708991, -0.44048124347065204, 0.04119338499922936, -0.29946600146840624, -0.4225053078289584, -0.32745606783889347, 0.06335099449317455, 0.03309529509718967, -0.1387621905653531, -0.19542363622970568, 0.0788584877947257, -0.41748165249657526, 0.19694192560039822, -0.2537577887376835, -0.41443290058660065, 0.12600444167158395, 0.3284213948702732, 0.387861754878116, 0.323384013343204, -0.49413020648168504, -0.3317600560153918, -0.021682568583975548, 0.26873017543437366, -0.2741872083052375, -0.27659470766532, 0.050096512498103055, 0.11062341746626998, -0.223842487580988, 0.30136977981759067, 0.3201431261535406, -0.14086577827496305, 0.07717791058584855, 0.2994804463305265, -0.21655817178543577, -0.47419330267243287, 0.2717448646747478, 0.3133236220666553, -0.17928819676486685, 0.31197088812489027, -0.48965474264124553, 0.08031223618812942, -0.265368943220771, 0.19018209134803898, 0.06655654544354765, -0.458821521118484, -0.13467327314096147, -0.20213072869382961, -0.2476113738249177, 0.190891309342073, 0.38492615699887756, 0.3349954395655349, 0.14451662508675844, 0.19931057516813852, -0.41760187860737097, 0.16938526324789524, -0.08582607785604339, 0.20390989521576672, 0.3499428166010774, 0.34582503379760704, -0.41236133457997065, -0.46124716646439573, -0.3515768202596837, -0.013817282127860563, 0.4757331877443361, -0.2481511468562455, -0.42646240203025104, -0.10507633938208666, -0.3928735085158119, 0.3041411056067494, -0.16941389301666956, -0.40964488678790695, 0.24671342223139953, -0.48065293944503046, -0.24211919997230305, -0.07340669365095635, -0.015314321642071027, 0.3141620887875849, 0.3247077717604454, -0.31320032912499296, -0.28977701290515734, -0.12121095922169386, -0.42494394781115846, 0.1781630308489723, 0.45248568396243244, -0.22283945445432368, 0.3944238169393103, -0.4342298656392136, 0.297191503481422, 0.09333490514159762, 0.0721205741026392, 0.1664769850826485, -0.3164573214683347, 0.15182492591376973, -0.0025224497172171363, 0.10372364909693842, -0.48573021111249615, 0.02800669266903638, -0.3503292708632686, -0.11879044989962956, 0.26442443534295945, -0.40136129491088157, 0.122433212496015, -0.16156277072715636, -0.4235625113158862, -0.2087931869116083, -0.036815150422675136, 0.15363131150411413, 0.2935039051698729, 0.3121858044105382, -0.02271305430225785, -0.045427101887085326, -0.07590448021958955, 0.35168146933684585, -0.3365567868663821, 0.4445072331697797, 0.060171601030387434, -0.44084419306821576, -0.37163761570221937, -0.39842047375726014, 0.3647362037328587, 0.39671549784565685, -0.05705999241917976, 0.3986199405544949, -0.3181071092939404, 0.23289365151819322, 0.3827321579872621, -0.07172867794846782, 0.05075235558898772, 0.24542727212683899, 0.36527836363900645, -0.39294855131889284, 0.07349491528208263, 0.21918772909587458, 0.0433889649569128, -0.4694739802606773, -0.24401981162486308, 0.06847027641619496, -0.046590275998174224, -0.2840084048320065, 0.42331769477263437, 0.47491804791476794, -0.15350321253175286, -0.15256504195447915, -0.45700893272470106, -0.07160600297785884, -0.14719435532606095, 0.03807220327844451, -0.18353198600675538, -0.2138481202114667, 0.19870285828499626, -0.11129813974590896, 0.12698330476116731, 0.3611751933623623, 0.3277161799396573, -0.4093720343131915, 0.2509700235345922, 0.14765321953898702, -0.30807679852196235, -0.36412232373961273, 0.39885980952276157, 0.28136591472774763, 0.0009565808672500342, 0.29606525272832573, 0.1688235430661733, 0.43834664009606383, 0.41760874408749815, 0.3159694450799557, 0.3593207920910182, -0.07440679324375676, 0.47093834036525406, 0.08770024812864152, -0.21886997204551517, 0.08716015200328509, -0.1945959159398314, 0.29320542071434685, 0.45300359663122325, 0.20672997679742422, -0.24618354809581455, -0.4995331919215005, 0.08266165660205382, 0.033463176582896326, -0.2732332410462024, 0.49907318279612956, -0.3377389316534679, 0.08594157629826749, -0.36930911123133914, -0.3070085177184184, -0.47100466442125555, 0.10410761896958232, -0.3648878385454436, 0.40015071968823, 0.1859057988587951, 0.07120118244620555, -0.060592310320028764, 0.10076992575896772, -0.1811304740961485, 0.26228824840863707, 0.4433334804755682, -0.4412841388389564, -0.4505960073389619, -0.14550660821930678, 0.47982425034350235, -0.10846514892518985, -0.010494101684925051, -0.1359191050842342, 0.3128016124864291, -0.3552382716556514, -0.403202748587729, 0.3794413776296586, -0.14128656760845223, -0.474696785121839, 0.03669890451007374, 0.38673956820879096, 0.22299051711412188, -0.41183105780925167, -0.11729017720946255, 0.4660450614999917, -0.14860004157693718, 0.2972537128849665, 0.3913878830262493, 0.2635214753189692, 0.17293676317362328, -0.15600721281268748, 0.3356984545386205, -0.20082755927772286, -0.42325180517637295, 0.17239737556302698, -0.23358909543859757, -0.010931015634476016, 0.1895138580255661, -0.09531107500398583, -0.32850094340527936, -0.4102827162218349, 0.2596628356377778, 0.24957693755975563, -0.41933574221291026, 0.3783571389518738, -0.24923788262071148, -0.0752038410453745, 0.08236190740194398, 0.19288870430838417, -0.034995811062688766, 0.24343734806795403, 0.41308396391084734, -0.401863147924559, 0.23470091113973213, -0.4971178348973496, 0.04659076618241753, 0.37409104420633665, 0.19403922703030452, -0.47116982016559306, -0.19166779425275693, -0.21070166608989754, 0.15325719608559896, -0.0671003641595217, 0.42507849382449214, -0.3527574016015541, -0.22953230055272966, -0.2792190800938266, 0.19955171911412006, 0.2160386631854654, -0.058446980572762194, -0.3411371994215466, -0.20095842563874308, 0.3892351912104707, 0.4652885231675357, -0.18558597685759193, -0.4982777748336615, 0.2887556118372479, -0.22428608509136932, -0.34382557396389096, 0.04995714981133585, -0.4584828330267374, 0.20266944659927089, -0.0318293160383053, 0.39674622957199024, -0.3617821499953286, -0.4033741711475138, -0.000438144352706588, -0.09545816444279603, 0.19228963164373702, -0.08610406114399946, -0.2898000535524448, 0.1340451537958972, -0.2825160095245045, 0.19024781581616965, -0.3248923646367526, -0.0645099656997489, -0.4008324768098322, 0.14917515634257456, -0.34921326968628413, -0.13413334251896158, 0.26868827165698794, -0.2242270406163206, 0.04019420708159667, 0.277211456745235, -0.4077220853081716, -0.21441858100541947, -0.10923401683557965, 0.18879983737608555, 0.03241028647419142, -0.14779738054078728, -0.43406823353156415, -0.22971924833623253, -0.4598995947726539, -0.4594158595159834, -0.4236988657915813, -0.08990178562127822, -0.4780070230852947, -0.385726237302353, 0.21519612892896162, -0.12767293262076648, 0.06933124385792376, 0.26823538065329194, -0.40791588861872136, -0.29944746417190615, -0.12493081441364001, 0.24799412229955717, -0.3746114108090671, -0.29372389678421573, -0.43254794952342035, -0.27021048791331825, 0.35691080445515333, 0.4109723210976026, 0.08195005592592244, -0.2873712191187456, -0.2615916604110476, -0.2794567816074676, 0.4789063316235487, -0.3519710172874061, -0.25573168870595764, 0.3231175415005633, -0.10345602430997984, 0.06520031004529264, -0.03536353220647307, 0.18592865333469485, 0.11544444609085368, -0.48461271077002455, -0.330619054419629, -0.31253033319329654, 0.09558405300427607, -0.4063457915431929, 0.23660392265103827, 0.12006130660444284, -0.10937023353903427, 0.10452868157653761, -0.08712423562358013, 0.3754970614728217, -0.28575701301801687, -0.4892698803407193, -0.19111590256860486, 0.13129086526881426, -0.46791837000283265, 0.2791871813819953, -0.383906243084723, 0.3535899422458672, -0.4644773634276547, 0.0035607659478016362, -0.43498748045512103, -0.32181474726533443, 0.07789115936494469, 0.012766823018787916, 0.004208148426482304, -0.16074279415277673, 0.21924401292329002, 0.4098923995479898, -0.07282611128866594, 0.35405324999599674, -0.12252144219305691, 0.12580987038160824, -0.4415404274645316, -0.09159715200030207, 0.23537451468310994, 0.17889836657952946, 0.2974695557788694, -0.21203581538252161, 0.3280695354689525, -0.1251513809576326, 0.4467126928375695, -0.4559482568892055, 0.059668969922599964, 0.41284040422281887, 0.005713472917054493, -0.3263741663986263, 0.30269880833841223, -0.1374202278260016, -0.06598103058118278, -0.021325805026992464, -0.33691429607928447, -0.1534707008999525, 0.03524166414679109, 0.1137441976307297, -0.4787625184597766, -0.2750680236474821, 0.20643578713283653, -0.24396492988396842, -0.13025151911050006, -0.010862078896179015, 0.34811883713018393, -0.11635196633244987, 0.32509092866656797, 0.20745933556078544, -0.32174745586799475, -0.5441838927301725, 0.12131720890628678, -0.3264297051388774, 0.2717552557686817, -0.03062342862803294, -0.330391577290756, -0.11845908694090738, -0.4779954790929588, 0.2628010217558921, -0.25767163967043366, 0.24193625357857418, -0.010936706215304109, -0.197876877479613, 0.4923888555689118, 0.04938349707244677, -0.02287383816866623, -0.4921225556557565, -0.418009193095331, -0.2781290830107669, 0.04576384730228436, -0.17221865343567752, -0.031244624216709923, 0.3339594410479975, -0.43983122197751284, -0.4574737037846253, 0.12807899349260993, 0.009608776916834113, -0.30865642373632013, 0.34207445204740167, -0.06739108062249105, -0.09329369167238255, -0.02961091749346101, 0.42048699048866883, 0.015099964296519207, -0.40048603631163593, -0.33839473901621425, 0.08311599191678741, -0.03820841966669402, -0.3384199766373809, 0.307619924749705, 0.22714366636851777, 0.4971695043377559, -0.4196153015160072, -0.42161578994044957, -0.16203871378897908, -0.1340881352627812, 0.37517722272343784, 0.24116429770451175, 0.2953494746173677, 0.23171067460966105, 0.31628805268469484, -0.43471540270517883, -0.19043161277161658, -0.28805592872330193, -0.46100178788246343, 0.27584640328230137, 0.08473001870937524, 0.09575912861909917, -0.41036153784280976, -0.3138162419259324, 0.295262575482604, 0.27634922651237626, -0.29148111847046604, -0.010190991719800835, -0.40790695676505223, 0.276691064648593, 0.08279674277372229, -0.09593696679989018, 0.0977905029129567, -0.37094435371518747, 0.178588270630603, -0.43302577855734464, 0.048573661078289775, 0.10605130988939339, 0.19994958851279662, -0.32600105673011337, 0.32741382665692226, -0.18218921547485814, -0.5021443467436082, 0.018408107704370805, -0.007499924997537269, 0.2369810177014986, -0.4504382685246309, -0.3634783773212433, 0.19816394171915044, -0.10038077254480529, -0.3886978350004632, -0.07152035684798183, -0.47664785919745245, -0.34740540208057774, -0.24455227036443855, -0.08687294083084805, 0.3482286697943042, -0.18922412059685076, 0.1455645325653011, 0.14911237482593742, 0.20399256689649214, 0.054693982387263716, 0.08968130055727534, 0.38231632536843146, 0.027626588584971988, 0.4121164245428923, -0.08404315990582266, -0.03007191380148407, -0.21807759732501822, -0.16770811867754143, -0.25056234349926665, -0.2962002228832845, 0.3652656051302629, -0.05059675589607015, -0.45296424420390297, -0.23290638441574305, 0.3638634599552641, -0.5378997413432001, 0.44766761056281196, 0.2590050166176116, -0.4470485726814862, 0.3770117228755295, -0.00442857092373568, 0.19605340470047958, 0.23412086774280177, 0.07704250884818109, -0.07849149662153099, 0.08581533130448447, -0.297274738965522, -0.13443248633499927, -0.49371613351464505, 0.30317819788404904, 0.3664572338916243, -0.5430711507187858, 0.2841573160192538, -0.12743650969058692, -0.37549255930402, 0.4332828416110494, -0.08489986972615494, 0.43272091027756, -0.5067094731612288, -0.47403022351148677, 0.3831220442275464, -0.40162833031626116, 0.35764920740781886, -0.25134504964942367, 0.4162000686500611, 0.30085041904788645, -0.4553540875498341, 0.30199415968678106, -0.1496264722340114, 0.19790760127484552, 0.28292328067598616, -0.03274126568160285, 0.14236331728115514, -0.08130065597359692, 0.18200996291433383, -0.40758700473551074, -0.2784033590416261, 0.3620778098854607, 0.43652638704516566, 0.27440099408586044, -0.20001598940828447, 0.32832741295346757, -0.04831345100227006, -0.41469098054296016, 0.14032542385450714, 0.09325922036913785, -0.002757274676291125, 0.25936470623583524, 0.07312178912597316, -0.5434365779531862, -0.19126280886321673, 0.23619950253857025, 0.2524067576870998, -0.18439860469098207, 0.2550755460241113, 0.39986092900758224, 0.27887946424780574, 0.0760198649551619, 0.4284217057417942, 0.25761823059705, 0.14293834967089825, 0.15899104424860866, -0.1308133110699563, 0.3315978340446943, 0.4569851053816212, 0.40543783293019836, -0.49720833602900744, 0.15931524797455476, 0.14685726328242651, -0.1023378570931157, -0.16399611114568471, -0.4943914412612681, 0.28244252641496737, 0.1255218387745519, 0.36567914469093443, 0.022109601741865964, -0.15979701395921578, -0.510980530529658, -0.16390496093164206, -0.479341088920351, -0.16695821581963327, 0.046610731562245794, -0.528507988364055, -0.4732416423026893, -0.2421794423171724, 0.4275064480561389, -0.34964028119069984, -0.10590934618258385, 0.002327840401936232, -0.40845906591160663, 0.08704323455700724, 0.35463382791671855, -0.12707033350305297, -0.1188446067327525, -0.0048107362918008625, 0.4346624109732828, -0.2792925221316599, 0.026595973120229283, 0.01351821786746511, 0.2620355183247026, 0.036965244641749544, -0.14451163665680758, -0.11484350256579451, -0.45925885479875095, 0.3750019198049891, -0.27138237523937, -0.5122157166171711, 0.2176307440882807, -0.42425214175475207, 0.05177180283700291, -0.12687827475528407, -0.06731833711320741, 0.3830225530424729, 0.1847128362604908, 0.30031913279017214, 0.2306833271972236, -0.276793061115726, 0.4230743568203774, 0.12587574797969786, -0.026905827433292142, 0.012987100755854079, 0.30398123697672724, -0.22057696171110466, -0.14422587140165347, -0.501749292693722, -0.4310373889205756, -0.4708046723250975, 0.43774929801618145, 0.13574189881667145, 0.050827054661100615, 0.1039708139723111, -0.22701136344678624, -0.4612359344723986, 0.166606083767264, 0.17286099254288345, -0.39811661345637156, -0.035420740588008474, -0.303184741366236, -0.42766243629526235, -0.21264928602691693, -0.45570251351597635, -0.21413685937446106, -0.11138298585067204, 0.00046075834403261644, -0.24669760632358362, -0.05020104050467229, -0.11967763309831861, -0.14994629210110297, 0.06126030141963511, 0.15864440747981481, 0.3536550177184897, -0.22932863871512935, 0.08331973279324949, -0.10409326036210836, -0.4629687657640841, 0.22601935252889907, -0.09348589434514694, -0.03899716723520361, -0.09468954257504948, 0.28783991961882216, -0.4134555071903448, -0.34909773032130265, -0.39389265796017686, 0.19168788409982687, 0.13955302471644837, -0.33753524037472044, -0.37497808800773, -0.29308020720863287, -0.13508296262265485, -0.02721267311846461, 0.2036749906052048, 0.12286838929013585, -0.30598289826975256, 0.28933453255557606, 0.14434087727891784, 0.17055372880204814, -0.2785152483338747, -0.10809095757238628, -0.04682042583210599, 0.14311080327748246, -0.4288547788659488, 0.060081161967981384, -0.2899236630817429, -0.3925135515750396, 0.2905925048656459, -0.29041849770253375, 0.2936179969207078, -0.417478444818181, -0.09221466410303472, -0.1541846303465188, -0.36067478105500594, 0.28048165416697246, -0.03052787910793727, 0.1903013573731201, 0.42637593219559033, 0.4639853644653742, -0.27521695445475625, -0.0739894071560117, 0.2713448838483683, -0.3962993839892194, 0.4140623411051598, 0.03189162971394946, 0.020858699527301055, 0.27532255175596726, 0.2806365827492071, 0.05865891128059462, 0.020658896408382203, -0.38914784771390193, 0.4379175197382189, -0.3696768613515895, -0.2936695213223704, -0.5288117191313455, -0.37687151636602056, -0.3068568746204339, 0.3792381402663796, 0.24134875318364607, 0.021220250706862745, -0.017472646715039324, -0.22378138069981662, 0.23139109626982138, 0.36465747394891246, 0.31717822468118156, 0.09497039916055279, -0.10231843775382901, -0.4499739981612967, -0.48088067579582777, 0.3171215886365117, 0.3253696024377145, -0.15055030816258286, 0.36391597926149, -0.2540534916411118, 0.1108328607354511, 0.1555182782629226, -0.3482817305538082, -0.2621739277075137, -0.021726544098508018, 0.08223155013887691, -0.4853096782760504, 0.06688012222794348, 0.24743644642306256, 0.332402547118543, -0.509561112024411, -0.19401391057148057, 0.1251757499303401, -0.3647435427428458, -0.49734320399668147, 0.25939968594527135, -0.09108437810402668, -0.3924316898969623, -0.36919183415964757, -0.4971796027664297, 0.3598408682193506, -0.12845251825627313, -0.304144176021127, 0.13403064188409183, 0.29047709361222296, -0.4957118767995031, 0.31333949119907256, 0.3675424762717206, -0.1571436193354048, 0.03107672243191492, 0.2754957286650432, 0.34796710194067315, -0.05068185722252359, -0.27048258791821944, 0.3786154107198656, 0.22416698365080925, 0.24338227611363566, 0.06995177911946598, 0.09370738773848786, -0.40434273510701246, 0.29390390052142346, 0.12841997030613334, -0.35413361493066986, -0.21448405001732043, 0.46876280436974993, -0.38373905211049786, -0.09636260267435141, 0.4366173592791701, -0.21429870262670933, -0.19810507373349803, 0.4822824344922244, -0.17772430876078701, 0.11431818116287817, -0.001119623129577585, -0.05749456509100287, 0.008298504339815837, -0.009879782728545285, 0.4805193539380829, -0.12433626812208555, 0.36620016345057166, -0.17481308183209907, 0.1509759954755178, -0.03396435279897796, -0.41461218487666673, -0.5543602070206686, 0.2599916560596079, -0.11226469857984428, -0.26777849447194124, 0.33438146630439464, -0.2912127261134728, -0.08061348565262458, 0.19248393253039728, 0.31604468900248384, -0.23132669480976137, -0.48366368621128697, -0.11631360244008405, -0.2723015763891464, -0.24917172721072928, 0.23119264896617805, -0.40729184634386206, -0.14296859760062774, 0.11603194236066139, -0.13849019843138255, 0.1474066707431122, -0.2623046736056737, 0.40751388012404355, -0.3935310385440377, 0.07730401189435121, -0.004441639577621181, -0.2646412597845918, 0.2417096191595316, -0.4018157729260973, -0.3309179742961918, -0.506590216401532, -0.08562020173541485, -0.48130485618609536, -0.20043015142412343, -0.2650535449366833, -0.08544760884262816, -0.431606572320733, -0.010036452425429287, 0.039833116074023026, 0.4007213793060479, -0.46989245136487934, 0.43889751610559613, 0.2464996037001347, -0.2754023689033214, 0.1288964359681729, -0.17622385192007894, 0.48761806017872555, -0.20893006380086365, 0.40671615787666326, -0.4033216504955395, 0.16294623282570084, 0.313597623509803, -0.408596912102778, 0.03486151724638014, 0.034389682864865496, 0.03845427859630849, 0.20093283293857964, 0.39321877018248247, -0.03420736637468188, 0.06731274597036817, 0.2897556973258443, -0.28458702444699163, -0.24224127448484542, 0.04590089654507303, -0.11185320559692102, 0.3779670517255537, -0.23596584162275897, 0.10463751060232564, 0.2913146926714596, -0.43017029949238517, 0.17355706771833412, -0.42463640324923324, 0.3624756667480229, -0.40652138374423963, -0.445129926808581, -0.15183528627165999, 0.4841280085276306, -0.4535612552258459, -0.4593403740171361, -0.03568647571373844, -0.29786070457168556, -0.09523555374657515, -0.12353665871971788, -0.1807643964267419, 0.16930755969346542, 0.37169200306518546, -0.1675257384457118, 0.06965616080580002, -0.06934660153160835, 0.41463186561657195, -0.27478924270482524, 0.30294711366190924, 0.2775383383766249, 0.15596683274701906, 0.03360617176273513, -0.2714203119565222, 0.2914692559006738, 0.10870659079615984, 0.046615384842562696, 0.25661844702456515, 0.36374669629826006, -0.3845559163755137, 0.30792824050197654, -0.21100417657286497, 0.10250994371842803, 0.18496264972056475, -0.04506738221941686, 0.3508990409484497, -0.35649739591263063, -0.25361122042632706, 0.3713984124109764, -0.042522939860661364, -0.3644941271972652, -0.2908129522128241, 0.45229802793755397, -0.015760659479694537, -0.327334402637523, 0.4213036329543002, -0.26017739172442156, 0.1357078771366815, 0.37124622950962327, -0.35719861725151447, -0.0949443914593656, 0.2321159224493525, -0.49454943993871703, -0.2622889334814683, 0.4279671084794062, 0.44675577100684805, -0.005709427629315034, -0.34295595586441197, -0.166176041118566, 0.46949323646572005, -0.13064067556005654, -0.1740416542684209, -0.39953247868364716, -0.44046316648152817, 0.13115884914531606, 0.17339339698128498, -0.21199542839302354, -0.0908063991347201, -0.4431512894727154, -0.05264287926867239, 0.2353790806704843, 0.0583851726234601, 0.3493272555639205, 0.42802534617474464, -0.2955174909920567, 0.2976262488058312, 0.26122215476455213, -0.35942366798471603, -0.3488984732443199, 0.08323886815069681, 0.2109971420890454, -0.32344425089328466, 0.4369896588792199, -0.43968783676321843, 0.0977280018710921, 0.4852339666085801, -0.0547302688928889, -0.25485589766153405, 0.3408709569877929, -0.43800011570263786, 0.46127443966526127, -0.44347393725575585, -0.4248047667757271, -0.07213094004066448, -0.04471523047916864, 0.0883459077156862, -0.061079422363560704, -0.06974193758191831, -0.04991555482048587, -0.051880605630249044, 0.053228564861826776, -0.021247785430949167, -0.42450793184296615, -0.1973112037098466, -0.07960734408530168, 0.113310277064276, -0.3941081659621304, 0.24224976871110637, -0.30149644087108296, -0.06405365634856397, -0.39314984959861266, -0.4414154758432003, -0.14408316612785743, -0.37934920459097365, 0.009270941313596959, -0.12299499381956114, -0.43152226577541875, -0.14672348116093092, -0.2592507240111609, -0.3745678798763152, -0.47457321841328926, -0.4778854257709996, 0.03905076609541804, -0.4702813159402513, -0.20848622919844498, 0.4474349199143856, -0.10707941208556947, 0.4499020594678669, 0.14935555683531437, -0.009239432624460078, -0.019107659949826668, 0.0714019850670251, 0.1767734942448477, -0.08587390240859327, -0.1981851147373827, 0.1100300715897811, -0.1374323146331715, -0.2836316855149567, -0.24334523691587634, -0.017282060995099657, 0.08182436015779604, -0.4895608860109991, -0.46350125142530507, -0.4330479433599078, 0.4344222314331654, -0.09776536339851005, 0.038387899647642006, -0.3359248028271988, -0.06870208445863014, -0.396478540178813, -0.3346292429409813, -0.139230697325135, -0.016852903209701713, 0.217732426172425, 0.041790258802121893, 0.460387056052052, -0.31213789732053704, -0.05539873026522005, 0.2482803119934484, -0.014612493117042581, 0.3804208165047061, 0.48547357198691876, 0.38617312217320543, -0.21929184542945904, 0.15035099280919653, 0.3148383432786779, -0.29485321577744367, -0.07639664399399268, -0.03884051167439113, -0.42665268123646793, -0.21484264944723563, 0.2794662313413896, -0.3033193867761145, 0.29638852151712924, 0.17602694297140672, 0.016360629928655245, 0.33433606907521113, 0.2729469756034394, -0.052304046111303334, -0.021991875240735582, -0.4135318979145829, -0.1519023335028895, -0.4473727382406739, 0.35583382932823976, -0.08929849899750235, 0.2739950290264387, 0.45044847039698466, 0.4611501840576817, -0.18339447684574275, -0.11845062368160506, 0.30648964833237463, -0.0287159378320651, 0.23674198071788993, 0.3390152326316317, -0.4395884179597249, -0.4890748343525219, -0.30370156095952267, -0.10458969128207041, -0.23994342014528414, 0.3561153042742037, 0.10687526513597508, -0.2824077331500576, 0.2590803081964794, -0.41242487796153365, -0.25668898149291425, -0.20630050178118392, 0.04960362540830329, 0.15030603386678126, 0.27669949857372667, -0.159084220015533, 0.11983679901895057, -0.42062391740471555, 0.1318713714065548, -0.4703236757743091, 0.41104870088856427, 0.1315146531352576, -0.12496614371213695, -0.0363350130578077, 0.21361168249115223, -0.21007512406262077, -0.4968236758688813, 0.28469357290191194, -0.024951971006646693, 0.09789278596901951, -0.04500864663231818, 0.18594904791752298, 0.043201263879860896, 0.05294621170322711, 0.36487334568524804, -0.26208364920099875, -0.45620402990801134, -0.19914288337547414, 0.2593565856371984, -0.3543975642848659, 0.1915451360788395, 0.3703730178169626, 0.1371177860778069, -0.43274852824886106, 0.14139641525896995, -0.18508789931743153, -0.23279945861752802, -0.05209932121512628, -0.3326987789399493, 0.04323751583397578, 0.1756131097037873, -0.35891384301395457, 0.27255491410469807, 0.11562873886425828, -0.1331870056605857, -0.11161254801834355, -0.2723537755190636, 0.3565048169203812, 0.012793051174362259, -0.3563755964539696, 0.3566768691990757, -0.06701344132653109, 0.03690859338463513, -0.19998655672570279, 0.29116042361726535, 0.22856351224012805, 0.025386610851170444, 0.32997631393587257, 0.3146125241529273, 0.2676996294199349, -0.053708816241879447, -0.08506779880587868, -0.5304877898416164, -0.06014585630728246, 0.0296235282753085, 0.3934503115905365, -0.15694104393372746, -0.060452905932229586, -0.06223532271909884, 0.43104045700629784, 0.22257004264828514, -0.21982226889140793, -0.20286859193441462, 0.2641623888386665, -0.04723052286026918, 0.49636880998584015, -0.1426976198716488, -0.3359404090429226, 0.2964570418381991, -0.32607226341232337, -0.45833672129473735, 0.05069262517551148, 0.15995246291702533, -0.3441235962838322, -0.42921222051037744, -0.41698676618283187, -0.2974956262482854, 0.0993625006586172, 0.05534859558989488, 0.10910415457102922, -0.5531388606616108, -0.13885691802783193, -0.216709316608518, -0.2328167069705502, 0.03968503549539789, -0.3415563827834826, -0.27180018550532803, -0.24326780594125985, -0.027521004495399983, 0.15547270449858402, -0.23629458117498245, -0.004027454074603749, -0.448275543133811, 0.2307491575078174, -0.318789376186568, 0.4910298947443565, 0.4511041092276593, 0.473807008493578, 0.484317914482126, -0.4614871769218471, 0.1264253938723414, -0.05097198722806979, 0.37586540227526655, -0.12762465171820342, -0.12185196915879984, 0.22027507162101395, 0.40585344370925686, -0.17452035638811594, 0.016612273726640165, 0.3233753719502222, 0.17726733139133516, 0.2166404156646252, 0.12954810846542103, -0.03830934399372545, -0.2752505201659438, 0.1195594718942882, -0.3596870151177617, 0.04617817165158045, 0.19707988677474522, 0.2423049538437277, 0.17834225280966828, -0.052849807612835586, 0.2210436996442486, 0.37346481135900966, 0.30526773218468917, 0.3519450245670492, 0.028632173281765608, -0.3480417350010088, 0.3183266179555751, 0.25544453228564884, -0.48349092738002897, 0.2138147235473825, -0.47047306633690017, 0.04436840760255179, -0.15227181702767217, 0.4187149401793937, -0.2551176218284665, -0.12834439457587438, -0.38519206703869974, 0.10003231414853025, -0.19986678112514222, 0.2854182123723553, 0.26330556408713285, 0.2487328449762661, 0.03029926949294863, 0.3097591661892982, -0.4617699945685834, 0.35256880380358896, -0.3146685348918625, -0.45914521488708926, 0.28729479102732797, 0.2576351577731225, -0.1559436762041894, -0.26611614601103023, -0.1822606849831718, 0.34554291708070173, 0.1646506689342923, -0.4211552288010758, 0.364690790673522, -0.23874577169630914, -0.07553895402402205, -0.11013702946647029, -0.5096632258946182, -0.06383367919468551, -0.42501868826110506, 0.21940951591961855, -0.04393965455737349, 0.07849688780755841, -2.758430094220952e-06, -0.5217463897494596, 0.04035219521069815, 0.3160484718098312, -0.05105976218309928, -0.2613830815663828, -0.3529891729942899, -0.43348595798335515, 0.10099968721332588, 0.24114417308240377, -0.2623669972384784, -0.22555664287715715, 0.11138860501559655, -0.025489021765543088, 0.3965065036206919, 0.16878834208148585, 0.480276851347157, 0.012032220904266217, 0.3402967234297439, 0.12716526920676263, -0.3846608220655357, -0.03504227260566161, -0.45896147673538085, 0.2489473609499972, -0.0705419698671903, -0.06626652282224765, -0.4103490449445033, 0.2393607698943681, 0.0043171538468446576, -0.26622726585074025, 0.19572727782734228, -0.054412831099341225, 0.0734599410170323, 0.12719428218016324, -0.21794397339692387, -0.4778002431796062, 0.06302267114258962, -0.22962197722393096, 0.4215134778649344, -0.2185360001567821, 0.36328370394424203, 0.33738812882732827, 0.23476075112307138, 0.07299508730496211, -0.07488127730501953, -0.1641823445449219, 0.32846157666092635, 0.2772110943766901, -0.4086507146015853, 0.14993141160571757, -0.16917478427263796, -0.35063443388373744, 0.41901039914192034, -0.5044072316642069, 0.13505508448131778, 0.12498175503532359, 0.4476069294237409, -0.16591107843176003, 0.22268942082078982, -0.37427837066287284, 0.35342973677094025, -0.0271817588837287, 0.1941459385164331, -0.12156352952264614, 0.4538591474704951, -0.17550147638885966, 0.2559906153843699, -0.0014360287337431554, 0.187137413906437, 0.08323075445941208, -0.2078598937002039, -0.3146138976767005, -0.23704583503316856, 0.24484099732098447, 0.43131575456370935, -0.2365063993064012, -0.20625971273920177, -0.4766856402589149, 0.17029605768793019, -0.36156785255131985, -0.4050023744690741, -0.5022028605013512, -0.43258095626747667, -0.3141321905000387, 0.18717756281536366, 0.008565886690823388, -0.07544693207040218, 0.17460836996947246, 0.36718794077109695, 0.20682349803593827, 0.18926022806305232, 0.3370132467010488, -0.244201463647868, -0.18992646463397042, -0.4437694560017412, 0.14167441576808815, 0.024280596555167566, 0.400466340108973, -0.09828466101755386, 0.11440264828807574, 0.24583572329801084, 0.19158247552987104, -0.18711532139214335, -0.1319597484854934, -0.2766627009487594, 0.42648684365823186, -0.09264769749622778, 0.10677388166423846, -0.22309930689141172, 0.012858966401434154, 0.14021695268124035, 0.35444725698314794, -0.44836700263177176, 0.26795588253532043, 0.366378353088044, 0.16443907960525747, 0.13587357282621898, 0.16828739238069185, -0.003148183021434128, -0.36146136824508374, 0.08520401176647086, 0.24273960242789774, -0.3092391006821291, 0.20139825843253617, 0.23131156288673071, -0.1539769055310576, -0.33564761348687233, 0.12630479458642507, 0.09263243271073969, -0.3196782688265206, 0.13194176804751742, -0.17915039564432894, 0.0031222754493671363, -0.08794553557067068, 0.2765518429004372, -0.4795737558704856, 0.21656272089325965, -0.4564196769360934, -0.4925339582320705, -0.16942812745483135, 0.14646288912130953, -0.2790631164322108, -0.44900081872391956, -0.4098043627158923, -0.3281253840185029, 0.3978361556443603, -0.10272252662622908, -0.34884741562587507, 0.30635057869933596, 0.3286617019225298, 0.4314685456572464, -0.3979823250084495, 0.3618281539860293, 0.34732206960803513, -0.44780624858622103, -0.3915314628855653, 0.15874522607224828, -0.2726100488846935, 0.06011202650191721, -0.03915017525113729, -0.5082496735975196, -0.26075639535596695, 0.2617376217463579, 0.06600994545244904, -0.5251163266847744, 0.3949149588767887, 0.16159286834148615, -0.2264286616401321, 0.01346416861381208, 0.17338621070188523, -0.4787716849313979, -0.07511947238746511, 0.26044630567081, -0.04742267772064615, 0.20616318667081063, 0.19675659886956798, 0.41523089615563213, 0.17708564672821347, 0.45343593312661223, 0.07888252365119819, -0.034300481717222, 0.25906170477487217, -0.016476566086208372, -0.12345816732523306, 0.3645479565078717, -0.500249227084196, -0.3511972976610608, 0.30365296606597286, 0.18350900866913006, 0.12428082737276719, -0.41330126809188167, -0.05847135687365391, 0.0023218285759039913, 0.11110972334324898, 0.04617001728273342, -0.4996663326807037, 0.19542838316613145, -0.45831770660708143, -0.23575936864522362, -0.23903833575678193, 0.2509838886559883, 0.178722685787988, 0.23923632018687202, -0.0918998333381389, 0.23250926760428806, -0.16768031083940685, -0.15815675807715435, -0.2507708397457255, -0.08135996853280958, 0.18360709919833618, -0.4241506451625381, -0.0843766273827858, 0.3762845452836319, 0.39983133112954605, -0.4657354450533463, -0.240473574027348, -0.4349895257204624, -0.212424745641973, -0.08003973992358718, 0.011762624724215638, 0.3842998743945228, -0.5022473661725365, -0.030601551458873243, 0.17869208606544265, 0.25941278610860424, -0.25208765198340805, -0.3780239947017653, 0.24766705773055112, 0.20154722883687493, -0.03377405834343423, 0.38460203640876917, 0.09942441215998808, 0.11282774379856116, 0.13131970211644572, -0.4500208330335195, 0.3702570728896699, -0.2771832632283484, 0.4619459788688516, -0.052590636195803536, -0.030529495013216345, 0.05321959587572292, 0.06065185255467349, 0.0858043476426725, 0.08662411489769482, -0.11235930930003254, 0.4539376332480037, -0.0834183812222926, -0.03895121031397286, -0.37740750701206455, -0.13691678503529972, -0.38268216017741186, -0.2937244762655555, -0.2730690470948943, -0.3848609155533876, -0.5221626748932399, 0.23564755307169394, -0.5525231778684798, 0.09490893466200409, -0.516910498420997, -0.3740513339195368, -0.3027074907013154, 0.2785896820056325, -0.03829202372931948, -0.12715401876202492, -0.13078739424358277, 0.043212802577914156, -0.3177964910765528, 0.008059686952275193, -0.05367165197432375, -0.15198703934119426, -0.5100376712971136, 0.4286413408797553, -0.23528799471672882, -0.20494190294398842, 0.20462800294954311, 0.1248753430949114, -0.514947652962967, 0.3006635341289234, -0.5246229887224307, 0.2320770615205352, -0.5557456049106072, 0.3341616808348886, -0.3470987724297892, -0.3082695275533961, 0.34314735720006034, -0.028917921215695114, 0.38211810762328274, -0.42160625482867914, -0.4345960896150912, -0.3131403804627924, 0.015402857651270465, -0.30082938574367946, -0.3689161110641499, -0.34553195690460137, -0.44983391142529494, -0.3996175838624119, -0.005375240377066867, 0.3096226387672106, 0.2144420039119172, -0.4273909786037322, 0.09831975960392791, -0.3734746361327499, -0.324427253147102, -0.26508698967961947, -0.45583770626896175, -0.20979895096562162, -0.03531932726519313, -0.16775279716413333, -0.09926594076583481, 0.2590913510049223, -0.06798792999186584, 0.04773533897031979, -0.2704051452430636, -0.1418975613552806, 0.3697862336738319, 0.4001154479893332, 0.47453339649994014, 0.04138163374164703, 0.46373076737011176, 0.36239468724342616, -0.20045392182239663, -0.2190633051235232, 0.4550373854815847, -0.08943784911381657, -0.28000844477770304, -0.08012339891293176, 0.24700961045900147, 0.33120351436255546, -0.21041830856337962, 0.4492810035297632, 0.10186306675577651, 0.14170466943756085, 0.2110183841758684, 0.22534738159598072, -0.463424404083863, -0.10045342147301561, 0.07861414989711168, 0.1851001241244662, 0.04631931111235562, 0.4090193638340912, -0.15158983121110714, -0.05248228837464761, 0.48345727092729074, 0.15218997162039685, -0.3381357054964289, -0.3134982873014267, -0.029897974815718598, 0.15407503272032175, 0.37815669323154466, -0.004463699677247135, 0.2577369426886794, 0.30503654086255094, 0.1776917875968897, -0.435025963760751, 0.41096855812581545, 0.1078985558654696, -0.38021993209439786, 0.13492160588868005, -0.2219754590230855, -0.4461175139035921, -0.46077585390074005, -0.09011804336299205, -0.15695884081976974, 0.32738481891583093, 0.2857000202463071, 0.2647910241770722, -0.08469927532580439, 0.4760315207014685, -0.14911436643849232, -0.1251265218182847, -0.36144497050829144, -0.1501283836069234, -0.1940970198069483, 0.051077072654327656, 0.45894704622607263, 0.052008881815320485, 0.13318535086603145, 0.26323175081380734, 0.41916264238896295, 0.1647394820125217, 0.1596290811504964, -0.21014300294692217, 0.08771399468103029, 0.14246529623103474, -0.027259142255547267, 0.214150017600075, -0.3804991769024161, 0.19914524309395745, 0.02533274184067199, 0.2772647499202165, 0.4415125257004773, 0.168860802335009, -0.09680403663238733, -0.36098224202189944, 0.47835710850440594, 0.36155739446711926, 0.42720219993202285, -0.38768375861438714, 0.4606085616949482, 0.1623749941562877, -0.19137097331069436, 0.07070854868945595, 0.33976593709968805, -0.05727294086679613, 0.23612178786313198, -0.16482486944711772, -0.0901013587474565, 0.12245989943303615, -0.18142646534053955, 0.23143435076267288, 0.40109571641104586, -0.19712971707407906, -0.1665067788552219, 0.2252020624841265, 0.16889695528925583, -0.2711902616845205, 0.1064872234020212, -0.3636041704912735, 0.14575890012546136, 0.06428004372038087, -0.45637782656876597, 0.45404102427142473, -0.19249460841201568, -0.48586467418125845, -0.4387715523192975, -0.27349545014170135, -0.23931277297300596, 0.1446529255850925, 0.23992797709767277, -0.45594422194010675, -0.17293142966401298, 0.21293065647304477, 0.3059315752975411, -0.15519239693854614, 0.1414557557204693, -0.2974430561080119, -0.28293548098145305, 0.18134891832241262, 0.4216460311871179, -0.3919627528433391, -0.4120313265374253, 0.4322821721115511, -0.28763833092838986, -0.39313230209829403, -0.36294662166191927, 0.33759608231500976, -0.44414928706831036, -0.4293774112086629, -0.32657559140696085, 0.19146440903475262, 0.040390259328939526, -0.3791189165707898, 0.4202871304947779, -0.44413799323801895, 0.09127971386858513, -0.11465921739937479, -0.47957944685802256, 0.1625593390783654, 0.01273759326786339, 0.4508945326937702, -0.02746203453485274, -0.08246241852476699, 0.09526976473665982, -0.4867130315802368, -0.40160289722043696, -0.14055297079007179, 0.28286760955863854, 0.3039731120294876, 0.49637917817736565, -0.2509603431922307, 0.21896077834616912, 0.1683318612754482, -0.20701131450070365, 0.029992314216789606, -0.49874322245759417, -0.03789596305411691, -0.3412698387826776, -0.16370145657532087, -0.22763952764619932, 0.21959214824869355, 0.08753506412700007, 0.3325389936956946, -0.10717120803792124, 0.04498051566216643, 0.042392539083524916, 