{
  "columns": [
    784,
    15,
    784
  ],
  "activation_function": [
    "Sigmoid",
    "Sigmoid"
  ],
  "biases": [
    "[0.36825372515255944, 1.6376630882908447, 0.436865066278141, 2.065823624189625, -1.4400195259783202, 0.4315298132733487, 0.4116310713269346, 0.4312124128660117, 0.43944938364028513, -1.6056739235253332, 0.4111767694618727, 2.80297180547434, 0.2816811602128754, 1.1548772295172953, 0.4203134140793225]",
    "[-0.45324066669719665, -0.4230633564911835, -0.4417124691782557, -0.3946726007646327, -0.4475975013197873, -0.4291477791935352, -0.4507846838829303, -0.4552835681637038, -0.4441148553526684, -0.42898739044427325, -0.4555528670047104, -0.41131642624292997, -0.4450279527147109, -0.43528127074172657, -0.4226720385056126, -0.41795041275157735, -0.444053745361708, -0.456650734925605, -0.4171186648625677, -0.4511624211146484, -0.4461031205335638, -0.4506643765971109, -0.4410528661290824, -0.4614275326075447, -0.42400608322453426, -0.4486912921517704, -0.451506473284965, -0.42916437382204176, -0.42530140246704673, -0.4189085481308137, -0.41227128921958267, -0.43022966532887796, -0.43957007467520076, -0.4454482085782905, -0.44474100847281467, -0.4398181705334863, -0.43272714433664294, -0.4321634458130604, -0.43679836813841727, -0.4360354338318364, -0.41296867199645265, -0.40647415039076457, -0.45185022338219194, -0.44068545388086117, -0.42008989946612896, -0.42439520458205116, -0.4308958303968507, -0.4237263360845624, -0.4378985159094189, -0.4500321124147818, -0.4420049462776914, -0.43155959362831947, -0.4218431569246048, -0.4575181366250401, -0.45638012569227676, -0.4735083787668099, -0.42854681695932434, -0.4349508975743844, -0.43105682814722673, -0.4652722785262603, -0.42845951648645003, -0.38907879101264176, -0.42999402781823876, -0.43762381936809075, -0.42715085955709375, -0.4364071831933867, -0.42147489491604134, -0.4111837952489164, -0.39797569592420773, -0.37066087058035085, -0.380741489043815, -0.3647959365951601, -0.37550085349737516, -0.39738114556901066, -0.3871579973325119, -0.397267002538994, -0.43232502406447176, -0.4624614938289491, -0.42201949214989465, -0.43516065094025674, -0.44335877775735144, -0.4446456302311728, -0.43814014665726536, -0.43551369518274863, -0.46717646917232175, -0.44074444117456174, -0.40437424793267307, -0.42661163393493706, -0.45098614543150334, -0.4224909163897461, -0.4365819586719782, -0.41662296365195584, -0.41630374681166943, -0.42859505784469387, -0.411572727822052, -0.3763515495304357, -0.322788090990578, -0.33924524730616235, -0.30799696399614024, -0.31249097460725345, -0.282775356269558, -0.29850009767892327, -0.24246543543752255, -0.2957820168643628, -0.3439933717598263, -0.3927550178754374, -0.41131523224288846, -0.4506239037571259, -0.42487852791068637, -0.4499979400810886, -0.43371315903313473, -0.4335382077298102, -0.43124669755427025, -0.4414701996571977, -0.41811040769367497, -0.44481561444573225, -0.4600237581132742, -0.43249127831226436, -0.4242402624536876, -0.40284384009643, -0.39067239158491085, -0.3240801988593738, -0.2932190897020339, -0.270663552501926, -0.27410871772653445, -0.2179752850755058, -0.20398652049847066, -0.1189658970055201, -0.10158712461503852, -0.15575971496560134, -0.12993597598580195, -0.14713000776987964, -0.21415382702972216, -0.22003081280373385, -0.31067109229491785, -0.3816049324875791, -0.4218595522469038, -0.43685262470104536, -0.4023040811100791, -0.4274082994035321, -0.4140741722892698, -0.4380715533953334, -0.44570224815989895, -0.41831122481921246, -0.4315806691558584, -0.4226005775010469, -0.40306814288202464, -0.35347412453477184, -0.3090888414879305, -0.26726957294374354, -0.2229240375975512, -0.19413871858941442, -0.17672405092845953, -0.11051622876463275, -0.023192794467353225, 0.013902595303683221, 0.012329181694860645, -0.018830176308511803, -0.05103244719525059, -0.11161683683589994, -0.14262348799141683, -0.1940292982594894, -0.22755969597534884, -0.2975900184167001, -0.3926211789808134, -0.425712033521406, -0.40672721356019764, -0.46043987374792017, -0.4067493643967376, -0.43251846606375904, -0.447226149868308, -0.44104349620406996, -0.4189369662537255, -0.4003982813878156, -0.3760601554352158, -0.3257081729442677, -0.2733561394396559, -0.21689086865743862, -0.19693478084578578, -0.1154315159318964, -0.08018477065349797, -0.06693191029416723, 0.01445763957301437, 0.04794716521002632, 0.08104804750869794, 0.08238908408861573, 0.015752579434658607, 0.0034787463072346457, -0.04210460765774586, -0.08397880074381743, -0.15981559456222239, -0.26380076612387976, -0.3339597471964213, -0.420115021460378, -0.45093714026726395, -0.4210561891995143, -0.4646972046507214, -0.42130745115265245, -0.4235214626805342, -0.4306727577492147, -0.4365171233898792, -0.35751361138513515, -0.29757344572821015, -0.2693118709236195, -0.2469202283977252, -0.16903976668147747, -0.12892059578738554, -0.0556343980120952, 0.0016756914893262228, 0.03017393897400836, 0.021618201957736193, 0.05806059573614597, 0.0895797313974659, 0.05952665959416707, 0.04481554624856275, 0.05035705309302786, 0.012021345545325725, -0.026482074332219892, -0.09302938553531659, -0.23338034726039497, -0.28461773672798835, -0.3726552440932206, -0.43593221341428945, -0.4337722360420091, -0.4096577902535179, -0.4325822039312832, -0.4390923561756587, -0.4392551462711365, -0.41865817610349765, -0.34818304673614997, -0.28605460911866304, -0.25069337888506477, -0.1869009722382932, -0.09470178680238274, -0.08217502759877195, -0.02777849499537001, 0.01966084682541886, 0.058392988343505106, 0.058398163934313525, 0.08028096632256561, 0.10871311822284448, 0.056150312602648744, -0.0039842134910287475, 0.03327364287494898, 0.057785203359133286, 0.043324599350255386, -0.0018220058716535903, -0.1594375237613537, -0.2944782759970878, -0.41179508407052984, -0.427365366062926, -0.4530479257270177, -0.44548692960728253, -0.4350676485744448, -0.4025881184204601, -0.4142473717571076, -0.40754134258859565, -0.3046255486716185, -0.2562487535819651, -0.2009355909153379, -0.1230086948361575, -0.06028584258521105, -0.009540085920379839, -0.021336463943002038, 0.06926131720087013, 0.025913321833464113, 0.06785452194090974, 0.0560881280336122, 0.01644541407305692, -0.02607929715422998, -0.0952634160801155, -0.012814970893365989, 0.04558090330709475, 0.07223027153459752, 0.06642242372129706, -0.09025722768616501, -0.2989221529995492, -0.38728363670656646, -0.4582116509230985, -0.44759172205634, -0.43382969309507224, -0.44644725953298064, -0.4241838710633213, -0.4451238437650754, -0.41148869796868554, -0.35151135721195104, -0.24086660127515264, -0.17733046218975465, -0.10212929576677615, -0.03915290494327923, -0.06231216143547046, 0.043335243656644644, 0.0406790293435693, -0.013669634867222183, -0.05555713438052285, -0.05819753744790565, -0.09547117544945245, -0.17380803076751805, -0.21319810100654557, -0.08355025125517236, -0.006101073542896246, 0.05704215895465088, 0.07095369284527979, -0.07739009319934595, -0.2937407057189335, -0.4263236474539918, -0.4751875978048654, -0.4532435915693149, -0.43556933339220394, -0.45842108125481923, -0.4296443909960156, -0.4369500531320007, -0.38502767004122723, -0.2937431344613039, -0.2211200782688762, -0.1765007348394489, -0.0700156434290455, 0.015491699441995521, -0.04283196453096055, -0.0739029759163358, -0.08727636989696796, -0.11314170274323421, -0.11718335842629965, -0.19638639493692356, -0.22546842125733224, -0.3027756150390603, -0.28881701562393763, -0.19533207963762805, -0.03773731057370655, 0.06110236870288388, 0.0837610962966753, -0.015396401494784885, -0.25769212663799124, -0.47300621348798644, -0.4418203610255984, -0.4431351127698726, -0.4397037158305567, -0.43004456087751675, -0.4506171466802505, -0.4328646279710163, -0.3981417668601806, -0.2724032906443458, -0.18023966602771277, -0.09332401767881512, -0.019613943259698396, -0.02663641065337176, -0.043410851045981746, -0.14556766662271897, -0.20735694587224496, -0.22100438944025158, -0.23972289846953743, -0.2681984041595515, -0.28903061941204977, -0.3253238628063284, -0.24195620255051942, -0.17532923826741234, -0.0503109997508348, 0.052518142038829554, 0.0869647565111184, -0.014509089257130979, -0.2465829901046413, -0.41719828610072646, -0.40551022092994404, -0.4280086426482621, -0.44546239207277677, -0.44236666751453707, -0.4523304156706079, -0.4321915968288489, -0.40853381821114965, -0.2082887190205755, -0.12383467582778733, -0.04044876324214508, 0.026971912417390418, -0.03970798707916145, -0.1574882797079815, -0.2854639278024622, -0.3096212219549463, -0.36102921790249115, -0.3369932116654228, -0.30629053665937894, -0.2985293732952167, -0.2696329832374035, -0.1753723085674468, -0.08112841425268721, -0.0711670680128759, 0.08452298060302785, 0.06918608762901808, -0.012163384630223494, -0.2435940237642755, -0.4326665689180694, -0.42945457165013673, -0.41924411367951714, -0.4612007754456196, -0.42465327703009603, -0.4439515551662707, -0.40943185914593455, -0.3694868923588325, -0.19497660205492492, -0.09298429445093534, 0.048449158303016264, 0.028642646718997036, -0.12129518967723095, -0.26961574866602833, -0.3686833175521766, -0.3465464859021109, -0.408686943678991, -0.3656398461992915, -0.2876131348805245, -0.24771450143647677, -0.19635533922450252, -0.16180361315911604, -0.0698969836939402, -0.018363280405264748, 0.09488650881797267, 0.07020263845447261, -0.006745180017314163, -0.28816420857209823, -0.41345572822867643, -0.44206163334293813, -0.4196507266691923, -0.45795564465022576, -0.4435870557470695, -0.44929371573467636, -0.4236466126999245, -0.3624570833321086, -0.15187586372062378, 0.01312053051613448, 0.05776280867454296, 0.02636004288905374, -0.12235629492163709, -0.2872126652649759, -0.3441666498026061, -0.37340075506703047, -0.32240506695382665, -0.28677023054542733, -0.2533110235844352, -0.23811208997471858, -0.15456662233621313, -0.1073577885399764, -0.10966550379732055, -0.006914018821300807, 0.06275428803796149, 0.08386891683288027, -0.045406588253627145, -0.2785875653403065, -0.41880483860746065, -0.440988505373967, -0.46047050676595114, -0.46063384037126415, -0.42119400055193695, -0.41636839107904006, -0.41390477494488026, -0.3276446005600422, -0.0811804707577901, 0.08778330296969468, 0.13506671300037248, 0.024052683395963594, -0.08918295437717191, -0.25480407828819013, -0.3046575155792182, -0.311349182899661, -0.2783731964805315, -0.2356133713969006, -0.23553950106456353, -0.19422696218876442, -0.16612535457787253, -0.07619227829228636, -0.06712588270637157, 0.04136507342221984, 0.09028130534925369, 0.05068010106376042, -0.1198568893822852, -0.3349075015903149, -0.4119380382418965, -0.4502727047725439, -0.45402944919696203, -0.4276894520002413, -0.4395009518108771, -0.4266630639961639, -0.41398918691621234, -0.26494597358183425, -0.007442849934704048, 0.12943648665900231, 0.160288985252032, 0.04566321274575792, -0.09819612327981353, -0.19160789199024553, -0.26823306318750373, -0.24874750629736903, -0.16906972239266824, -0.17449380939250209, -0.17288859771701753, -0.17480695467166757, -0.1055736345715375, -0.05673916832719039, 0.005617967099660916, 0.07177702697081029, 0.06368409557995101, -0.00919386592393864, -0.21336161364765566, -0.31587383563329385, -0.41758393825293544, -0.4401492892582011, -0.4148686815355635, -0.44210415363774264, -0.4357590345273081, -0.4403631497826693, -0.41688550716881484, -0.22123999242418038, -0.03398312508311784, 0.1452306769663081, 0.13874346116154562, 0.04312306970608461, -0.09305799483478852, -0.19337188172367087, -0.1945455435814644, -0.1595235991168423, -0.07550724265112405, -0.09688058810948579, -0.1419751814421717, -0.13184363327670426, -0.034375316407534745, 0.016163451066721655, 0.11696741669410621, 0.05090662951287472, -0.025284995925344625, -0.14157086037913463, -0.26163296132918445, -0.37257953485862494, -0.3991564705212037, -0.4281906693927793, -0.41005309519439687, -0.44198593202249453, -0.4471501931591812, -0.4466247150413175, -0.39334130938404016, -0.19270644811582308, 0.02131869773200823, 0.09679616379250912, 0.19377892012028655, 0.12905899940241194, -0.01639179716510715, -0.08078139214794905, -0.08409058719234706, 0.04057132690358346, 0.02001469731718253, -0.008748555892221916, -0.034006994740704975, -0.0012677022662575515, 0.04653869489881757, 0.06678108495918035, 0.03291195898475661, -0.04015462942405242, -0.12180393644010765, -0.1834768313521626, -0.301335127163369, -0.38135837722841387, -0.40827302786610753, -0.44935007540677196, -0.43980079906970637, -0.4476296470523511, -0.42656280149540843, -0.4030435840048082, -0.37911611327953754, -0.1933057662836577, -0.023549542060421782, 0.088165459632941, 0.16914124944846873, 0.16041940716368813, 0.13856884228821936, 0.07399651353258074, 0.10590745118937067, 0.15735630343173926, 0.14632448543782503, 0.09199940510557138, 0.03805143139566901, 0.029954349557150733, 0.018732923556361736, -0.006567862839550975, -0.0326438414493892, -0.15623395367396772, -0.21361402195418822, -0.2971236595752886, -0.3680803234999318, -0.384997523714743, -0.4258379106654784, -0.43829352319043335, -0.4375174464471551, -0.4585908440985057, -0.41937992671512814, -0.4436779530810029, -0.3768729237198351, -0.2215927508941112, -0.06098864008580211, 0.038941927691170775, 0.14875509976516663, 0.15451332458033296, 0.19684804285686827, 0.21555811797606933, 0.23170051016297283, 0.22921845730348364, 0.17859280692888416, 0.08129486240934816, -0.06111790955001457, -0.09731447345807089, -0.11477235549862004, -0.10537781672357156, -0.2144105673844075, -0.21532212296603925, -0.25405569048451787, -0.33996591260945397, -0.3808822156562573, -0.3951324159022311, -0.4116575808778418, -0.4412063381021931, -0.40724101582899325, -0.4578293886235175, -0.4561422458277437, -0.4099454823000217, -0.42011269549783636, -0.30308913610283617, -0.15698669511025629, -0.08878248335605338, -0.00435724708851471, 0.050105077394580005, 0.11329723987404566, 0.17092851136884676, 0.19055202071597613, 0.14049780837831338, 0.05451170503931001, -0.11147924169877026, -0.21721851671246983, -0.22592555430117017, -0.1698811648321936, -0.2612480753331722, -0.26122165797233043, -0.3105554201770568, -0.3582242105889662, -0.4225514551707612, -0.3944881474022436, -0.41572559989063584, -0.42551566730795, -0.42038563628463693, -0.42250050084491614, -0.4404904486358834, -0.4166716763525839, -0.4324144600082788, -0.42707154576277373, -0.3791861945160711, -0.29458749066008716, -0.17337830590274697, -0.11692558190334203, -0.09705831940454945, -0.0592070411568788, -0.0031583415099764485, 0.007238519830311534, -0.061422369570306716, -0.15977583866133238, -0.2919249038606499, -0.3478179487645618, -0.3762345992719735, -0.35685234316918196, -0.3155465946214708, -0.3141278465661118, -0.3940403514556059, -0.4202433116061818, -0.41676216766460833, -0.4609309619919818, -0.4530087318152023, -0.4358769506743896, -0.4215746312597387, -0.4458765787601222, -0.446685958380108, -0.4312572928476785, -0.43659067428217135, -0.42208520004207417, -0.4327142194356552, -0.4026883387974519, -0.3802511964875782, -0.2317528881532628, -0.2470474489907737, -0.24365505689495884, -0.20514276588200153, -0.28621564382704495, -0.33469019026504715, -0.3789054403548414, -0.4150003495673826, -0.44261770412843787, -0.4325836265520895, -0.36726543992939364, -0.3511466444134242, -0.42356198693741526, -0.4185249534826483, -0.440238891543063, -0.42365265387009093, -0.440494940049218, -0.4293180133344188, -0.4354169545434283, -0.4573807450198911, -0.41186664060720946, -0.441587089277557, -0.4653839053299871, -0.4382256308079618, -0.4412739486794187, -0.3966522370065059, -0.41905853002340115, -0.41435696402327027, -0.3887259884311034, -0.26734405446144516, -0.2516979956803996, -0.2262306193103887, -0.2778824447367076, -0.360847834605242, -0.4166315631803038, -0.49193062914341673, -0.437422853868761, -0.3695706720963459, -0.4028756780189699, -0.4317658139421716, -0.4289213742748499, -0.37961181568541574, -0.4300842908243997, -0.4481757094142318, -0.45248927616462364, -0.4460467578023367, -0.42631307236676896, -0.4559035352650631, -0.4420137800907333, -0.4558443714429839, -0.42474384409635285, -0.44659244243876045, -0.43657457163412977, -0.4118674473244425, -0.437329405195795, -0.39985784735540325, -0.40536182085016154, -0.39535270229258695, -0.34923218317148147, -0.33466141543776634, -0.31132323360413616, -0.3357999207415837, -0.3313440309778668, -0.35174875643637993, -0.3834746703294257, -0.4213369853328752, -0.4308362133223299, -0.43148385223687075, -0.4288738280456861, -0.41541292824518455, -0.44980200210730087, -0.44993201303562225, -0.4198889243496147, -0.4466741418148355, -0.4310722133061237, -0.4335476786509497, -0.44190571275147306, -0.4191280613009154, -0.41980819466242486, -0.4377689773530975, -0.44329570128825097, -0.4286985162631853, -0.44080521975043463, -0.4379923968223503, -0.4198286903332164, -0.4158257259992527, -0.43345287823663614, -0.4296066030294336, -0.4340288438658467, -0.4209998554532092, -0.4188967811666867, -0.41056547084270867, -0.41704931479364743, -0.4322581833600951, -0.39517181932067896, -0.44004988655481386, -0.42282343315461984, -0.4501114578909611, -0.44686808894871016, -0.4569129418158398, -0.42572016275226954, -0.43929469843379426, -0.41544030348716177, -0.4304387879392246, -0.41879680970735017]"
  ],
  "weights": [
    "[-0.001432283038897063, 0.05664915823469867, 0.055967616670876526, 0.0409009644444143, -0.03921814115973464, 0.07274304528644092, -0.03412655739607936, -0.04134670032020493, -0.0695427283320361, 0.011225099777263032, 0.07268151569034641, -0.07678330048695646, -0.0844418246262283, 0.07438286538992968, -0.03272500094559708, -0.039165163932449724, -0.0016950074156948183, 0.042788193634968504, 0.03614598325622833, 0.10688604539503968, -0.016338909876175173, -0.04163848405734259, 0.0443684926994838, 0.007945810231117444, 0.024838209652833083, -0.05540087373938931, 0.01500147898258563, 0.0411403396759834, -0.10808622987873225, 0.07716743093817241, -0.010826257037077309, 0.031121984204860283, -0.056878330429649196, -0.045839492672487374, -0.083611287421733, -0.00406567038870022, 0.015690091747067935, 0.05365447388959974, 0.06502886061498789, 0.11576928694194494, -0.024219314104632576, -0.05527152513973454, -0.013259620003697098, 0.06173236193783542, -0.03568953954738022, -0.022763319577635728, -0.01352393967734293, 0.07629345179518068, 0.0009570023979697731, 0.042239822824416545, 0.10410686894472564, -0.07841831946648253, -0.021942269965018784, 0.03542960286575079, 0.08813543551004485, 0.026798436622404723, -0.055894197083012, 0.06383393711650154, 0.055269530533798, 0.006482353937033231, -0.057788903294422045, -0.006836455444173578, 0.023545470062139723, -0.01128397501164796, -0.02608678188501322, 0.04521171636733472, -0.09574589435012949, 0.08848819321454078, 0.005885234854407963, 0.10489037445321167, -0.06738348233744913, 0.00848010109485302, -0.016858527662273897, 0.015964062338704562, 0.15650972062509508, 0.11127527646298457, -0.07952082099918459, -0.016813276171609718, -0.01736766227605175, -0.03458175856634916, 0.040794647894226224, 0.05737624282227884, 0.04623601445228095, 0.010990197995280686, 0.0858368264852705, 0.05172655492544236, -0.04287979189420824, 0.08223370569452383, 0.028168826159348175, 0.008231090961364157, -0.014972494410474432, -0.08807581044761134, 0.009129288492879415, -0.05076038984203509, 0.09542704648227839, -0.05905009492414917, 0.08051126517219459, 0.056697009231600495, 0.03376645490150205, 0.031152924031670602, -0.06561092486504051, 0.08661927587069952, -0.024772772318638024, -0.0790039017697298, -0.09474253922866457, 0.010601251516355593, -0.04050914042026089, 0.02350846703459992, 0.07327547186766152, 0.028351737037304686, -0.07720313625105249, 0.032322925301729324, 0.05276279570797259, -0.01029738660575041, 0.0023369040532403413, -0.022659992676742808, 0.012334354446431104, 0.05215785871057963, 0.06290443657135715, 0.003416595660768572, 0.04195494903094157, -0.02278737046014792, -0.1255992270204764, -0.046288454473984504, -0.040177123350303504, -0.005603895894781284, 0.03105090017321707, 0.021674890996427897, 0.10759200603889969, 0.05028050192656139, -0.03336708718496167, -0.01254533642854966, 0.03847773873347456, -0.0013954053288596684, -0.10506970378570005, 0.009043245923156605, 0.02428454864260315, 0.025399778709629388, 0.033095800367624786, -0.06800213837294349, 0.033305377569887225, -0.07395182033605295, 0.020522204890103566, -0.1034059831408612, -0.038234985684745273, -0.022049206109703772, 0.03910671739691889, -0.02789484094051405, -0.002347833779592252, 0.04457202466566922, -0.10311682502005956, 0.02657888472569079, -0.07048935071404967, 0.034198816170523394, 0.02819259453594921, -0.024685833957386907, 0.14016109969951762, -0.01856802128917529, 0.06711132961363411, -0.053399052306132226, -0.01813794459427843, 0.01455274660806129, 0.0351257564724673, -0.10084998325133064, -0.006432123129598063, 0.03280299637755488, -0.004370327794963651, -0.04030460353200978, -0.03408103544188299, -0.0819704733308636, 0.014520148882883955, -0.0065848184749153615, -0.026246078879744335, -0.018730834321206397, 0.027601811556296013, -0.08959712197596001, -0.022078889738469866, 0.10409843210396486, -0.0064247781407238535, 0.028143641652725634, 0.1444195422796598, 0.07073711237219121, 0.06487275768458221, 0.009889953449714555, 0.1042612515859788, 0.10367118945343924, 0.011144927130991378, -0.003517254966546269, -0.06548340227560387, -0.019492234377786924, -0.10801624405366403, 0.02271648061445958, -0.003814106156732681, -0.011928469525912345, 0.06106088284530518, -0.05089219743570725, 0.07280176091190554, 0.09042944927249445, -0.005186069753817729, -0.15084159305904735, -0.06103346861524611, -0.09829833966407119, -0.04642455677785881, 0.008384310875507978, 0.02500478200748775, 0.08069316347456645, 0.11115057243891531, 0.10737460046730327, 0.08884898856853782, 0.08283542340720919, 0.12125084577982799, 0.13034599922754084, 0.07523093792665794, 0.12847161327585435, 0.01677838450028735, -0.016955672295250374, 0.036185218832719745, 0.06107058794374321, 0.01702046947992717, 0.009739618264097603, 0.014842836056576507, -0.14343248899136302, 0.0603359585800659, -0.0623978251560296, -0.00564375552122141, -0.021214151141908597, 0.009965849597956484, -0.03900817748791999, -0.05153737730808373, 0.03490042707269354, -0.10729016943878869, -0.07564078346615159, -0.0790875466335504, -0.010210213695240332, 0.09834840656940842, 0.1183047498618419, 0.11782511425794578, 0.11060072943195536, 0.16439829718492602, 0.22310051709198297, 0.14036111584431896, 0.03780216967292121, -0.08365406422787285, 0.01474111135281211, 0.05322503851433979, -0.0844560583969121, -0.04587836571989251, 0.006349130628145646, -0.05078214466921432, -0.047695077424731676, 0.0013906255025898833, 0.010789262476718227, 0.0334809449674882, 0.005215998098373412, 0.040012293357306807, -0.005432220579939562, 0.03342497478311139, -0.07127782520356339, 0.010454697606984635, 0.1484899671041143, -0.035341563941752856, 0.076363787577403, 0.14161230333955058, 0.10052522941518963, 0.12399644943761436, 0.11302913671469098, 0.09374526789946848, 0.22163692643415872, 0.12103194432659233, 0.12601881193046466, 0.00782590863284083, 0.06535696116817805, -0.031924853707360284, -0.14514330754720567, -0.03008779888569526, 0.001267548077339122, -0.01058719197296485, -0.016691311000141873, 0.04784745195130729, 0.049312799429937146, 0.001205572845514994, -0.09743704932115459, 0.006348808218547634, -0.010225747504894035, 0.006452217039409175, -0.04302558252562699, 0.05314357635981641, -0.000830630699427204, 0.045387533464726564, 0.11317387049428632, 0.12965757492327465, 0.05168433209541266, 0.15033045852320104, 0.055690479197662485, 0.18982862165298386, 0.13165079710993455, 0.17007471506933644, 0.11302828785304914, 0.12697693279774208, 0.05709575508585159, 0.0374610271829082, 0.018498342305979208, 0.026262289011679586, 0.029363103491653362, -0.11262296457174226, 0.021899920655146975, 0.001942221332631374, 0.009166551437692107, 0.06857648791871977, 0.016843851296498877, -0.038931831042630385, -0.00024782033477257923, 0.020566195832558882, -0.010383233906232397, 0.021107956684023075, -0.03712873284290585, 0.01600437326857191, 0.13967627492061727, 0.040934576575515295, 0.030979217257270077, 0.019406303987390325, 0.1299064487038103, 0.1272654045781174, 0.18819441756034724, 0.18539647991988464, 0.10659287382248703, 0.1038141661531333, 0.07855410355897902, 0.04170366660343358, -0.07891186794902495, -0.007034872259069497, -0.040741088236062685, -0.009639231282115334, -0.08795986346826885, 0.017295553028462342, -0.016273172897884682, -0.013656267371771698, 0.05078481023438642, -0.11309978252040369, -0.050680760003686896, -0.10340788744467637, -0.018121636263189578, 0.040523797862549324, -0.006468003325477871, 0.018531476085543046, 0.1086671766269883, 0.10685600036551314, 0.041394722428718875, 0.07617977349728247, 0.08430134724520438, 0.13373150954253082, 0.06503706336752006, 0.09963556788774736, 0.09837931570619417, 0.14680121379775413, 0.03847025174184606, 0.10042218709590203, 0.1037881385644231, -0.03480673188785273, -0.010753929937792946, 0.10852296265547381, 0.10852103372574028, -0.011979935468658259, 0.015351968206093797, -0.003292420943394327, -0.0077280138993615025, 0.12399535018819753, 0.004165972541555028, 0.07129412965642441, 0.008322697117674643, 0.019441260380313196, 0.08048956148317754, 0.08137059758837643, 0.08056059745563543, 0.05392256831109992, 0.028010140469979034, -0.0758973801338978, 0.09089932053763733, 0.22460708981732233, 0.20325373242871553, 0.08981719738402442, 0.07202071034642578, 0.10487743949456912, 0.02772209488786705, 0.02641237888165764, -0.049987142988280504, -0.00585022145431084, -0.026119315959826774, 0.02500369943891051, 0.00150566876735674, 0.03443819410873, 0.056647880202796395, -0.03519029507351553, -0.06169619000496493, 0.07089827218824864, -0.022440801835427862, -0.03563436300815353, 0.04310316123079729, 0.005600031641931305, -0.017268060170360484, 0.027870743183550557, 0.12502748122060153, 0.0763631201037357, 0.10882863028540396, -0.02025766332162478, 0.09562939275340836, 0.14890705897913986, 0.25725528749254284, 0.14904888715647793, 0.12050876952885947, 0.023789378384642883, 0.01101083085571298, -0.014848782673453126, 0.04773779116352972, 0.112252252964361, -0.0743956642726289, -0.018319504813860386, 0.03166809362430222, 0.016440443917711597, 0.06720302894820969, 0.006891525679677528, -0.03448635401362997, 0.01718617604233644, 0.009425924349794529, -0.047763548322485104, -0.0772245349090877, 0.03393531850389639, 0.058633821538995864, 0.11992436364195147, 0.09687909987731631, 0.008925491707218106, -0.0373503116184023, 0.08767183673869457, 0.20405732319280603, 0.20602850263624128, 0.12488870899692263, 0.21207705394801382, -0.014104376705305968, 0.0905508202580783, 0.01847890068678926, -0.022822715265459755, -0.040989341248963806, 0.038285901905904134, -0.021891587631230947, -0.040590448373599784, 0.05076039201556034, 0.07789145518419316, -0.049363976505331884, 0.02499060983886713, 0.04414181040166039, 0.014855323634340186, -0.0012485926266744387, 0.00495132411647642, -0.04240982816588862, 0.12487130945757413, 0.042354284226637014, 0.0429223317167653, 0.12310006388621061, -0.00962828091083989, 0.05967767777750121, 0.03146823474420958, 0.19380966845072045, 0.19015765861857395, 0.19723909384872043, 0.10341972285105114, 0.10833500572705049, 0.06910894664227445, 0.013147662028069702, 0.09793793613805993, 0.07140893317083699, 0.008383845405865935, 0.049341583680449004, 0.009921693294367186, -0.006676342472258829, -0.058507944776209526, 0.008409397297698802, 0.028818310506012423, -0.08906634284972417, 0.04588229473280554, 0.0056584410463669955, 0.008135134197774604, 0.0071540181603483586, 0.030441740542601625, 0.05039555960996425, -0.007140135367100673, 0.05357074678315069, 0.023900041013713992, 0.06700201940763104, 0.13713570565397865, 0.17476199394032685, 0.2914368112859963, 0.19576800867428312, 0.17128102921344188, 0.06894581356242238, 0.07037146262847671, 0.07011232506162238, 0.04340556553601084, 0.11568862625609536, -0.010271952946222119, 0.03972924778310107, -0.06570672072078997, -0.014791299737748278, 0.08610016175996242, 0.05997371956185744, 0.08636195498800854, 0.007672081873497951, -0.0020586470201460682, 0.0019566066181917778, 0.03264401975637894, -0.05172797582458852, -0.03560289197718483, -0.07707974510256334, 0.06547894779492751, 0.04016084777704501, -0.05346973032224966, -0.002301508863020769, 0.09555950008827571, 0.1120337240235033, 0.15068350675571343, 0.10003798256543055, 0.12944300062875091, 0.12068844608140537, 0.08649831114250647, 0.10293808238185989, 0.12048651109994629, 0.07349725336206361, 0.005178528418413465, -0.06819760336470053, 0.036533202619158656, 0.02179121304530525, -0.10210817821400955, -0.0416769113211965, -0.02854772069644821, 0.029199719547223738, -0.01383278153059432, 0.08797492854567081, -0.05577161372285859, -0.09032937137216734, -0.13208676673937228, -0.00904487323958455, 0.01591630278557487, 0.04846825390922977, -0.017817546394295527, 0.012459358676694121, 0.15450505940842388, 0.17962030092475847, 0.2017425353906728, 0.11337617097112476, 0.11206321883511666, 0.15911583321130193, 0.045885840926319386, 0.07965959533215812, -0.02170805081426395, -0.0821576877920094, -0.008070784020715932, 0.01565431871205252, 0.06544478662691998, -0.0034577689030997785, -0.03180857181491341, -0.07074436194467737, -0.03579158159025893, 0.01932739339425262, 0.020662198167782433, 0.0346594732748821, -0.08610922575436683, -0.013492886907075043, -0.1243122387308484, 0.0307684238378105, 0.04343169951258735, -0.0056519409667104585, 0.03973054716388878, 0.14568163143904903, 0.16815709222084868, 0.14253333831048695, 0.11452081426097162, 0.13250745877119682, 0.09030998781932068, 0.12375169283844124, -0.020093383732307797, -0.03538933208729171, 0.05868216199081084, -0.0755035814303434, 0.05948130771377523, -0.06973066017358885, -0.08485910174888413, 0.03434343529926107, -0.051555998819926195, 0.06322055263064136, 0.013375179152623363, -0.029487702080788446, -0.07330830095691833, -0.0024993338727668218, 0.03912331835298479, -0.044251753355718196, -0.033712986664801665, -0.09764539570341783, -0.02628977140016904, 0.07912719419962926, -0.01482924330992585, 0.027296228804026282, 0.09947520408744304, 0.20148896789956997, 0.19634607504247406, 0.1670462815464935, 0.1031945087978933, 0.13881638107255187, 0.09883943114221146, -0.05781342389409324, 0.0428771029770515, 0.041336471719719124, -0.06627396840486366, -0.0018855480186278368, 0.014244370976839863, 0.007768306731744402, 0.023922004849078804, 0.01598517215240074, 0.048339009639720446, -0.09520058963702187, 0.03660713722323889, 0.11899392989971391, -0.02091880951116841, -0.09917530695417444, 0.013360503595109579, 0.004272324220166915, 0.03655500326254493, 0.048612062200074434, -0.01650939914178236, 0.14661292340588816, 0.1251491707024223, 0.14567846415149174, 0.13282727780313663, 0.24457859108573748, 0.12923246930333623, 0.07973127143493526, 0.01158403384736912, 0.009041611035849073, -0.05239802664503183, -0.030658913425475765, 0.06581927918902016, 0.015935248554467454, -0.020451039839371726, 0.08189967823681416, 0.07002207519378562, 0.03626198760884663, 0.017521761651073314, 0.013846780688517992, -0.013834740143217481, 0.056675445134744075, -0.02026356921327617, 0.06921846836492722, -0.05159123558487269, -0.04904145663753705, -0.06261071833956547, -0.008799668154768, 0.02523479144614534, 0.12264332501349319, 0.1760269829114414, 0.04851815423099276, 0.08632781271005346, 0.11406372347116228, 0.06935805210851397, -0.033866284553128706, -0.04392929621455606, -0.018978391663240005, -0.007863988323606057, -0.011498728515809487, 0.021409111266389363, 0.02479255231473756, -0.06348586498403563, -0.002022642067010209, -0.005206484094459449, 0.0495200249938888, 0.04284102337289754, -0.04772454126474231, 0.03444156034661433, -0.025673326389314327, -0.0458701257006446, -0.1013552349952111, 0.0289150527428256, 0.04186642684783271, 0.01843226392381936, 0.01144360767564452, 0.021990954001325336, 0.014633617463572281, -0.04246846513428329, 0.044589672094562674, 0.11192389843986239, 0.11296341584444873, 0.016553815893174405, -0.031225542126560837, 0.033015034610065816, -0.05975280192255219, 0.05518749285103291, 0.04903276537505771, -0.04856911000291486, -0.08970234286007933, 0.029843515694928886, -0.02078948335834151, -0.017225334577313872, -0.00850502373608405, 0.014073509528600729, -0.04796074974662014, -0.002450021505070448, 0.06633591048277876, -0.03645871287840358, 0.0060332336894020865, 0.043570508714614556, -0.024650382527585734, -0.03212143315839396, 0.08733088953780348, -0.05155656914016774, -0.003042105001288879, 0.029957918683824393, -0.0398236437135006, -0.015331266203426263, -0.03846160187726551, -0.004524427999447723, -0.026757764464988974, 0.015751159782558376, -0.014017615448136896, 0.026274087314721417, 0.0790282717658652, 0.07465664702676197, 0.08067982617307062, 0.009099689718104993, -0.0274150861993096, -0.0031121343477786617, -0.0023198027269409143, -0.06977404295359718, 0.006279503382626065, -0.02188117442460773, 0.040881048222113775, -0.04991849618620803, 0.019856012691874432, -0.04480471580002347, -0.01461946316660865, 0.06799079053177638, 0.05452870051669596, 0.061034046937248065, 0.011322205242770354, 0.020034794593384853, 0.00023390482666400426, -0.02978725967016456, 0.003639096310136648, -0.01586541958008808, -0.06620345256697238, -0.03014943935643958, 0.024214845561841867, -0.0892437957913592, 0.000354557520094879, 0.0030215513678702333, 0.04919067800168015, 0.022390994669096616, -0.08065245518936308, -0.015375471795541367, -0.01133530947547342, 0.03242689921079448, -0.03574565187643609, -0.05433022522587474, 0.008704909078363719, -0.09144682516382119, -0.028010917307030182, -0.007659865153116899, 0.02710998292326871, -0.002957687251569537, -0.06014121017044305, -0.037350716494598875, -0.01767990664082351, 0.05330070153871934, 0.025798418685428568, 0.0501407326324864, -0.038012955517006244, 0.08148213762641357, -0.056084990979106755, 0.0277789690831989, 0.004073562156812105, 0.0001313643433400565, -0.050135440489939474, -0.08349186858121721, -0.012977987643384295, 0.06937658234640866, -0.035246057724075595, -0.018587415224282738, -0.001420786855452668, 0.031627913684272084, -0.019240938767282872, 0.020291371372070724, -0.03373841881629387, -0.07287750859074088, 0.08172821961627437, 0.028176538714042448, -0.033622145688565544, -0.14291764562936948, 0.0017298737053298664, 0.03798434768637486, 0.0085143021677803, -0.09869052596010223, -0.02420433869998373, -0.031600493603904906, -0.03946312812595615, 0.01635969662190424, 0.008547954258681599, -0.003401033872798171, -0.017894772462638795, 0.020717891163540784, 0.011884275796258593, 0.06237977765388446, -0.08112753227914501, -0.07603581162767091, -0.025403506500521495, -0.003734187906291051, -0.019879129329362626, -0.017919013611002576, -0.017950004433089774, 0.02598405940467802, 0.03941401153958965, 0.026511295612019786, -0.04881540987433068, -0.02142134526801999, 0.026962548944538534, 0.010238117567871081, -0.02635766897083313, -0.027512018563327217, 0.02406957738345514, -0.0027989240601656576, -0.0002331851311145331, -0.012669197852152413, 0.006491610406713247, 0.017147122501438194, -0.044643990114967703, -0.01701650625147832, 0.07821081600627364, -0.019449031974217625, -0.029737427784858043, -0.06151839704242325, -0.04732457030281987, -0.04523356033653156, 0.018837673430716382, -0.014333079748372689, -0.06679675156651911, -0.03383544558138235, -0.09725849439583693, 0.08184246162004156, 0.06391269911514776, 0.05765691614382279, -0.0027979330146361563, -0.0021490784314916814, -0.035305203798804925, 0.025300438441760244, 0.004410298558976356, 0.02403264167308766, 0.0993198233198758, -0.04244180280479891, -0.0892488368516052, -0.1312995929698002, -0.13240897851495148, -0.05872120668753921, -0.05260932880372268, -0.04737121425445193, -0.11497152400377124, 0.03595432034575535, 0.14449269803588527, 0.018408766651641983, 0.045763624938916066, -0.008364850867920567, 0.004483596971087181, -0.029308206437729023, -0.1163887178528683, -0.02991945649339689, -0.07681191814651467, -0.019797687694091345, 0.016010755763774254, 0.046876004558437045, -0.030611853235535186, 0.05173011414213629, -0.13491317712496265, -0.08431015264735746, 0.03631227332965163, 0.12872094480848348, 0.13685916863695627, 0.024077435429140624, -0.05397718520363407, -0.18352433611900762, -0.18540119752407333, -0.1483383308109884, -0.1298418523400595, -0.14611889281748028, -0.3695911250674637, -0.1918584127633785, -0.13590036391513663, -0.09843395308803501, -0.05737456693357537, -0.09600745713537767, 0.12115622438234788, 0.023400132953848303, 0.02438659992819636, -0.05505078117179351, 0.024241662756710053, 0.0731976786418558, 0.033362595875951716, -0.02603236845304089, 0.01746875180347086, -0.10313408025526344, -0.023946632519649753, -0.006309796768534107, -0.1472171413480975, -0.1273779757289746, -0.2710329805525187, -0.34835689231254763, -0.3677931803151773, -0.325694679228597, -0.17437738015932136, -0.41058287503013513, -0.20085531356707237, -0.08795907266031508, -0.06778403707572486, 0.22285194404044156, 0.058434263977698554, -0.0801726987798531, -0.023515726310111104, -0.05818093952411748, -0.01962311354876305, -0.07073443730083462, 0.0027959861285352743, 0.016095191010297678, -0.004380945614364969, 0.03333913629864791, 0.042414302585713534, 0.026010794388232027, -0.0020683022829383144, -0.17782953024962014, -0.1416230816573993, -0.19338292376030825, -0.27895224162281224, -0.42156546274682255, -0.4244038389332857, -0.13442491315098734, -0.16950530511253611, -0.45871830291551646, -0.5428175474579287, -0.6892556412528272, -0.45105688836629665, -0.5084518678139908, -0.00019784111030368026, -0.0630667477199023, -0.28846653109019366, -0.12046675744290447, 0.013954840064535831, -0.044421604402275064, 0.11761734084202001, 0.008320715201211271, -0.07625128940728247, 0.1130739663308165, 0.0558080066558914, -0.0470405690122821, -0.10960314739657182, -0.10953842253502416, -0.12081551691794638, -0.17481058733536237, -0.14757149983846227, -0.027563316265361987, -0.17626559085835103, -0.09747686795625442, -0.012357350827669282, 0.005119437769206829, -0.17645676353472592, -0.6556963121775645, -0.9475874547033407, -0.7326133420580354, -0.5933868590309176, -0.6726854115041568, -0.24088847344091727, 0.24092480186749785, 0.007155722609312886, -0.07572075550769958, -0.0239327339258795, -0.06099437549844409, -0.06041135642671667, -0.0033884319606652044, 0.0362192347584452, 0.09511355711868782, 0.10000553511597789, 0.025849165408326668, 0.01449279609746046, -0.02759086614747057, 0.016520221287104703, 0.14796761620970927, -0.08324033249655119, 0.12249851332363645, 0.06905266628900153, -0.045494477223011066, 0.43478097259286563, -0.002339074466390454, -0.23000942734359103, -0.5145015258986774, -0.5466666348600838, 0.01923540573732395, 0.27097931153342303, 0.20660005703635792, -0.06297755165412654, 0.008101187284671388, 0.05498087428594033, 0.0016378157835930524, 0.1367649667144947, -0.06435179232781438, -0.14888129960807056, -0.12498582440675357, -0.005587259921749408, -0.028154985976565315, 0.05462455950547034, -0.08949878619953198, -0.02282211474174965, 0.07185158728139865, 0.20764284027289645, 0.34800496465598124, 0.1533184907635647, 0.22495802363181333, 0.2477157500752854, -0.06219910039769333, 0.06358532299577715, -0.02286978244469471, 0.03379650411319579, 0.29535288610247573, 0.4175193651771317, 1.1065736431325042, 1.3828955703589287, 1.1723814759963833, 0.3971012305696844, 0.10093761589586149, -0.17893799737010593, -0.2904032306195338, -0.23039031820679412, -0.0957188019227289, 0.07611468084094947, -0.016222847779371826, 0.008433685180154832, -0.07884174645233344, -0.0028644613098249066, 0.02107690862975089, 0.12028133680927418, 0.19399584676188064, 0.31230819996972164, 0.44687902068990487, 0.3053860582075514, 0.4197778219486158, 0.17112317474468228, -0.28198136425810083, -0.02875538485965259, -0.031847619649181286, 0.13285677277540603, 0.39315150707682983, 0.8163824832866202, 1.5557703209236784, 1.5790996891876896, 1.5502832677178187, 0.6752982000623107, 0.3538227418667228, -0.0021101915863453997, -0.11194662673545265, -0.11210532836927016, 0.12909325185194817, 0.13749215167238854, 0.15929467875629472, 0.11874077264376613, -0.05825260925391112, -0.010668544995528374, 0.050294663725004525, 0.18764336386371633, 0.2288159158625063, 0.11632362892388064, 0.25256267461537324, 0.1975122100627872, 0.46154461878335457, -0.06454794124276135, -0.412471873528686, -0.45565298672496657, -0.47184131356931897, -0.24127378865378163, 0.5212153285115244, 1.1086944762210937, 1.4603020469823174, 1.4445929009342857, 1.0706469402201342, 0.10386303341111895, -0.22964602835238695, -0.2678148877563951, -0.30535467742376526, -0.18634388567196175, -0.007302553582528997, 0.0968746837898987, -0.011570688501625424, -0.01821480611404954, 0.015838570022882616, 0.009759470054905125, 0.16601610475574774, 0.13868145443141797, 0.2015241729683893, 0.24342877745048003, -0.16379630883116056, 0.198414872049826, 0.09866133736735484, -0.2653088644278252, -0.4448596560799452, -0.5835172631618113, -0.22915903473441132, 0.19604908026959042, 0.7383198602215342, 1.129933276056875, 1.1608340142678244, 1.009565627383072, 0.09005315173857459, -0.6882283053627227, -0.5382926561010571, -0.41927604709988375, -0.3105569067551394, -0.1064591716876258, -0.02788426317293703, 0.07849042321439664, 0.02778388505549458, 0.024947397817483563, -0.03859123736828894, 0.06868345799055812, -0.01736080785128952, 0.12199501501701472, 0.014844339306191412, 0.013787954208413118, 0.06509773751223175, -0.11569931464201756, 0.0794678886783118, -0.40328776458962967, -0.4838178550159328, -0.3252212497050122, -0.10757307224793514, 0.34566376559321293, 0.6595621907884445, 0.6927971120685918, 0.5842197987686504, 0.32548117721501885, -0.183661704375295, -0.6650175867501639, -0.6937716215770214, -0.6246721054620964, -0.23883906711405273, 0.00042529679161491807, -0.0347696481947699, 0.10458184134089596, -0.03970198910180912, 0.05195813970267785, -0.0343390832081609, 0.013022955573596942, 0.03624770243861336, -0.058622508477494444, -0.19227111634017086, -0.10909790088998239, -0.09296176762216138, 0.020586105548893077, 0.24431743240413173, -0.3053011001844661, -0.3115753159067962, -0.07661668911375358, 0.16365478010123538, 0.7000615383026344, 0.9580243853056318, 0.4728445505024398, 0.482191363314246, -0.15891094579198536, -0.5508366049362392, -0.6012842528169466, -1.1311724636823621, -0.6832556628240158, -0.21710968386221374, 0.04402022100609297, 0.038225014912615256, 0.16071198509845597, 0.036815162636750866, -0.05061847603417217, -0.03239093923988184, 0.06211745625517055, 0.11506384891179233, -0.02543760340843913, -0.06126806603546521, -0.38347165963918123, -0.18791648197596295, 0.05878768429154055, -0.023652552062819555, -0.20033846757780435, 0.05491208209891247, 0.185004445099571, 0.2875677306729473, 0.3093033957687697, 0.3648339976027409, 0.23655041727031917, 0.000580495870662402, -0.09731237595220238, -0.5044391746569817, -0.6390433408046508, -0.8034069931453413, -0.5150418628670476, -0.1884706569066754, 0.0384117749737017, 0.10773730509999828, 0.1362806841131284, -0.09616584803700061, 0.012357716432835121, 0.06416585554640228, 0.08392353971078358, -0.022045833970326414, 0.07617035597650447, -0.1250855672856413, -0.3595295325983654, -0.20235558922407634, -0.1629615906294029, -0.5972846549032806, -0.665047416267635, -0.21626856872970127, -0.1576804766026669, 0.3833440926708086, 0.27194338142415486, 0.031031605022263785, 0.11098061243166098, 0.23417677071633147, 0.4786659055709053, -0.21641154330135604, -0.7697681924740835, -0.8159182058493385, -0.4062057749908711, -0.12626724470717524, 0.015615372272310288, 0.0661846887734349, 0.22878780984765684, 0.026015032029662963, 0.024132538125350964, 0.004789176353130965, 0.08707145504244469, -0.014301385997639327, 0.035578208997066305, -0.1567136140692014, -0.35514048348929117, -0.1677402348865329, -0.3367453903009668, -0.8459859435909214, -0.962382581702085, -0.7645838640553773, -0.36437781960053434, -0.16082587643588425, -0.39053303189878374, -0.11932505010641736, 0.17441695447154393, 0.3325410042933356, 0.6561876336610742, 0.2809725418096523, -0.4819511391983023, -0.8615549604127997, -0.3746434212323745, -0.05982613159891613, 0.041629874304750826, 0.1102571445672582, 0.021913317164864658, 0.005541187483438277, 0.04388939676680658, -0.05468191700060431, 0.004247753673977299, -0.07497201531785708, -0.01875331904020121, 0.11304711351028299, -0.16055269260969435, -0.015074526879473332, -0.42512028237406363, -1.1134044280198265, -1.523807820909548, -1.7203224859891961, -0.9949339959374905, -0.7783976418186844, -0.5412024389306974, -0.3871602995782688, -0.1244492339308766, 0.30664030678345405, 0.8094260579826105, 0.44729567135792897, -0.3625049464729075, -0.7736072865686611, -0.38910452114845007, 0.0063727600103711925, 0.08654616517209601, -0.05074864489975108, 0.006607502803307605, 0.0011651691849412559, -0.03279406010994852, 0.04442206446737108, -0.0491150132395639, 0.03360264023162991, 0.0610117934534451, 0.15740415767883154, -0.17522649014735883, 0.10426015227023525, -0.5109303006197565, -0.8949289377520683, -1.4371487503898874, -1.1027717846220857, -0.5535705113308276, -0.4107572300063189, -0.4326232790518311, -0.4092300761711139, -0.536036432533276, 0.15011903428398116, 0.3021790912084246, 0.2721281772017671, -0.5726917523743006, -0.9485982184992929, -0.7854439702242989, -0.15968731800070374, -0.011171262269730692, 0.09076673085297213, 0.13287535397285025, -0.04693460644095709, 0.05386542378719001, -0.03285278775441555, -0.0429537783013894, 0.02234492527491596, 0.06597690070322329, 0.057369832003543356, -0.13932946887489003, 0.08629528524170335, 0.02691720151948468, -0.8246350015335504, -1.1263664488422047, -0.8095287786561652, -0.5083039008013377, -0.19510468892911068, -0.182023320527479, -0.2707865571606179, -0.03848144666766384, 0.35847062619694875, 0.18076413444686434, -0.0717923753726839, -0.12834062836042864, -0.7522122621644515, -0.7220948826574151, -0.4147599963020672, -0.11805255605332418, 0.06075786436819134, -0.03831619433466959, -0.028631399452259947, -0.06342408858751246, -0.004417456775657833, -0.032204677753551854, 0.3101436849433754, 0.19221718700833254, 0.24976068402592394, 0.4065512614362546, 0.27413600020683515, -0.20619137080259728, -0.4772790082261927, -0.38706488439514003, 0.18552270103713736, 0.23585194240529853, -0.039121776400919336, -0.15858576002900626, -0.1780557050878309, 0.1605317456653292, 0.0990923586336065, 0.17878016249448922, -0.10566980571780814, -0.5178126698787601, -0.6219029096937272, -0.3556325930075485, -0.23331365700294296, -0.15269562211547602, -0.05543097892975308, -0.011561987999372312, 0.12522795198024625, -0.024453117390858533, -0.010519340585404102, 0.03912209159850269, 0.09443133174518868, 0.31977622623735136, 0.34632192880982204, 0.1746946028698682, 0.2886528488051336, 0.208385445813858, -0.3850383684955726, -0.10087977239297288, 0.1934720864936843, 0.10740248211261745, -0.06944384379910061, -0.012249365275555297, 0.03075433855404486, 0.13612197342750487, 0.1638160190828797, -0.04398555519524665, -0.33523470527214083, -0.6378098024472262, -0.5458821773707399, -0.29697410507521665, -0.16792406012160316, -0.1797804834187943, 0.043039576629878964, 0.05381571806627923, -0.01145426358648455, 0.10789121771380299, 0.01445309390344605, -0.014612835245130481, 0.005990818922836712, 0.07950466958180205, 0.22182393641881507, 0.15690546146618445, -0.09184657534976412, 0.07734275419572222, -0.3635489433242016, -0.33517007121137626, -0.45977161109240483, 0.1971251332056366, 0.04425529521584607, -0.14014145722411603, 0.09120442506273779, 0.363321672695502, 0.31670801502734913, 0.12761834211869763, -0.05925914842395582, -0.39982679213624256, -0.3062619632765339, -0.14921318782414147, 0.006447877646337214, -0.010428913755649121, 0.07166609407982158, 0.0562249624609482, -0.03259533047837102, -0.028933770467166647, -0.09971825159716105, -0.011471977980892044, -0.02077443875569766, 0.009380398410558865, 0.06725807546391303, 0.21371215798682378, 0.07828091607480843, -0.12983761379039846, -0.21920934711917744, -0.27603753310788476, -0.2552540175455477, 0.08639864265465158, -0.029727722833480463, 0.08670569591889724, 0.2031453445841659, 0.486247534505665, 0.32838988671747216, 0.6023470464747358, 0.20928531973170683, -0.09100793548402168, -0.21533453739114336, -0.12614884239142346, 0.012826450087600813, 0.05662541280214714, -0.03085389971058377, 0.013995972887902053, 0.06877583246775607, -0.08391137707561044, 0.045608814764532025, -0.035773502200199085, 0.04754898497811905, -0.02219270994168633, 0.09063391525980932, 0.015708397531803236, 0.10152066609283919, 0.06150670730957355, 0.1565224431464496, -0.0776312383468075, -0.09369559954677993, 0.004146977411709234, 0.043439792002406656, 0.2417254617081991, 0.34435599829932656, 0.3892929113953203, 0.44797013753326226, 0.20233959923443584, 0.07869177042746293, -0.03323349062275159, 0.04598476915949052, -0.06721141710989696, 0.11495737455418725, 0.02006056590684677, -0.016311063668204322, 0.08622772881607156, -0.00398183749739135, -0.06854220297103737, -0.03416626415377108, 0.020211763356645398, -0.019024007712935182, -0.018525552232751548, 0.020272410687064618, 0.030331348784083452, 0.1251915025438231, 0.197828425002162, 0.29720449577225583, 0.1322158065502747, 0.28953537687606945, 0.33944655739648366, 0.06330661287191482, 0.10243386847968843, 0.033856774667012556, 0.12601580648589886, 0.21537724142571277, 0.2882870193082812, 0.16239893851273293, 0.06335029690485168, -0.010566198741123632, -0.007580179102997828, 0.057749374935450154, 0.09663668966720947, 0.006243803969788643, -0.03734592985319928, -0.03084289098934085, 0.0274107276276743, 0.07758504200802996, -0.013877789395489679, 0.04903288232053395, 0.011706578045034307, 0.03635716884745389, -0.007547021511765002, -0.012714117443671295, 0.0893811404502894, 0.055584251915050065, 0.2418853918856405, 0.2090569954376717, 0.07098139339979229, 0.025008648101934473, 0.03008903833394884, 0.013131077696996146, 0.06835964059094272, 0.1230616916752837, 0.1675340081520986, 0.028106111516345355, 0.013231796246126592, -0.056931119466575364, -0.015650537567551057, -0.014762974945235817, -0.02727109149654574, -0.11734540042242729, 0.01837964832928652, -0.0553532008612292, 0.09987928615661644, 0.06407856648766926, -0.016705946500335477, 0.024410803795708962, 0.01921667968360007, -0.059880704104648165, 0.038493296964777206, 0.022648947106695523, 0.008869734259841647, 0.07277085119517246, 0.01812848582936272, -0.10845858855705927, 0.06174760685248416, 0.00114292468354204, -0.06800597079055759, -0.0618417660169401, 0.010036433032394864, 0.07693790027728507, 0.14986462977887366, 0.0706982266850133, -0.03421792660033706, -0.004499929655167112, 0.06644457105470633, 0.025719859741707082, -0.01824555073257657, 0.05769835700026727, -0.008197983975264281, 0.004579633877647311, 0.0890908290734479, 0.09416139309454141, 0.0015485540713423098, -0.021816347610974677, -0.06659302012418816, -0.06310160216740246, 0.053956456399471865, 0.02644739475672686, 0.06576328447441392, 0.0853825535753793, -0.0479858218987377, -0.049871829959340294, 0.034745313206680006, 0.04429075392383717, -0.060526454535814546, 0.045683316280417566, 0.04795897000879859, 0.014206466213222453, -0.016144165590419438, -0.05916021892901211, 0.09459816314240573, -0.01147654715596017, 0.03280633058366938, 0.08477550070209956, 0.005083194588500786, -0.025401052688537477, -0.03653497789103466, 0.06542853800552423, 0.03649798719288039, 0.0709991749957288, 0.01646323072567354, -0.03350600498325989, -0.007665464465491782, -0.05142538528171577, 0.06228552974918832, 0.018050993261724123, 0.06667922576781185, 0.013615909194645595, 0.007853490590952902, 0.05358205044924034, -0.04799047498288245, -0.015503235288772737, -0.02704174803444928, -0.000260199375198942, 0.047572021182467165, 0.07532606879244647, -0.05141039680390381, -0.12544086821180486, -0.07668291058217529, -0.009851887124892695, -0.007476232246417626, 0.07238987641895789, -0.003439342754991028, 0.031793930302995425, 0.0438101497506712, 0.019340456494241036, 0.0019150908954275498, 0.13212945208677246, -0.06760465725753426, -0.03977574380739339, -0.07670263702095925, -0.03509155741602446, -0.039867979591253565, -0.00026242712110013185, -0.005163645541607504, 0.028523236677502024, 0.03166511282381394, 0.09052839672441997, -0.04917270638040016, -0.031481923653894094, -0.07533613073189298, 0.03503791304030262, -0.03437198272693577, 0.023284153979274785, -0.05996738840485253, -0.016201765752835197, 0.046955283694800086, 0.025268076925497863, 0.049333916596885935, 0.035628233792915937, 0.02541141659919371, 0.03309728555702967, 0.029695334463824268, -0.0119125504980619, -0.0382236020808965, -0.020556029703161133, 0.0893983686981464, 0.026116690739478723, 0.034252259698276846, -0.0424939253972469, 0.05918042150525964, -0.06617166922241134, -0.07353913238051918, 0.0032456971084267733, 0.037033739938126815, 0.054112352745929196, -0.006921906175958003, -0.06769713392727102, 0.014627616497619346, -0.06042785440826016, 0.008444418276489642, 0.018047563119184037, 0.014486279490373524, 0.019096350253156116, -0.021314346205973656, -0.03729360925028452, -0.05299952758286653, 0.05387133489010736, -0.02206153316338083, -0.06555088755819294, -0.09560087983590596, -0.003337888865834093, -0.1347857004466482, 0.054382279670649104, 0.07845658386144203, 0.020170401313481492, 0.03234988243768006, -0.06177592289966848, 0.0003077590704346419, 0.039110369122973915, 0.025639313320167178, 0.10276797849881443, -0.003958358111378498, -0.010070332249913955, 0.00852295046385463, -0.02613271628650936, -0.0354645712198171, 0.10945075994765797, 0.07894371154589108, 0.023324962115905266, 0.02611744643270912, 0.0027508376269340714, -0.010376545769027776, -0.016730122525639168, -0.0006834678660405019, 0.013769591239219173, 0.0027278180495105314, -0.035558721629757414, -0.036809850195134455, -0.0343291220182843, -0.06803365744977556, 0.007856923491494423, -0.02596839404699022, -0.05737260819469317, -0.014189077734530124, 0.05165213782292354, 0.03663027280551502, 0.05292201678455684, -0.043231135651703126, 0.007149677318198968, 0.013792386988093708, 0.07197851583929281, 0.009074770693708668, 0.025834496109363243, -0.022656258089730763, 0.14017968926115842, 0.15732139476387605, 0.03091236986694834, 0.05207147244590257, 0.03878035187392913, 0.026755105517177198, 0.06264385619518793, 0.005714101382095384, -0.032515336677575425, 0.015732787016207027, -0.01696740314026473, 0.07143435498959953, -0.044958671098108006, -0.05527249780806776, -0.007328191495074289, -0.11537885389046024, -0.024472240528994122, 0.048438936986544064, -0.033209791197027945, 0.010378799067991034, -0.08292975257486487, -0.03643085020380894, -0.0326961673354332, 0.07374294008541529, 0.058557298685592896, 0.058228027459660124, -0.027492346106658253, 0.18715963530876395, 0.10405386719094765, 0.0854944400558835, 0.08292683837702054, 0.1287397646394376, 0.04112391957470181, -0.014242454909775031, -0.006065386189277018, 0.052185206748252895, 0.04035505619581891, 0.007620319125335326, 0.040211497113762804, -0.007570963903932353, 0.04053914469763807, -0.1037649541143487, 0.04544348761876898, 0.0974674287770658, 0.019130038239575372, 0.022927036792193968, -0.052395231870223234, -0.009712803585791163, -0.08145335223485084, 0.02453284810720188, 0.08320887604431604, 0.07878435775506555, 0.12665824319182536, 0.12084004208852459, 0.042152318499230686, 0.08450249769719237, 0.1538882679623712, 0.14122279670148521, 0.11793333007563697, 0.14046468514262853, 0.06333536283685688, -0.002986136145644586, 0.057699994898757156, 0.027016595460316685, 0.04759732276404906, 0.11685302713164543, 0.12657257868358524, -0.026017823985448323, 0.04299344723883222, -0.00913302512050398, -0.06807877599938905, -0.04012806627277524, -0.03345729307839242, 0.0322476119060884, -0.05096242056510741, -0.01950421488775354, 0.06870388768446574, 0.07633534181223253, -0.0033562444508668365, 0.029212760212605413, 0.09456643998434539, 0.0617647052851012, 0.12842892604322517, 0.2163364073767135, 0.19916388081133374, 0.2082203002784132, 0.21656387779578334, 0.07351078544266727, 0.008352346751575469, 0.045610822016021436, -0.0363709825137243, 0.04634892437573383, -0.047721982518477965, 0.0727625606914622, 0.009178336341891797, -0.02602263901131556, -0.029097167060495335, 0.04114252780349252, 0.027734165071049754, 0.02703369267002618, 0.03688214245060174, 0.08194534494534575, 0.027113620464995963, 0.0735474333808789, 0.017487460368303637, 0.026428085245325725, 0.06595995800261097, 0.07035394808991499, 0.09064060384974693, 0.09836961719354514, 0.13364025852067787, 0.12261022774209553, 0.2707216099683145, 0.0408830266928372, 0.024360268955529094, 0.16515707732054172, 0.17559319018792113, 0.1309628179523945, 0.07878290289772648, 0.11926346588271233, 0.04089586374921356, -0.03834620153418244, -0.017515754242756656, 0.0005257623921924741, 0.03307197865960543, 0.02411924185384025, -0.08719713214228059, -0.00907584266698678, 0.02358374790623487, 0.045013416626607246, -0.060341872478414174, 0.008550002400253668, -0.07911826218560587, 0.04930232428113777, 0.004114311128624706, 0.08135920017138946, 0.05749958606651086, 0.12188807366629968, 0.1368858107595501, 0.1362963338104262, 0.1539764838242385, 0.1504247566879076, 0.15800522622381907, 0.1230666903197824, 0.050774542881278646, 0.05169612180193725, 0.04858388509605645, 0.025669844990838294, 0.07960545730148516, -0.044513773826581934, -0.01569566303121291, 0.012951863843016446, -0.015269957554280756, 0.0394597715110206, -0.017755286242728763, -0.03367420842322007, 0.024916991486455195, 0.02655802719592896, 0.03757345562377263, 0.008979701252882588, 0.07528707640996998, 0.0029336368769265816, 0.049299496812417146, 0.11178734400279196, 0.06224599765477191, 0.07012062742137538, 0.050065179099963907, 0.03499830023400704, 0.08760143145628334, 0.13705356483282452, 0.06600828972988551, 0.08516823519460273, 0.18065346445197406, 0.08011482644652354, 0.02786444078949774, 0.09055422319865114, 0.040145230433105944, -0.07861008728610072, -0.042790544823333485, -0.12743639266267415, 0.002632618255538639, 0.019132252549548864, -0.013404522791620042, -0.011408985134634684, 0.009274419935935804, 0.014295402989507336, 0.06549575797789739, 0.0500135406857002, -0.0057513632013433775, -0.000998579605517269, 0.13440797607736849, 0.13668489867946473, 0.08670974988084047, 0.08286428505624625, -0.011841148663234801, 0.11972478124529379, 0.15676906566302934, 0.2927547352637656, 0.15820030476158858, 0.04792955495618341, 0.15668433608032267, 0.034939565439310406, 0.043522974894355575, -0.06056339369015604, -0.01787816176190272, 0.09214732648923785, -0.04992642880982825, -4.6637533655581945e-05, 0.02217156182154691, -0.08714071365764048, -0.04693524812893359, 0.07215712623459025, 0.04421592819961808, 0.005537723016619764, 0.014394655911008815, -0.022412796976904008, -0.05243723088190617, 0.025976914916345694, 0.11655545677340137, 0.042137968566233794, 0.11218278060535958, 0.04714988481086334, 0.11599073031001288, 0.08885803401338767, 0.29416865379966023, 0.2173649892229338, 0.12815119408456474, 0.19391761674791538, 0.12060683886280923, 0.10497707737149643, 0.12965527125625517, -0.0419854253929107, 0.011886148971053776, 0.005073759288958871, -0.05859675733915812, 0.026141876202373068, 0.017574094968824137, 0.06992851319667322, 0.034110483311188225, 0.09834458458275017, -0.00044554117445816583, -0.03781156183163625, 0.010171477675381433, 0.018274188230343835, -0.013488556937460323, 0.08466440547837947, -0.011990881512898214, 0.11518443488883165, 0.08096228452037423, 0.0589063136365639, 0.02116222453691103, 0.1925306910310938, 0.21679970393261763, 0.1968870802431759, 0.15294000356690357, 0.05023609926194421, 0.0361064849676219, 0.05300097936140488, 0.03341829726459779, -0.00037192827356772413, -0.027315415023996575, -0.008277293643548093, -0.04338754722195991, 0.017107443016676355, -0.0789660313050795, 0.07497144504576285, -0.03760105456485104, 0.0412480883075247, -0.03850899382089439, -0.025556240781408116, 0.04683257233576985, 0.045234987121479095, 0.020575501059284382, 0.004873706589825435, 0.12366152751216873, 0.05760339960690069, 0.11289880786984852, 0.07551660605944532, 0.06514488703501085, 0.13150029830929158, 0.17236276726895122, 0.23114232748546115, 0.07989857456923428, 0.17351855887210538, 0.17695422383855045, 0.06482866355573591, 0.06695017096889089, 0.10887658524069929, -0.04158482702335392, -0.02561570706581168, -0.015431218670441971, 0.02869075503932824, -0.012198380352953236, -0.08299441193075456, 0.014098863756381766, -0.07276013997234357, -0.06619446191050049, 0.014180106309766582, -0.0439903975426234, -0.013809644262666286, -0.09072499927704697, 0.02636981039482196, 0.12260788580713985, 0.0933915297365211, 0.1907207082589679, 0.05215382829643893, 0.12152937572418859, 0.21017861154509673, 0.2437088712222717, 0.20309318783707192, 0.16914591127244413, 0.11753208228831684, 0.08509063525071515, 0.019424266859557053, 0.06531336927899879, 0.04429585701559011, 0.04240680190015719, -0.00938181380004364, 0.0068717666343240955, -0.021262467356264126, 0.04263065659123491, -0.012666151900663945, -0.024925817821759514, -0.01885309597705207, -0.03268032330743033, 0.06066349213537748, 0.004464738320697482, 0.028339593448532478, 0.06313758806443914, -0.033620495081760716, 0.09372382680550634, 0.09624468394084049, -0.004124917740818788, 0.14843228287880572, 0.17883269386809209, 0.20042504553832877, 0.14998472166023394, 0.11390485789963811, 0.12459351946161082, 0.11398156453041833, 0.174211494619035, 0.025984019655968, 0.02988737846147281, 0.03499446244304962, -0.05183291272700247, 0.002565464310064145, -0.05187869742489958, -0.005202825632179636, -0.031226254885112915, 0.07179206381342457, -0.016026836627381757, 0.047557316141124864, 0.03610548025303466, -0.04609337816578489, 0.022656969479916737, 0.015350411154893396, -0.06612526633073845, -0.03283931212594982, 0.14781115632594483, 0.08004499461776841, 0.010111261215340913, 0.08471483615917952, 0.07109363180436486, 0.19475032793546337, 0.16215132757610043, 0.12508801779498258, 0.13272656053227294, 0.0969779445162359, 0.047414227486187295, 0.08358337997215715, -0.03999815595841415, 0.12248159677077453, 0.03273216512408593, 0.01438208387630999, -0.0012820361353689691, -0.0003369089638822525, 0.00944107447801291, 0.02619407365755308, -0.05359377371512923, -0.00396576647489466, -0.024771619057717274, -0.033709898978659725, -0.029492983632059648, -0.010639294980835916, -0.0061858312602035516, 0.03145921547824737, 0.021728382917746307, 0.006963868218567392, -0.03798819594536164, 0.07905629726647108, 0.11766758583467864, 0.09761310914380636, 0.15982418885405755, 0.11168375679453602, 0.2170051465740103, 0.0982352785908106, 0.11255927491463033, 0.0767526867871746, 0.019940819684074393, 0.004553140338189232, 0.028877392901303693, 0.06759038022673693, 0.007602875288311952, 0.013828217801812733, -0.009423972459730942, 0.015554616687894297, -0.046552824515078355, 0.02591178789542779, -0.017459437902900374, 0.022217334890131012, 0.002801068752495288, -0.025512727696899197, 0.008451312041143692, 0.022511457951559326, 0.024321181125849835, 0.05159011820263659, 0.05481165346095436, 0.1805983393913286, 0.1606344808999446, 0.25506079975939394, 0.14269924612235685, 0.13536497928803432, 0.12227296612875509, 0.08831371571968408, 0.04870705062422198, -0.05189821426177978, 0.12227615100285393, 0.05265629781515003, -0.011744126656218783, 0.002317840674769992, -0.06731566353207141, 0.09554235230093665, -0.05931717746385602, 0.03609061209127734, -0.00455188835100366, 0.08213628047261927, -0.02885781108589354, -0.01528075953875558, -0.027372622838317942, 0.07963004467285414, -0.04383962236873534, -0.0028239005159844343, 0.06828068412001073, 0.06804953334650432, 0.0471822473056892, 0.12332240519938133, 0.06306269391184983, 0.21156152536174908, 0.1119248953791694, 0.12128142889591745, 0.203752438105576, 0.19242409042049802, 0.04984603252254247, 0.04595222862861729, -0.011141236535896664, -0.0917423731238407, 0.08033175641510487, 0.044808276355006144, -0.04429332328955997, -0.037844143614778246, 0.023809006423690715, 0.033048998667722373, -0.08562119610912611, 0.1286937413448964, 0.015494175091899466, 0.11374707243304792, -0.003047584535274343, -0.01619567215706903, -0.03624359972811255, 0.0799856904150633, 0.09245408464194929, -0.016572581415190482, 0.10783188010952645, 0.10790668362894573, 0.13065425247551765, 0.17368700442189797, 0.05672462036339161, 0.050191747522883946, 0.13724409899908466, 0.13740163256291307, -0.017939219966731656, 0.04202508345445989, 0.059520117510692375, -0.024918921724918816, -0.011369871849601244, -0.0497372072687524, 0.15545015002515516, -0.06932601140783543, 0.013005814601169298, 0.019986864178507223, -0.05685955331738372, 0.052337155280259624, 0.0752274487128661, -0.00821144085942135, -0.0347591917678773, 0.017993122075314637, 0.01202494485851006, -0.01665145547461719, -0.058353908535277735, 0.02969715124746875, 0.03337282881679581, 0.19136651367530289, 0.14719433680091967, 0.13999344774133624, 0.15978003702691493, 0.19431464683310143, 0.12326281968025103, 0.041352075826013614, -0.029106701376426274, 0.012422064117612677, 0.014042695215659609, 0.010476680315264076, 0.06129818668238638, 0.013414861138123494, -0.034818751491337056, -0.036095489670773945, 0.04750659374483454, 0.08716440894916663, -0.01640424933068588, -0.029867435976345807, -0.004883997584786595, -0.07393605880750999, 0.061483779958070486, -0.027692497038667534, 0.0030750958840139652, -0.07289406939766176, 0.05824662500736866, 0.058382980717396296, -0.00948063228213344, 0.03079226931527263, 0.04538342053974947, -0.04261274730314219, -0.039854399149740684, 0.10985327952551087, 0.008897005919131892, 0.056864225931224144, -0.09947236603120459, 0.04456033330307521, 0.008828181381565098, -0.1035929591637655, -0.01886866794950462, 0.0008185541811654304, 0.01633964878304226, -0.0007133792138868869, 0.003436289240244756, -0.04720624533329631, -0.015215519942160896, -0.04660479281442186, 0.007503983591170138, -0.03173295374297599, 0.02686309663143538, -0.07111875633069686, 0.03897518965054367, -0.015382315879289342, 0.0595350770243732, -0.10695450766901254, -0.04099191884467518, 0.09255594117559827, -0.008515297427583886, 0.005431320012132876, -0.03349589506592513, -0.05118635053368686, 0.012811100717051441, 0.023001795020133862, -0.03231069164399573, 0.07796412665007246, 0.056180905886845156, -0.037027218398386116, 0.0022099114994585407, 0.01477861805941043, 0.020663558383644642, -0.008225052838285233, -0.07017190884905432, -0.11381217790408787, 0.009027200844426412, 0.019222362934344074, 0.028757903352769648, 0.010158095520150387, -0.02161453061236328, 0.07639799838479037, 0.0059909024434495976, 0.038734725623279814, -0.02773765881225618, -0.06122180839276782, -0.1055060298669331, 0.08840503266145042, 0.05170055597980875, -0.01642199205102966, -0.048030041013843824, 0.07505927785192189, -0.022708576882817452, 0.012812939523130208, -0.041191330551008584, 0.026609224860233607, 0.008705265604141308, -0.04757263013772038, 0.04321182611958501, 0.042144583803969224, 0.06223192234513937, 0.02674805046570071, 0.0889088504792702, 0.08579154067626545, -0.027361464353503062, 0.07271941095300549, 0.021686868125817983, 0.06064246737237717, 0.017235477336284305, -0.03046517072098129, -0.11200699741102957, 0.11310354313553697, -0.14289433611085844, -0.12525496750559892, 0.005655139872605752, -0.06269610039171511, -0.0077139067585516655, 0.026222965321086162, -0.018754187413737605, -0.017279098422157912, 0.045907434434422204, 0.022961696872202935, 0.056725857815772746, -0.0222634978878682, 0.018264366536511138, -0.03944706140431085, 0.008685910794173177, -0.07366514970598712, -0.0996746189176392, -0.020458295087954034, 0.007317017829878169, 0.05655672817756397, -0.04300506328638963, -0.029521449634614286, 0.0027502221721919956, 0.03280745392367969, 0.0745062789766437, 0.00286103268822372, 0.16150854043970422, -0.0013469775317639138, -0.011806365900354934, 0.03955722961909477, -0.09401771836566125, -0.03467796989506085, 0.08265718711239334, 0.00878035920548613, 0.03164417012705402, 0.024257482813346422, -0.07955826832990072, 0.025580365231138616, 0.05727337315032756, -0.03940132369881994, -0.00285152390561233, 0.008390587741682278, -0.014603701202850506, -0.05524996653042649, 0.003694508217674636, -0.05215789227331547, 0.01939868447538893, 0.04725005465366416, -0.07993122037484564, 0.003806167543827271, 0.036040587111731734, -0.01640825240152807, 0.023105927963613368, -0.0037923458225337524, 0.1310454400998825, 0.02030195934256784, -0.02780501702937356, -0.016841857253562843, -0.003032462135511606, -0.055013150878421326, 0.07873450004926622, 0.014318074293756523, -0.07106997250537109, -0.07308987649455095, -0.0006058099709952177, 0.06609351040607728, -0.00352769888605314, 0.05333723218829224, -0.019511743352896363, -0.06063624256238744, 0.0379866882099757, 0.02926323570272421, 0.04169850100126298, -0.09450664643944488, 0.08925985856225103, 0.037619233111382835, -0.039518747607220926, -0.02241470290831066, 0.11491248359453296, -0.01936432970126522, 0.0045756623567781915, -0.011706390910967372, -0.010601869902779698, 0.049262966639538656, -0.02768436584319931, -0.11887574734659409, 0.012677342637465523, 0.04131089776836152, -0.013256632650373069, 0.13707763054797453, 0.1976320867345358, 0.07702566995062471, 0.038785163726792415, 0.10358050066107755, 0.006829553168490523, -0.038013573350265964, 0.11170734333503103, -0.01886314502461817, -0.005020462781183709, -0.09843884500117205, 0.05280267785614398, 0.05342326061913666, -0.00045383946972633784, 0.07688376549914332, -0.041038235829632015, -0.11064468536952064, -0.08209741064626971, 0.002203470132547149, 0.06743650361912577, 0.03415509392480862, -0.0591886977533029, -0.04690706635058942, -0.07437756765450465, 0.06877103394328964, 0.1779907066324257, 0.15096871344407958, 0.2605943737443767, 0.28916602247786444, 0.15933747403323523, 0.15639701036608006, -0.07154529849283968, -0.054851123171232176, 0.09459479867730027, 0.19467203866014476, 0.180748715331916, -0.04946833880283613, -0.18750382586295417, -0.0989321095916098, -0.05608036377646364, 0.010048838491998092, 0.018338362925199397, 0.0699700346388649, -0.006206166124408083, -0.008689927540560525, -0.012874356702309436, 0.045463832043247575, 0.028515745443474693, 0.011544659158902345, -0.02536730446876932, 0.02052088383660562, 0.2040631438126464, 0.22505985738394477, 0.034862016948625174, 0.27518730699803623, 0.18842656263038515, 0.16685616102170217, 0.19041450095501652, 0.12386632206152702, -0.0077740086810541625, 0.16379501297814206, 0.10685090441092918, 0.3974268387393934, 0.5778052711932049, 0.08911540476137302, -0.007045103830721789, -0.09188986091475786, 0.06903294542678332, -0.08738234257742539, 0.05352570798988039, 0.03138794079987458, -0.04596746938458779, -0.0014206134637297, 0.01209515704947848, -0.05003978425961755, -0.010813269573581188, -0.01179496686877238, -0.12735780536413988, -0.04053953919609168, 0.09648245443114925, -0.04231269825954312, -0.04248971814237741, 0.10059563429280352, 0.030219358143437843, 0.11598589361471767, 0.1276413865929645, -0.038056679005310845, -0.41123806720019207, -0.4899391995128956, -0.3874578629689961, -0.28732622069102864, -0.07336180313134495, -0.06986973057350143, 0.014114430879897076, 0.08134115718799306, 0.035675884586716444, 0.027359951987237754, -0.02303539425099449, -0.02119033671353815, 0.03699461615856421, -0.025773208606524167, 0.009381486129987859, -0.0031802648081514853, -0.10683069155041458, -0.08113733688189126, -0.014145777347183959, 0.14967165818184952, 0.14157437848516163, -0.06409027767517982, -0.12114831147661663, -0.3585396845908088, -0.34889403373996125, 0.06909631744217999, -0.05684916099273148, -0.41936041882670305, -0.5484543701323835, -0.95782139360108, -1.1522086543305619, -0.9544487907840669, -0.4528625515339703, -0.21303578676116477, 0.056796605706794526, 0.029355357219411807, 0.15052652775710101, -0.03891813940871362, 0.035812567584965094, -0.0056901186444626595, 0.0763153882080468, 0.06196348743937731, -0.07184113625701498, -0.022061689758800573, -0.04606438560983671, 0.03582256715152092, -0.14073124420581246, -0.04535658143763609, -0.054175359799277595, -0.2394318517718206, -0.41463761289022105, -0.4540556769182748, -0.49948598268790567, -0.7560884912484699, -0.49596039559627525, -0.20164150473308448, -0.27719796587658596, -0.5943078999621858, -1.0068973030269626, -0.9237420674001499, -0.5613323210388889, -0.32114200795463543, -0.14016196749740167, -0.04744505107661207, 0.08314481202841036, 0.1357210708162508, 0.05223536066766601, -0.06549392092511938, -0.015620829942704277, -0.007922741476994575, -0.013069635475735463, 0.03188840399822003, -0.027712161311417245, 0.115310902363711, 0.08487298474370335, -0.1826322459437612, -0.4196055723250723, -0.44220640449963006, -0.16298758473153668, -0.11669729019180225, -0.45504965783259005, -0.5134545582375882, -0.11963481949851999, 0.2913443176832577, 0.38544608757456567, -0.325543395018186, -0.6865293893193942, -0.762866857905572, -0.6472839424476575, -0.3672377758361681, -0.3091897168807215, -0.04968940002137811, 0.22126707866811207, 0.2328299622003957, 0.09165968330271251, 0.053596714971910715, -0.027625116177786777, -0.023661379513955336, 0.0288437739156157, 0.12223392724653442, 0.19039068666292877, 0.008754986860497232, 0.1913820091807024, -0.20809118473078697, -0.28615647368709873, -0.12815575874413154, 0.006232498552363313, -0.39887947063787726, -0.23311193436234937, -0.10824522742641372, 0.08856544734048867, 0.60172670868487, 0.2993035534633227, -0.04621532371980817, -0.39888697509732807, -0.6536223582767282, -0.6950279235622431, -0.26716970315992117, -0.3489411098211528, -0.060311759298703825, 0.13504662922870395, 0.1593987554259644, 0.05664733934988836, 0.014938198316747996, -0.014565856354041192, -0.0014331197327988783, -0.007300462179904177, 0.16377472468767632, 0.22146913462053897, 0.10395939453556577, -0.03939492934864549, -0.1308791683392467, 0.056765834639661304, 0.25837167154116714, 0.04773151811617122, -0.08131560792835836, -0.1965425643921438, 0.1842401495024526, 0.4560071157764224, 0.5512355444798627, 0.4009030483640437, 0.13949388671449797, -0.3932064724640408, -0.6920694286329165, -0.8608161196344007, -0.19976142276005293, -0.4726960750679555, -0.1485021451242476, 0.020366646829180823, 0.046895553092138484, 0.07768326142386414, -0.033164458417818676, -0.06470515760003952, 0.06618417972886385, -0.025344353581680794, 0.07582681857649319, 0.0998825390112342, 0.02253656625089919, -0.04016566439523032, 0.023257358731337, 0.08396725999542588, 0.14760222546272111, 0.23280292874167685, 0.050102253817251655, -0.02466733949356702, 0.005420090024710655, 0.14804422910826934, 0.18112610875218266, 0.49742535553389106, 0.26018124816805915, -0.3214845349278247, -0.6712114501726061, -0.9601633248128779, -0.3942489781719868, -0.27458851372344334, 0.03882467449610566, -0.16423832941296967, -0.014392244840207619, -0.055258068641608794, -0.02923379764335502, -0.002868209313301312, -0.008292832207139196, 0.12309857416635873, -0.044304145790921595, 0.020663129963951588, 0.02703488351066499, 0.035422972132447515, -0.10192627650968343, 0.17667282724960798, 0.2368622804535153, 0.31113883224325634, -0.05244929676868535, -0.11276731542334463, -0.27503259231491756, 0.3167138650447666, 0.6298915768335412, 0.6272208996778704, -0.10708889012473444, -0.30883822827655816, -0.18914692594499327, -0.3376669207087141, -0.2303028693344793, -0.03236232022519743, 0.0856011922043386, 0.04857763448939093, 0.017778619850875588, -0.034880857313271396, 0.012299459001590093, 0.014819627195548817, 0.11585282058291492, 0.040209274770862946, 0.04007982355912537, 0.000726614740804001, 0.023303962370031225, 0.005261599925781271, 0.05025845187153152, 0.3467238387008004, 0.5323357843615759, 0.6694840588434179, 0.41267920340369707, 0.02609494111800524, 0.18543704534816183, 0.48738443047987684, 0.4899157920639533, 0.41388262108009416, -0.1479684800127583, 0.05159429537888287, 0.13121442510030504, -0.0443520949630546, 0.14913392823974703, 0.04860972821154112, -0.0015540193198449583, -0.013124560127717372, 0.06681450182272416, -0.018802797787562563, -0.021119683560685068, -0.06084608241777323, -0.03690617186898416, -0.059806041857673936, -0.06447502232369118, -0.07907088160399767, -0.09439683944415173, 0.10148174161913626, 0.2688955969216907, 0.42434492109779365, 0.7511620737604241, 0.43654512936508166, 0.22641139785855446, 0.25546072582179863, 0.36215730176338234, 0.6766065124337246, 0.42910485480321314, -0.040528844245318475, 0.04683714848896744, 0.4367442002256754, 0.368418383217704, -0.13145164065372836, 0.12984513576798826, 0.2725077736359945, 0.04207183256538663, 0.06172446619783371, -0.06669981656086026, -0.0303050909940685, -0.07620903618456548, 0.014897303290476492, -0.04638041594217331, -0.04006559306111083, -0.044824913734869055, -0.021145318995983577, -0.17288974960199252, 0.08635485006529428, 0.5006668381436703, 0.548209288805267, 0.6480861856848632, 0.7792979041273989, 0.22695946294805694, 0.4974616175553186, 0.7803624841604173, 0.946980849137816, 0.33339386753488004, 0.3671415595318463, 0.13464855035025783, 0.22497620394924864, 0.16305098578453311, -0.030573560000423355, 0.19301202606267545, 0.19556424015062143, 0.061005197839492674, 0.05034077410327439, 0.05238082122868235, 0.0024231870015403245, 0.059955188424793214, -0.03399752915921015, -0.005974688137255437, 0.044996829231947116, 0.07014510358076004, -0.10629335042265411, -0.1950322160666876, -0.08924979398520606, 0.08349130451339845, 0.0026775364529529225, 0.4642132403363868, 0.24175273522274965, 0.3616232623825383, 0.36518990245719435, 0.7579169122229623, 0.7246656412579158, 0.5064213095817915, 0.49366557765246255, 0.0975127433547277, 0.5347600833224249, 0.262857503662868, -0.011218199888720236, 0.1897600772670668, 0.049446745994194956, 0.1324953225240053, 0.05279371711748252, 0.01584524543332297, -0.01845039203153139, -0.051323625667964605, 0.017339017915570524, -0.05387462815366461, 0.05321516911775169, 0.021137349377014204, -0.15994047757006827, -0.010656027827690208, -0.21679261819244408, -0.020113949444666702, 0.08341535638457366, 0.21853961326279991, 0.049361327583186586, 0.336628903900349, 0.7390504188273512, 0.7848104809845757, 0.6517385316033666, 0.423025272428139, 0.09932775072460746, 0.23671822573056475, 0.6379223548501228, 0.557140567246186, 0.0469149023459576, -0.016203474390008257, -0.0652537089484687, -0.04014834340212855, 0.05040839425325425, -0.015066529375180071, -0.022956225379822545, -0.001516258866583225, -0.025842749328679974, 0.0751289491583257, 0.01671638734813519, -0.011765027326285978, 0.034634064613673445, -0.28541312110117195, -0.33683036046347004, -0.27578630484823874, -0.06936388538133754, -0.07165763247808347, 0.41073898658877694, 0.6260428055727354, 0.5128458567569459, 0.7111022181891656, 0.8828520634503116, -0.2200921131833348, -0.24736471416200034, 0.12493873727832107, 0.559918501963873, 0.5675886250226655, 0.0052927840240560835, -0.21450880151686683, -0.30055422236530815, -0.14384602554315126, 0.23507137626016178, -0.04980332685859315, 0.05938651442243913, 0.15592232744391446, 0.05922346944068044, -0.0007882444307376697, 0.025839408756789285, 0.09047117075620896, -0.07979308693596879, -0.41034535995490523, -0.3823629411163106, -0.2747899441250923, 0.05673734377120705, 0.19365409629361308, 0.21522054250569622, 0.24894777471820567, 0.43120337605685227, 0.7519363232952198, 0.33755864316723927, -0.22056767571361321, -0.2461732104631448, 0.3825994735963698, 0.48019713604680747, 0.3907955877665372, -0.25307857507816695, -0.2731442505470051, -0.22355669071279968, -0.13031916572509822, 0.07858389494477709, 0.03311343438887982, -0.0844525397338283, -0.05459583526268962, 0.017246267115188542, 0.00307927605228341, -0.03644409601835837, -0.025289655069888128, -0.33791749680716304, -0.6200335609112655, -0.6853995243464652, -0.9196004291779989, -0.37590119486167645, -0.2332422075329494, -0.10071771253317789, 0.03755926826541914, 0.19507730459849928, 0.1791337363406607, -0.035027041618475335, -0.050730876397049304, 0.45424590461789804, 0.4291849363913299, 0.3024835517918585, -0.11565273595563158, -0.2064647056729075, -0.08375945814054361, -0.16231480279290042, -0.10439078052202275, 0.07630603685941363, 0.04152172355879211, -0.005104105999268851, -0.026613311255960444, -0.01763092854843973, -0.07974095517156121, 0.035578041645432955, 0.01042999725079324, -0.24643284040741917, -0.5536356172650557, -0.5657352698045013, -0.6657961531835789, -0.9373011025723204, -0.6703121002616003, -0.8208362662450924, -0.3836963473723543, -0.27634807545020174, 0.013983434691233757, -0.06778667571934048, 0.1267201979377443, 0.260957545924306, 0.3820910588396519, 0.2878295503647321, -0.03583474610505279, 0.0066494872828054335, 0.021437029882152098, -0.12156515998077644, -0.08925282889489182, -0.004404119154918594, -0.06087463863636601, -0.07838501255358696, 0.01948683521195768, 0.07672649235223138, -0.056899838570486305, 0.07507016398140678, -0.02363936822307062, -0.07014353596688891, -0.41726216433264557, -0.32835592662498586, -0.8544758371357529, -1.1275638669799597, -1.1673941447943192, -1.435283949193999, -0.853019483206378, -0.6704563054306988, -0.23275535886778687, -0.011464244493993022, 0.16593458746989248, 0.167575939034738, 0.2591661314742262, 0.28209329763501856, 0.07794380319504432, 0.1285760778325582, -0.048399712362777014, -0.12724698544979657, -0.03643041337229017, 0.11788634702974836, -0.04791384112454628, -0.097813492566446, -0.004175142394755668, -0.01294195178998397, -0.041883154953278566, -0.04939180353921815, -0.058244305094446114, -0.04722429154462074, -0.08323454458522227, -0.0105112823716759, 0.003120107599255318, -0.4997068810667203, -0.5759672931431566, -0.5463805779032049, -0.7644270396028258, -0.8299296864223417, -0.38120251475325284, -0.042630675042685605, 0.18791530107232557, 0.4238329457450384, 0.5392862533655087, 0.4334796820958063, 0.325200347956643, 0.08349663748415619, 0.03271953099623568, 0.045482379785209436, 0.0014612838429523957, -0.036529868151050846, -0.039800891343098665, -0.07678967963640439, 0.020400587206166085, 0.015147170906375932, -0.012726961822058744, 0.06774844694845705, -0.06475101763766841, -0.02494458487095314, 0.06916572722180256, -0.05784643352080988, -0.08371685567079473, -0.30688070470253764, -0.2242955100958215, -0.6373223610063574, -0.7471211950789363, -0.6594800766266373, -0.5022926539815734, -0.2702150662800543, 0.15564467239639415, 0.3430004343745946, 0.31753574274671853, 0.23972416320549092, 0.09823764059249122, -0.00912303033318292, -0.0858663937672634, -0.01233989985076876, 0.03280248450380759, -0.04233930519612106, 0.0445146072669966, -0.029404309073150597, -0.05872040732328145, 0.06705134038765431, 0.07545727974329938, 0.06387622206867859, -0.0166852906851729, 0.01303626162666729, 0.022628936712332185, 0.03907503082271723, 0.17630534801494202, 0.02657244991728149, -0.0032422350170876056, -0.19161314617846495, -0.36521594684434233, -0.45282622866326205, -0.1695171800055758, 0.023015482171488886, 0.12488737899600669, 0.2570913764843363, 0.09143435097538476, 0.0073394342489617355, 0.08267751384453846, -0.07225701348107427, -0.03789826819499704, -0.0006455670240023345, -0.006165739234875555, 0.004275674459623801, 0.03274400141333303, 0.0589731511914946, 0.049786933914775934, -0.00041320262190547633, 0.013759681442968337, -0.027601354582460113, 0.09608520653786655, 0.017656510628176494, 0.06346976951884385, 0.024165344053087512, 0.07786770198660126, 0.18356606138991877, 0.04304650477683938, -0.163354774794266, -0.20035713375670272, -0.27450756921114533, -0.1442899161403079, -0.016370652628673085, 0.12117747701822289, 0.00934090675242302, 0.058338312254795285, 0.022123869124691768, 0.057829041168027825, 0.04105328309795226, -0.04158303017230644, 0.014169856323336928, 0.03505018601363144, -0.0018206976202592264, -0.029873966393587668, 0.011940430828812049, -0.005150453393684775, 0.020835801201781412, -0.015837523411971862, 0.05197128354804283, 0.026555304561864244, -0.026410036241888386, -0.013605363875177695, 0.011494362085640216, -0.03194253283461011, -0.018819404023719677, 0.09078248773811481, 0.0980579812561839, -0.061050588924110596, -0.06597796289898344, 0.06196646468228666, 0.004693923355249275, -0.0022294785225553185, -0.053529520203028376, -0.010573547903985701, 0.028462609210662813, -0.021392038298386064, -0.04071485841960816, 0.011523399748203685, -0.016749426547318712, -0.016940968864710578, 0.01972155125840246, 0.046799197240189536, -0.032938911241240605, 0.009235120967410224, -0.02162653022702902, 0.03521995461988454, 0.022409565622602993, 0.06307715083525343, -0.054414034429130634, -0.01747790940017995, 0.028163634675363192, -0.029000552748659404, -0.09387502680910982, -0.03546864334020143, -0.05239174649604141, -0.007345520467647392, 0.10119084767876929, 0.07680504115253652, -0.0536734981186374, 0.03709798892994822, 0.06108633249999832, 0.10741023634574992, -0.061802364826989926, 0.027227254707805223, 0.014985739984501862, 0.045453902329420794, 0.00906420768444533, 0.06365940675435988, 0.018986222178989858, 0.046314020625033994, -0.0326839204462935, -0.015212599863348344, -0.010511639140378986, 0.04857802915564708, 0.006261011911492344, 0.00927773695831317, -0.004662805217565153, 0.058118902648108615, -0.06090343208104683, -0.15249232370156804, -0.04957899412663958, -0.01977559132612998, 0.08430308867953955, -0.016344494889088516, 0.008398151464966764, 0.04192445676320793, -0.015751815688881492, 0.021517476975408404, 0.04115695975221219, -0.07312825777106087, 0.005796367691373028, 0.07792833231825327, 0.023625136740649477, 0.005415370218932619, 0.043097621664111414, -0.04561954674187912, 0.004518977524948856, -0.017602634345100295, 0.03860178175743669, 0.018897137263620516, -0.03394131844591596, -0.002614946854933799, -0.02137428406423995, -0.06314643115184582, 0.019091801501304326, -0.05254852464538085, 0.01328485099912732, -0.044932713021288324, -0.01610525941989003, 0.10477991355817919, -0.03582557514905089, -0.0758761337513423, -0.03262239542937343, -0.03910067723812793, -0.006644457897169241, 0.019889239951811983, 0.0743243327043079, 0.07873498615297661, -0.10327587086924088, -0.11567997191989782, -0.12071140159433504, -0.060186844459430566, -0.008154070107355455, -0.039084028828663096, 0.030871328686509013, -0.02196235602946794, 0.029983320306775103, 0.0019336489185476512, 0.0030624605058111854, -0.004987736992783097, -0.022602459349658294, 0.05988935020199233, -0.09967898903444891, 0.01912406175381493, -0.13458023830212648, 0.07864390524717947, -0.06151286689096222, 0.05117351881637178, -0.008862165546556115, 0.06538583461704957, -0.024562932646139055, -0.10110468368095936, 0.17379916213186486, 0.20454948086877908, 0.12551794809484068, 0.15103633062945082, 0.12390893923534074, -0.0001470946455201308, -0.07056811290956416, -0.00267266010760917, -0.02711824663842583, 0.03687244320527641, -0.025126649834369092, -0.05340849225989827, 0.04552781679678121, -0.00926796685010874, -0.023724566133110393, 0.07141264315518009, 0.06164131885918516, 0.020244391673204413, -0.004221901125437188, -0.05391472857594108, -0.002980613854603039, -0.069031855065989, 0.09458344921503997, -0.1356091197203106, -0.1300600389148253, -0.0639297309933195, -0.17095957634740397, 0.0005715099509608272, 0.15819854625194224, 0.047158170276035645, -0.11450760168164137, -0.04868666293356195, 0.10423890093245433, 0.20165969198397407, -0.13429512096849516, -0.22019389679405463, -0.004431258727365709, -0.05665621776173357, -0.0545446793861313, -0.006711708765413922, -0.10316638620424907, -0.047510679997306494, 0.06374796835926162, 0.02854183363286473, -0.07673449874823274, 0.06609032468331677, 0.012493976510764773, 0.0039352133778883065, -0.0011591807586262316, -0.06439324921960295, -0.06537591655316359, -0.255398873601019, -0.6056464552396096, -0.4623594610384363, -0.24290016051340357, -0.11802342862176908, -0.1326486468614098, -0.0872389778886613, -0.1779540424863695, -0.05951885933295772, 0.37703956212011225, 0.4113149128090538, -0.09322950279983111, -0.17640147567302403, 0.039753684867972844, -0.16271038921999406, -0.2384715211714361, -0.02249707158150582, -0.06463503709660806, 0.06091068720563495, 0.020001333866602283, -0.01981005422345772, -0.01744511748231704, 0.08526828901668045, -0.05278970283665465, -0.0482377453360058, -0.0365999150906979, -0.13123446332406502, -0.21463225620850532, -0.3193034421844923, -0.6783901476419636, -0.2941943184282734, 0.10954256227123363, -0.2198352769093325, -0.31078724806741337, -0.11135457132063353, 0.03399053818848363, -0.08387102758479063, -0.022292311668417407, -0.12710598732667128, -0.24471895853995482, -0.1982093947718506, -0.22542920610236733, -0.2272911764371329, -0.3035494902962276, -0.02166785708854846, 0.0419004520782552, -0.0402410709615069, 0.1372491841201136, -0.034071511288001975, -0.07270841011925118, -0.007436189385639092, -0.08573305553153517, -0.1278125093558782, -0.07736791919956641, -0.23445752161288355, -0.19149894635281892, -0.4189140042949423, -0.38060953207904896, 0.08784737105614077, 0.13594164038718654, -0.08764637210171491, 0.009001231762450409, -0.0232277906645801, 0.00764864363322109, -0.2532273124793287, -0.057624251775477635, -0.04677329670762593, 0.08626918207533112, -0.10085889228452681, -0.2931815210980552, -0.3114435158440671, -0.008989985286443066, 0.030018789591265888, -0.0029195436134419077, -0.04354533262196456, -0.02010341871116648, -0.07176972563728991, -0.01181108844826006, 0.04108107757583297, -0.05025722980748203, -0.18202260754688057, -0.07477071543253762, -0.2984268979579544, -0.4542503231421679, -0.4246237117129134, -0.44186869876383267, 0.010307353447952696, 0.3613660575330114, 0.1968663414314919, 0.06302945955183767, 0.09208330645581142, -0.04005845005975266, -0.14158422371311144, -0.13358984562123113, -0.1670615627776225, -0.16131139427978788, -0.07125624146268116, -0.12540176191481975, -0.05559042453854469, 0.23155836201148014, 0.1010917969013606, 0.0004170688510407212, -0.04566732074859938, 0.05618752582300022, 0.019648843505744536, 0.01633133175622501, -0.055182472007570815, -0.03218819038984188, -0.249075719104897, -0.13921964365700645, -0.3345582864481053, -0.5268487977114017, -0.82412738161972, -0.3546972207354922, 0.05708363855007372, 0.44326717861685155, 0.30770489942758816, -0.2258305218478413, -0.5336167512481811, -0.2673553256070347, -0.45647048263822715, -0.02956588202079564, -0.40465701526517484, -0.07420944900370156, -0.11269293149690318, -0.06792786053291464, 0.038952546061264165, -0.025497268453078193, 0.2578107184713879, -0.02101125951512358, -0.057147779273137925, -0.13676572870537435, -0.021962525806772284, 0.11072698905970088, 0.09665796835607575, -0.021335402285272153, -0.062051848114597546, -0.18534272206032407, -0.31079964549035444, -0.6528485465977482, -0.667031030137588, -0.06567520733309935, 0.42032790338469084, 0.5636270918832046, -0.009472355268541805, -0.7052873823041751, -0.46257305129245424, -0.18656686588306132, -0.029727711694088197, -0.1919026540310675, -0.589912481939177, 0.1538926323172191, -0.13225500183198233, -0.12857507756629918, -0.08365991014882126, -0.11705384677808267, 0.022566837913455155, -0.13584076497980324, 0.035429394019357435, 0.056595980824374524, -0.0006985082305373773, 0.04260430905439803, -0.014690647373647604, -0.06280904563616817, -0.1816491807781075, -0.21941803020303252, -0.5333384114779507, -0.41267106100917794, -0.26063075421883863, 0.18733081542094052, 0.47093438576568464, 0.46113625904707933, -0.12207427466825026, -0.4404876362201208, -0.5086005409331767, -0.2981935175764882, -0.01661805376757288, -0.152224407351164, -0.4762051872618556, -0.1340421551153391, -0.2016434891761109, -0.39220004656117924, -0.4481221241170248, -0.2678232930298806, -0.013718365618252144, -0.06257190691414748, -0.09292104735318063, 0.02210184820785115, 0.024303609562783005, 0.06837694383826863, 0.10689737004218737, 0.11480310241519992, -0.05582326933402497, -0.43223645966285495, -0.5866440976261375, -0.4742616882119011, 0.07360043805381636, 0.3204449368797156, 0.8288473491355332, 0.4880220671523168, -0.025780239188837796, -0.3286885179753049, -0.2478691663258884, -0.1307954751528339, 0.18893415831969845, -0.07621759337544239, 0.19437105032480156, 0.26228762449822984, -0.21701441472944033, -0.21177267642256903, -0.4176885844812924, -0.24981889383681516, 0.028685256076785445, -0.08607449977072892, 0.0208650971442284, -0.01651626779548676, 0.04980614019147244, -0.0147667356312905, 0.07603579550843699, 0.1790417340260203, -0.10714013214307187, -0.5799293517202027, -0.6459334472581869, -0.33109563350968785, 0.003982056816845762, 0.7943103287497868, 0.7344104017953692, 0.6375073086573598, 0.38410080052860496, 0.4235664099373234, 0.15366079334122792, 0.006700098017006904, 0.13642784258493873, 0.28955687115613266, 0.34974081713852384, 0.39543075080908774, -0.03139119367924801, -0.16713719100064747, -0.3341253403904009, -0.15775883936070953, -0.0474174964434753, -0.04923881545203499, -0.0006225672863840495, -0.005603961473081887, -0.010409496657920628, 0.005156989262871807, 0.0067023225668775555, 0.04729194547395764, -0.18265285923869856, -0.42564965670121285, -0.39226138006040334, -0.08735558549652431, 0.2828335208446167, 0.8428867477612991, 1.151016088016429, 0.53071117759257, 0.3055653764999872, 0.450875862593425, -0.019863026194120552, 0.303443289110742, 0.2568520743361818, 0.4046340861987725, 0.5084492851200547, 0.37056267704960627, 0.03845900750206501, -0.29042174011419314, -0.21504015897516146, -0.11254937641293217, -0.03690930423948171, 0.008096306556969657, -0.0018087909645411804, 0.05790995740338522, 0.004484583009087065, 0.06020269746427497, 0.06375289161245294, 0.0018955128100061384, -0.2093011111081503, -0.30524259688541117, -0.3556535358822565, 0.09705795821031174, 0.456785975651754, 0.694325334034157, 0.45738058862420816, -0.06249775564721649, -0.087224023943668, -0.17875603630774087, -0.03853820150358389, 0.7275111733946307, 0.8366323827605304, 0.7316119219489045, 0.33968199052024106, 0.17468690720900792, -0.06055820570784869, -0.24744859559302876, -0.29770089883538886, -0.14491961906232181, -0.020032329586906764, -0.03994819000225417, 0.0454355491266016, 0.14307017693034763, 0.016707083806657398, 0.026230259837042354, -0.06547396945593184, -0.12088065693493111, -0.19202158974482658, -0.4129167367266132, -0.4557710980022955, -0.2516606078212274, 0.6369565771712308, 0.321012610449147, 0.0595254636129324, -0.2369422668589947, -0.6261874141938916, -0.6310780239533145, -0.17745913497941446, 0.6434940992448499, 0.9282935813008124, 0.5833326817481245, 0.24300200190671029, -0.05777351284859355, -0.16849556818498423, -0.32301970191446877, -0.2161758715165282, -0.010058945604017731, 0.0010211538986161744, 0.023557096361922273, -0.014745212350990876, -0.06536325661982233, 0.032523834184241034, 0.01320481004047628, -0.15520325069159044, -0.1496724736340017, -0.28699011947429326, -0.27306065830839943, -0.18446976727839054, -0.3878676517930963, 0.135806908164935, 0.18734285799238043, -0.03380645620083194, -0.3426648804411233, -0.4137393659576056, -0.6723559471424723, 0.2512546928097505, 0.482634025221437, 0.92899790009127, 0.4517297956511032, -0.1217354021314476, -0.21671594957798765, -0.6869099267412383, -0.41086398454295064, -0.059372711914719864, -0.08017297517406238, -0.003301547528016588, -0.025668232356280633, -0.030936861990041586, 0.03522441253260385, -0.09437757736008745, -0.012426022729700026, -0.23322144547136767, -0.29503870814577904, -0.2228895982343238, -0.37746927333996955, -0.06215336092898519, -0.01806694231279595, 0.28595169683220634, 0.1826276523948308, -0.13599578015739308, -0.6096655687509315, -0.5827662051128959, -0.04470322604946179, 0.3359336366229638, 1.0347598113023653, 1.0458428264277224, 0.29283333259092253, -0.3711968666558111, -0.5518994592440392, -0.7950997350848292, -0.38792472933752753, -0.1172216763615292, -0.0855841188566124, 0.05756532305092589, -0.03630051719622816, -0.06966210007018507, 0.03103904853341817, -0.05791806130824053, -0.04168338998077662, -0.2492260242319057, -0.3456937440478586, -0.23176706092089527, -0.14968940647774034, 0.0503143442116855, -0.09307965835800558, -0.14633402748673005, -0.5011724481590834, -0.6251607232949373, -0.914586489496912, -0.5256946356774832, 0.25926054625678935, 1.0881691183937516, 1.4048861850082055, 0.9385718190028514, -0.047438172659541554, -0.6946502836919415, -0.6267802552869481, -0.5918069311496544, -0.26736543419703207, -0.03472095299443792, -0.04500740220380279, -0.018588942238713463, -0.03458322302631539, -0.0007137832941132016, 0.0684094069055199, 0.029083301733974973, 0.05134387178957096, -0.10872936156579469, -0.11245506524627537, -0.2037548727876899, 0.014313113324311481, -0.17380912224771422, -0.3389904297946111, -0.219317840168715, -0.4388733618395351, -0.2978036966002529, -0.38442168918491654, -0.03631850655805876, 0.7715191698901877, 1.2423217733275393, 1.0105167615456907, 0.28254416866416443, -0.43722957241595894, -0.5808036131333674, -0.5056086842688117, -0.37038148850324154, -0.1391196012993171, -0.053423124717311934, 0.023634415604169526, 0.09072512097408365, -0.02739327142023726, 0.041439961463605894, 0.053584387528611596, 0.04425074480032894, -0.010500586761727512, 0.013071396656661526, -0.0829950106840257, -0.2813042659145497, -0.10157933772753988, 0.18454453305043325, -0.11686225321800871, -0.2683275627631936, -0.359415301003739, 0.022147757915785937, -0.14487743085204424, 0.14638507529772407, 0.6474198948324021, 0.9793169111848986, 0.4092924868411385, -0.09994796358384049, -0.8574908812629282, -0.6359233956676252, -0.22405419824573594, -0.32811143424825323, -0.14539161952483382, -0.010260864938578685, -0.05964369166828911, 0.06818763344750511, -0.014259076001432947, 0.04860415022990595, 0.05052791892253527, -0.006785403144427688, -0.006781012395196134, 0.06509276472136899, 0.031212213841492663, 0.155852602433281, 0.19904059153237552, 0.3957586023472334, -0.16146630044440374, -0.3282226696573978, -0.4770652696751607, -0.21229656842671968, 0.1627481684766841, 0.4287778763484194, 0.48137714339209386, 0.2433362500770728, -0.3096877897280905, -0.577405211980724, -0.5468649976693263, -0.2787660535101636, -0.22344271674929592, -0.06820722531043545, -0.1883054306113631, 0.03569819349518452, 0.002626193570327835, 0.04007297240671329, 0.0037356745053651473, 0.029453900775481004, -0.005478677604791142, -0.06774587873747452, -0.051854303130919564, -0.13841072021718126, 0.046687232156706934, 0.12066328842899621, 0.20440300479765844, 0.272577834018676, -0.1671515056759243, -0.45861776170567314, -0.6255840985514296, -0.4328320401237446, -0.32594071361515287, -0.2013185603702947, -0.4042452848307767, -0.2615119116018255, -0.2942428029703495, -0.3526026929335575, -0.45048911266454267, -0.2535222702828528, -0.20250540061040898, -0.031464340097498406, -0.14520499807387813, 0.045717891916153025, -0.050277952714567926, -0.014841546594804668, -0.025775466079656993, -0.007853433208131543, 0.052582077386400417, -0.012608436663698187, -0.014679917135783274, 0.050542202042389385, -0.012781891916814456, -0.05854260868990334, 0.1255734276236054, 0.012941285327265805, -0.1796703177038981, -0.1087045535496767, -0.22932786204378172, -0.29001417969058624, -0.21602597452638345, -0.08604384604798788, 0.012141356930393343, 0.20668468218414435, 0.12109915130331668, -0.13194207966109944, -0.25793471881229496, -0.11263048362870592, 0.008579819681889445, -0.02776703357195312, 0.005519369112055639, 0.05685833808544565, 