{
  "columns": [
    784,
    15,
    784
  ],
  "activation_function": [
    "Sigmoid",
    "Sigmoid"
  ],
  "biases": [
    "[-0.3244272416384397, 0.41173270715063137, -0.5661985769505558, -1.0207840093569118, 0.11341529853978158, -0.6280598337410416, 0.20175243744031263, -2.5939240633743674, 2.1042518404392565, 0.3622205334881685, -0.04882705096100586, 0.7717296712275138, -0.2788361495649743, 1.8663849004164907, -1.037599113428969]",
    "[-1.0741166044903205, -0.3366921842679679, -1.1855988303934142, -0.9734487048052489, -1.321084956777648, -0.7101386061069355, -0.8842717906194313, -0.8922281444006013, -1.42621869671308, -1.2316685093471018, -0.9668369668024943, -1.2776340552341463, -1.7032686156776153, -0.4972459081994818, -1.893614227188424, -1.0391769687760102, -1.31895623041124, -0.4823050055830435, -0.9348568242685276, -1.3345643431987537, -1.240251864192208, -0.9933911965634352, -1.1148243609597503, -1.1344363148269831, -1.0879650162946943, -1.753517939055922, -0.6961153922452644, -1.4070772284746602, -1.420640397611431, -2.2025497761354815, -1.6234474003242392, -1.4859416755858812, -0.25831967262825, -1.9168129113644166, -1.003362007587349, -0.40246731950413656, -1.9048177652339942, -0.4809545382793657, -0.9763484617306935, -1.330339402965234, -1.5054813364614046, -1.3210165081540775, -0.8911071505983297, -1.9848307829749572, -1.2576635334558968, -0.6925683021453299, -1.553911625354159, -1.2543153389409591, -1.536246441160226, -0.6263186727105905, -1.3904727917570445, -1.3147440490089328, -1.58698813267749, -1.8619908919780113, -1.6885943379280863, -1.635388112552476, -1.5158255258690818, -0.487112885541764, -2.3949848137611554, -2.0047856650328884, -1.4312077768432485, -1.0657824344213627, -1.0718404528867778, -1.3716636060928782, -1.3772757670139495, -1.0527358276696535, -1.3194890381345985, -0.4419810053573182, -0.2817717409666305, -1.6326988593541083, -1.0245345782113862, -0.5380605759748066, -1.0660005662066296, -0.8620506034978976, -1.333102209871818, -1.3087260645731305, -1.3901314122858985, -1.4091294154446266, -1.0245424792591542, -1.0812748358827176, -0.9800434380618296, -1.3291536280125433, -0.3604307483349898, -1.3048705228911137, -1.3690116668671715, -0.8437875491179125, -2.237567383659611, -0.7713880010356161, -1.197213125253598, -2.0268207937520795, -1.2359176969423107, -1.7586006952564706, -1.672602592564353, -0.9420652300661818, -1.8735672991473151, -1.5942565106576159, -0.2114155648930105, -1.4017999117728326, -1.5648260254576256, -0.2181030332645104, -0.07593772761163162, -1.1897584078131291, -0.5874678340388468, -1.7391963518898177, -1.3533160906851978, -1.1099191820155145, -1.0530575681957939, -1.3576868422569754, -1.5550551461702788, -0.6324341570614421, -1.331471534077646, -0.9706090826983991, -1.50077247235371, -1.4777793714734426, -1.5316752207812454, -1.4982001698634617, -1.6248688269989282, -1.4329104777214559, -2.052053389603311, -1.913202893150292, -1.6777109295076293, -1.0274775966394385, -0.31682071000459183, -0.6632629404573476, -0.15946782322660258, -0.1727287712177234, 0.09525852110413825, -0.04423698888460602, -0.7202548471591046, -0.6873979606200019, -0.6959381267832712, -0.2454608089820687, -1.5657766777769113, -1.2905281053493405, -1.23683451591928, -1.275844168742826, -0.44502433407457015, -1.7748115741983121, -1.2406352708893764, -0.5101937499973552, -1.4607525173519047, -0.7794973272166691, -0.6249362660578901, -2.09374248518902, -1.1468425746004887, -0.8302515306610739, -1.0202827469449507, -0.8423086756363856, -0.6770986205309516, -0.8870136258935131, -0.1899138505427899, -1.2936776865343707, -0.5018450776200345, -0.1762410004008088, -0.8128315621293699, -0.2355502772667345, -0.6112613261556451, 0.28090831612562434, -0.2305981653139266, -0.7140355272243144, -1.0660214422182182, -0.6136342112981467, -1.1355670224528343, -1.8748292223524083, -1.7241458265295437, -1.8520904181729396, -1.0157393833723887, -0.8660977422815167, -1.8866453035120618, -1.100023859486952, -0.8701713185444813, -1.251272465279409, -1.9444858559621463, -2.0954129318263, -0.8828702733288599, -1.4929197022352887, -0.5319699208340338, -0.8869290763026928, -0.42975170286400644, -1.4557013930605636, -0.3935767430620855, -0.5373863635751254, 0.3760802010963653, -0.28347885114986093, -0.044890189329461934, -0.017167588669065648, -0.16043136532230148, -0.8569545043248515, -0.8376682813876589, 0.33308567439869524, -0.9924239607222464, -0.6978324322259856, -1.5086319509768378, -0.23214749528726575, -1.0964618807404645, -1.61367190480952, -1.3649151727675537, -1.4336676373795687, -1.1312141155071473, -1.8067513707677307, -1.2713045508824394, -0.909430939197391, -1.1786270186235281, -1.0132701255396692, 0.00816567633289281, -0.49345215247566165, -0.7052429382406481, -1.1615707867264708, -0.3650087936605445, -0.3933996980115174, -0.44594947858643025, -0.7347477518323471, 0.029279650376338534, 0.01842998161913905, -0.8006582607530601, -0.6744324798219153, 0.0020794621742001116, -0.3251600829646406, -1.2749812066228696, -0.7987158173088944, -1.2859773797134544, -1.5865797244975348, -1.1199776225704041, -0.2791347140544071, -0.4500931356370439, -0.8726370287750461, -1.169488966409039, -1.5220805136769908, -1.5740762500262422, -1.2174862805277942, -0.2296039856414142, -1.0694413404493788, -0.6102038251316555, -0.7177089098759984, -1.0780381177939744, 0.5751485474307675, 0.1067031107901093, -0.05419656748440691, -0.22314344022234528, -0.3461964976171791, -0.1889896101473293, 0.6676112420464201, -1.1664698407522747, 0.3526530588948546, -0.42517626690396404, -0.80664637713595, -0.17276464721429988, -1.081907893750256, -0.9866088865093839, -1.7069615095469113, -2.488301285742167, -0.4705791173841296, -1.6577953999173007, -1.4691503018966907, -1.5701914164273822, -1.5798907620561953, -0.6769551724736766, -1.5006009170146717, -0.8039579892758282, -1.1940208047962202, -0.70199836655971, -0.5410841429130171, -0.09863716051061161, -0.7187218593849876, 0.49896730735153794, -0.4523469330471306, -0.047054543509023515, 0.5447040405497141, 0.44380747781472546, -0.47213235016059585, -0.4248179804105902, -0.5195746192257599, 0.3402366691074925, -0.22566960293161203, -0.9977747852726766, 0.06428866039553857, -0.9737995090992186, -1.2084791966472386, -1.8110455152522398, -1.8610417717273429, -0.9546331095528795, -1.9215693017820035, -1.1878154904538802, -1.5038209720346887, -1.6332032718539462, -0.8820818992947277, 0.13121720111207047, -0.5710783185982525, -0.2307517660378601, -0.848169299212951, -0.9977911414380762, 0.8534209471548567, 0.50839760446478, 0.2319683471458669, 0.3690420872727082, -0.7023753108862141, -0.3570400736213637, 0.08687731226745057, -1.087060665528745, 0.1998021911028728, -0.14385054750381468, -0.22225979965246268, 0.07472820312992119, -0.13993308811225275, -0.5600921890196869, -1.231534737594672, -1.657382597105714, -1.595514184968719, -1.2810964550006196, -1.4815317087936202, -0.9813705126646531, -1.6895563581603357, -2.329758414684354, -0.588200982974108, -0.5126042806944324, -0.30649140323430246, -0.3989587741734975, 0.5688343760514695, -0.1034360700219626, -0.1395522094827114, 0.09875027306230845, -0.7631215654697069, 0.3917627261616473, -0.3745844710612951, -0.7619427267545847, -0.20965783173844096, 0.0039051121671106366, -0.4031950486782869, -0.20150959905678556, 0.7928278546946438, -1.3257162851531699, -1.056343348295552, -1.7660587297193515, -1.3179182551335549, -1.1398135927836834, -0.4710817501355867, -1.104152794374846, -1.8433430117109504, -1.3868408801986574, -0.8601815588094109, -0.42843936949323014, -0.2599121157665499, -1.3033666852312906, -1.1367646087931444, -0.2158459626239708, 0.11616041088710864, 0.21331398790298847, -0.24590085971787035, -0.780833358444823, 0.00259400411877544, -0.44795551007026035, -0.10337600851337606, -0.4415154496587285, -1.2544553790259008, -0.48020488671802664, -0.2612848624843701, -0.5608895618444811, -0.7189702243982219, -0.4269785760647489, -0.8306962971791182, -1.1162175079809633, -1.6653047628679047, -1.6544008380812405, -1.5448569050084193, -2.1211827068614606, -1.0592917535066824, -0.8162280229751507, -0.5572802814893055, -1.1582574150181029, -1.6714641856537193, 0.2615018932813417, -0.3307704526843799, 0.5126287646010876, -0.24423731888099318, -0.3033262347445012, -0.29733767736819483, -0.10327972168905214, 0.0840524155081436, -0.9620775524117672, 0.07649143470372627, -0.8069230572055274, -0.8111381908609874, 0.7246598000487886, 0.5944715486935042, -0.2667505703613397, -1.091633790079149, -0.19663037565317107, -1.1505632142420896, -0.48132876561818805, -1.6469148958632769, -2.4665476761535277, -0.7772710873209538, -1.015888880004178, -1.778154794522138, -1.7020702831416816, -1.9128661212223883, -1.295053354596189, -0.8832364444487504, -0.5084228201869561, -0.8842245847799636, -0.5345923927469313, 0.20522898250547378, -0.7100018729405664, -0.010258853351871777, 0.21050771475434177, -0.202701905740457, -0.8327146375709927, 0.46429301994398525, -0.11513068601083734, 0.1639886622286118, 0.06055731462298879, -0.09846485073865935, 0.10931651848930551, -0.5436427282862937, 0.16587536089902172, 0.2172317112573649, -1.7375785899958118, -1.769552075674354, -1.600913701378663, -1.2229548051419865, -1.7960053051190588, -1.2377949287531747, -1.1097973496642675, -1.6239509192558161, -1.0668401729011632, -0.0238961865995541, -0.5985967820833507, 0.3578611479745752, -0.5302160765333314, 0.041435650257969275, -1.1622051815588446, -0.4936031990934476, -1.0298933874003675, -0.8047105523666063, 0.01858526538648572, 0.28900302580108655, -0.4775205863526198, -0.6850346001199513, -1.1410766195449094, 0.2090173313979804, -0.10597935789824509, -0.6590889841553957, -0.6687488680618516, -0.4613583501117101, -1.1361462778012386, -0.7536054618402381, -1.809143751718467, -0.7336251980984084, -0.6363123835945733, -0.7315113444781852, -1.8414491568959923, -1.6862684755481119, -1.5240232777626344, -1.1204882563501273, -0.39471810425327436, -0.11241920632498088, -0.08457793672151527, 0.018435957787161558, -0.042757336778397305, 0.4674512912298305, -0.3565731701731859, -0.055255557854487256, 0.45851241099508055, 0.0848798369844074, -0.7275485959437326, 0.38425706999433007, -0.09756452683128311, 0.017385375842049404, -0.24483185011908104, 0.15215138225657934, -1.3747173601789184, -1.1048924307137147, -0.8033794266399156, -0.9961098558379713, -1.0912370569035386, -1.658155987046775, -1.6133417968285841, -1.4554580151118304, -1.0947601242697227, -1.0028831802542366, -1.926558010772725, -0.6227419416912225, -0.9270292105149734, 0.1863079561784099, 0.11901600275219104, -0.2191632907122171, 0.7784773604219809, -0.20641482193231311, -0.2869283376163359, -0.16997392804114547, 1.2235814551569466, -0.5107154566725955, -0.34632320157768964, -0.46967293817448347, 0.3326463946609222, 0.1755127373933453, -0.6205188410032825, -0.20590471313847133, 0.4284805514370571, -1.3160534335571408, -0.1187073065372163, -1.978608337183108, -0.9961951175274882, -1.5264299952247133, -0.8722730903368713, -1.553579994937618, -0.9259174028897307, -1.4528789856718811, -1.0395828003257033, -0.9840071901186669, 0.34030141860154256, -0.23161135352203616, -0.5227818385273525, 0.7455841635449239, -0.773411642114363, 0.6410963641169313, -0.4496575283713592, -0.1580182379420809, 0.4281346910023644, 0.555562801110105, -0.6929925237977296, 0.4289312086080051, 0.215370961549927, 0.06764036855070939, -0.16137390856671138, -0.45093407189527734, -1.1781067509686043, -0.8202111147822135, -2.174440419204331, -0.16878411637276816, -1.8054124303418366, -1.3082335300779382, -0.6063281605765238, -1.193581728342772, -0.9894543434750175, -1.5041522719294698, -0.8514761942793074, -0.7311884209756022, 0.06653168298648933, -0.41023033947386894, 0.08122226206620711, 0.09223696832490132, -0.31936807943325624, -0.45175947137618416, 0.3860892318439741, 0.5961737984071954, -0.4130091878744077, 0.25093326952738576, -0.2422706565918177, 0.4415439943794347, -0.5456008966275429, -0.06745132837037193, -0.43562906222265263, -0.08184329343676675, -0.9459419560488257, -1.751798813760939, -1.804024527747773, -0.9952273877530284, -0.8312445824075084, -1.230340485228899, -2.1223403067190727, -1.55007064919134, -0.6273616616719431, -1.2342153966033615, -0.8931601538083632, -0.20505126762975404, -0.6770952251635827, 0.44285606374824743, 0.11534893836808294, -0.727450153094148, -0.12366468784316285, -0.4803057912117559, 0.7711982019100044, -0.0541132386467508, 0.05467267549043413, 0.004195891680573322, 0.38192075269379977, 0.23434357523425492, 0.07520728312681307, -0.03812414221828872, -1.2879794639798556, -0.4506433443414747, -1.683793520960481, -1.3191570739364669, -1.6606401115990113, -0.9992217832542201, -1.7197269157308994, -2.090080626783602, -1.7124314070609599, -0.880814962954723, -1.8269187289848867, -0.5463927956696607, -0.24582726363998322, -1.004307978288507, -0.9867314899359921, -1.3245588151313727, -0.15310126077450106, 0.37264441736648385, 0.1951235319191717, -0.15500338432460017, -0.22036906839905188, 0.7936817619773692, 0.09364246500018025, 0.34645224492394106, -0.8590570074018737, -1.054503292396306, -0.29052033524844595, -1.0444605300641017, -0.3591978330713006, -0.3820208443908205, -1.4255438240731018, -2.078803581043486, -1.6661490307403384, -2.1240527129297484, -0.9604485095308548, -0.7444472443582746, -0.9044128346624237, -1.5090026687487066, -0.5192502530446784, -1.2519728839637243, -1.6386509092178358, -0.39636206658945083, 0.09677516254809272, -0.6526267841913256, -0.7074077618033554, -0.2598078997927753, 0.38850560919028915, -0.7753538026382557, -0.1596327438403087, 0.1833299607585839, -1.099484742800495, -1.166606280851649, -1.6526948530460017, -0.27293861140681974, -1.1956544032965102, -0.7038666612532742, -0.9214731992444778, -1.2504324637145936, -1.5967151244571631, -1.1512089964960888, -2.034081492432469, -1.4946045796712844, -1.553589985035794, -0.47778870696969233, -0.3890160430568756, -1.4065856278280897, -1.679826825015565, -1.4096729555495606, -0.42955073951026795, -1.0235276478821462, -0.4027645334538987, -1.2785881763924714, -0.7460198841717463, -1.4069921305152835, -0.0570358271151282, -0.40017600016621624, -0.1590996368100953, -0.4513579244235596, 0.022726182708889306, -0.9129941906902108, -0.31031277221091613, -0.7663639449390651, -1.2165501040490874, -1.6948130520393045, -0.6870240648875636, -1.2414249596679834, -1.219270262147342, -1.0761192820833474, -0.9803579277062644, -0.7629524033496834, -0.8322053186933274, -0.6873471447483974, -1.6052619460682132, -1.6113097414079969, -1.9819249792337943, -1.1954601325082368, -1.0995065589402555, -1.3604789512965094, -1.4738916636033743, -1.1817458438550876, -0.6108893218248616, -0.13860626674419305, 0.09904022625775985, -0.9003776533396182, -0.24489647581172638, -0.759412831312997, -0.6983517352046441, -1.6387071960250132, -1.4434616974136676, -0.5600269735890832, -1.4907124618025633, -1.1179633145770982, -0.7634247350674344, -1.6855917597601227, -1.555769021224726, -1.8879617447517765, -1.212067527548847, -0.8656109586600901, -0.8456193291653646, -1.475586505972251, -1.8992619931271038, -0.8125073792964097, -0.5673292938304217, -1.8830582823123616, -0.6117368015499844, -0.6496761865505021, -1.0143431297535601, -0.913229087373235, -0.5439479714976149, -0.6447807578654703, -0.46178571913970184, -0.7440077265949145, -1.6539516185896068, -0.87198631854167, -0.771982279503048, -0.47480109354136507, -1.318164097404473, -1.0246382886202205, -1.2987624575297163, -0.7461212872986308, -1.5588741713128533, -0.4494174830817505, -1.6019697747102182, -0.7859385475887629, -0.9186221787385538, -1.2220861989647143, -0.6466541202656143, -1.8404014103482957, -1.0254858379332799, -0.7720482903532199, -1.7654082819009005, -1.5157648537649437, -2.0536572902011008, -1.3058929501332346, -1.3546058482915007, -1.4991173694138038, -0.5023837074950873, -1.6483452783675387, -0.5739938266339433, -1.260317347025469, -1.8971543028807216, -1.321417633449442, -1.1572193211306334, -0.9945555572704898, -1.4294436146894003, -0.4087270755339332, -0.8127520775811641, -1.1406436128223962, -1.0360069794369289, -1.1752875172379293, -1.1959362277851935, -1.018201448799139, -0.6361031045894768, -0.8572747426276597, -1.820717837695321, -0.9825275321298556, -0.8745419782492193, -2.3102481421489585, -0.8002830964893907, -0.6925228604789577, -1.6481472244785442, -1.4611296072976798, -1.1273439663107967, -1.4938106269949323, -1.8309034599007954, -1.434397067107985, -1.6288357969925835, -0.5602966693002217, -0.9931969656938175, -1.441600798455075, -1.996180450708363, -0.7903912158291976, -1.155423421788859, -2.1314021096333997, -1.139296637573885, -1.276035182502905, -1.3193369942581896, -1.692942860271392, -1.401425169576765, -1.6466178143425965, -2.277698421534228, -0.8278835203947208, -1.211730420567388, -0.9765470928875791]"
  ],
  "weights": [
    "[-0.3401437257571389, -0.3634336711239332, 0.9000422550917311, -0.46963881184648604, -0.984818132973158, 0.6586702085667819, -0.7245959671352613, 0.14952282890120205, 0.8579225727713728, 0.7504750049884319, 0.22075612992509308, 0.4633945454106121, -0.9785757564172208, -0.8161495159107772, 0.4051912148747192, 0.44234488544491213, -0.1695246943092088, -0.8087910300510752, 0.588423706590236, -0.45148684590208865, -0.8083293335070434, 0.055218580305313125, -0.26858096291972466, 0.0440116452587227, 0.17225974370311703, -0.8114300032639206, 0.34146600992777465, -0.8849342393328219, 0.769400072023376, 0.39163043839648903, 0.1997586616934175, 0.9467367358530947, -0.3648020202920421, 0.14976367996506595, 0.3499165325563806, 0.967838870997806, 0.8222700561055576, -0.7859005918565171, 0.6341190160437163, -0.8008914535250309, 0.9088361846098212, -0.30595693677746705, -0.518241049986628, -0.04941677536515356, 0.6879880799890048, 0.39408250933003425, 0.7071739353212191, 0.3890611270083336, 0.3785083179479741, 0.7990424954247821, 0.4795412699921868, -0.15995222590243174, -0.9739328498866064, -0.47160661691570405, 0.8059478440218071, 0.38655628938283026, -0.9555084991344267, 0.8439460626432063, -0.892418072836364, 0.22032213281898905, -0.41360426128930583, 0.7905059434988553, 0.5632670471868205, 0.2431887115890836, -0.7454819338064623, 0.5012831440566318, -0.8022404534591435, -0.5802607080337151, 0.3852887008388457, -1.0155882037214587, -0.061356721808811375, -0.3405428634212193, 0.9872337651434795, 0.7596561270004609, 0.21810046110413334, -0.6575957894866342, -0.43430362733104466, -0.3079753309548227, -0.74352999043152, 0.20757119741256072, 0.6855768633196101, 0.32755603769578134, -0.8394973938432972, 0.11441445803005057, 0.6998549908312763, -0.8915882077230093, 0.9402090458883721, 0.3445350187667482, 0.42807064193059907, -0.04562154827592762, -0.5244733724111025, 0.5205744755475257, 0.19452587614134687, 0.0695518038207223, -0.4335917525863837, 0.7564889496967457, -0.8043253429809584, -0.11478439377528311, 0.023858483748973147, 0.7454751500468412, -0.5712781372679144, -0.9703952510684848, 0.6627939325307713, -0.48702368470307544, -0.6991463804849111, -0.960810138360624, 0.6228883632361693, -0.48142255729409245, -0.8381859715938451, 0.1238013747795527, 0.5115158505969347, -0.6261896739622925, -0.6624550871147494, -0.48619408749960025, 0.6611878414521928, -0.6217911643611544, 0.009435419663140493, 0.1666704685090295, 0.9493256149147579, -0.26235355188948795, 0.6814606688626911, -0.8986427681787367, 0.4772359052000138, 0.20737147505065368, 0.6457655935685245, 0.6629104748401757, -1.0306888200348767, -0.060750446638407535, -0.10103481228114643, 0.5114711371885878, -0.8077380508086164, 0.4140962648954408, -0.3432738667609687, 0.7716629943775911, 0.6629796682206947, -0.831202701609962, -0.0777155624049573, 0.18876489641839345, 0.9589838192400219, -0.7480241768242044, -0.6584298210077835, -0.17946856235681755, 0.5095344724008277, -0.075174373531695, 0.2648132933046816, -0.2510724600077891, -0.23961437701185723, -0.5756640848002353, -0.05086488893633754, -0.4493761495764838, 0.6198424788443798, 0.7803907361561372, -0.3821851380710806, 0.26461267313758696, -0.625427889295748, -0.8444968785977593, 1.0523744363618561, -0.6251196705526222, 0.49567219185786876, -0.38394059929410346, -0.38482223297414975, -0.7226580695504001, 0.8171623453064265, 0.621914310782351, -0.8674415527353291, -0.9463101913417615, 0.2243533237653097, 0.9232543292381936, -0.024085980055931433, 0.26177436480460115, -0.9822573132802003, 0.12511810599809933, -0.4574662515471068, -0.6756505479817368, 0.5932895394073835, 0.5618271017449814, -0.5876550223886038, -0.1596306120887872, -0.5833496756191441, 0.04985255484359559, 0.8509111563352205, -0.17458064125256165, 0.35489528477157406, 0.6709675543225213, 0.10603038303691266, -0.6479281896560599, 0.5494613496796976, -0.25784563079713674, 1.1037030852830396, -0.16969136293684423, -0.6210017400096537, 0.1668888983982152, -0.09725785176070312, 0.6508740740501076, -0.3430636558606896, 0.35396481114601985, 0.44091850258397414, -0.427900222640074, 0.7907354406160763, -0.5700243148233339, -0.9609403424747317, 0.26150431613386205, 0.11724741168485596, -0.11086527135578791, 1.1447742723146288, 1.1036423183321453, 0.44523030786717244, 0.19355153669005995, -0.41838639782174664, 0.7590212818338543, -0.7052224210982421, -0.34667746998809074, -0.5746508348963606, 0.8855956931672655, 0.8739015371968625, 1.2667690171531725, -0.7222002955118936, -0.7662682795010446, -0.31348099047085926, 0.4224961103069764, 0.3404699527452578, -0.9463744013850313, -0.18055466137188933, 0.8679210906972704, 0.35529029367172305, 0.7624374561242914, 0.5021628588141617, 0.4220477115283315, -0.02174545900284249, -0.4974264564049997, -0.7789304608892128, 0.24151025654429414, 0.04028453857750312, 0.9400156590715253, 0.4584570173554674, -0.10916573764905033, 0.4063657718888774, -0.32473595977669534, -0.3609949842969704, -0.5063847048908746, -0.4673334052409932, 0.3033435312252423, 1.016507099339293, 0.34163046185024887, 1.1138740712727195, -0.4115026870552431, -0.8786217519840115, 0.7392999970879047, -0.509109801872288, 0.6097478302613633, -0.869770015054084, -0.3744722404287685, -0.5017020536184289, -0.2993411028809481, -0.23015846926760378, -0.5485268733648901, 0.04063579820907218, 0.35596808988081263, -0.012155798566557002, 1.1382477608599813, -0.1361627957051878, 0.9314149078231013, 0.6549794369424934, 0.13377920669538446, -1.05710935475942, -0.5016814169706394, -0.5081416599608383, -0.3969980624286174, 0.3366533900119389, -0.031168941534056725, 1.2904199468162265, 0.4034810878336584, 0.7963369225923782, 0.28228739661641533, -0.8326284761048511, 0.1220466819227579, -0.835110601944468, -0.213278049915741, 0.34523828435155024, -0.557462103192809, 0.324938329975102, -0.05570315970804681, 0.44992616160035576, -0.409334050339935, -0.32191133820368956, -0.46684486873069875, 0.8270125873197701, 1.299446941770667, 0.19687149725891556, -0.17388879316895917, 0.668782268201824, -0.6172733350068197, -1.0288539620746386, -1.1398108701306093, -0.26445831494238453, -0.18299043002279358, -0.18432662954198636, 1.1946904887054113, 0.7057035710474685, 1.553163493012044, -0.2579583436788185, 0.2454142883268336, -0.013591888121921776, -0.7870505596091403, 0.42224331959975137, 0.05526125913719808, -0.7697769965773736, 0.8722264243727811, 0.37575047812099194, 0.6065552736983483, -0.21944096476370922, -0.8887880607734783, 0.7371583049484939, 0.7706334794956374, -0.6408223962938746, 1.2202940920684147, 0.335446204344019, -0.5955347081003454, -0.43019417868123866, -0.5077673301874255, -1.189935387473046, -0.05192463524970235, -0.2958386301833368, 0.841875384527982, 0.5189334557585441, 0.6401035414082751, 0.13940943749387272, 0.007753096905222537, -0.24559292788220538, 0.1656442306011531, -0.9733509296189593, 0.14008680283572453, 0.3147752342313035, 0.6263106564345619, 0.58305410534844, 0.5372365649303217, -0.14399412425636626, 0.9014264256178204, 0.2835548515495603, -0.21687702679685147, 0.2499478274286543, -0.748510493356639, 0.6730855718252159, -0.009846577880804206, -0.666034814387701, -0.322759633895776, -1.0824121687661996, -0.5984747763191658, -0.6144205044247094, -0.8470186210521923, -0.7416854172217082, 0.6853153519471711, 0.44238202425657247, 0.8298032162072219, 0.3060635714181462, 0.9206656557513389, -0.24660202894052122, -0.34737351744722467, 0.24708799892418695, 0.08927868993623854, 0.06597834575060203, -0.9747927921606729, 0.5787106056347149, 0.6520013912462286, -0.21867653264287945, -0.9147305275585341, 0.693725298735261, 0.513641116662102, 0.7144682131333872, 0.9231838835466818, -0.7441914381927908, 0.5352219851123923, -0.3866639205960458, -1.0686977127109516, -1.0408964120222794, -0.07826903538989226, -0.7205423695903633, 0.9123823117194164, -0.0525408337531201, -0.2425887404348348, 0.2903590944483146, -0.07559615011064294, -0.14176290085518548, -0.016404746195737997, -1.0722957773184307, -0.24487417156400662, 0.649962884661427, 0.4941556086590215, -0.4693459790838071, -0.577076668819852, 0.9295744404821125, 0.04914712242683694, -0.6228453474254239, -0.46523784056920725, 0.6948234384239684, 0.8712371633278206, 0.5981265594888557, 0.8439687885466896, 0.25064408416950557, 1.1024458830434276, -0.6430328115238491, -1.2394341778643148, 0.34893460433404416, -0.2536841693973069, -0.9154487536198798, -0.38823410165732697, -0.7028951969741353, -0.3492891558801186, 0.9885195133288889, 1.2380430910480087, -0.09385491940696442, 0.1401350095249923, -1.3822423099484604, -0.011110479603585846, -0.7120361497573874, 0.384071879301271, -0.873037244246448, 0.7821924950338534, 0.9475261425293993, 0.17474058611452192, 0.28251531919574613, 0.7912423330124108, 0.9378440807611503, 0.901749678108987, -0.8817521292046142, -0.6439095879521004, 0.2770741760342, -0.4836210834838893, -0.3367342512030252, -0.42789798222903047, -0.6593716312404992, -0.8757552182641375, -0.18305430956171206, 0.7331861863282909, -0.6070382689428047, 0.05952409760324204, -0.3361929080214431, 0.5049278622081163, 0.2233159331441062, 0.34778190325462205, -0.34205634241728505, 0.328592237808411, -0.29518718979286146, -0.18041864358202356, -0.27633572619887625, -0.8571500653556986, 0.9533341304072194, -0.6289607500682046, 0.05425354608076205, -0.9722274155615405, -0.9284171671069771, -0.506793824307637, -0.44358761873244473, -0.66470816045308, -0.10638815511412031, 0.5108975532369971, -0.832215777152347, -0.16131557095594387, 0.536906328033885, 0.18155213973747628, -0.7944482370371784, -0.6862509211680659, 0.11635807791319869, -0.415378758389969, 0.3492800039640039, 0.02398169147227589, 0.4656737353501324, -0.7152019625803134, 0.18187522029221725, 0.32833753613195416, -0.7999158841677263, 0.0806059506285857, -0.5573534265999217, -0.763664856823837, 0.015607540709660707, -0.8071732723945348, -0.7681679571519946, -0.22371123131560555, -0.49100824716316116, -0.049837400061395275, 0.7991631801939058, 0.5073342468845585, -0.12364640137148952, 0.6414828099467879, -0.8218584056060084, -0.38628510081954254, -0.28369588063571977, 0.19876295746126577, 0.2642685721401121, 0.39536046871107805, -0.5097097714517435, -0.36332623758146, 0.40212635097522464, 0.5027118869665668, -0.7500271074948722, 0.7125453495165012, 0.49972495626055935, 0.6401388384589787, -0.04639329770883304, 0.9593741950087242, 0.4834556301936462, 0.32845808876128846, -0.11956423432156311, -0.6458281476422829, 0.4737409899141085, -0.8518901018321797, 0.048030041235477106, -0.8292059343282248, 0.7780260666455872, 0.05166147224980478, 0.36536949399821955, -1.183750806703053, 0.21593341353698534, -0.9898062021950751, -0.05692855302032402, -0.25037709940867353, -0.5728345009743924, -0.1660100416337012, -0.9006023140196735, 0.40789448022922464, -0.3517641258816065, 0.532106916709008, -0.24739557025528688, -0.15421093343541684, -0.3162634444660176, 0.3938132245401414, -0.35373302242483406, -0.7868138657435878, -0.2724634065700946, -0.3513830274088726, -0.2864154147051332, 0.4536243844472704, -0.20867006237798225, -0.28018992463260034, 0.634902730457035, 0.8647304912926856, 0.3247097214751436, 0.3302483928082166, -0.08239027409538943, -1.205134744470092, 0.41620391358891634, 0.657304886512069, -0.8387635463487111, 0.8697631918602923, -0.20972125886681459, 0.4307182459993095, 0.13183919360574003, 0.27547942469973186, 0.7380537970939506, -0.1819528494937314, 0.21697671722246012, -0.5612123997986729, 0.3944666179345435, 0.31069899185419, 0.19693488765119757, 0.6264209808252669, 0.2896461391340079, 0.08625466496943951, -0.9760702382581914, -0.7001645005934607, 0.5392508012519692, -0.5564278460647649, -0.5253827128629206, 0.5372774972450935, 0.18237523283921803, -0.3350742742530185, 0.6237009782840546, 0.4492001327689979, -0.980665328025635, -0.7697018591622182, 0.6071113418111826, -0.3959204743535607, 0.028377865495804996, -0.01730647726494156, -0.9150309605522934, -0.2122809329349488, -0.11014272760099239, -0.698691641743309, -0.5240585463670182, -0.4630063140720409, -0.21058492466791984, 0.6228141973047064, -0.5590299328175521, 0.7230651824599938, 0.01008376774151749, 0.12013225034687447, 0.7274497614275347, 0.8287918028524521, -0.0710304604697829, -0.9492151951506798, -0.8540407212144063, -0.8469179782115523, 0.9132226068608701, -0.4716015988980737, -0.06860539706326176, -1.0412035466423766, 0.5403894279132786, -0.05289556700274008, -0.6737356150200025, -0.424137173230314, -0.7317593831971011, -0.25449139947733873, -0.2992665289163871, 0.37301528968143693, -0.40999650470975957, 1.073866794910648, -0.5543472442362508, 0.6536594906710774, -0.18113449970824314, 0.5039361771205423, -0.6698611082093932, 0.5472727168194123, 0.4289053767701135, -0.6685664129511387, 0.47297866867161814, 0.20681344037883798, 0.7407664411673305, -0.9898685638196498, -0.9142326857277491, -0.12885083841065356, -0.023544657711142097, 0.43297177881295523, 0.5883432850141415, -0.31714663238356505, 0.5455708149283164, 0.4886992551862441, -0.38136353569721576, -0.22201332789328404, 0.5565891303435315, -0.3015686197913619, 0.694808297136055, 0.8299548385843267, 0.9884469868690215, -0.2593040223571501, 0.027858391768615685, 0.9559656099404246, 0.17438077624716272, 0.5198560053602931, -0.9366323076909342, 0.4609365563722079, -0.1786681383990457, 0.0672124122942498, -0.6062398916819755, 0.3112376924937279, 0.6303440866179975, 0.3351107727638847, -0.3937923126619116, -0.40767207249424603, -0.17488160849082734, 0.1421022203964852, -0.5379494746357584, -0.34514929393571037, -0.3220062612753923, 0.662716463182919, 0.03993742438994555, 0.1212755120948031, -0.016866135883034355, 0.9498531166242867, 0.10908432751388647, -0.03456762193225952, -0.4844523991250909, 0.3971242419567161, 1.157350894495663, -0.31233061148075897, 0.5077448739932711, -0.6121937176517106, -0.9016194268546895, 0.05875169031261164, 0.3312455916724772, -0.9990461625897673, 0.765925985392285, -0.39401680674729067, -0.8019346339907292, -0.2865897586713706, -0.6832578558765869, -0.1254692196088868, -0.28475294785099836, -0.9237208025314361, -0.1299360485658958, 0.3203536906837675, 0.3678534548448888, 0.7127495108130802, -0.5062297231689791, 0.13716720245540476, 0.8826321602855709, -0.0544154723990384, 0.47532328827781284, 0.053449809729814314, 0.25114329035634103, 0.7610344186284876, -0.2654281322712863, -0.3740408459713045, -0.6345042100480612, -0.8791454914602392, -0.5135575019874973, 0.7260010499560635, 0.33503143563349214, 0.6079200056260515, -0.11074788798971191, -0.18809450838199915, 0.889343532515539, -0.33533912582806935, -0.31612655093315234, 0.7957151341696757, -0.4529929539555856, 0.931238659345556, 0.03475507110542305, 0.4995993978643094, 1.1531792003922767, -0.04526212390385645, -0.28272440979525293, 0.47931633141345786, 0.603510467470251, 0.780844328200505, 0.10043820971084916, 0.7327944285696019, -0.2844297015632249, 0.07407078256760233, 0.3672969971123097, 0.42784720211537214, 0.4954823943790793, -0.39665721058114545, 0.5893514812825679, -0.5832077758383933, -0.15274958666385063, -0.9268035428631413, -0.41833537399425635, 0.20901537782703472, 0.9191195429916967, -0.6099732066410533, -0.012688737992816224, -0.3715007359596283, 0.2006210494100456, 0.20410866866417215, 0.33280155377234555, -0.08330377805134928, -0.5498929491863057, 0.04958466544680208, 0.9815148816508232, 0.7407650320470669, 0.585586355369683, -0.4154338473241774, -0.3351400881796801, 0.318064868589404, 0.65434572075909, -0.26319045161425636, -0.8644330463415382, 0.5002214790610053, 0.6312957516750329, 0.9046430570163758, -0.7626870519767526, 0.14700458840925934, 0.3046741378041731, -0.6662676347820613, -0.19254746394371725, 0.18392278738983903, -0.3465121854447415, 0.7660519235494643, -0.004330627774088436, -0.3313118743260617, 0.8275451739375288, -0.9675819886220796, 0.18493237234801885, 0.46878278086417124, -0.13148955572056867, -0.2732456187501285, 0.3529815302306383, -0.39060179405814716, 0.07481049240112293, 0.07255147331297283, 0.9568272253181938, 0.7701346581439406, -0.3193722111429456, -0.8957702897061431, 0.8963088435751937, 0.6423079255037942, 0.916324819064129, -0.5916778766761212, -0.646235246298084, -0.6039758614157245, -0.6340314506274332, 0.17866980613274785, 0.5289432966773433, 0.15959423883463586, 0.11422544057909834, 0.6037734612920924, 0.7970111316951951, 0.3346729388970151, -0.3601831318784934, 0.6576155311068628, -0.03500056918242134, 0.2864041958774368, -0.386345566261332, -0.09020927980902638, -0.7857209771996463, -0.4362370428463358, 0.3936994421359421, 0.9124837600066575, -0.02354096712167819, 0.751637365902234, 0.9709513896380317, -0.6597318991651302, 0.6390127974967525, 0.9864576476346512, 0.8556130085750941, -0.00967098950625589, 0.7055183309832249, -0.5294711428367893, 0.5781770242634372, 0.962081666845412, 0.07256961705076437, -0.34240007674036055, -0.1813364139143081, -0.018775539544681363, -0.2256734713030244, 0.9419530750887575, 0.13222762390206078, -0.5472216211820822, -0.7605777011954553, -0.3936865962532696, 0.1711312855844932, 0.2627937319602797, -0.7431549935929695, -0.7459686986070525, 0.5257318864213036, 0.6832842759753823, -0.9959588929590032, -0.16167440075352915, 0.8817697677718986, -0.370994550886916, 0.7939472874373424, -0.032601636386939664, 0.5402847301303718, -0.7018463661121377, -0.4440431733580734, 0.18556269418985138, -0.6296127298559298, 0.2921011794616102, -0.2460912005374436, 0.35870080060825105, -0.3912697686715696, -0.8483452825236408, 0.25803630408362777, 0.3602740869037784, 0.5788973686383465, -0.5887742717071692, 0.3469235372023102, 0.31786251862985115, -0.0949526550764619, -0.4333716925567641, 0.24186940246018696, -0.27231010141290174, -0.7627442676546315, -0.9094047766947339, 0.5181848473682359, 0.6523044642508075, -0.29020197184574287, -0.2771880530129486, 0.5626108757574008, -0.29015790174769984, -0.6891946767896934, 0.7175194042696343, -0.3069584829603778, 0.9510515358070571, 0.3814155427013465, 0.9636505912246172, -0.49971122682733027, -0.5261537951805839, 0.043808997784464676, 0.5023073915304637, 0.6198960897860089, 0.29313987873642566, -0.9514105965292833, 0.607677551371018, 0.43140770172625453, 0.35055377468655996, 0.5615771636242685, 0.8984107406263692, -0.23412735446888688, -0.38495177662880314, 0.09146211588544534, -0.9292783210940421, 1.0445870995735276, -0.35861673427634005, -0.6477811217602281, -0.23439710834400546, -0.04338128327301059, -0.38966062483171965, 0.2896688512769292, 0.7108182450017141, 0.9053489095273456, -0.13845524184699792, 0.6944389194086772, -0.35895956273164287, -0.32367361294023067, -0.9343201046019862, 0.2515247002282748, 0.6816449179300341, -0.1691639724328451, -0.8256135126895282, -0.9395744564776011, -0.03203054497493391, -0.6620899614322662, 0.041504969972247736, -0.4053890760199885, -0.6633166910837425, -0.41587520362430647, -0.40069794620941307, -0.7101835155902542, -0.5096709893500053, 0.7030081090531425, 0.3385090311951467, -0.8347629780751584, 0.5944041328464089, 0.5871644118118613, -0.31850618704139333, 1.0367309159459417, -0.677498450497326, 0.6984495699950651, -0.3695823427508639, -0.09379477069964949, -0.19814916320613246, -0.34485863616675483, 0.8481021612130082, 0.10936084137266588, 0.790783812883412, -0.4911909577028912, 0.10835947672082501, 0.6654451896257539, 0.6441798601716618, -0.9787651926055014, 0.2242083804690798, -0.5850152304852357, 0.5621444685314148, 0.09661394703664959, 0.7510345918717285, 0.19412078631566884, 0.43419011012063896, -0.551672879403943, -0.3089099220240623, 0.9594812802703393, -0.7511075750290616, -0.5748153906486694, 0.10738497590616089, -0.5282193801822178, 0.8475482879770705, 0.8956192123260868, 0.42807394717877123, 0.5861442710520216, -0.44480881925768584, -0.7317955942331936, -0.8782842643144699, -0.36431823485182147, 0.03658705129259454, 0.3619680961563789, 0.3121769725847588, -0.39241022610211246, -0.8579910389978687, -0.05246818834566949, 0.4033123848542559, -0.31110583525616453, 1.0177242768462613, 0.8538957596038657, 0.40627435711197246, -0.2604733390798121, 1.220419389090061, -0.7304760808862472, 0.7798346437257526, 0.43424466682789264, 1.216568409205756, 0.5558907952800926, -0.7632676787942915, -0.8165614758385451, 0.551859095882335, -0.8345377349973184, 0.6080643180358828, 0.1326545277765075, -0.1806226209533796, -0.5836566558133154, -0.986799666287583, -0.23626512510090536, -0.3802225357031999, 0.9479433817787031, -0.33170782443753155, 0.42397742574453634, 0.5917056144123023, -0.41363065258369114, -0.23735271793907523, -0.4980884434509778, 0.51580547962475, 0.7899419707826645, 0.672936237700268, -0.21231309546238067, -0.21061729278607666, 0.06699238739962243, -0.21451210020860956, 0.19117181834449487, 1.0089481547851045, -0.2748631558194468, 0.42746715854616, -0.45427628105987977, 0.5430892905136347, 0.13006120652978556, -0.6115578401980165, -0.7875311781862684, -0.35863983330945814, 0.5550165507277196, -0.6469871624329311, 0.007576757109856169, 0.5443133523921878, -0.24681860102961653, 0.37119977543150134, -0.588459960085486, -0.26993333744060083, -0.27165263776629134, -0.058642399059219134, 0.4128881598260209, 0.26971403037980063, -0.7124348950326681, 0.17999924022299169, -0.5563930796037883, 0.5335434280624591, 0.3070120733302715, -0.5463561059499291, -0.44824564552457424, 0.5400136968562729, -0.048743029818233405, -0.9367628838083011, -1.1596560450938518, -0.8683600114290064, -1.1732363919028768, -0.8616234968630188, -0.6070586442479442, -0.4761510736881424, 0.02859450969792348, 0.6035559352025207, -0.028505517575672774, 0.5508566133690658, -0.3554997115906175, 0.5622651987603324, -0.6701848961038663, 0.07125599078103032, -0.49413567036811584, -0.4717163962206154, 0.003984330922344728, 0.3651087312745118, 0.051603281929994846, 0.6911121551344392, -0.053429057422189084, -0.7361206537263931, -0.33107840108255654, -0.22409941074453385, -0.25436375993030413, -1.1953432164680515, 0.2106905320808281, 0.2330178185323607, -0.4284245250861349, -1.1282267641535935, -1.2484710056202628, -1.0978667884892985, 0.6494215600676364, -0.7739734517930696, 0.781464946982154, 0.1668798562523064, 0.7138858826368396, 0.6952642653544079, 0.5567057257242487, -0.05145830777018287, 0.4488910195543397, -0.5332726446304747, 0.6861404678024189, 0.5068132128512294, -0.6397570744914517, -1.2517353125657964, -1.1531147102760397, -0.2952948138406719, -0.9075940174785655, 0.4509640049498678, -0.07654584738958069, -0.6631502244749583, -0.3157793468594844, 0.07645776004714798, 0.2166470024751655, 0.5011682469434027, -0.36494584086653226, -1.0755304460354813, -1.2653360351217458, -0.6453759322347757, -0.45603753201434905, 0.36948552542629115, -0.8078273241299224, 0.8570281186663256, -0.6853469132790497, -0.45107936615039795, -0.07682905594704027, -0.5371896825752223, 0.655643698375516, 0.05152619774413422, 0.15893160465934658, -0.18401101467946251, 0.4660258193889911, 0.44579879640712183, -0.026222815050715918, 0.7008889778294246, -0.5415276890526906, 0.4935624785405041, -0.4458015734357766, 0.07426646471110177, 0.0023278138120605214, -0.2821951903169727, -0.26309457339924697, 0.7379356457700128, -0.7680654663458854, 0.24387224105032046, -0.30975551684473523, -0.720973236666722, 0.5531458621383427, -0.41694243902575456, -0.5271674041704145, 0.757509997613685, 0.06644852617649089, 0.10318084003274806, -0.026842033400319945, 0.9079255423041199, 0.9688039228487317, -0.5475568513099868, -1.2722868814707275, -0.7261017114533179, -0.5534060135954266, 0.4412979879154497, 0.4406312697380566, 0.9739902776267548, 0.49766889128146324, 0.03542217117769336, 0.7962878089144045, 0.5635373673862619, 0.308234731822241, -0.08834463944359454, -0.6302666480481789, 0.6847264929191269, 0.6193136046917239, -1.198103785820974, -1.229627292058824, -1.1785156093236586, -1.0112035915352382, -0.2302746766376104, -0.8101564277755732, -0.25964891017302993, 0.5686373543185514, -0.7467814308454457, 0.22151326171417546, 0.8795859842074768, 0.22283163286191648, 0.19479130440291284, -0.4365170981626702, 0.5004521889727359, 0.022436965208413307, 0.8338200387621871, -0.23226912265665567, -0.18455422744576463, -0.14470509941511747, 0.35562490890731463, 0.47006929255521623, 0.9017862984889491, 0.7731199131742977, 0.11852558214538038, 0.9023550812037936, 0.8685192871516564, -0.737989097785746, -0.9335441558107541, -0.9067310943874856, 0.3703797401283492, -0.934137131667693, 0.39630598629110053, 0.8689219098405271, -0.99571238869266, 0.7653435232597834, -0.3962824729851251, -0.6418268142837266, 0.12512179802914533, -0.8779335800511128, 0.1365760827066245, -0.9606349935626116, -0.46280636546324616, -0.702855480244663, -0.23725091333155843, 0.8739078852416016, -0.014483683816566803, 1.201052802996929, 0.12865785288576218, 0.05560018503027915, 0.8494688983595434, 0.6320450692198438, 0.6632983482221311, 1.1813623911945195, 0.4720470715811218, -0.7692538157602005, 0.17648212468379162, -0.8007356136768958, 0.727087823766882, 0.5756535934612578, 0.8036681518889333, 0.8803507765588945, 0.8817321206174162, 0.3517434551601579, -0.9507300519387365, 0.08082895208924, 0.2768923526624834, 0.9228623750188172, -0.05822159677602418, -0.3226915311612951, -0.17594182219147614, 0.2093693346179851, -0.25850085728052924, 0.6475225078836608, 1.166315567613572, 1.0983441011995236, -0.5087945584447489, -0.3805947613360846, 0.10396495768856351, 0.7221662587756177, 0.9907362136967947, -0.14744949637085536, -0.30464839228071094, -0.31099681832229265, -1.0770376521738592, 0.6764946791277996, 0.36462912535393815, -0.833922317686791, 0.043305272327391064, -0.04656926209696535, 0.2550490205018265, -0.99011780146503, 0.46767166220674944, -0.09492434720012777, 0.710630507416521, -0.5971114963094527, -1.1159230677146443, -0.05369632397254179, -1.0931802824006107, 0.7379772724081675, 0.6148918137593663, 0.8912495715120338, 0.2300971251860185, -0.2512179823222322, -0.598874210529873, 1.022813261902672, 0.08893911737799959, 0.5723843543489208, 0.909014002712303, 0.010732013292212874, -0.04208398454367891, 0.185137744355139, 0.08608677619124878, -0.3042050408336805, -0.9712797397718006, 0.23582514810514038, 0.5971087244275018, -0.6191481461490803, -0.02831997433186686, 0.047603834919234256, 0.7954384014984877, -0.2166476821856322, -0.9167128740538157, -0.8441295746358162, 0.2996966644737575, -0.7158730087825058, -0.6145418903479003, 0.4028361731882365, 0.8805760403849783, 1.1218202486887616, 0.3777121355984625, 0.40094293351287535, 0.9824918350323443, -0.40320028483545967, -0.028973307682150937, 0.29510748354132854, -0.10532966416550875, -0.3095895504537074, 0.30828856510137986, 0.7053225570694669, -0.6126999698725613, -1.1405397997310285, 0.8061315165686128, 0.5269507002829459, -0.6336165257588557, 0.22411767331149487, -0.4689671193103602, -0.8391035010862118, -0.3181605726776042, 0.03864521866766888, 0.4325296775482378, -0.7306159904933153, 0.6154297546339857, -0.8368032190845407, -0.01813988941555284, -0.6438938764741194, 0.14123023171925003, 1.0793527660226416, 0.668256950860658, 0.0676775490527153, -0.7679550138086312, -0.7027753077709423, 0.6473545829769324, 0.4236049019975159, 0.4527399155082198, 0.18914246935062437, -0.8731730342953101, -1.0702600320204425, 0.6583802089880074, -0.5406829371278117, -0.3334725446070506, 0.6663634323899135, -0.6374767453689592, 0.23100636426452972, -0.7963627480839435, 0.5054507476936079, 0.07951681420634327, 0.8508106848218228, -0.5759823150837066, 0.8924892488473507, 0.27730671844570376, -0.9203005304101993, 1.023444968847091, -0.9009050871654172, 0.04582623020747105, 0.3389813052725924, -0.7309257785424899, 0.6039221574486792, 0.44718189505980155, -0.7641243871691836, 0.5125860976296199, 0.8730281617641251, 1.0976379747296712, 0.5973258268022344, -0.3160469064722892, 0.6610371476755298, -0.4943812618174315, 0.1718500667189639, -0.533151043219877, 0.8522933470569427, -0.1941688045159276, -0.5778185225698206, -0.6463277685913028, -0.7355950469650283, -0.9285631118212193, -0.02080540580186208, 0.3335402007842456, -0.08095240185411086, -0.970988393578266, -0.034429831772193, -0.5579542988798764, 0.9412500298014658, 0.1222807710381073, 0.10265714941912618, 0.5972005366150045, -0.37553138913262263, 0.9630355394815341, -0.21750618935995858, 0.7614874375702122, 0.17191268782696376, -0.9881716730535288, 0.49577056767423805, -0.003354528675517467, -0.9691881700745921, -0.5668157827711775, -0.5591403046876782, 0.6224679779804133, 0.39812987350730156, 0.3216005643554667, 0.4159345001360468, 0.32254778805338846, 0.5700966762509347, 0.9488163465969681, 0.062113258760161306, 0.1045681292312044, 0.8073571007543969, -0.041021462487332, -0.9845657091670271, 0.3505720544759695, -0.49877182205874204, 0.27483479368765223, 0.5098534044503621, -0.1744880128529082, 0.6749376008719733, -0.7136190555403791, 0.25252641670749204, -0.5624880255951347, -0.7773908325959801, -0.29487138987944483, -0.22612792582261798, 0.12179463717295802, -0.5921338346853687, 0.7680214546476397, 0.671762462757977, -0.9623794984957054, 0.6546423478778213, 0.7769186855523804, -0.41189184133295026, 0.2648778925779871, -0.2903106642789146, -0.4854149174951681, -0.07228667910005784, -0.7362405181182683, 0.09458082271054985, -0.795257439108221, 0.6208022293812042, 0.749920210884978, 0.6774778005836978, -0.07280390946125817, -0.3043962916696471, 0.16899009186652283, 0.5375392925462864, 0.2110886993240184, 0.07751376479577374, -0.5933121698976612, -0.47967509898379024, 0.9921958837447419, -0.6935554165760577, -0.10520137540892459, 0.01701504239617033, 0.8521128891248206, -0.9782864592200519, 0.13056923002548315, -0.17286915763372881, 0.348145884985257, -0.46461265405796054, -0.3500104987808279, -0.9499863481850792, 0.11320854507137945, -0.8970181451235189, -0.9749290469888124, -0.49285031116673517, 0.4640118266656173, 1.0360023136836067, 0.22402769419873675, 0.3552675105563703, -0.2382486187904955, 0.13140506113977157, -0.6376270307561738, 0.5071672780022687, 0.31320237598226613, 0.7167023147197604, 0.08796897463223927, 0.6178679714082167, -0.8456034915431816, -0.23905343746831095, -0.680274087362809, -0.11060583063078461, 0.7934777585818507, 0.23056310014762968, 0.8340228124554627, -0.3954672351362302, -0.6252881561865583, -0.7861799351579908, 0.07379290836664554, -0.6905043551249361, 0.967833746814379, 0.19501771463796347, 0.15421316746905916, 0.5418691077431393, 0.4506193740757104, -0.3126100319193183, 0.4309503330548063, 0.23318603755239684, -0.23802446655753812, 0.32690231139152065, -0.4007452642784002, -0.7325131070276731, -0.8006703401444253, 0.43320526865181436, 0.4062180677252587, 0.9482512215385043, -0.4106045391276067, -0.6280379746331041, -0.740898476201442, 0.47197352343908583, -0.18636032262560187, -0.5565905584820524, 0.25151427290111655, -0.1336747454993238, 0.2443215281005399, 0.010558687554642177, -0.09666800100337336, -0.5111902878964065, -0.642122738577299, 0.5526769086692043, 0.29633220948603206, -0.22993606817932452, 0.6055799416061668, -0.08923819395036901, 0.1789736843982714, 0.5706586173984065, -0.1139581927371144, 0.06422672182857644, -0.2569651093416144, 0.16314415277035127, -0.9482217572030402, 0.15366089803444288, -0.5759245212354155, -0.3019694834459379, 0.5226768084822582, 0.5152313861488653, -0.8326757073526496, -0.03695796090289948, 0.46546825012629167, -0.20772444791335798, -0.11171863460253222, 0.5872062831734557, -0.13283536150676908, 0.6933004452332583, 0.42315017544463696, 0.6631348120066942, -0.6880887281568344, -0.6178757881553001, 0.5231686664277619, 0.38710950821604645, 0.20439927335298483, -0.2350858946491421, -0.2212736310443609, 0.5822933354215437, -0.8950091733087547, -0.5301501001971622, -0.3935481814268061, -0.0476092042661327, 0.47721503243271746, -0.44713340229719445, 0.18307901955205672, 0.4497981030401572, -0.026358175195454855, -0.02599814911715118, -0.30229016299565403, 0.21563902023702025, -0.26971853317407846, 0.7188971639451591, -0.9978610042974263, -0.84001171940459, 0.9905721175501363, 0.6661222474994004, 0.8497573439124508, -0.09413529178814284, -0.9154530049004448, 0.3831728880556602, 0.7924424076398824, 0.07224033294472809, -0.7508049011450513, 0.6763236857476641, -0.9958735008507418, -0.8641794700827762, -0.005552720512380258, -0.9661359370870869, -0.8129382507555697, 0.767708760198486, -0.8224410434566741, -0.2942041393539009, -0.6901294129656927, 0.16646779586963859, 0.6675057713199198, -0.29113805560407646, -0.7990943668718961, -0.5024070881015789, 0.9389196679244713, 0.8317540969340322, 0.6637369532202593, -0.015341720242123547, 0.7395688381860221, -0.026418703805721755, -0.31797720067814317, -0.9236062788484649, -0.9662763279262874, 0.6879635090526877, -0.5097006221593352, -0.18317913908277794, -0.29165696896352067, 0.46185320313775646, -0.4559671997992021, 0.8049180548659478, -0.7041499358741645, -0.2556861337968579, -0.25684996158093165, -0.06276748975392743, 0.4373097020740615, -0.3138856046012175, -0.3387949485113326, -0.10069707698156272, 0.7402094073491055, 0.47515646068636186, 0.5764375450570112, 0.04451564868958591, 0.7889852755180431, -0.2986607132022616, 0.657113076816471, -0.25687355419071234, 0.9777880379894355, 0.3316300180923757, 0.9372718207723734, -0.06484114762542137, 0.9576397285368261, 0.7866708794737398, -0.40541840426138065, -0.22778684173977326, 0.2807135056900735, -0.9499766817686954, 0.9801231999376546, -0.00014347463385399063, -0.19744210635530474, 0.9177535554752558, -0.0538907695200603, -0.09942771733942159, 0.811314319613512, 0.8967172438329447, -0.2517910720128356, -0.14579393692941697, 0.5165339089987643, 0.1799574768328006, -0.15294030798784677, 0.6449785462135899, -0.5716070927631611, 0.6673110196479441, 0.010116436525707595, -0.21570547679882424, 0.6736127788425268, 0.8857683822456139, -0.10162034610484438, 0.3358637263602884, -0.07610436158218281, -0.9213775142933929, -0.6262998041185792, 0.2868536863588531, 0.9912847298753551, -0.4297856527165166, -0.3923946723867781, -0.13189178525248538, -0.39922063814300346, 0.15949718284839495, 0.5663983135880672, 0.03377903882080925, -0.6261599324631871, 0.40153563131401854, 0.8452679009564869, 0.9598330670595967, 0.7334271136028455, 0.758661012043579, 0.3592381182174173, -0.8875545628463727, -0.34601036128807666, -0.7518029946627502, -0.3122815434029706, 0.7007164638113392, 0.11893988852729653, -0.5320869792226945, 0.08353217606867736, -0.4946442661448134, 0.10208961387760151, -0.4411305762170743, -0.998468198681773, -0.20341547465626314, 0.5534330348445471, -0.8725580690010939, -0.9754274532902155, -0.37343566046433185, 0.674201543639518, 0.6448811475399184, -0.5359533070078811, -0.6974421976551931, 0.42898864870875314, -0.03275413170311835, -0.5656354282114826, 0.6416570930449567, -0.35806728642476493, 0.7907833578605794, 0.15392098488882502, -0.061174666513248044, 0.7943290003479417, 0.4360256974393577, 0.861447030234817, 0.0073182459161516755, -0.2551142669955052, -0.38043184371904015, -0.09073716594153391, -0.7313853301492403, -0.17105043084004112, -0.9134512939625159, 0.8421422491362112, 0.5054580005506908, 0.2596949328807, 0.7952411271942348, 0.31468919582924226, -1.025118043237789, -0.3644863599858275, -0.5270848486609432, 0.8035079239385562, -0.3514799386579591, 0.8776701718560515, -0.280610731212903, 0.040555033135490436, -0.0012446016735912393, -0.5256644468994267, -0.6753376496784802, 0.25260366379984334, -1.0338686385757172, -0.45313968223863016, 0.21733954924654356, -0.036645893509609805, 0.6973953228901872, -0.9022938870349485, -0.0939647716221249, -0.39775413839089, -0.6436440109346728, 0.7482740572359161, 0.09738157787904776, -0.604056712033449, -0.4958906551410505, -0.5991513481073788, 0.32346504427436845, -0.06624822793744871, -0.16486301869278558, -0.650558242624965, -0.9298653801870936, -0.5462190976562187, -0.9215554022827149, 0.03788829785216602, -0.4450491761445906, 0.502042219203645, -1.0738687297497012, 0.3999497376553519, -0.6422039190702032, -0.7831677240923127, -0.9893030395820881, 0.7201327960794273, 0.004705742769267341, 0.4795800251266556, -0.39589032471079466, 0.6693229112222635, -0.4439981915407457, -0.09112166742103978, 0.14887277267230048, -0.46753004187649827, 0.9656241538900733, -0.7470229866357623, 0.1479332677532627, -0.5673048910770894, 0.5336062367954558, -0.742319664171933, -0.004022620035209407, -0.08986849873163029, 0.14788116751269487, 0.007202086997813565, 0.8137220321043404, -0.08432871039840273, -0.20176435107747567, 0.4229576299057387, 0.559622116297235, -1.0030088064980198, 0.676671044648638, -0.14731652427357514, 0.5790554875070509, 0.14587186156179294, -1.0139492691190635, -0.3706258627000616, 0.29864687430159037, 0.8331542354361443, 0.8550213893162176, -0.5421325185076149, 0.2575344424915924, -0.12257890691244236, -0.31227255882409594, 0.15573271881819398, 0.9115986142756907, 0.25036079375563725, -0.22906465006315452, 0.6306548442642396, -0.009577116244805792, -1.0720460762401145, 0.25382782854442776, 0.7623029016268216, -0.608595459326203, 0.6771330297823955, 0.4640438213434995, -1.0291752950459316, 0.5953377497138734, -0.987927457478606, -0.7116813843930774, -0.01820480730577018, -0.32696244843397076, 0.24335690353289088, -0.2550831150536952, 0.07582945697861727, -0.9679567383754822, 0.05981232318772424, 0.5607174056838108, -0.9890877253488557, 0.5735076584968024, -0.714039300117066, 0.41491324299363824, -0.3471946207685317, -0.4596239738437347, 0.21333815548230278, 0.5533451871548348, -0.11655720731831301, 0.06276324390409509, -0.10767212011253728, -0.9781324838645086, -0.6940794137641093, -0.003614116368252864, -0.9719328977222771, -0.15238229564239833, 0.34732384343598416, -0.6795663520634495, 0.1285921375292381, -0.13571234040847988, 0.1885601887841124, -0.43579835840945913, 0.77651330870337, 0.8426106889927966, 0.8838473582442294, -0.6500149656758911, -0.3055759166966422, 0.5417033384374572, 0.1584638596071122, -0.5787074468516845, -0.5000409944921133, 0.8978539229659773, 0.564717277554582, -0.7822476171816668, 0.20980361152084243, 0.21503594204462595, -0.5126196856432175, -0.03384499526012558, -0.9282301791134348, 0.28131982020491353, -0.0890367366499851, 0.07759377618209334, -0.4732837367286527, -0.1577321779310868, -1.2792393819017753, 0.27135893091401747, 0.00797873824574505, 0.32153441592656, -0.8232233308231678, -1.0220066767405471, -1.18430616523171, 0.38870479588698964, 0.345705246296584, 0.2710788297355225, 0.6726310274344013, 0.0020919432591610687, -0.6403468932399236, -0.8942302430952934, 0.8408742146689494, 0.2868103188240018, 0.47683990447484575, -0.24159672842087765, -0.2291291137638569, 0.35308777807948644, -1.03543672252093, -0.19101346391435012, 0.2189969485271404, -0.1960871977699652, -0.1708431144849717, -0.621020643257577, -0.9708461263318227, 0.6530405319393783, 0.383572369447889, 0.18772275388157372, -0.4283258590717323, -1.0109207251335277, -0.4292677578135657, 0.47317735665795696, -0.2365626047398118, -1.0842101623173959, 0.7686426357372116, -0.13004659725841106, 0.9166887729998539, -0.1474707386138214, 0.568362786964059, -0.011896451682135763, 0.9555257441947483, 0.2529560502522965, 0.3288399737335189, -0.7156407574418949, -0.5848122720391447, -0.9012862829411832, -0.9889747903181799, -0.17621089617595687, 0.7783786128958324, -1.0837812726806368, 0.724620560860691, -0.03132635341510894, 0.7740366834049118, -0.7208218572196495, 0.14449945103677067, 0.5561438125259753, 0.43644057196224173, 0.0931492446785838, -0.6913567585154379, 0.281152815652106, 0.49593432467518495, -0.04630786237452294, -0.5089117739082656, -0.9632762218018975, -0.4111570026212555, -0.5297105574451207, 0.6668849488408541, 0.7687805630621887, 0.34879288504570044, 0.9668805680521537, -0.7138645597247983, 0.8606033855807141, 0.9357032023793358, -0.4407837947164863, 0.16863465480723466, 0.15669801411465187, 0.3970762484050827, 0.34883903558797635, 0.22963377038381086, -0.6708489413558663, -0.5877240493510825, -0.32760705097901505, -1.060207173135625, -0.4214795641498037, 0.3023416764114504, -0.8693495151152995, 0.3108403233862888, -0.5739677696604898, 0.35830573733236554, 0.7941070915736161, -0.17350970628936366, -0.27031322485407955, 0.6940445339068401, 0.7219416412856943, 0.6107391677739598, 0.7303931315944625, -0.9302845975503368, 0.5355149531428199, -0.9451663998895494, 0.37792459232608855, -0.7568895212384574, 0.9130210873272866, -0.7518584670940103, -0.5924816831724173, -0.16388218676347494, -0.9147288155152072, 0.7156058122224962, -1.0718043424926855, -0.13891686312177529, 0.5050277427862012, -1.036478198884283, 0.14076872601074558, -0.9762011913581795, 0.42368051490294084, -0.278245306141691, -1.0252790984799156, -0.04347400989167599, -0.41048797924078595, 0.841417992718423, 0.17276578206282775, -0.7285653347004591, 0.12610400574173905, -0.3644214065026177, 0.8828428797098364, 0.1806011382066124, 0.08698758334074068, 0.4373866375561802, -0.5668443960009918, -0.2343783315759572, 0.10507319835299668, -0.7384230045192298, -1.2298165461492496, 0.717162251275309, -0.6348604122180475, 0.6835337880091011, 0.6620557415407473, -0.5046849904006183, 0.5353584201179755, -0.9630704053232827, -0.23598801316754794, 0.11259448060613393, -0.7703006046676687, 0.4746629627283095, 0.3222947433185142, -0.14657843768131504, -0.3308088973766441, 0.4643157961580102, 0.522456729426584, 0.9929908359591519, -0.957887404664853, -0.2808401439791939, -0.4731773230141656, -0.018950130561347978, -0.5790814689284101, -0.867107644300025, -0.46510326087493603, -0.9747756815174292, 0.6958015514721447, -1.0957021365716495, -0.7121973337540409, 0.40077294451873646, 0.17901017840039157, 0.4008043705049378, -0.6352660406580761, -0.6503426135493904, -0.22889892175887114, -0.1812635947131299, 0.12530127789390363, 0.35302063146028734, 0.12690910395836824, -0.5768400033846787, 0.378679311562268, 0.6741507040046301, 0.09233079915926928, 0.7688026396510919, -0.10794898538073616, 0.710583221919748, 0.6919444222838573, 0.5856695210650212, -0.5685843552889802, 0.7096226233426414, 0.616035623463358, -0.3990232684542212, 0.8162057423258159, -0.9905068532770358, 0.45309228749258224, 0.06017069313001791, -1.0257300874398612, 0.16257703573292098, -0.4558572724864575, -0.4395810782926744, 0.07015583948877983, -0.8287383951677596, -0.49978609448582423, -0.5304314543579648, -0.5968085407175534, 0.27654072829083687, -0.6099727978564826, 0.5374867205833183, 0.25626034322769664, -0.34447200862099586, 0.508760171337527, -0.22001906867773488, 0.8849398899846737, -0.006164551966418705, 0.19771914464342463, 0.7367138827019925, 0.8342785199908449, 0.1418654623357769, 0.8425474030787722, -0.13938501729830707, -0.29523045446395724, 0.2373962860447875, 0.8869120607075972, 0.8322622350996787, -0.8657506306335405, -1.0462946515932272, -0.8146755222630432, -0.20084258732081076, 0.2760689149373376, -0.8702946673810574, 0.05631417427422222, 0.13250083688782374, 0.6389162043702191, -0.5148791067903915, -0.6720659846401245, -0.5231910824007957, -0.7095059094074199, -0.9406299054297179, -1.1228417668940633, -0.13355412446250892, 0.6137717893021748, -0.5177164120176311, -0.3703235695861024, -0.2461170472297291, 0.34055667564464764, -0.6773587216573914, -0.2776774052875984, -0.7080774999804365, 0.9245769805767738, 0.05839900436254285, 0.12553974206774055, 0.04904410629667883, -0.9104539048454432, -0.7592814526190754, -0.9868162068228709, 0.24865686900889752, -0.6875278159776811, -0.04763685555333958, -0.8499287868327012, -0.37161545880148267, 0.577177621648305, -1.2378773225368211, -0.7667469679452951, -0.3846193668059306, -0.4965748660215106, -1.0761123178876897, 0.5402530198098744, 0.44729615643832255, 0.7675582368201206, 0.5714713824881005, 0.44089636730909276, 0.9307255718878497, -0.2131082300778171, 0.6068938061296918, -0.016334016204637054, 0.2861048280417268, -0.22210576911823418, 0.6073478815445481, 0.0991040111847901, -0.6404968121829976, 0.017966125052172523, -0.9669750006069961, 0.2763490192061695, -0.3988527685683637, -0.1171836004290627, 0.4512127474016446, 0.38917365486685573, 0.06614768130075079, -0.14428325071434497, 0.6355135393341577, -0.8392354950885111, 0.6363367630006322, -0.2716103024748724, 0.5226323873059754, 0.78300003759012, -0.113330502509356, 0.6100532764003249, -0.16266753628930597, -0.08877227132770805, 0.007861454668561647, -0.9682729124586067, -0.865469129397756, -0.9579953857626335, 0.01606569642534521, -0.875540216464742, 0.653092179144404, 0.8329846386107753, -0.7662756001298955, -0.04864942826056498, -0.4021469845401103, 0.3352473745763548, 0.1972001953886718, -0.5710762592902635, -1.3385491780695777, -0.061441448503965594, -0.2563708514061164, -0.7821460654582557, 0.4045821283262982, 0.28829314047173904, -0.18400303194057263, 0.054007960323898034, -1.1238087650668147, 0.0409512936105422, 0.9158615908300864, 0.9322414722568872, -0.22038476903364415, -0.03905999572872964, -0.6930103232505571, -0.6197577017302447, 0.206260147632241, -0.8410703151280565, 0.360770472161136, -0.5287141888074477, -0.22148927990405795, 0.3169027585768817, 0.4481225302476237, -0.9919547716646859, 0.5320655490897128, -0.4086966861851644, 0.3405866686589054, -0.9466657167232491, 0.5917161615429156, 0.15462915947889558, 0.6509239118833221, -0.7508046082826483, -0.028072223785339995, 0.18400462998081346, 0.08082059625829777, 0.22203191749220033, -0.8229212519941769, 0.8490048867115579, 0.44649951239299274, 0.00952850053723679, -0.4590074308778467, -0.09973047908234264, -0.400510110317996, 0.6948757764734719, 0.6854187124723587, 0.9640972542948875, 0.40025695872215733, -0.5648451279454885, 0.04354266880735704, 0.18334921667302076, 0.1331442158653066, -0.3546783412927254, 0.213826796404145, 0.4505458746846877, 0.06750139192838894, -0.8156612312607574, -0.516366209908068, -0.8539757443231487, 0.08518258988454151, 0.6716033263512993, 0.11029026093907672, 0.974360307891415, 0.7200060560028418, -0.8123808419655876, -0.4843422872609955, -0.37839217057155816, 0.07202975979291729, -0.16267997199873882, 0.5095547579381581, -0.6401693806688589, -0.8347396889189234, 0.3153565958016813, 0.9123766260197865, 0.7946330505821787, -0.21868861529112738, 0.7947894204645384, -0.9362499239668202, -0.2779559288428915, -0.1035845153090639, 0.4348574594414243, 0.6221307868620172, -0.015210536797227291, 0.06394514759722371, -1.0709475371849435, -0.37150688254714553, -0.631414559656589, -0.6292709010724756, -0.7050255447910656, -0.5008984259328838, 0.9474930028411023, 0.3040972088370563, -0.04284721079166765, 0.1913336235878662, 0.5431848723637994, -0.5880716956128336, 0.17630950363950879, -0.9344329408377775, 0.5874093540271821, 0.8799675196947794, -0.7877979527396999, -0.5226432375645691, -0.881072501542361, -0.647490623359641, -0.2990906135571871, 0.8884046281382075, 0.11669989622170467, -0.18269457031812408, -0.17164565364768394, -0.4251981363131647, -0.778616703289939, -0.7976130010139952, -1.009945760897047, 0.03237769585441555, -0.21564257329322234, -0.20752331209939132, 0.8559727434563198, -0.9136269784744849, 0.06137459926817219, 0.6654920300960996, 0.09735623848347494, 0.3614369643112422, -0.6693892135715397, 0.63901741637132, -0.14893272161573629, 0.5492286184278482, -0.666831031470335, -0.8428505081906748, -0.4045491281804976, 0.0044495107918012256, 0.9865645123421429, -0.8272535519544779, -0.11691632105082568, 0.672692486642305, -0.050206914407078494, 0.6006166506231282, -0.11728113858843807, -0.4582146209560068, 0.5822907392821924, 0.4537737625081511, -0.6237238641157136, -0.7388341966025922, 0.2337740368843323, -0.9373346408390142, -0.2535855767373405, 0.03880144541526804, 0.01301074524409365, -0.6861384431798347, 0.05133958232220736, 0.8653080250896832, 0.5153946857129874, 0.3731047931024457, -0.41959557008176934, -0.735128320057315, 0.840779213917394, 0.26145080035202417, -0.35503401074902174, -0.4530536251692079, 0.07894523037111845, 0.910573837370058, -0.5676264385393278, 0.24960445138077064, 0.007875339892591881, -0.055453946412725594, 0.28605575775086073, -0.1664105476767185, 0.18342084975605158, 0.5991401829618124, 0.11023043763207338, 0.1159915442358167, -0.4141424185167335, 0.6898620057958852, 0.8150597261707897, 0.12015140553112404, -0.8054773235699787, -0.5211724861993393, -0.3984830724534791, -0.3700748659079796, -0.11307295376037038, -0.20466277079350736, 0.198952091996415, -0.38833287060401234, 0.6471864576538395, 0.12227280482488978, 0.39794153660667586, -0.2976660975627001, 0.9740897258661172, 0.5562269856808124, -0.7052584123888503, -0.6829098232544033, -0.7879776603656203, 0.709486173612361, -0.8067121745213094, -0.7572759215571998, 0.17385064276022122, -0.3069119078399204, 0.16087895150373105, -0.9405104826212008, 0.4974405639732054, 0.9586375379636703, 0.43437747953154887, -0.9983734754370223, 0.07512773949398065, 0.8285458739031171, -0.7678728479183686, -0.7483774750097734, 0.406734922965603, -0.1463594121649896, 0.9063549721170894, 0.8374495360183709, -0.016417980064454163, -0.8689205356972778, 0.3711908165900384, 0.01377266825635326, -0.01703225093867755, -0.23901313048132922, -0.6303786663676918, -0.6497954520749281, 0.9975318183015631, 0.153570564319794, 0.34309312081147336, 0.7985337397446619, 0.31630259896412505, -0.45531404970463796, 0.07453449371609477, -0.47305844142923403, 0.1783783018003715, 0.008553807502894806, -0.5828186369656794, -0.8814022728127036, 0.5132754815440401, 0.11021510592881012, -0.3281987671908724, 0.9460518517304428, 0.990023300012222, 0.46713376329959777, 0.6523360128045004, -0.3060929504235188, 0.49465854387937025, -0.6677872622348491, -0.2238183748165521, 0.7687943181198271, 0.3553002186643197, -0.6222511474073036, 0.5059410007019152, -0.5208570659122326, 0.887369761847437, -0.8300810340845863, 0.5912947055266851, 0.22377743099147604, 0.6717268819821409, 0.5642792305626072, -0.42088638073824436, 0.11683265769185662, 0.43203589487884797, 0.3325690104653087, -0.6838464202662409, -0.4271934069805683, 0.8364154141844127, -0.761419634434721, 0.9739292233981345, -0.5862081481761423, -0.6722710634680029, 0.11793483255494319, -0.7259140852466763, -0.7339458246631261, 0.22393903005590166, -0.2944823693710865, -0.5865016026050538, -0.10725798911264262, 0.09137121823455119, 0.4092505333719645, -0.8026866879624368, -0.8959863079021146, -0.2905022133373551, 0.26124194756005836, -0.5575290181070757, -0.39279470694453944, 0.41097083316164457, 0.4212100446164601, 0.9519545386852838, 0.2607728335813385, -0.8373002123322697, -0.4552354725149355, 0.08033528374983988, 0.3991224804460622, 0.4950166827475045, -0.4234466746890501, 0.21810032771122556, -0.165243721629901, -0.6675796480991526, 0.4964016713687855, -0.5508077467790691, 0.593296184684688, -0.6744869559729931, 0.18902295897763066, -0.9340472868692711, 0.4763664684982669, -0.552567145131051, -0.7237805846499037, -0.8000364652169326, 0.8872711602511849, -0.8269773181408788, 0.8996264002430909, 0.09948177828144543, 0.07814915646744108, 0.8048222730712803, 0.014168582949280624, -0.8983290508210937, -0.6557800068542986, 0.21753322422247148, 0.6542493159851024, 0.22803657514176964, -0.08547806211143819, -0.8630983290455646, 0.6481222920245404, -0.1806359795092818, -0.22934742458945684, 0.23008133539981893, 0.7296530235969287, 0.7393841536557277, 0.026554744280235285, -0.8802667681909055, 0.4643540571898972, -0.9445368350348649, 0.9780597407307066, 0.2661305389814408, -0.5286847065350829, -0.055859797759580346, -0.06604691733681685, 0.026795087808440518, 0.594765221208466, 0.5343581997489963, -0.45897171562690603, 0.31034766265995223, 0.2808927878376718, -0.2715815863804129, 0.6002847826471869, -0.3106554105989354, -0.12615427786299316, 0.5022707094930839, -0.00782240069874212, -0.13972791297233755, -0.44609340184243873, 0.15211927932894886, -0.01186837802122242, -0.23113682490355153, 0.3719509065736925, -0.10087911364308798, -0.7669279965098055, -0.5304100111617549, -0.5025071426545005, 0.7129450568750533, -0.9748794753203147, 0.2744211154509568, -0.7925712589162539, -0.6733201277161541, 0.8434767563400906, -0.7139342993423363, -0.9304162299937718, 0.3651728159303886, -0.7444450795465322, -0.1355148555698915, -0.6743586547249919, 0.4112610597407088, -0.7258566154633421, 0.7552491269976533, 0.5797126847314553, -0.1591531892573992, -0.9933414548364242, -0.5751133477120344, -0.44671674313821097, 0.2644555439578093, -0.9495948742034843, 0.1566122611132659, 0.42823303696439363, -0.1012735570473624, 0.6330419581697648, 0.8988642884447416, 0.5043493960223668, -0.03910661241943192, 0.8611530072066058, 0.2626802545741889, 0.7018102233934049, -0.8355790462375272, -0.012506188095191209, -0.2979347757126985, -0.9972201599861988, 0.5957941160420546, -0.05231054161916816, -0.3683657338790506, -1.066088342045381, 0.8519003337603472, 0.6998148585567777, 0.00691596765152724, -1.0693767899582394, -0.9897440469628926, -0.8541683993374884, -0.09462444675946428, -0.9323542407696789, 0.7897988105724786, 0.42960224723429685, 0.8811705556786128, -0.9751280720757588, -0.08337542743071352, -0.32766595426605627, 0.12306792376615494, 0.9111971281297349, -0.12840240793869206, 0.14398735320066222, 0.6208494417059975, 0.7699855922489737, -0.04685030267339408, 0.9842263321874193, 0.43571602563788403, -0.2462373784686436, -0.23219491615099977, 0.131122999273967, -0.6642586281385141, 0.3093396396799743, -0.006914388294199454, -0.25190952005142664, 0.381501448302263, -0.030190736136631098, -0.23675031394664184, -0.978375868247541, 0.3271326876204421, -0.13554870391215898, -0.29442196405652815, 0.49552104985269635, 0.09706573033858996, 0.8868137097224492, 0.15113981870255994, -0.6713540803496, -0.42196038394911667, -0.9773810417037945, -0.9402776902602397, 0.6610376063069296, -0.862321063720548, -0.5824847708756729, -0.5905139008592145, -0.38488954973947037, -0.14834273036499945, 0.38286854959986255, 0.11532531666957746, -0.7603079536324904, -0.6154143118061136, -0.30264425155675473, 0.49045296622833184, -0.44569633883154175, -0.7105578934177893, -1.0676082869022392, 0.14042917749812717, -0.7513189863083917, 0.5646660929846296, -0.005000893200515236, -0.7689999306466766, 0.6090970914617877, 0.026455179001266614, -0.8020405175822566, 0.496013961163859, -0.5459991816359542, 0.7067510020658951, 0.11915446755454834, 0.7374324929532664, -0.3699162690970966, -0.6942268604771153, -0.3528619204093891, 0.6288652029876717, 0.2724537249903694, -0.32386981281143534, 0.3023401399616236, 0.5761358906138057, 0.3746897431732816, -0.581369491249703, 0.3839539166269875, -0.5206465475955475, 0.26780434163468336, -0.8442227386955912, 0.05664949935948039, -0.8792699062058053, -0.708784718975968, 0.550308390903996, -0.36140873786450595, -0.3633058011154536, 0.48479331376984847, 0.3735230001226545, -0.7665004651175891, 0.7311744512770217, -0.9933917911086535, 0.8642819659153387, -0.8056717016134761, 0.5057913497605083, 0.044947094185273435, 0.8326145379974315, -0.43423026126053804, 0.17710498760722318, -0.13996383915619318, -0.8757060026505257, -0.19896379762313138, -0.12743805179266524, 0.14560442682509853, -0.07126735722604881, -0.43006112031759136, 0.6215180981011525, -0.1449764440840334, -0.1497393512841762, -0.9745653476498647, -0.013306225568521471, 0.8183280367105322, 0.07360734138989707, -0.18194431861510324, 0.6879299086624165, 0.09337146763783831, 0.3956433895641106, -0.5122287862916709, 0.2803020680847783, -0.9556786899936102, -0.8609948934025431, -0.8744449650572901, 0.3943631939244932, -0.1806417882215394, 0.4614511530746539, -0.26255109802107396, -0.17054322039817513, 0.372361448809717, -0.9008762369158275, -0.8524911069063428, 0.5647074333887124, -0.21360177746197312, -0.45491492263708555, 0.7043201928483339, -0.09601697594501568, -0.32900492945213305, -0.7082648941605804, 0.165853858453041, -0.061486191987045816, -0.03944538390464109, -0.1498412764964652, -0.4929056688348832, 0.052164697880725114, 0.4075325304285147, 0.049564225021512136, 0.45043612587684945, 0.5957701222358848, 0.7803168441236815, 0.7658181558814893, -0.504421808912548, 0.15440352852621952, -0.5962216590899796, -0.48545951778137375, -0.6433717693584683, -0.9453635026545101, 0.8719103224117838, 0.7638447610531897, -0.9238083039334223, 0.7386879952863351, 0.19603693342293, -0.9940768080511961, -0.5074410315516527, 0.6168228057348997, 0.32965631646168697, 0.38411191754938295, -0.14050371247000096, 0.16784318584863273, 0.49064637908913183, -0.32857260776618663, -0.5337132285572833, 0.040777919732500965, -0.434871890063097, 0.37294533021429443, -0.17902290184891334, 0.3570731059349717, -0.9430325687630055, 0.035411920097225935, 0.044695094960983894, -0.42004489433987535, 0.016062735945856627, 0.5054144351155451, -0.9329908200839049, -0.49931040491275763, -0.3326411428799176, 0.2571316191321544, -0.6901358002872383, -1.031849362542818, -0.21700694605464954, -0.20171375192582747, -0.5942391229136326, -0.8750648789743294, -0.4459285115285004, -0.7153109735676523, 0.28857505513365306, 0.4020356533133776, 0.33781007018080583, -0.7164946892205282, 0.29641691294040623, 0.2544785405304182, -0.4729769374172552, -0.7402614495120157, 0.7448580931636165, 0.307081869554954, -0.19547392233903907, 0.5526828734498453, -0.6379051331643462, 0.5540421394619401, -0.8635005587865237, -0.9396269559249669, -0.30962008836149807, -0.661991021640456, -0.8159941942996078, -0.8759914589711781, 0.3540960432506638, -0.8551108806921496, -0.10299284222261743, 0.19673262754714865, -0.06336369302107726, 0.06198875402332521, -1.115187238134525, -0.17183533223708092, -0.7720115968752016, -1.0181887227492101, -0.6549754660084879, -0.5554857305368525, 0.3692717827790675, -0.7508380393984311, 0.7981683679067789, -0.08544428930328911, -0.33267881318394493, 0.6525690987964323, -0.959074046353459, -0.6019620483155568, 0.48653010170432975, -0.37225935328275983, -0.52927193200463, 0.5565437852380547, 0.7209502605544494, -0.3288457776460534, -0.30531894747730814, 0.25199200043505476, 0.11503662214205401, -0.4279096499087283, -0.6089095733773953, 0.6012529571286905, 0.05114057688001931, -0.9209977810657233, 0.3329528632369543, 0.11602670262762697, 0.5315152745626546, -0.1955993258732045, -0.6515660454830309, -0.46059233169941693, -0.3352232484542159, 0.7949887846001836, 0.3119178207465459, 0.120656739400661, -0.44222602637473024, 0.3877881487235337, 0.6449967147113242, -0.4087941237947065, 0.5694341371711032, -0.9593338273882139, -0.05076456182625063, 0.864035495329057, -0.8626521634702972, 0.7255092554390344, -0.15867112691864355, -0.76953674019959, -0.07448874650887861, -0.16329709789622945, -0.08464038811010517, -0.37124798195263714, -0.09960085812782249, 0.2557805184181078, -0.3471631853198036, -0.3524625712542589, -0.9914610401781442, 0.01281965769695311, 0.13543583946721377, -0.03177073636706509, -0.14215150541407787, -0.5238112911146404, 0.5313461836654073, 0.04109134773918506, 0.6558865833548042, 0.0130848970270823, -0.10969295580929402, -0.29486592030824493, -0.41510839171688424, -0.7655671105107476, -0.29327048381747467, 0.7886687618465488, 0.5977105537733305, -0.45011289939397936, -0.45883429063661973, 0.23227467666109322, 0.6695447062000532, -0.5664794556442855, 0.8295533472381306, 0.4947962604655267, -1.122383712038724, 0.23322738190139902, -0.3788602931414603, -0.8268357328773431, 0.46772883136508053, -0.6317441207455777, -0.32480984295051224, -0.1547407330356645, -0.6260566505310009, 0.3875827614310421, -0.3327599362274573, 0.3802382552602886, 0.8461672483495172, 0.9106965417172109, 0.24048962154741177, 0.6204954595602588, -0.8887741512953858, 0.014291129650326972, 0.9033527385825386, -0.8761074484790128, 0.4553146685922262, -0.6084177052679973, 0.7154932985049559, -0.952491609318303, -0.7173838566182373, 0.10119211334236113, -0.7747178159145155, 0.325257775790806, 0.4732718373631112, 0.7008611985928905, -0.9327538468734168, -0.21283019430342967, -0.9662990030756846, -0.961525513531579, -0.2304641664040878, 0.11811394618886377, -0.9759614747328188, -0.5157891696299878, -0.7774160685504383, 0.4540284116076113, -0.21581508216634734, 0.7825131764212757, -0.9066541050180783, -0.20223217239255842, -0.4175668872208661, 0.8208074228916213, 0.008970786496728961, 0.6512449423345946, -0.4216615730053276, -0.6161495928696518, -0.9109111493766198, 0.21717835104047847, 0.18527670199419352, 0.10822121336544147, 0.8128387078794819, -1.1795661895825027, -0.4673655443245969, 0.37720051808361477, -0.10748514939431038, -0.26149605240175455, -0.8688385319926818, 0.08815210113162004, 0.5759222697029138, -0.2325157659524018, 0.7321001055030532, 0.16799086760598833, -0.6927322891343333, -1.0770813976017324, -0.9005965349042343, -0.44100563763802564, 0.37051894263473745, 0.8963168200892131, -0.42767481763042564, -0.39866935791290103, -0.572311282604115, -0.026919420988800288, -0.5712336031779277, -0.38022635804069355, -0.7538345952990204, -0.3892528047609492, 0.4301394092908991, -0.04942082158375467, -0.6242984261485264, 0.37885084526240465, 0.46447274600700833, -0.5703759204950103, -0.04268343508824287, -0.1571682839117811, -0.03524846883388512, -0.6382664586245219, -1.1758598579939943, -0.2840591003046312, -1.0326459243093264, -0.9682329982737838, -0.8120956167664759, 0.23565417486912807, 0.16618581446530972, 0.17480603132134123, 0.45244747850702816, -0.9155299230161156, 0.6023563760101498, -0.2992201185930554, -0.8225618762448064, 0.2845039507133804, -0.09598131776720951, -0.7034798301250814, -0.3276357031201597, 0.20794459590377173, 0.049593913658314365, -1.1371411947174788, -0.009800395641626285, -1.020924238820254, 0.05723845302718702, 0.5499545919049027, 0.45376858341595133, -0.7434541214063808, 0.4556829295727913, -0.7190836687027168, -0.5798484106870381, 0.16748121758807905, 0.06819764238506903, -0.9732572055784401, 0.5237402400430379, 0.003878511182865167, -0.5988616768761773, 0.8312449823374285, 0.4713094922112707, -0.9704331551531404, 0.5584377542841379, -0.7510931067174895, -0.07121227328544255, 0.9372401188438945, -0.27698902350879945, -0.4249808734229393, -0.9092036558577608, 0.498688079793856, -0.6114468963685155, 0.41010875357431537, 0.40316346525509156, -0.2587189597585394, 0.6579499504268181, -0.9431107610096823, -0.02372581365636049, 0.40324629464943923, -0.23554219877996238, 0.10547648925737733, 0.5431853885576534, 0.7508724993944396, -0.11946642382000944, 0.36297722675743177, -0.540022406145417, -0.17262713505756144, -0.6572042510014364, -0.0892852247518321, 0.7132244424868933, 0.8590326963261459, -0.14856483181316937, 0.7697533239190502, 0.5631948896229797, 0.24798907435364126, 0.4710849231363522, -0.25752092869088594, -0.19752625854529862, -0.5496943803602716, -0.20253989946994103, -0.06656749242967622, -0.37292328849142353, 0.07526133951909247, -0.2230564546264133, -0.6121964253678925, -0.6549926968689019, -0.5336061839872073, -0.30731791487675475, 0.18215641373299504, 0.4249545541779084, -0.26218101808955085, 0.8530284838349756, 0.07561813867962529, 0.5611295090489549, -0.6734311550058723, 0.5510614471362484, 0.08668166767619705, -0.8274638491587086, 0.1128734004468823, -0.9933003818104951, 0.8506068835881297, 0.20018980115163632, -0.012623312378989171, -0.8939877703934364, 0.4734494986892965, -0.5137045007260809, 0.3389613673798408, 0.5084634973729718, 0.5827363690460005, -0.25625456043716477, -0.08946843288785246, -0.6087069723480364, -0.9189978020511365, -0.5898254794507293, -0.30902816393613225, -0.9714801005684305, 0.753868902974067, 0.39912452802946047, 0.03238199922757794, -0.21093473887945022, 0.861883835513708, 0.24694330436805048, 0.26973436454941696, -0.8267150354282202, 0.17793985069696117, 0.7920175055220994, -0.4036633501960374, 0.717515409044418, 0.2697068101293634, -0.247347666294371, -0.02918362417949094, -0.6881414802216772, -0.8315777818572481, -0.9102794220442638, 0.4404524844987896, 0.47254894729081204, 0.8364113075732578, -0.4112228104516131, 0.4615095197517665, -0.701805534363831, -0.3422139390918541, -0.2773688476097452, -0.35848611447614936, -0.8050554605586193, 0.4310439559402852, 0.5286667550493939, 0.13400584279842595, 0.8678196327013478, -0.39580330638766514, -0.3356069607232352, -0.5781839570625373, 0.8094378623446676, -0.47527532082357826, 0.323474421561752, -0.9679605040743677, -0.5294402841577024, -0.15504509641080055, -0.5545228027135565, -0.8628995524428233, 0.6008870698532232, 0.4833842894773579, -0.36411502306332344, -0.7440831191150648, -0.497559961777998, 0.6200009349879074, -0.8035870886566335, -0.5046985545330931, -0.5492867116965572, -0.298471966553717, 0.7406849218565724, -0.15815441441284286, -0.4550551115289986, -0.9117183351058785, -0.6191056720589517, 0.19277154457142465, 0.9383533503623539, -0.27766702171179003, -0.3636864771340179, -0.40289377801606363, 0.8607349212204933, 0.7941487031735976, 0.42258884289387866, -0.9700870281392675, 0.706601133250464, -0.08484969342198467, -0.3253411383502496, -0.8334372446493017, -0.2662666499987072, -0.8346846396301955, 0.035182447827927454, 0.11632567954580039, -0.24805441312040505, 0.5313600794915367, -0.15439435181716793, -0.19928832765511384, 0.2911645896801994, 0.044799513002065146, -0.8620997744370722, -0.5738288377960912, -0.9622253615329452, -0.7316293394486552, -0.487815352897843, 0.2890844865076363, -0.04059566522736597, -0.7847264745744885, -0.02114195971531593, -0.2380833596954146, -0.9231648204618412, 0.43477509769259304, 0.8826745821119524, -0.6702694341475754, -0.45834382161176035, 0.2420739592284915, 0.2124542812674186, 0.11657146994683343, 0.2328101185613325, 0.015271000411480218, 0.4576957379523441, -0.8139768131371239, 0.6562582494183888, 0.8606815426902845, -0.4700243023608712, -0.7415161793912057, 0.42156817734345564, -0.4319229758827392, -0.34134048671385786, 0.1660580034670276, -0.39984152407781615, 0.08594418954052951, -0.5732744905776699, -0.9653980861320466, 0.8660616059639503, -0.5083167266072368, -0.8716198490147931, -0.5554261761755042, 0.21833657970326548, 0.505955653021751, 0.9995522390581586, -0.7441817382018534, 0.32481674026419927, -0.6092868998624741, 0.5619374358564038, 0.12288587090685343, 0.9437272576377642, 0.9022348122084165, 0.3116904108609743, -0.5792383389679936, 0.6298225349246449, -0.22695910999252203, 0.6952922133491748, 0.22272625137330568, -0.896672718209611, 0.6958854778034306, 0.17219028518393661, -0.9540808502266681, -0.8807053808212387, -0.45711219175216095, 0.5088841445089509, -0.588321027709491, 0.8026090356774365, 0.8460653665136182, -0.4598325078655847, 0.5648435869763744, -0.6183629706376694, -0.3141024232055383, -0.33932765855629077, 0.005863584115256559, 0.318031775664545, 0.38590236425330926, -0.04613159934881872, 0.6691514332929727, 0.7322969079375221, -0.22291007068681234, -0.1658373551594388, -0.3320244637622583, -0.49172315345033035, 0.3862690653149616, 0.48613785582143476, 0.8095461560917621, 0.5574113982630672, 0.717015215930605, -0.9222510177169565, 0.11051119106720356, 0.10612985794870043, -0.2600668783710564, -0.9396463294645893, 0.4343563134590427, -0.006461452050390785, 0.43682305455913323, 0.04546246093418488, -0.5474198600847137, -0.9540743593298401, -0.21227639213506946, -0.4060755210666698, 0.8569983886865578, 0.6920072030635342, -0.11062945530600055, 0.9966033975603368, -0.6526903128959998, 0.26480096534527675, 0.9689360495972188, -0.395563679314585, -0.4267707383364984, 0.46780214894677424, 0.6243634260010876, -0.2049069454026133, -0.6037276673946799, 0.17391783696101887, -0.040714427375163995, 0.600652561991569, -0.08281738810375187, 0.2647661515818046, 0.03600576178750856, 0.3629940410366423, 0.3103825259077678, 0.8167664116315593, -0.26301848072885187, 0.9831663096897544, -0.4037755862726696, -0.4095634919439014, 0.9040213742781582, 0.42549015307928967, 0.2437649198267765, -0.5413227766104349, -0.3804122841246267, -0.5181943535645848, -0.6182661813741936, -0.4002290714301602, -0.15547276663038764, 0.8145721419614477, 0.7668609286592105, 0.8971718753182838, 0.7918150028480389, -0.25591724231619944, -0.6081221388559016, 0.0482855025686024, 0.601985692560431, 0.6568855482387935, 0.4013645771151468, -0.30063674553248154, -0.6442067971023268, 0.5124487083135864, 0.393067853727962, -0.6865678031044725, -0.7688840018841694, 0.5252923354306489, -0.23287984814526339, -0.8365727484314488, -0.8836109352385348, -0.7164113234610863, 0.7623839881371492, -0.7065995332660104, 0.35329547278722573, 0.7723757043861895, -0.04283257762204302, -0.5007902257836632, 0.5717654511339382, 0.45480210066073773, 0.7771083205512247, -0.29037809054586344, 0.740064381444593, -0.8346823418888494, -0.3463484595020157, 0.7590339297473062, -0.7010252519905515, -0.5524633153240142, -1.1043502393117022, 0.306131127506403, -0.49373907547674395, -1.1636851717472991, -0.03368369027330274, -0.2200359877334152, -0.4791750633351588, -0.18704606147716268, 0.774527867820589, -0.3601982660752938, 0.15465577878975947, -0.7608519628535675, -0.1346807290517514, -0.7302359823254643, 0.9242234090503803, 0.6363975824401262, -0.5611896852254455, -0.46134099187673083, -0.07193133190719087, 0.29282360540262015, -0.17676957168633553, -0.0014448994397905095, 0.17926272717541705, -0.17072501415760574, 0.31813794777641363, -0.8265303924197387, -0.12739853333202872, 0.5904662248853799, -0.23084562876178627, 0.4820250382012493, -0.15544056667949732, 0.07018849075011396, 0.6860793014480485, -0.2716695434419594, 0.7427045913120208, -0.9919132827856862, -0.06370897407347918, 0.2782290279519522, -0.32632042840366265, 0.2684109387581393, -0.3265174980709115, 0.26395178164423966, -0.6435345064854907, -0.3513179726737185, 0.667723099341335, -0.9133136248095814, 0.7199575991846556, 0.05634786250370113, -0.8569382215317928, -0.5515399494338651, -0.9643364491008538, -0.808964438771515, -0.5029166300235731, -0.5061442074121754, -0.9252324296942769, 0.21048772987148073, 0.5275077911801134, -0.5839788250956516, 0.09366948141426563, -0.02553828326212788, -0.26425794401215175, 0.3325539566641623, 0.6582663153636342, 0.38334022645246507, -0.8502649299336588, -0.7789371385364737, 0.42551221406097633, 0.3088413172338011, 0.14729956222918222, 0.6425517199536178, 0.5980282282019223, 0.315481822564625, 0.27083166426506877, 0.6044396670073676, 0.4800699432505248, -0.4117247932583985, 0.678005064179798, -0.0673497861520006, -0.8021499845089529, 0.862047928414421, -0.8768954438459092, -0.37339967511766753, 0.32775560826868816, -0.6975665302214168, -0.46694954390427346, 0.5289592619649296, -0.5793470940754262, -0.26480295311442337, -1.0612344569256502, 0.3339018082523758, 0.14030150750811643, 0.26869453699305934, -0.6258049866016149, 0.8266790679359927, -0.14931281399243831, -0.030456064434464858, 0.2971790721859084, 0.738835776630114, -0.6559938977264866, 0.5611446302323599, -0.9123527043355673, 0.09141885190367201, -0.2262046458299981, -0.41517515931580756, 0.08185635055099709, -0.985487731226287, -0.6548798058859503, -0.7614857224727332, 0.5297100192195902, -0.3009325592266475, -1.1400184504578668, -0.8064433883906574, 0.45913647355060505, -0.914445572765994, 0.6164128377420778, 0.8268000973627845, -0.5693452292842912, -0.9353084622586748, 0.6187665592068088, 0.2919526649972209, -0.3911472181670885, -0.8707638326265104, 0.43307313256045316, -0.7787210063572099, 0.7931261512017034, -0.6076051644105757, -0.2951817306047961, -0.5002254215871544, 0.513386457002715, -0.8049313456291012, -0.24772495262717592, -0.43917964050011693, -0.13051762925499477, 0.39183612150082264, -0.4326026854563637, 0.2129505832432, 0.5443257414158039, 0.004370916131211239, -0.45622954525074183, 0.5514078988773748, 0.053136360788474356, -0.47883737557118383, -0.6254396354302055, 0.2417782429051649, 0.7738684514296965, -0.2214938923837716, 0.6818253017403881, -0.13273462958599072, 0.3869278490109491, 0.3692724444353768, 0.6335859158185982, 0.027784779043460623, 0.4686364908176777, -0.5432110060054309, -0.47561545376673486, 0.37475822987491136, -0.23418582587302303, -0.8889592153243708, 0.22575870222530264, 0.4275184036421975, -0.7658727101397726, 0.27720259954263005, 0.6608944203959076, 0.2593038955527422, -0.25818829277411215, -0.754044432384293, 0.4084723444012397, 0.8594102095047869, 0.22901077545651677, 0.2852087839093142, -0.11041596578409991, -1.026019613627386, 0.5455528679365399, -0.1553452522809588, -0.8109883863622274, 0.27971576708505075, 0.5307691384415134, -0.5818414453348515, 0.16644095819696036, -0.16493734505859356, 0.42493301645749704, -0.03653954102245776, 0.7594457283908937, -0.8063648668081324, -0.142208083772172, -0.5448643337557066, 0.5153336756796428, 0.011292919958728753, 0.23157979042256943, -0.059811517996842416, -0.3856010977600761, -0.9865192846463288, -0.007467224566395882, -0.04599528609915949, 0.4132997452278516, -0.05616909677303206, -0.585170399509057, -0.5382521512697254, 0.07664592078763036, 0.6105770573518321, 0.06162797321540253, -0.8784208823887945, 0.5763346164966351, 0.529445045294676, 0.17342440477570528, -0.605817604596476, -0.22433155745240008, -0.3670245334184097, 0.08901513821937518, -0.16068406416599856, -0.7870154097399622, 0.7477055703648112, 0.458645681760561, 0.6046942263386527, 0.7825959496636906, -0.7524371494451506, -0.42501492479652897, -0.5611307402973605, -0.8920006559804464, -0.6215119312371544, 0.33560092170595784, 0.4795736587916202, -0.03685356732148516, -0.029840915264198454, -0.79678544537294, -0.5673112172940016, -0.43527202862888376, -0.6829242980541177, 0.3498755019859509, 0.4022530438326284, 0.4350399566575269, 0.415684813308951, 0.2052511605772267, -0.16928950202968268, -0.897349822040882, -0.9212530842011268, -0.5949556265051015, 0.5786984822622341, -0.5465987593079276, -0.3052936342572192, -0.8937448874256668, -0.8999788877281212, -0.8090547931165645, 0.9373931413246468, -0.412630301609551, 0.5774352883875976, -0.2015554074935464, -1.0038579746809746, -0.12088384831955788, -0.5420926879030704, -0.9256462968671907, -0.6569263465162918, -0.6006462851601554, -0.4558117353640318, -0.5781938573514287, 0.23630861743873643, -1.0175693793918168, -0.9050614962126573, 0.4664843496929622, -0.21014762234574103, -0.6023800498016789, -0.3867724356069866, 0.7112280012640096, -0.49372156068673884, 0.28763468935048997, -0.6965004200047669, 0.008755999523092362, 0.8435071610675582, -0.3931770066937008, 0.8117709979571149, -0.07782605709411333, 0.2680865904997902, -0.1959510483210708, -0.8950390903405182, 0.594205924418239, -0.7157513791126492, 0.007436474192742131, -0.14849709011217208, -0.3724379961899276, -0.7687997672668336, -0.4982895234031863, 0.4929200032156895, 0.6637471563482763, 0.31100755202929187, -0.9468236976459425, -0.3958320363540065, -0.45332897182304027, -0.7928730970451694, 0.5484574234775023, -0.9558326703243982, -0.5025975096238255, -0.25250065095746493, 0.5393948169586055, 0.5598097145534562, -0.8646300418700532, -0.6049543840983397, -0.8771985755732183, -0.9859747742459973, -0.8302815663900113, -0.49444574574710226, 0.13031204833549725, 0.3429993009150805, -0.4555334129142927, -0.2010949191969363, -0.10559780192932011, -0.17137895107224063, 0.15462465185489752, -0.32361927532715706, 0.3251431595461985, 0.019560944236446286, -0.9914655845306042, -0.42741597393309544, 0.6235575031009141, -0.6090602427533705, 0.596276923819155, 0.316830264582928, 0.29478638874312046, 0.480195904492485, 0.5151796558364924, -0.5682169920842111, 0.5892950721644128, -0.3783318841882749, 0.7844630920203803, 0.4576692282111954, 0.49076531434620196, -0.1584028238233979, 0.8357118462360368, -0.4898085728263524, 0.12025912859912813, 0.7400050069540598, -1.1860892708723385, -0.12178662806383307, 0.3157746246885135, -0.36506639252874784, -0.8676369960617167, -0.5757348451972361, -0.6309424676316245, -0.21887720382959147, 0.6474640658987398, -1.0990060197960456, 0.4799489861083054, -1.005566523345871, -0.3532457369240199, 0.573445320395459, -0.2588832315830811, -0.30070865137934916, 0.38204058774926275, -0.6430879814818125, -0.7467155399438532, -0.28721612447456674, -0.729903279642814, -0.17006128592550207, 0.55310310998718, 0.02199662247035592, 0.6758013872709681, 0.28693527297828963, -0.6660015680233773, -0.24967615678044186, 0.47958860601851866, -0.705013223801024, 0.5706579145958108, 0.2800152077838622, 0.5143409612632436, 0.8570980946894804, -0.7257252561737609, -0.49168572823687584, -0.04600025733136961, 0.6982214861132521, 0.2993921902183974, -0.5446067477512658, -0.2454745823188086, 0.5075017100689905, 0.593801569937938, 0.569980420053293, -0.9185185261496619, -0.7876003701552421, 0.3078409209894772, 0.10552134178407327, -0.22276803049043536, -0.5400484970390447, -0.2481795124023773, 0.5021817321420804, 0.8662196967367931, 0.34767445506519035, 0.3320221780349262, -1.1002312764978284, -0.4652884621982545, 0.6205620199902566, 0.5978663247592468, -0.8425743714237999, -0.07144522548574729, 0.37579383759986673, -1.0111622200902324, -0.1251016958042103, 0.5657090581863966, -0.7823545261681225, 0.3852912265561297, 0.7323262020517696, -0.5237706210593606, -0.059275718133675395, -0.09104580069465075, -0.27385983787413565, -0.12401789626129282, 0.413936718340428, 0.5628798111668832, 0.9327505875717443, -0.7146546810678689, 0.8281158330967825, 0.4149200343401546, -0.5132793282814362, 0.317168202259188, 0.40075831663447387, 0.42041393247241016, 0.09181133548713982, 0.285001975724691, 0.005575190333105666, -0.03809984817983086, -0.9915909047352247, -0.9090747751599217, -0.4921819217191558, -0.5174490622576386, 0.7081931666267568, -0.9292849658038119, 0.029062656310149197, -0.9345001777412024, -0.5632446003602802, -0.4948190024795803, -0.8454860353421191, -0.013285508071319835, 0.267159162581976, 0.8633041750343242, -0.47353323179831, -0.4498974000554193, 0.392902813493369, 0.4819276607904066, 0.4369679775225497, -0.5408296738560128, 0.0707753962085445, -0.2777754012246799, 0.26795145314946883, -0.5467541689507017, 0.7208601244125468, -1.0808929191422412, 0.041790085003083885, -0.6118036750383942, -1.1420834481005666, 0.6874237370397654, -0.4710291474937357, -0.4595380718424678, -0.22008561626801887, -0.3314227293853256, -0.21984186328326277, 0.1305410553947781, -0.2642891444724079, -0.013307090518734077, 0.04112939649795152, -0.46829386390449157, -0.6434396116393745, 0.7030031204360017, 0.29310967403126015, -0.3700022679564303, 0.37920050026259955, -0.3466998244853139, -0.0011083735329873168, -0.47908282777920197, 0.644067225297081, 0.8536006492731193, -0.09690623492942789, 0.5976486369253527, -0.012851464347269864, 0.18241368786092318, -0.9786590668872717, 0.17097643773577617, -0.23622318790009203, -0.4264214910989288, -0.80700651155607, -0.14596091184574872, -0.9432323739536017, -1.0567900850842347, 0.8071681336964351, -0.6532007529807478, -0.054941618737995225, 0.012735120643137242, 0.03549645847321433, 0.35770176594829955, -0.2958230432358577, -0.7981817974289327, 0.4291984409431007, -0.713967726721887, 0.33317677652738653, -0.6111547402880999, -0.4988747901879235, 0.8787019117769123, -0.6630165523176942, -0.8642785390541461, -0.6722888792897485, 0.623961662581331, -0.9149040711896795, -0.3528348890029144, -0.5419963235513381, -0.5555388520959683, -1.1546199639330272, -0.08533822847289879, -0.03226561393662279, 0.4018642652369434, 0.22652164777623396, -0.09488288693727469, -0.27800425845490795, 0.4400775835371802, 0.6256133248509944, 0.2505580334976432, 0.8464061195447236, -0.21426621169392013, 0.9329924701916634, 0.7016059862702616, -0.004432755972991149, 0.6106824780690308, 0.7385759262428409, -0.4129176208878078, -0.7057843141006657, -0.23943554004538692, 0.4719683524023969, 0.9603961049084925, 0.2809009289386256, 0.5137442030666631, -0.41924708624960166, 0.8668179109754488, -0.0364072107334742, -0.9697052395584055, -0.07309607170955644, 0.8752199404873896, 0.5944313916309664, 0.556403583673203, -0.3202773591002912, 0.5536592813495677, -0.6092168453060315, -0.7586433120326466, 0.19776050184818328, 0.8470138265752977, 0.7499151807393225, 0.9843303022608468, 0.01268630875753728, 0.9125036799946912, -0.7187182779539382, 0.8704864412403219, 0.2635976761728729, -0.4430439270581956, 0.8819044419823725, 0.5993480600041088, 0.7614608142426763, 0.8699246409756342, 0.7563645825945494, -0.6186365369889516, -0.9044703179042443, 0.36058049064856784, 0.49087668933446665, 0.5004799418177789, -0.5530585313795091, -0.9615541709898077, 0.6859791800751678, 0.18651723365578843, -0.04096658084207686, 0.847391419877881, 0.6909142678580819, -0.08848599192202064, 0.4346733197380694, 0.8886863146937376, -0.780306974066938, 0.29958136682497605, 0.23615045293465514, 0.7809576898218635, -0.2728570868246738, -0.3653786647993067, 0.5173699184996872, 0.8035950221347667, -0.07633603989117144, 0.43895740906618186, 0.16350903813966977, -0.3672487168842657, -0.028045275153157287, -0.1843832677664854, 0.38102005879099293, -0.2166805451628912, 0.006028992530609382, 0.9500889950326575, -0.2978740358771677, 0.9256436886748247, -0.6777541742143052, -0.6852887774537044, -0.8649879960785178, 0.6336033488186815, -0.39650238731866655, -0.4942656083198461, 0.12880273311802834, -0.32263794486299674, -0.7888956976241956, 0.24919081938978666, -0.4056499992571851, -0.8340881352575542, -0.06199893726522587, -0.48382619729867304, 0.07445563834981583, 0.5541452888102916, -0.22083385538390088, -0.9758570074062862, 0.8195620849592986, -0.7347036129744648, 0.2582117889555471, 0.333949499867507, -0.8709621496584563, -0.6983391227636938, 0.029227034031823095, 0.8574814068785122, -0.5722313633030568, -0.9218828190699666, -0.1046582099159678, 0.9560811023245922, 0.22256247632212295, 0.8816460615186719, -0.24628512261830235, 0.05139420640731683, -0.10247439251741161, -0.17419283471713917, 0.48112677170221047, 0.3715831553815223, 0.670055870973943, 0.49268920435498864, 0.4022772672550319, -0.9519976230340292, 0.520404882866808, -0.5991173370290617, -0.23965931438020127, 0.4715057938000342, 0.8117585729299666, 0.7485695097429115, -0.9882435355628216, 0.1416838874621793, 0.3744691272952998, -0.042905338258950154, -0.0170751411888046, -0.4329531885833302, -0.8713080199497538, 0.5247947859325641, -0.5949879748196281, 0.6226772113497525, 0.624518828146069, -0.7898813897272283, 0.18470120342028618, -0.805316792039765, -0.5702415653157378, -0.8572167942710944, -0.8483990169939024, -0.14343746005000124, 0.8035277877775517, -0.18909230095595775, -0.14537052615094237, -0.6057059323451863, 0.7442674912287384, -0.20098777513234345, -0.58766832494629, -0.3043058763884896, 0.013315324019137265, 0.9386267242367394, 0.4231306263947687, 0.8187714081427543, 0.7330039443138302, 0.20808338226020712, 0.04169110960095053, 0.0293326654313858, 0.4840220287769261, 0.2616934845791814, 0.11696003267317301, -0.5004423415863126, 0.28451084992531417, -0.22841590388222272, 0.9166815723763198, 0.11951934405604536, 0.8478879032522987, 0.5407396573195967, -0.7380711009686549, 0.931822088439759, 0.012761871702853922, 0.6650914037001143, 0.7115592313006813, -0.16399942113328847, 0.8892547957597072, 0.4810709011311982, 0.5150769551645358, -0.2617381553940401, -0.2533994484590454, -0.47891703722909207, -0.39752135950818424, 0.6139576473905778, -0.2787997854075381, 0.46467610199784815, 0.5771668093641535, 0.613954414416182, 0.891249184057185, -0.0337972904690548, -0.8839784106665404, -0.07528250247396326, -0.6304239191326423, 0.6837237586300452, 0.1449648913434766, 0.8870535146431017, 0.5179429111110052, 0.5357882639622533, -0.08634190610415488, 