{
  "columns": [
    784,
    15,
    784
  ],
  "activation_function": [
    "Sigmoid",
    "Sigmoid"
  ],
  "biases": [
    "[-7.9287803699496955, 14.59900146001704, -5.6373949303343105, 1.5831090776884158, 14.483747181735652, 15.60139532768159, -12.362459813484683, 18.635566317553938, 16.545699623811565, 19.437538942673402, 10.24137670713123, -15.735411957749626, 13.654636372306856, 14.886139228517447, 14.165489837281827]",
    "[-3.982162172387933, -3.545598130899169, -3.2911983848012114, -3.573835193695927, -3.2794288001109573, -3.8026602160835945, -3.658914607256742, -3.0666987757736965, -3.5779059532343522, -3.340228477903478, -3.725494948241026, -3.6613216843457232, -3.482325827791718, -3.4770360687993302, -3.6048208252273772, -3.22483514729232, -4.079552815441466, -3.435393421112084, -3.10152235223167, -3.7391197275606585, -3.1290591199592073, -3.4287169584540127, -3.3769761414639916, -3.3503366730578916, -3.3945192770922055, -3.493328338710008, -3.6858295894431325, -3.20905561779546, -3.3336369039333786, -3.298986389690179, -3.0177103809201737, -3.645884342329437, -3.3897796783640617, -4.139019366967836, -3.6688002723247415, -3.239526907460393, -3.678404645336732, -3.565005223667609, -3.635195330458454, -2.8544783646798146, -4.129879084219643, -3.5731526235895386, -3.302590477610742, -3.163786893142801, -3.401301775286985, -3.42130341885505, -3.41475488021683, -3.5088895568911833, -3.82095207136457, -3.891960078332834, -4.223273362537957, -3.818857705507086, -3.5257385100985466, -4.201094884944228, -4.182344449338095, -3.256115969474387, -3.9144831286511956, -3.3031017643034297, -4.03637540867726, -3.3143106116849244, -3.0530271169627707, -3.5678608984232576, -3.120966848096995, -3.5680755865799636, -3.2229671141645775, -3.914007240391347, -3.0586303668353887, -3.693663420152757, -3.4948305707194325, -3.7867594692652973, -3.3633067897057867, -2.7916556084610598, -3.017541854436814, -3.173741230033356, -3.971749393221597, -3.345780769804478, -3.165265932451962, -3.6660673000086637, -3.1540530109323273, -3.2977714889765206, -3.1451443823019263, -3.8964477159737707, -3.5904586925121342, -3.917979574045898, -3.562768504820554, -3.156337477021074, -3.3632962966557507, -3.4652632681690037, -3.0920655914983968, -3.5328406453161434, -3.9450194868297213, -3.248935668214761, -3.3746629173902285, -3.2674437316244487, -3.2592042951120788, -2.8116263115262314, -2.8698072553594054, -2.673992987547713, -2.799784676854469, -3.5477965428825238, -2.535045725859799, -3.2424717109328416, -3.542547336290474, -2.899292363036691, -3.3622002260735946, -3.12462876095891, -3.4237939296385527, -3.2988493456224224, -3.9058900454636305, -3.7580698178977747, -3.822237661117178, -3.672900624973281, -3.1082108537203244, -3.807603866634146, -3.235185337846264, -3.545901946120737, -3.237307970513104, -3.5812823541483683, -2.955848713036762, -3.141596448295209, -3.2209594617137944, -3.1195061587134387, -3.10452280649856, -2.5599998784640223, -2.4135957825214405, -1.6872790716818995, -1.35529905170778, -1.2009091111980248, -1.2532327881619092, -1.5780447460684712, -2.2044325850275865, -2.012431282926232, -2.200949595713159, -3.2913122643643176, -3.1662315256577664, -2.9956301154793294, -3.4017521855107753, -3.89034744779781, -3.4413220232298545, -3.591225178573964, -3.439252306770067, -3.761041956414242, -3.7963577956867414, -3.0013794703533656, -3.3305013476468415, -3.6430051209155856, -2.9896894380606764, -2.9317898538192857, -3.1065008089781756, -2.9100020353803364, -2.147209169319319, -1.8074074524695454, -1.1501666487566868, -1.0702065490104908, -0.8709448164338558, -0.27810453968382937, -0.04636347837081411, 0.20163916630350803, -0.9311163920388346, -0.8934089525003263, -1.5221962541624765, -2.227645759909891, -2.5581298503307686, -3.0732506535717916, -3.4039623184562333, -3.379829870908993, -3.56136731405423, -2.9452819069563754, -3.8276309308622007, -3.511890874273434, -3.0314090825527003, -3.2059193539634037, -3.15133985666438, -3.3435373684732963, -3.2791942773301566, -2.987911041363302, -2.191041988638163, -2.3138058601356883, -1.3240452829164149, -1.32460376983343, -0.7976637297297926, -0.7117910474413514, -0.1760272066264253, 0.05660660015164587, -0.0812496444203324, 0.09860252633239598, -0.26057986447888537, -0.28902938560248825, -0.4506694484205966, -1.2680637627375653, -1.9584714243327803, -2.499231191553659, -3.58835717565879, -3.655004968587201, -3.4053815544097894, -3.39698312039715, -3.9111213579479034, -3.3140493992813735, -3.607575293650053, -3.196896312071876, -3.9224464738871423, -3.667617793979612, -3.0435170091970702, -3.0533125071720515, -1.9732473117281546, -1.4518529485896587, -0.9882744168494687, -0.8886350731982304, -0.39620515790908495, -0.1803888840072532, 0.20677928339407292, -0.027933632778712636, 0.30354805711183247, 0.057264807616292865, -0.1066944874529666, 0.32053660954166635, -0.3951945546945315, -0.634074868173493, -0.8471991575695698, -2.964465200432417, -3.3354460414688987, -3.6555510451184374, -3.0117479115696533, -3.0744731596534796, -3.8843551211687117, -3.1580322861477477, -2.91289024653331, -3.907316339222342, -2.6830801880996162, -3.3636709133254707, -3.1788731445538856, -2.0042257546398687, -1.5187155869100828, -1.308009281666242, -0.6772805838720004, -0.5076916471435555, -0.2619342505941641, -0.36864589289389377, 0.3391911428784776, 0.30474970505958765, -0.161651328208485, 0.0638513852642217, -0.06331728032146347, -0.00485814004126537, 0.0007677562764277692, -0.2632622304584357, -1.377467136267214, -2.1841128340947806, -2.894321299230377, -3.109229965386374, -3.461665408813317, -3.5329033856474106, -3.473141958796673, -3.951552926304428, -3.4315594125889666, -3.554622665158447, -3.162519668297489, -3.0522389814596425, -2.630945873065413, -1.7365483481691617, -1.2747676783475694, -0.8346581145370597, -0.2657287937387155, 0.04857277521716172, -0.24641719215281252, 0.010472284267013755, -0.2688460344551524, 0.03246903012123917, -0.3492898567403766, -0.657787375089304, -0.4519077802268117, -0.329014846213536, -0.39392522363860366, -0.56903016035478, -1.5176613260841514, -1.6969731882864727, -2.8893799634377073, -3.0364381342415365, -3.5073921875617704, -3.7708400830261186, -3.856615774898391, -3.521412987998769, -3.487439913411376, -3.664741526028534, -3.347504596159654, -2.809554335763341, -2.7404345781399777, -1.496520277966965, -1.1917922881727285, -0.6162017221507244, -0.14046544621059912, 0.37998661960821556, 0.13149397711557584, 0.1779344879741376, -0.5592069334319154, -1.1369087848331718, -1.4771391377420189, -1.0422953892458482, -0.7348487471732167, -0.3796705284513642, -0.839888083991222, -0.6186323582709023, -1.2645880779810197, -2.3914583914043366, -2.736724408445963, -3.492080743563936, -3.7176539550759875, -3.6350751418476253, -3.8553959252838244, -2.9211520682122725, -3.32498378977979, -3.299757717167732, -3.404579727177087, -2.879703706758532, -2.5016200886398545, -1.1955869785661193, -0.8492207054526931, -0.08049714037301708, -0.16626987699456267, -0.0035281385392709544, -0.5377761109823147, -0.6707341670776322, -1.120440638263057, -1.467407177471728, -1.322343577609791, -0.6142012874682693, -0.5436340166015273, -0.6623026210272442, -0.7076055819564852, -0.988173313200895, -1.291126818958924, -2.207350224895785, -3.0635614663484274, -3.173065708948047, -3.898877102598988, -3.7490114102096146, -3.9105253255060664, -3.3179429209627567, -3.36203180900018, -3.216564624417775, -3.324009899721894, -3.374826773551341, -1.5682057360657187, -1.1102083704248458, -0.5771510924217744, -0.4821016851239736, -0.39901406060222405, -0.7789857742893899, -0.8554670301624171, -1.4093966945060392, -1.6140851169845547, -1.4573254282890877, -1.1895841482217484, -0.4591399486594733, -0.102982209740959, -0.45014084106411745, -0.5071716986148699, -0.5963074730784291, -1.6028101018224858, -2.5045287054759697, -3.1505233634163137, -3.4688580959896815, -3.720559619420206, -3.468194660926937, -3.3975406726310213, -4.2273345204157735, -3.6238940598401643, -3.528828710449251, -3.5738191842493974, -3.265952351919614, -1.6057651120746301, -0.757491624095841, -0.23995792931649243, -0.16682984610308624, -0.6608294687806981, -1.1145116555261096, -1.3091783735123141, -1.3599921527438328, -1.4094471148032337, -1.1044247555660687, -0.6812961827764838, -0.04790889982519104, -0.20809454823672618, -0.5272279142176378, -0.04424324729447278, -0.9454135253597333, -0.7109508340679721, -2.0635043702629066, -3.8597959677767593, -3.278885321304405, -3.8559347333480734, -3.3816455474668063, -3.476542714130612, -4.030433902948187, -3.1195802129320116, -3.8557948662146235, -3.1592227591292494, -2.88975370869455, -2.277698361594218, -0.8028984272762099, -0.44953460483148383, -0.46186762904043865, -0.6294714873985825, -1.191703261737382, -1.2337814148540762, -1.5032604553253417, -1.0247431985092759, -0.5432454601426089, -0.3164643751486551, -0.0857757436564826, -0.18564485933622496, -0.18967039050508241, 0.09601934484196063, -0.5736696413221886, -0.8431422371947674, -2.342318260038022, -3.8049126494564076, -3.7289314130030324, -3.659501940028636, -3.0202908482943607, -3.6924457512469337, -3.4265903219994636, -3.0092771859279104, -3.616883341855368, -3.0832237258003716, -2.8413282793148102, -1.3605013451612062, -0.8633188085850176, -0.5371665466835149, -0.14946052155320985, -0.9806384377596723, -1.1673734032547818, -1.0834165283065715, -0.6244659212090208, -0.8070168289407293, -0.45610229275268405, -0.5053457866372741, -0.2795978515194189, -0.4779080805218882, -0.38909699279647303, -0.026798121769162752, -0.39943081490651955, -1.5530708210917252, -2.7879359966822963, -2.845726033985085, -3.600203075210619, -3.583506479104238, -3.571601371486416, -3.253713687466545, -3.3645616383216836, -3.001460172782071, -4.508163001096285, -4.0130618835642835, -2.914981821476974, -1.263148940398843, -0.5344241331243267, -0.11211252637057986, -0.24119159225125825, -0.7481838535932446, -0.8237981307157655, -0.5638423331843231, -0.7925928496081835, -0.8449847437297007, -0.25528689446744957, -0.24396066159460666, -0.6971118505741648, -0.06729427791061829, -0.12655404261329192, -0.03996728819628848, -0.49642778981751723, -1.5034743616381785, -2.363251993413573, -4.156834411494279, -3.5170103685656526, -3.063263745024078, -4.141312564090992, -3.118971510759066, -3.0335277007128987, -3.650639979113885, -3.1489643630746453, -2.987258060960507, -1.86892273631423, -1.44322763034495, -0.66897286813309, -0.36866552906269856, -0.2640276395369535, -0.1165138177449122, -0.40371717157618964, -0.3482624871721646, -0.6240061051241267, -0.36355007951555546, -0.13739329086517543, -0.46691681288030434, -0.19437216900604748, 0.06438753443775039, 0.16101442561786938, -0.5546329966812428, -1.0086636848013908, -1.5927027053704244, -2.7036434984346607, -3.4004473585530812, -3.8531643345092714, -3.8434365185832284, -3.309017505165894, -3.7585472778731566, -3.8565106508357294, -2.9387431014249112, -3.3410378462841663, -3.263415550674144, -2.7022960798978746, -0.926440223837323, -0.15770612792744196, -0.46175034340967985, -0.5236495614813822, -0.3330583287234102, -0.2156626255429072, -0.5094979262099748, -0.6451542051988735, -0.5575083093225037, 0.014092078377969408, 0.09251675825107729, 0.2371639225806001, 0.24447355300896745, -0.09471521340124192, -0.9819403374365292, -1.9805727859324411, -2.2282629365834286, -2.8068576193891124, -3.2273126176033875, -3.255564285995526, -3.2190358747373375, -3.8242808700498836, -3.9260516438781323, -3.647629544478872, -3.5057906002233175, -3.1041556457018884, -3.2163438877524437, -2.106507203968106, -0.9237585252062083, -0.22146948160927835, -0.31551755152126515, 0.05758416075677387, -0.2564210224445678, 0.026967379725406474, -0.25695017883895904, 0.06733409866792434, 0.14476869544814414, 0.12250503239206498, 0.31235948983971723, 0.3775113734571622, -0.23863276144432316, -0.6765046174451054, -1.170541162104492, -2.1986140663268303, -2.863646582968673, -2.3876208508861203, -2.989922937534691, -3.9221985676001436, -3.737902898480247, -3.463365195903026, -3.2860362586048626, -3.7628342571031412, -3.664327784921934, -3.6174878787494396, -2.9599473866190142, -2.277378726358461, -1.044595394040014, -0.36049037443067106, -0.38092077897791377, 0.04682627651028558, 0.19782139391818085, 0.27764768230627135, 0.7093613318396921, 0.5988254428427163, 0.3897819941025576, -0.002049633114067053, 0.17836144522162187, -0.07039881366424029, -0.8108714950987183, -1.2491316417856264, -1.6730407403225003, -2.0958195282406304, -2.385793568589862, -3.6167303899989314, -4.010896775638834, -3.0406866728865127, -3.38461118294743, -3.23154116472446, -3.292892296184163, -3.6008090617044934, -3.2918774040846075, -3.1742517208895626, -2.8747894220764194, -2.085246308109825, -1.3610372228054017, -0.4929924137628742, -0.5429285902602229, -0.08545891848838749, 0.48193988476342303, 0.7164123275967155, 0.8678059147397893, 0.6072616127477012, 0.2806726495564185, -0.3030470109116409, -0.808228084883597, -1.198294811399434, -1.303143939184291, -2.0425552080521716, -2.5161146213905186, -2.9387038042141986, -3.1646733769641076, -3.2036082679161564, -3.368821193408877, -3.9157326716651326, -3.276681349925014, -3.653507886478496, -3.1715579994227023, -3.118159797215134, -3.113556298087234, -3.6078882940740153, -3.5351968543807053, -2.2903688678105403, -1.9433387544087302, -0.6655530129258259, -0.517490166590072, -0.11837059874016144, -0.10198510961637956, 0.20629724360045085, 0.34365901537791244, -0.21253001726625953, -1.0272088779646757, -1.6370465312041689, -1.4000734354902835, -1.534089288438047, -1.96171447270535, -2.820178191595982, -2.9776224284556037, -2.648100856360604, -3.760439085353227, -2.8058828510864786, -3.498876063908418, -3.451333464396987, -3.4612911103900683, -3.434008505326837, -4.040333955183024, -3.6972780285410276, -3.4187291426102426, -3.648871837149876, -3.293392905786881, -3.2834893158796223, -3.438159721542795, -1.5924305960800524, -0.8858163564724706, -0.8164319632827371, -0.49174753488063383, -0.44071036531760294, -0.36445205042364787, -1.1788918818537557, -1.6794969584556734, -1.8929124335066265, -1.8315296310927476, -2.0832925640670563, -2.5630721285592535, -3.1266053977516393, -3.1222043281198086, -3.636743557299464, -3.5876297175004095, -2.964611343566833, -3.8124941065965996, -3.035321063121707, -3.745335194636435, -3.7067934339261717, -3.618876819127221, -4.0206266501468155, -3.6930120703484794, -3.4826940599360756, -3.7949468006005382, -3.5316882825677496, -3.764755134717797, -2.659671155092197, -2.1318692655908107, -1.8912623424171473, -1.0283767533740058, -0.8921698409029758, -1.8362028345829833, -1.909327622731846, -2.116334595740048, -2.6963989657027168, -2.4072023490025165, -2.254150857348495, -3.6990962699820775, -3.834622779761516, -3.1449143083494033, -2.769372381739795, -3.3838789521731036, -3.3395849155266863, -2.801265806926018, -3.53996941834197, -3.648940972354868, -3.905614852744609, -3.3344393224974906, -3.3846272774702837, -3.273927551834036, -3.7318706363113066, -3.32754913685484, -3.566574446188172, -2.8929553317938224, -3.5580099534004663, -2.737191425296913, -3.6253278264380793, -2.1107280928864767, -2.219297755744992, -2.400202512492208, -2.668712549725205, -2.593931684554211, -2.919980173503932, -2.7962196057928885, -2.976577059175343, -3.197686628506095, -3.14537018448291, -4.0303718289185815, -3.208824513066437, -3.013859486431432, -3.4720346991669477, -3.823729550283359, -3.2921000951854733, -3.0692143349483745, -3.5387735766920154, -3.289184518317098, -3.2603755232932734, -3.5439158258086807, -3.295866577786075, -3.8214969801238787, -3.6114632599394705, -3.2453416636402124, -3.839403971597622, -2.737488969259316, -2.94567271620666, -3.713630700800406, -3.4429400302848396, -3.3714764959046986, -3.5743624607467765, -2.673357120265528, -3.2037840003745597, -3.554720532903222, -2.9893351000005466, -2.944940752149944, -3.743861290845313, -3.8855111189055562, -3.57068060872393, -3.681692364783938, -3.4863951219393194, -3.282165284572097, -3.4177631902702035, -3.133394393144546, -3.9941105844974407, -3.5745422165588288, -3.9037311895440854, -3.489033643456284, -3.1987795985137595, -3.470155828238791, -4.0386368035407365, -4.256750806771237, -3.4896710765275603, -3.6547448637086437, -3.555633646109624, -3.4915713663186927, -4.2687055994468155, -3.5224737120138045, -3.638618166055228, -3.6369299915207023, -3.321359371441695, -3.4337336330690467, -3.730698831527959, -3.6540347810020855, -3.829970318828707, -2.910753114940906, -3.233598278860243, -3.5258812931598476, -3.73326539025651, -3.4358042393118864, -3.881828667942257, -3.4651846956408834, -3.500555051501695]"
  ],
  "weights": [
    "[-0.22102617513130784, 0.40822075029172833, -0.2005832586105012, 0.39182619375775907, 0.06512964761585549, 0.13209705157491658, 0.3950378165064783, 0.15795832967635526, 0.34497582122939185, 0.028330008938444617, 0.06185541938606243, -0.39664963048842483, 0.447675097175507, -0.06745003623914625, 0.0715113799112217, 0.13494227006761728, 0.2618222128751031, 0.12561041877875812, -0.1568364996886753, -0.15078422981933381, 0.30109707467925506, -0.20463615845784544, -0.1434083914537554, 0.43285064472379486, -0.36877838813858876, 0.37169746450247354, 0.3145833456310335, -0.40766551923381955, -0.4460793681137847, -0.3451892551610367, 0.07944982969935765, 0.4205770118333665, -0.00704603505766721, -0.3038921795326028, -0.12764605769545076, 0.1615345049489999, -0.48320090499560964, 0.3114862082977706, -0.44547504860914705, 0.34550580473887077, 0.14984294181300453, -0.46277706641715033, 0.2295805969891748, 0.2578489865351594, 0.30051089637791817, -0.15135337008196156, -0.07621781896784231, -0.1853839862426421, -0.04376445958386886, -0.4834552479161658, 0.34117072284360817, -0.14512261821698536, -0.4765000642545433, 0.03358668142404997, -0.4651098435463713, 0.37438341288164034, 0.2739325192632308, -0.08122176806415005, -0.3141739154891373, -0.0642149764190737, 0.05179438915315171, 0.042163681697940096, -0.035559564609367676, 0.2578959054358295, -0.3604979404422684, 0.32750182306554904, -0.08019596660360842, -0.365582646068845, -0.417152658646927, -0.4318778645276021, 0.028315114490765538, -0.010885416550544032, -0.22648147967429663, -0.36457770679232143, -0.4556967840106781, 0.44740752579571014, 0.15108709988967642, 0.08256926521900265, 0.15305816871507227, -0.32332442050188087, -0.3273592193598911, 0.32808770027463796, 0.44330289117955235, -0.23738608738393108, 0.43020315633257245, -0.1284444500935189, -0.3479561714435927, -0.3903262911114914, -0.4536068104419416, 0.32600541742907624, 0.4193387118028279, -0.15853697605048747, 0.4575047075975858, -0.3444015730521674, -0.059362626807984514, 0.4341234262703556, 0.4192844441846769, 0.3629201418473659, 0.2230142009045877, -0.10214153240105896, 0.4137602171626841, -0.40618074704386276, -0.19565042271672364, -0.48727535280013645, 0.242503183312031, -0.3033302010513028, 0.031115960520114564, 0.27468495346201705, 0.06117145102117674, -0.21342036102229878, 0.027246105044162257, -0.31705156951803415, -0.11703739238820798, 0.13547749936820674, -0.1769747309322901, -0.3004713634192027, 0.3769518793612224, -0.4405621684427564, -0.4755684955357854, 0.014066904856446275, -0.357912178117633, 0.35860571155226656, -0.3125335704415574, -0.3853680135682785, 0.16373380119531453, -0.4958186690323477, -0.017797804347814042, -0.5610861464204258, 0.07107589373617222, -0.08324317068769252, -0.043547274679859624, -0.5298111891216261, 0.14860155809014067, -0.44991492151055923, 0.2945897587897653, 0.3688271996390697, -0.20453437292312268, 0.06697972148576144, -0.41622803940821296, 0.22550543863019168, -0.32390439469535814, -0.2403134148044072, 0.07918602971449452, -0.4754455436125938, 0.21175637736903088, 0.37389397412492487, -0.2294009393097349, 0.09466118053305625, 0.2826792324739344, -0.17972472122261854, -0.22631951193987443, -0.42081732491270496, 0.22405148208674605, 0.09872157003339482, -0.688274821296528, -0.09038230448739812, -0.8670850080527812, -0.174322220113285, 0.0547013369484954, 0.2077419615394013, 0.0029080176318089733, 0.08970321285822484, -0.19371049503784535, -0.13535235772982063, -0.03680067891312687, 0.4630221651908156, 0.11868781296315567, -0.22811358839032592, -0.0054184822783650555, 0.23209190910711253, -0.04433734218765423, 0.1992351725997548, -0.4970946209717433, -0.4517572482625226, 0.10980400241947048, -0.48407056465312925, -0.018599489133107366, -0.14830128550603808, -0.4109644683841747, -0.07971969720959728, -0.3976235191947936, -0.531128560780413, -0.08934955323941303, -0.36169048924621605, -0.23859811126653455, -0.22938953673804474, -0.48117243576717644, -0.07756195999810342, 0.04443388223613389, -0.1417945186333848, -0.1626028734884941, 0.2615440523006794, -0.39700325859213986, -0.4483893544119528, 0.48081711446462455, -0.3894490119959801, 0.2856201807744424, -0.30567006942393915, 0.34029527925065983, 0.2488809670413825, -0.0260436434371278, -0.18733229290961534, 0.41323060679961326, 0.2451313079071761, -0.29603738326952034, -0.3302186660382477, -0.314040843768152, 0.14969343791761475, -0.2950720019815528, 0.0761920531339147, -0.48752751771779934, 0.2908835212102581, -0.4521881477560841, -0.17488853109670935, -0.3399064967163426, -0.08955664773597975, 0.33366409186714785, 0.01956811426951573, -0.17273277377237287, 0.042376681156052844, -0.04383188937315103, 0.14158492380875207, -0.10013947129682015, -0.34687863707035643, 0.39680967307205994, 0.3813327829694822, 0.2907587578542957, 0.14839357176468812, -0.4056882874166231, -0.3067555449951006, 0.07748124246023871, 0.029980195501415688, 0.12930730932601134, 0.3320338994759077, -0.3955853653919526, 0.014367421834453666, 0.11736535642701235, 0.1302156928744865, -0.01454732072589784, 0.24688518920774846, 0.12897758861199288, -0.28943949321859647, 0.28625052749696345, -0.3636196591127554, 0.12980612332432973, -0.3857600882888144, 0.16008578361514827, 0.2878732357286881, 0.3666047279451782, 0.2024553964250226, 0.18464804832096962, -0.02804681118855745, -0.2293332010368329, -0.22582495700103955, -0.4938299083901688, -0.3126790391581241, 0.29893405034670234, 0.40586716674587936, -0.22505492171129063, -0.07447311028993911, 0.39181984922404295, -0.15770814078285875, 0.15215480401341175, 0.028798699091444557, -0.08744135834263575, -0.08022415984419819, 0.4149566882879433, 0.20788213724495488, 0.47142255048237575, -0.010093133935451633, 0.21233468167264433, 0.4289518166831804, -0.0008774010892071999, 0.47470285322161054, -0.2653492123868483, 0.3356086434022468, -0.010893835899972632, -0.2706335663707791, -0.3715032385029985, 0.49392940362372334, 0.07547122181465886, 0.3405048272516225, 0.10715028405137624, 0.4168761624170092, -0.3774140113433225, 0.3932803162810814, 0.2765273259916853, 0.36951211418101193, 0.46806726997145914, 0.40755275079293024, -0.10626674319711392, -0.09532343947880328, 0.45177726384000505, 0.055109891131582184, 0.4342848816340869, 0.07412296569570773, 0.20863215113623318, 0.20629321760616648, -0.05790552698824961, -0.009675596712389028, -0.16861896000448034, -0.2370735294704678, -0.20499196135951891, 0.47417287428189797, 0.07397436110982455, 0.2300665183541359, -0.019473442287685258, -0.43013752757066526, 0.4277434895465873, -0.2987671947547901, 0.18493771606960105, 0.341031037792133, 0.044037299818230534, -0.20045930544874382, -0.5327967078919413, 0.34596796188614615, 0.23680988196956515, 0.5502959647899627, -0.057152340480997606, -0.22905046994514508, -0.029927003115577177, -0.41270618766204936, -0.3726628982257836, 0.3060910468511798, 0.07783438130291753, 0.5171903286759086, 0.04058988031880199, 0.07335438565556426, 0.21961285241280096, 0.27811273024724553, -0.4409396221034086, 0.09818779479951664, -0.4879327583223568, -0.27137060649525246, -0.21811946432865853, 0.36957475406049184, -0.11679907822650859, 0.2436191846917516, 0.210576513029297, -0.17494231620411846, -0.11047145680000195, 0.38985524294801527, 0.10288363847526273, -0.13734029107270748, 0.2584415153487233, 0.4154185923750581, 0.3768719293026365, -0.5103232801832484, 0.17014817071819546, 0.29771635651726047, 0.22231750812542797, -0.3290124118351263, 0.16506765718094982, 0.5355893303384031, 0.45522864091455134, 0.06652786236502571, 0.34229502256803557, -0.05846422246401572, -0.07038540696386165, -0.3675638237909655, -0.3272694467300756, 0.3519577371366431, -0.4712804442326739, 0.4301574466635465, 0.1729561266683095, 0.40885691085566933, -0.40527362147404294, -0.2883851339917036, 0.485370202453664, 0.31501205857011094, -0.25765577980272847, 0.36572418498858256, -0.0538985393449527, 0.2923087137672999, 0.3077522135948962, -0.29308644228877495, -0.5618416131260301, -0.165821825643203, 0.07335063613405245, 0.15293930776904918, -0.1778762173419713, 0.4161548195017328, 0.07536509880923378, 0.03755082030220813, -0.12544885437360828, 0.07798139501400426, -0.24720530141978397, -0.3497947877775146, -0.20193657978477703, -0.3434985084649245, -0.3048260091138733, -0.34591382352868016, 0.13794387195901758, -0.051874998104692316, -0.3246543144574528, 0.3683160581730664, -0.20351036781040072, -0.48549340662910145, 0.43645388180758965, -0.19065426434434893, 0.12616197494123088, -0.04021963333596921, -0.2304895385576949, 0.07972701441578892, 0.20945142024506463, 0.2066403595853055, 0.08309715731461673, 0.17812941391951317, 0.303507342627004, 0.5073121968196509, 0.6511151865164381, 0.10537077028664746, -0.37835044875717344, -0.007644722867607031, -0.09513178005390308, 0.3484993176332587, -0.1257933874974418, -0.10963839843637388, -0.1664886619965625, 0.14447185258194772, 0.38141840192087284, 0.2972287850034443, 0.011056816050194922, 0.29137853314842493, 0.3678548497490992, 0.13098306977595606, 0.22880090107112272, -0.31068300798486503, 0.5630494217618386, 0.3098904014181743, 0.3598339969526166, 0.19838284907400677, 0.14809575180419152, -0.1964706530669073, 0.17278069302355473, 0.35438541421662184, 0.6149638178818034, 0.049908905732519146, -0.02558737481219046, 0.30914646273687263, -0.13661782747828968, 0.04063807793848495, 0.24280926334094316, -0.07850896844870081, -0.14774469862018144, 0.3344990002329484, -0.43069107991669464, 0.0653473923990424, 0.18967627945600674, -0.2613910249628457, -0.34704716823411497, 0.37857007918014945, 0.11769488209617483, -0.13373840266912607, 0.11552956590623818, 0.13037667040364478, 0.3325524920777238, -0.35193128931092504, 0.2925163429146656, -0.20645432512703646, -0.47320003201022526, 0.15098350017069975, 0.48111793864565316, 0.3113649932157039, 0.11362990024718382, 0.5529981374912492, -0.2597033929506698, 0.046408739045564744, 0.18323193697698487, -0.7172607564114287, 0.010405557919798334, 0.19393092548284857, 0.22501193799618613, -0.05226720144660593, 0.37953619806481964, -0.1863814664042006, 0.055822879102091716, 0.4649098608276938, -0.2411458675312456, -0.2760968737621545, 0.34908699741054744, 0.2340889214015977, -0.33980066503882733, -0.14460080624688512, 0.19737384330755595, -0.24314793630313666, -0.45418209692928074, 0.07408538643891653, -0.11684784470760214, -0.3246655826982282, 0.11261184586574081, 0.1503686865525835, 0.7405235180112075, -0.08391447709277956, -0.2944724237295481, 0.03573727375437928, -0.21527084921039463, -0.02394607799679332, 0.10029900878600077, 0.05450565491382575, -0.5176912107753902, 0.3408713306616761, 0.31384629660405194, 0.46660430618070187, -0.34353931956179606, -0.2051771255419907, 0.16750550962843913, -0.36892915003445487, -0.005934106178426411, 0.14413694127371324, -0.12775541947109154, 0.0892895952839053, -0.3133738344714426, -0.5313096258613699, 0.004007806677046005, -0.5583034011443189, -0.31746280659730947, -0.1774428172183974, 0.021534165492206533, 0.5715115974410552, 0.07823957922707556, -0.09188315412350352, -0.40608496384668535, 0.25089556734025154, -0.5807209322237453, -0.5671327417793793, 0.2778263174112672, 0.3246714432116156, -0.4759209057469363, 0.15005042150196687, -0.45394614623315516, -0.24619728071261635, -0.21138764063626647, 0.29756232197413285, 0.47012395643039734, 0.4673875218948494, -0.31858220344926036, 0.10901662848755936, -0.2642410964467765, 0.008411730667941732, -0.038115039807222716, -0.08220123006131479, -0.486434197985006, 0.06230876387614736, 0.09571436925220872, -0.34198373114104585, 0.6442124892838126, 0.39144939953062524, -0.16095051978960834, 0.2858016799872407, -0.3981913537731725, -0.5797942627207756, -0.2293056909656261, -0.014270045032194756, 0.020439279835007845, 0.13341551894572226, -0.45717238795975607, 0.49185196201208026, 0.18098560318162646, -0.08410248845729697, 0.26288863492562375, 0.47518579659002386, 0.46331305434322423, -0.44671264377689307, -0.42967477767026757, 0.030393886930826237, -0.20725553925929033, -0.3924380319321744, -0.11912634595650079, -0.6288469227324799, -0.5847859830311174, -0.5089832351960626, -0.5701390872423261, -0.09105657017878198, 0.4835313750693947, 0.6164371839515694, -0.3515856613090754, 0.17110201664194355, 0.006436500422533557, -0.035848420832487626, 0.1385838559787794, -0.3932766396875011, 0.3498765047472326, -0.4391959017252772, -0.06987407070869442, -0.43354557771283236, -0.17102746578648814, -0.14237477588851044, 0.44956106572688403, -0.4186751051324863, -0.18056401276333273, 0.01437190005732124, 0.11059599288508562, -0.26171340060331033, -0.4290426041734615, 0.15374117434440454, -0.285215309884972, -0.12935308790311342, -0.5421258413757714, -0.3911309903257307, -0.4054048186218401, -0.5213329237834111, -0.009262896543643182, -0.10112331800651596, 0.08141529486745852, 0.010444024322742121, -0.010995733606797542, -0.639783663709249, -0.10062115206117417, -0.2790405794483685, 0.04368631076898413, 0.18755160150442465, 0.2324652240203977, -0.22334581210564539, -0.1653745049505136, -0.06362643937931634, 0.17402546100782879, -0.014492258029439875, 0.1460795638785709, -0.4225598109769286, -0.46415469472560295, 0.14182027478327097, 0.2779351290944071, 0.35482019242201573, -0.2839673276261549, -0.44587971443978525, 0.005201389869100913, -0.7431793344977206, -0.31179102857917435, 0.12508318319133113, -0.21290168046715136, 0.019833352987478008, 0.10794971848014996, -0.013346164587738832, -0.18657325757623924, -0.2760397182924742, -0.3798810958424723, -0.3301295124583138, -0.24142999032869847, 0.040329105200561724, -0.4062071120356753, -0.339279924005474, 0.20524424708819541, 0.48774838966064005, 0.03386131593337405, -0.4614847562241399, -0.3231762896890909, 0.4881179880017019, 0.3941580497201539, -0.22136058550741616, -0.0845391283076724, -0.10867758820553883, -0.44338062645459253, -0.12850115920467226, 0.0486566770404015, -0.5516066633882695, -0.4598979886707216, -0.24365177184890585, 0.29353256214337636, -0.45750980717321277, -0.12223836517466688, 0.2875343801460662, -0.22815988346116706, 0.25711744283602916, 0.007466218218305288, -0.27393932745259, 0.5002923386692941, -0.33142436213428, 0.30779852654272716, -0.07698928251400758, -0.44845265497302633, -0.21857319539691766, 0.46390627669241136, 0.05562817650004259, 0.3111239796998245, -0.028473258727215008, 0.24102065604216635, -0.17795071500435536, -0.025781681371258212, 0.07604235016618631, -0.3115965015150008, 0.3961832505399745, 0.18106979842916252, -0.008620591474106749, 0.4468816348615535, -0.35624342474274034, 0.1419256470219993, -0.180407210986171, 0.11661947831299757, -0.040972385825977564, 0.16305078947886928, -0.28606587289335556, 0.09625917585804875, -0.09244403381402065, 0.2105041196928058, 0.04854335269204656, 0.02473112417526293, 0.33978039771501484, 0.17538090303113485, -0.48744942346280706, -0.020424603155573262, 0.18723510901771034, -0.07412596414228423, 0.4499857347111636, 0.10902878225811062, -0.3013758263020991, -0.01769791522430922, -0.36794433273789917, 0.4533088974353517, -0.12270633106618173, 0.18537306912324036, 0.1256776565926713, -0.310112780846695, 0.4212166529856264, 0.136461115691612, -0.05591034081365598, 0.2425643150863244, -0.11757013664873285, -0.12892855665794845, 0.3766291175892672, 0.24520302842300212, -0.35280030982979177, -0.4632305722860611, 0.1718921053604004, 0.11278926309617975, -0.3541658333795334, 0.46596231680897915, -0.09345302254043686, 0.2970060784151505, 0.40094360688881703, 0.2698434682497467, 0.087390703977973, -0.13662036105290912, -0.13390064788206435, -0.3120343209667709, -0.10589494903375499, 0.28576696205881075, -0.38430043831092686, 0.019703395899483885, 0.250727083180694, 0.0047969517546683285, 0.22980401318553725, -0.09462159850164568, 0.15161183944442316, 0.4111112739776182, 0.25973796106860364, -0.1755466230508396, -0.2344798960156175, 0.22421930572640397, 0.30359320508624893, 0.35582013572505083, 0.18195569259207883, 0.4611307512264007, -0.023056393990307678, -0.30898766557153046, -0.1618124730000834, -0.32634833223481063, 0.44532208734952994, 0.10025434524527821, -0.25855236486823197, -0.034233315984306345, -0.02556689507024157, 0.20474054541333928, 0.0764272829174698, -0.46421940587280885, 0.0722993435321657, -0.22991952683663455, 0.2931218283620737, 0.38815192679218735, 0.33206348241289546, -0.07271456339968865, -0.3432781411892582, 0.21444119253900604, 0.4540647172807658, -0.3348812593360435, -0.18740248504797938, -0.0182312314019277, -0.22976896374492897, -0.2885852354822136, -0.10896482675104524, -0.1808287660452197, 0.023391118166766645, 0.01487244235477403, 0.40463034092190664, 0.36317580161921637, 0.4620685763634723, -0.04481708488112657, -0.17593054161766042, 0.4340744985075795, -0.07295642740782915, 0.22149581462121826, -0.2897425222917329, 0.3054846739227597, -0.03115877048699378, 0.14146132461299865, 0.4730108007341015, 0.47094376239807756, 0.10478677389804603, -0.3520080293773551, 0.13266948503078246, 0.3566796531106331, 0.37750032912667464, 0.2515122316395788, 0.22460146462516362, 0.24595734889969945, 0.18825591009310905, -0.09768924316690042, 0.16575571052859428, -0.4145743513156933, -0.47393453192778545, -0.32247601428821127, -0.013211070007362768, -0.3344871874013474, -0.0068588782740068854, 0.17750314484473428, -0.07128641759972332, -0.3811168140893224, 0.431123898142928, -0.05225011162504121, -0.2974172407219006, -0.08656365316483398, 0.2655802576983329, -0.4615233421168301, 0.26044390338469736, -0.1160504803865459, 0.4846961035576241, 0.2829820130061308, 0.206527247726963, -0.033014545741673874, -0.0707392302131429, -0.24123040606910354, -0.21211916626763822, -0.1398301235018342, 0.23384618979296923, -0.18203673077334925, -0.20424404142613217, 0.026647930093660954, -0.05936522542960532, -0.49385240282009746, -0.2468768467814666, -0.4829602791802611, 0.14195334903345613, -0.025041654228159183, -0.40700486765617294, 0.19310301704192911, -0.24490885190513387, 0.030349097296654557, 0.3719012323619528, 0.23595790110740195, -0.2664015993755746, 0.49216134762416786, 0.33636455609982374, -0.2544729958253833, -0.4618238905983731, 0.4002646542348654, 0.46058261620813146, 0.09752778938133001, -0.06650640116208624, 0.24561645306404573, 0.10549939291071025, 0.4514471338152275, -0.188177564248201, 0.41279740969389267, -0.24460123259121241, 0.14965556376465514, -0.3465773992111091, -0.011678189292471997, 0.2804296715771948, 0.27435513870281636, 0.363317426597184, 0.3166292221123662, -0.38867345164765554, -0.48910932057659845, 0.40187657598875676, -0.42806833901398367, -0.48418973295057577, 0.09222959849449615, 0.09345910148212093, -0.14526176421314135, 0.2380046072117158, -0.07139048055993194, 0.3164164139899801, -0.3399935570992417, -0.40836651368440485, 0.13506103208056713, -0.4193253605986065, -0.4233204786349602, -0.41117412011300997, -0.4474988270555555, 0.17589501045945707, -0.2374327736771217, -0.23610616813907626, 0.35097367180889877, -0.2900695313951602, 0.16601786529430276, -0.12967544783391882, -0.0621519167170933, 0.4902652593671576, -0.44904020312766457, 0.24943574666303703, -0.12720412182478033, 0.41676060963305706, 0.33371360539180944, 0.3907544796353461, 0.10948804227344987, -0.3286563996301043, 0.4523132832925239, 0.26059904208348406, 0.4234867990199428, 0.3688735517694368, -0.13616861193491478, 0.42249566060456595, -0.40804027631626205, 0.0016249884746194871, 0.18073709612950495, -0.11070208311419764, -0.12011296229676788, 0.30592596586319487, 0.1364806828304746, 0.15633481918663017, -0.42782998833399477, 0.17891718788154734, 0.21938915925525365, -0.019708113211842626, 0.10146960341348688, -0.2752188418269056, -0.13684733465089596, 0.2055040835587846, 0.16542606759608167, -0.22400629053654894, -0.18905793083273897, -0.08635676252659087, 0.25245849581782387, -0.42742880190071036, 0.13322837410165866, -0.22761158166350234, -0.10133681826928106, 0.11081745368907103, 0.12228719751146942, 0.6159521739918284, 0.33631200020292085, 0.3087573291239342, 0.2284945475275923, 0.39948663709753374, 0.23405363109863467, -0.0804319611877741, -0.14733998346298513, -0.46230785772984806, -0.046193184543325286, -0.20557309366355037, 0.34498465398322176, 0.11566806603703117, 0.34061849145365886, -0.11745749322634036, -0.4867062327775015, 0.17357082811930902, -0.1503394281536431, 0.0007121077912570858, -0.17411817782764144, -0.2357998511692823, 0.17898776829472898, 0.1354501988778117, 0.533829027426258, -0.13412529790023242, 0.4775122893189157, 0.19263028837070376, -0.10103791317689652, 0.5205253409372242, 0.042255015230110674, 0.44881177623806084, -0.3172920434386917, 0.49805285659032217, 0.043166578229780775, 0.14990851616835363, -0.36285248136348225, -0.1911018027107133, -0.30859297805136787, -0.04858242489495157, 0.41152849370677025, -0.36272130691733145, -0.040670968768618865, 0.0563326995377365, -0.14873344230209762, 0.07185384570765845, -0.20056191266818832, 0.31005854912710706, -0.1651257960457887, 0.25799377850072347, 0.46231118564336937, 0.4924259675013878, 0.2362835463534053, -0.08604412201924323, 0.06695300013242281, 0.08511139385397418, 0.5456180481347876, -0.23873821362787725, 0.40533498706253696, -0.24560924153275215, -0.029853782620468557, 0.39855404199641087, 0.17195135711172113, 0.07178502895802391, 0.058525304634684965, 0.0054308769823508945, -0.22405253926162302, 0.31420561509390615, 0.098307767272376, 0.46875580685300666, 0.10392782100827058, -0.1395752471306731, 0.4687606211078468, 0.4988382770385422, 0.500962887274161, 0.31612751090026037, -0.43589558683135327, -0.15798235285964513, -0.09935118595005814, -0.35347370935359074, -0.01335588573632205, -0.2950663702208236, 0.0847566307576788, -0.36067526738706246, 0.4856366060167175, 0.5885905850231441, 0.135289884804585, 0.14888038743731177, -0.2986098564632599, -0.1268008953335364, 0.3498579005784743, 0.2274431744886735, 0.1561961781803709, 0.09447293343824055, 0.02040401988146891, 0.1897476096853026, 0.4679742699917789, 0.4255106607076358, 0.24254342500614912, -0.047637493877445286, 0.08314062594404213, -0.06164971755325998, -0.3474996464900947, 0.39406987611720923, 0.09479913606022201, 0.011261273514039086, -0.13022445970648713, 0.46803007285140347, -0.03062595034271474, -0.17474274536082032, 0.395083311933598, -0.2977990415880564, 0.3098398009006369, -0.2650523959503018, 0.5041880958397598, -0.16100980732988165, -0.12908926312480457, -0.18795477418057913, 0.39358245566250066, -0.1476708368408688, -0.009301582350545864, 0.23566925265106603, -0.11908883815883495, -0.0641045237255642, -0.1870856537365618, 0.32491463831045264, 0.44056865175698456, 0.22859030190261295, -0.23218350825504744, 0.1345386967768996, -0.1625304129688648, -0.22920489179791992, -0.25624827917637283, -0.28433526824884986, 0.2974264703309528, 0.47375456869021026, -0.3558105926656535, -0.055793406205291274, 0.167130558674611, 0.02855633327488906, -0.26879181079068465, -0.1719868915392372, 0.5189164544075334, -0.2129589639568974, -0.08635848740521461, 0.11037187527397749, 0.09277998777679379, 0.07731029492794216, 0.1802881668805425, 0.5213325587133759, 0.1266993734147233, -0.15358277699322836, -0.4864361488689276, -0.12745448610139218, -0.2516570949363261, 0.1809319808120135, -0.29667428576460164, 0.012904422894927568, 0.3477899886146354, -0.08106365663960231, -0.20834096505414554, 0.46808675813759865, 0.475536046745516, 0.33329691742203765, -0.09050953900867775, 0.2699097151180521, 0.3950598485317495, 0.471748988640563, 0.2865441760700115, -0.21274750558292907, 0.6404329515449987, 0.44675473096261, 0.15200096208565328, 0.08041041713905443, -0.04251626021280673, -0.29312188662880423, -0.3069196122415659, -0.11371394143261336, -0.07044270645982582, 0.3151757402821049, -0.4429411371727469, -0.07238019614442895, 0.08357595448767241, 0.4150402783648684, -0.18398931751600392, 0.07626246651407605, -0.01850480856334544, -0.25803209735436106, -0.13593765677511796, -0.26122500222588185, 0.007695143222437243, 0.3834744221902283, 0.15468068299113075, 0.3946419183132075, -0.05154440305752107, 0.39790227040558623, -0.08108752460641364, 0.06413076312725956, 0.16916551794646398, 0.41981480058715087, 0.23005142838530435, -0.29748556947376, 0.1830087436940667, -0.03694839562151988, -0.3051568919088957, 0.27553022418752227, 0.2649837898686682, 0.029260362186657906, -0.049283638468560716, -0.19054268866481472, 0.10578903920249416, 0.35924006166755706, -0.48625407978914253, -0.41986367328667407, -0.04724289744506185, 0.034035786409588285, -0.2777467937639875, 0.2064952284632656, 0.08975818606012068, 0.10831221403357255, 0.4023883546191297, 0.40296405686891634, -0.1545997700746629, 0.6312085188719528, 0.11043566055336008, -0.095026213127538, -0.19720462083003457, 0.4171008004895589, -0.4252627850298517, 0.3505699967971912, -0.03397757368455612, 0.06376704238660258, 0.492105106584205, 0.5245656610508913, -0.3512527821009516, -0.43084674811763596, -0.06701591332704392, -0.4224236799193647, -0.44542193691614385, 0.18638236352458804, -0.22231951072219083, -0.2801911599386088, -0.3831303954367421, -0.09761628333790336, 0.09040885027241677, 0.020791203877238762, -0.4344957201269913, 0.479813841864022, -0.2125247190630676, -0.30078561832787915, 0.19894471356190507, -0.14661951278078192, 0.40460622260929946, -0.2315566462934972, 0.12295261031120021, 0.5205564790664003, -0.37389765862751234, -0.12565575569519882, -0.10166595861279731, -0.2139954942598627, -0.30454471018721646, -0.1887245225750592, -0.2966654970292337, 0.36582959789776703, 0.18338268328056834, -0.30710437090054066, -0.26948886829337326, 0.36546396210241827, 0.038012149779515135, 0.15047235583417046, 0.004940440268249482, -0.1794740171965329, 0.2792225157548067, -0.011970870572216982, 0.005792183011594699, 0.014001673659766496, -0.023400786925444655, -0.32020071243075304, 0.3317506932366367, -0.06484914599394354, 0.7229944716239559, 0.5311276983392782, -0.05066076867539973, 0.44817696589351097, 0.20210851837799443, 0.3891209079544109, -0.03582512650525125, 0.2955288287322321, 0.42230698915206416, -0.4148080348639454, -0.14308449432860273, -0.2787626241447785, -0.11405395663540595, -0.25159404540949887, 0.17024995445671653, 0.15184329104452565, 0.2893700732025004, -0.16685697953742193, -0.23455043607867548, -0.040366592378521894, -0.183959468423987, 0.44495408617580817, 0.3251074506930542, 0.22223294473562832, 0.054041294532886225, 0.3052403517000033, 0.3632896850088972, -0.2324141970839406, 0.4493263475999555, -0.15130039095678588, 0.2824946755510021, 0.15924459531659677, -0.24110085658639924, 0.4602389409514726, -0.35577040531400256, 0.293683180774962, -0.35665262243674645, 0.411860190533623, 0.14202744455234576, -0.3609528410191203, 0.1322003094454688, 0.3857182054140308, 0.46040265220026355, -0.139670705988038, -0.4214638657087164, -0.3176738181660848, 0.1945164265312201, -0.17765389260636, 0.1858629524296949, 0.03822535142878891, 0.1942740067270559, 0.34035895717125864, 0.13905416334942888, 0.21597985023085464, 0.4343317129963547, 0.07688432420796908, 0.542538031064684, 0.34833994028507365, -0.05057165777741964, -0.2596972433869073, -0.01554710486702406, -0.40347321955988497, 0.41620074486180925, 0.4142249647455923, -0.29115211701388966, 0.08290457271183475, -0.48045612215903843, 0.06388723167657001, -0.49247740858331457, 0.4734734698572267, 0.4365582808905131, -0.36738250061987054, 0.335539755142618, -0.10012752436629763, 0.17893414495127982, -0.46297836712584356, 0.02262544022264373, -0.03201882453646153, -0.3738003351582725, 0.07380829702095568, -0.22779044061140777, 0.4161159205275202, 0.16501175529885864, -0.09861214869480242, 0.44681136951810146, 0.02095426362089634, 0.18422594902483758, 0.5562122941363539, 0.14991674268742886, 0.2425388128140899, 0.4660377838492165, -0.11200889566687308, -0.3277445836106973, -0.3129533244962882, -0.47755430635495916, -0.4699918402170096, 0.38640829055663606, -0.3826169281418001, 0.4605359717144668, 0.13287227246731154, 0.045486635555565494, -0.3442496138690592, 0.3844973391742304, 0.45506772905535386, -0.22687323861441755, -0.40546358016186723, -0.3835145137371962, 0.09978197592725119, -0.21729068845117896, -0.2894947874243439, -0.11071302826893523, 0.49351228744814796, 0.2811575854401036, -0.12468261580315032, 0.3103445613999049, 0.4579140124253113, -0.008929913248815664, 0.03784406720953149, -0.22236893390731696, 0.2794071840939974, -0.08611833304070633, 0.4786208681447952, 0.11384776755873903, 0.49433300053248336, -0.2817230402757469, -0.357534016729967, 0.3146272821175494, -0.008140602806788697, -0.4170855128379397, 0.2872902740089905, -0.2781670126162893, 0.42071947990132164, -0.14326113556363268, -0.43744625793490427, -0.3632233677410383, -0.19838717059977742, 0.4180375691323403, 0.39445390280126713, 0.05051560273257329, -0.18525920288838998, 0.006921745798052335, -0.006973225137005752, -0.15610684025160326, 0.27357890323274076, -0.3989418510860415, 0.46885100360568577, 0.26011531076319666, -0.3584760179230153, 0.2292994416097011, -0.2997391855946811, -0.1810512405845302, -0.09158491334303404, -0.18697442296670735, -0.4717660865168075, 0.10039612186944546, 0.10476703043243019, -0.37029197878857933, -0.4540556777229513, -0.39683423657287187, -0.38424976913816045, -0.34710133254719067, 0.5246864661049819, 0.21922638590535293, 0.4837337639598932, -0.11535202709448143, -0.2411369603036151, -0.007125099356730967, -0.12842492748322668, 0.6222415873233774, 0.3999958870015457, 0.23596221853250066, 0.03220803124861356, 0.37395521071289317, 0.30049488023680715, -0.18922413230400825, -0.2259161144014268, -0.05732141756962319, -0.054474302705618545, -0.18663594535466288, -0.0592754339329407, -0.2837577762466047, -0.18065171805208635, -0.28653447523017017, 0.0337647063881491, 0.18297690836451266, 0.014852042821545246, 0.32191600587894964, -0.21157498851032253, 0.005413614576077226, 0.5010897747631001, -0.25684637918722625, 0.3869234505051467, 0.5076807284318448, 0.13800874470459037, 0.029343014699853506, 0.35630531367150187, 0.1282806756425172, 0.06814158622309203, 0.04941342375542551, 0.05801045424859543, 0.37205344923960576, -0.056288126958398445, -0.06476026194526845, -0.042967582269148014, -0.11462037307951291, -0.33514374426201354, -0.0859477446544672, 0.042595834762622416, 0.1934806804381188, -0.49633844883792466, -0.4745549222136488, -0.14672685793464726, -0.2718090871766763, -0.47045107135505265, 0.4628504283239435, -0.3368811889108322, 0.35796965263991604, 0.10556629718121466, 0.36870172503175114, -0.37137918466435776, 0.07198749281339595, 0.22623585485436135, 0.4698741977203311, -0.2659200534641939, 0.045598875015098135, -0.0956624581907152, 0.16498783846175977, -0.2891801881682519, -0.2695435783496284, 0.35406786679844965, 0.4185072858713457, 0.11211533968316895, 0.09331709035848874, 0.3392885553878684, 0.11597643419713258, 0.1791761857203668, -0.271622854667907, -0.021730649336922148, 0.23140887860323212, -0.3743863001183496, 0.24294722002020996, 0.17768932039693958, 0.31411067524446407, 0.32668644442993733, -0.3206700884991196, -0.25816690560271943, 0.1297846940299027, 0.3399227690054607, -0.27894772755329633, 0.5357096986685391, -0.07967688479441241, -0.025159987531555794, -0.39272619691998734, -0.1809871577127326, 0.44522513310749073, 0.3741292963946783, -0.0451940656990272, 0.39710043065603645, 0.2618674200946114, 0.36558334550924126, -0.32186934003018053, -0.031358166240037455, 0.31239809317009876, -0.34952333588331047, 0.4142253762586353, -0.33802829572118553, 0.47940077621696353, -0.32057073463410124, -0.06652842809875636, -0.2711799410063132, 0.08134256443639024, 0.294239777382317, -0.030127728280669373, -0.17987381552032336, -0.4859143706355103, 0.040351084017239504, 0.33647119165248024, 0.14268035178733418, 0.1263052617294042, 0.17010401145796, -0.1662275713864593, 0.35768363383780427, 0.13789401615173938, 0.1564374112403442, -0.4255746104630045, 0.14936290982614345, -0.10384777846714348, -0.45457317899361765, 0.21141471570974343, -0.29823987837335225, -0.48266752711244026, 0.04994755726575724, -0.1156284179186079, -0.14918170446378554, -0.4373405815209116, -0.16230244861337506, -0.03101986079814223, -0.10309522685946926, -0.13744929701400657, 0.06375082403769798, -0.15722770542303843, -0.2720738217452588, -0.23907330128516796, 0.018717524863079038, 0.37231460955815016, 0.22746092376134655, 0.17094233944146042, -0.2056257948960151, 0.3244886256818086, -0.1861150365789388, -0.19489125834074267, -0.11613881835933934, 0.47521219668915005, -0.035798051963627585, -0.22205405321627192, 0.003918426512215265, -0.033922470796690946, -0.4126447442101755, -0.10495134407996995, -0.45922344813505933, 0.2187284814923025, 0.43973537891150816, 0.3629104214387223, 0.09317237655407784, -0.22399149088084835, 0.06661773692640349, -0.3120929821396834, -0.39278569476068037, 0.2737483736942846, 0.13820078801903354, -0.41691610641751753, -0.26118748820027704, 0.30785412660313943, 0.07143863580115409, 0.4650411909639998, -0.21831711983894428, 0.4283145297371951, 0.1299721287424755, 0.36028051642331455, -0.3519301062098337, 0.48184121492232207, 0.04542836647061562, -0.11949013193855235, 0.005312043674198369, 0.0666479819534489, -0.2651508300418084, 0.22396604476803395, 0.46163660988074406, 0.41899678407502705, 0.3888799777105083, 0.478148959825777, -0.013261225652382413, -0.005335621127498857, 0.09435386223084874, -0.47957666081980543, -0.0957808376824314, 0.3025021010130111, 0.09008449775270888, 0.36563376706879946, -0.38597814776433836, -0.10967150807165038, 0.19746780478911674, -0.24062915075405356, 0.43821426434030264, -0.44578672583316137, -0.3891271067812261, -0.3240033213468374, 0.48248292556466144, 0.375255966207531, -0.2684191662773826, 0.42466989304514735, 0.09044122944380961, -0.024378159714596448, 0.035612404682243026, -0.3389490364262491, -0.3746222465165765, 0.09371010858547135, 0.24452400425973453, -0.05585846834668717, 0.007547516490051254, -0.17105644699418288, -0.4844086764187161, 0.07610613006483247, -0.21297382516934169, 0.03997581480965801, -0.4090385929216806, 0.31248817169627985, -0.15031708708709865, 0.4772772611932626, -0.292189509743459, -0.21813917707321712, -0.3603778134460959, 0.21174518295633124, 0.34090277796536916, 0.4036519039481435, 0.43553473248729224, 0.383458137750058, -0.3064370209258334, 0.39568498682628445, -0.2128105168888026, -0.21842656911471836, 0.4226276381607367, -0.46487698293543467, 0.2227216426715254, -0.34858710187842457, 0.26136464882342925, 0.2616153726003877, -0.2807351481672915, 0.3467751686841387, 0.14134551527401495, -0.3982035428746724, -0.22654613185884867, -0.05557968626472908, 0.42422902675671637, -0.26332809432717863, -0.1383654393564398, 0.0299540336320047, 0.1476948716935959, 0.14078711866895494, -0.03539302322336845, 0.4325805022203569, 0.4066348816417292, -0.19546218515651295, 0.013275187166425995, 0.011094794272756425, 0.26888638814356725, 0.4000530481721895, 0.3606316823254434, 0.03535692381974484, -0.17210924963519053, -0.32256420940179414, -0.3441270659374064, 0.2940765028497413, -0.25286938325270736, 0.333424590413681, -0.10644617390788924, 0.2244312530599546, -0.025921381885414263, 0.2292627538057171, -0.05002347110786674, -0.032292362557992435, 0.44585398521752534, -0.008879491303084408, -0.05932652586144169, 0.429387768264075, -0.2256370313329484, -0.4829222307439841, -0.326823747140402, -0.23846843531299564, -0.35007810672202777, -0.4795716203288463, -0.31232860440821647, 0.40191384198048613, -0.23149887441094696, 0.2536290425773474, 0.07657524078684808, -0.09393642915965768, -0.10555951871561382, 0.26052014914852784, 0.3170378143021639, 0.36266956370980774, -0.3513773505592781, -0.4522799227907184, 0.2848902451100934, 0.11701884220297054, 0.4242333703288801, 0.39391943313409616, 0.05066722288976681, -0.34933853560654576, -0.26533200577310895, -0.1973439163698759, -0.1783849747386383, -0.01309336947770296, -0.018077240404977196, -0.04817653498736548, -0.22584836680304274, -0.40334391813016346, 0.1253998475337714, -0.16893950710866762, 0.4502494548178169, -0.26680736176881875, -0.06126671732257865, 0.18854519795474645, 0.3434227534523512, -0.41642181262622696, -0.012415427538128633, 0.4660275580631409, -0.47927132737880873, 0.41882891751028956, -0.34611418503483304, -0.01233422168726539, -0.4299897538202399, 0.37114143665158195, 0.42476328075257913, -0.43744843659102634, 0.14618431019122508, 0.021729176471991157, -0.30648475098571226, -0.15172097565247714, 0.4292142322452054, 0.2919921004734815, 0.10202535738337998, 0.27159742380059076, -0.3051243580151158, 0.42378973810876497, -0.07186262545113604, 0.3413908826321392, -0.5065708365207985, 0.3854847018100931, -0.05293778085733039, 0.44160429957034536, -0.4927205594376609, 0.16450330603111918, 0.37250749259441074, -0.3016959683775415, 0.36395541579296187, -0.47018204664330815, -0.44568604601429385, -0.12057149384060795, 0.15521394665704868, -0.15939059837774927, 0.24641923544424463, -0.08191123887789746, -0.41814589940654734, 0.22105292585818304, 0.023888923248563773, 0.00287043264496764, 0.18316920272886414, -0.515940406799321, 0.40576234601418354, -0.40862114817376155, 0.18693177080455173, -0.4132636892481321, -0.09141827436155942, 0.16203475778469645, 0.40571806918147674, 0.18097410681551682, -0.21062297214089223, 0.21319182519318258, -0.10521681176889806, 0.09114732258124227, 0.2895565204747304, 0.4212686320607243, -0.38575604728042867, -0.09330455586517937, 0.49389488465930664, 0.03623402313780211, 0.48740788104636745, 0.29323947271072814, -0.33461411834473137, -0.2844633961329776, 0.30857322705256857, 0.367447447533476, 0.4754511401285748, 0.385779737586387, -0.137021568399166, -0.1185236570710021, 0.048100079589593996, -0.03638514774746898, -0.08837814244824575, 0.14719532897746362, -0.05937417462494819, 0.22783791386288485, -0.18465504576640013, -0.3968550185778149, -0.2781140251887828, 0.16337759818172412, -0.023021564116257297, -0.3393546063705719, 0.3906231655178722, 0.3750450591195757, 0.0412249406795133, -0.07466220074588137, 0.4653002261191124, -0.3075097367866836, -0.22879953401419434, 0.24446888268213784, 0.1135475035142467, 0.26156428010813926, 0.2770862844460637, -0.04549558646826313, 0.35571317430010335, -0.15366703234572218, 0.5640431315545877, 0.5011179110394967, 0.4018367459259612, 0.42796574214825917, -0.36620736677077753, 0.2970136595434884, -0.3268958900769784, 0.37170385000343065, 0.06538255307075476, 0.2520566153462092, -0.3235430684307923, -0.33907343265729273, -0.0532907220500633, 0.23756517712883837, 0.04706798276974981, -0.1580031559815113, -0.013095877016278361, 0.10970543333291052, 0.16000809235775032, -0.08199399215670365, 0.12457802002433753, -0.3138378110756145, 0.1552279570726326, 0.4749156422614909, 0.06685937449009675, -0.07753232201169578, 0.17071867360980847, 0.1301626584229546, 0.025320006130433396, 0.02077235115408122, 0.5118479917933108, 0.48955964102442073, 0.23379364351613033, 0.2671431198080769, 0.134223376942155, 0.2809182705746389, -0.2925240686009918, -0.0028383093701151167, 0.24393962815651585, -0.05248241225637806, 0.19206629690914023, -0.1369658501971072, 0.03775783089508328, 0.1307327877482102, -0.19652010367547643, 0.38544756172389866, 0.238265287487231, -0.0717217888285467, 0.17851442085875613, -0.26566605162662454, -0.05843171709353897, 0.44532896178450837, 0.410656400138655, 0.2503630618678693, 0.33755308714482035, -0.3131583921712674, -0.17572965927798498, 0.15925786670838107, 0.015674685226874246, -0.31211780359677954, -0.014898607985093756, -0.048518190551698155, 0.3089484039113637, -0.31829841884082505, -0.04106822151234024, -0.16997361293054047, 0.2802367353478194, 0.12863857343191057, -0.11905512292207518, -0.2502795737264323, 0.44220425015832165, -0.06045843219462164, -0.0012229953716018872, -0.38049483102650805, 0.4042919054013305, 0.36178772167190315, -0.45104439667417656, -0.1779935953819697, -0.035445898824592384, 0.46237793805324134, -0.024054649173706946, -0.02814327321987515, 0.008532707040425282, 0.5496256201087948, 0.3252140607857404, -0.5727259216053001, 0.16044041743749465, -0.3836760512825652, -0.3095619318437962, 0.40609429624102616, -0.34903388510775885, 0.08441336405143003, 0.12259691178146949, 0.47019158429121766, -0.32810526672942864, -0.10495579493106691, 0.11025048182054227, 0.2028139136801855, -0.17783688072373008, -0.044255000495154836, -0.392037526670617, -0.32272159483795615, -0.40636753291322036, 0.09583786139394934, -0.4262863319491855, -0.04633084439379594, 0.0020073065987042324, 0.40416096321878464, -0.2263599035158397, -0.16860953695269648, -0.3840214103604995, 0.09503177710972553, -0.1569395839985421, 0.05876017380313691, 0.03457039481640646, -0.1232882510648973, 0.2697714297695448, -0.13652494626999653, 0.22807809658077963, -0.29565317367715893, 0.04911510741515066, 0.42562648276337023, 0.3614768792828769, -0.41348144642170936, -0.40640187564644675, -0.3388939599804757, -0.31174516944648784, -0.4017219401442575, 0.46172781036659016, -0.26459434305892965, -0.48802517471494555, 0.4226093774393106, 0.1325890276659159, 0.040660328034173465, 0.23610230894395345, -0.21510724716572177, 0.05003917361804442, 0.14148536393643418, 0.038717120693913816, -0.24509998388999557, -0.4991952299154973, -0.09642705254659936, 0.15774838917640593, -0.36750819282677116, 0.14617307735618867, -0.5103532608180232, 0.08395804882593369, 0.39775718814239, 0.04191068217526311, -0.31347552284799823, 0.02360551717320477, -0.4499082666713763, -0.2947318464125709, -0.21664637992505215, -0.438090237986633, 0.1837598421494575, -0.17021731851408287, 0.36025251957464816, 0.4930823508203295, 0.12240205283434358, 0.09840162234622385, 0.3840121243508918, 0.39106620902584954, 0.03350161204409109, -0.36923579341775825, -0.2801860304317067, -0.40977137944838077, 0.3718380173536421, -0.024411139424386163, -0.05472345687283269, 0.27331777248659705, 0.12184531432266214, -0.18846791567269103, 0.03616839476242945, 0.35340180448096953, -0.4052656774499279, 0.313074754526875, 0.12647266124148654, 0.4636339120582817, -0.27567255032911686, 0.0860295333445605, -0.03907448314219896, 0.03961281151989678, -0.37345429438356187, -0.0676997889976144, 0.3861408236283632, -0.046848525279181485, -0.43648617058577477, -0.04651293659007705, -0.253398784679176, -0.13416426657992828, 0.31441075390700374, -0.3269051635987682, -0.14807942511108357, 0.08233729706742143, 0.3671646847951625, -0.08476895052611881, 0.11144457231858734, -0.238531651313788, -0.3184960112397174, -0.46900414332768087, -0.1954988054167719, -0.475189276989641, -0.45306093955442, 0.021150449089649588, -0.21174801011662295, 0.05370628096635256, 0.08326125551523787, -0.07366943208868487, 0.23185877963718804, 0.354241287835129, -0.054594010418721924, 0.4135152656766603, 0.1544920277397599, -0.4371274528652608, -0.2495554695214911, -0.12546845198679074, -0.4192126517603729, -0.10286572052252861, 0.1507960259100549, 0.24687727158915346, 0.2514619954791254, 0.19167063944133694, -0.5330315555557411, 0.47517936446955295, -0.45655706172790017, -0.13145637231154367, -0.1395044369922711, 0.23800152654082973, 0.07176227001562804, -0.2619531823370191, 0.21060479712545482, 0.11240896454906985, -0.13633155962849008, 0.45593555087821297, 0.023922926773645017, -0.09013196759474154, 0.17940758106018478, -0.26957717214450944, -0.2164883687587432, -0.02480750356546065, 0.24097921007791598, -0.14183634839595785, -0.44001338666498435, 0.07467702372155915, -0.06643880794355586, 0.43484392609646455, -0.07801917033434276, 0.26031295126248544, -0.014568872855172728, 0.015401341684002373, -0.07725355845804899, -0.4692542962386281, -0.2260964142553724, -0.11443144030615701, 0.23672415089405424, -0.4325285696424062, -0.3742271780936252, 0.24389275123700746, 0.3836536828080684, 0.2526829383341964, -0.4062978343372116, -0.3360872138975387, -0.05898892831388355, 0.29203537526054985, -0.2922465380354596, -0.35933602163687517, -0.18268449752492255, 0.47552028620531794, 0.13171563345860646, -0.405159554976891, 0.16204285800876495, -0.1772672819800362, -0.22795900763628726, 0.284954864997183, -0.41177462949441623, -0.08539671298260743, -0.41934065398957665, -0.19659866323348904, -0.07572075829907941, -0.0802785501042076, 0.4358779085124374, 0.4663343155831339, -0.33079826578667476, -0.06953491864450964, 0.0826511847340269, -0.4310757282214804, -0.253256037162961, -0.2975959251352099, 0.3801624237742311, 0.02064279471345509, -0.35888987497525593, -0.4426718079481379, 0.38156048336761783, -0.04325773027133619, 0.302811340161613, -0.39710349326896227, 0.3133677451385339, -0.35368984225182437, 0.4447988610743707, 0.43225921587944977, 0.4534742344746502, -0.28486286660516136, 0.4967818684927269, 0.0943909132933984, 0.3377304045168911, 0.05232864386368673, -0.05656463876698503, -0.4289017447374152, -0.03972685710926238, -0.17761640729319206, -0.325375158842909, 0.33583655387558764, -0.3156667889450468, -0.17553480021812112, -0.2008712742278585, 0.47797105015646807, -0.3630688150016164, 0.4864996623332268, 0.19836212709567339, 0.2351291929890548, -0.26830206275637836, -0.3919919666412156, -0.021523582530341805, 0.2555478902072545, 0.3930253419493001, 0.44472294455949624, -0.32219662764500767, -0.3220682961627379, 0.21467865453334828, 0.16749121547852025, -0.284865813590129, 0.37230567785089136, 0.40222799463317854, -0.1807458682977302, -0.09302682484577196, -0.20292656339345025, -0.2363590460432002, -0.47921239681363215, 0.344035639728167, -0.19646931852442112, -0.4484800586669837, -0.07735756389109484, -0.14611170150102307, -0.03666321759174296, -0.1777073396802893, -0.16522584197800314, -0.46492634401464605, 0.35905389857945685, 0.08895462651875295, -0.42094600031845775, -0.30992115463808456, -0.46139387829150014, 0.3826469386861453, -0.028035783297587713, -0.30491172711573866, 0.45531802522842113, -0.11950818314174938, -0.4586209899916825, -0.20370246200970493, -0.23240024930402772, 0.21595630736779486, 0.2610282924516652, -0.4299605761084789, -0.3579230235135344, 0.15220054644517106, -0.47947131453980096, -0.03535183414285945, -0.170308169686997, -0.5574171586991559, -0.3894500224278107, 0.07994434181345947, 0.27786065255742926, -0.32882861882189385, -0.28821883834662687, -0.22344162939974785, -0.18913559876296354, 0.19301669474971572, 0.2815355370628919, 0.4153916765030616, 0.26237254637198015, -0.30806961373256664, -0.12134727145716162, -0.3282686131584972, 0.19011821297683518, -0.0480988068575277, -0.40070540013015404, 0.09391158822765389, -0.1571941942232317, 0.46819244613086897, -0.09390161765100866, -0.43952177744837184, -0.04349128214673923, 0.04293225510724861, -0.377708479667179, 0.24440849205184073, -0.24325014348035592, 0.009522772190215465, 0.1614135253137556, -0.30493604983612266, -0.14069882632758587, -0.32344841971682503, 0.14793960500128747, 0.40227393894254737, -0.26469199192512594, 0.3022317893257431, -0.22771451738923662, -0.17945400742857262, -0.17274568259148462, 0.44199917198062194, 0.07985879331066192, -0.3387178078311015, 0.13199009402632964, 0.19528672241665349, 0.22721545895005907, 0.4455528599209349, 0.06423431718151738, -0.1330812074396667, 0.3667858188003981, -0.48679045519154435, 0.009942371873063816, 0.4206624214940545, -0.17614298905225975, -0.5696442946104618, 0.08667526220438093, -0.05426711605423791, -0.06874896433665711, 0.6277758820824312, -0.2517083405811558, 0.18030493057167657, -0.4664475936145047, -0.35265950251458256, 0.40590222252236285, -0.4517053397550009, 0.08153968807741639, -0.35380382278822403, -0.23560094767603598, -0.12370485022974119, 0.024245543500279854, -0.04663925150700776, -0.28242733342034265, 0.4295484358818563, 0.40932419363880623, -0.2688519950153505, 0.232095244980351, 0.3684308454730996, 0.14233684396536664, -0.2419669342976346, -0.34479765385880695, 0.3562059726632548, -0.1833108418966558, 0.48725479926417464, -0.3292215733499031, -0.04538279457846041, -0.37439917467124795, -0.07444089614327017, -0.054847382761809366, -0.3997839828169924, -0.4563772783118055, 0.19925243457650493, -0.4196082630502442, 0.10028703779573996, -0.4511026362493875, -0.09247806758655383, 0.4782680038445382, 0.17533722495078807, 0.191997140569392, 0.0038179813195210466, 0.19023929916076054, -0.021686875339940292, 0.23891308363580163, 0.27744594332946493, 0.136592903971864, 0.12006806439814496, 0.2779113109985817, 0.09078974544482529, -0.013830274598180791, 0.4083892862948733, 0.07587126634549644, -0.4307098189072319, -0.2279990617583341, -0.043351548526122975, -0.07929353919430493, -0.004385529621506184, 0.08108170724820302, -0.0949358761290549, 0.06764050865010816, -0.2705021339799119, 0.20417959696619992, -0.36466798957822444, 0.3831251234793593, 0.10889989580857255, 0.08638794197133495, -0.17668415118247982, -0.21955512458810322, 0.4084346854622488, 0.12025527027207183, -0.0970524873256342, -0.1839243402990448, -0.06839286859826049, -0.1653224720302486, -0.40239531965748704, -0.12834698208672324, -0.33732789226088616, -0.4777512609058726, -0.013459473489746998, 0.20254843589618982, -0.4012587018073341, -0.4015186838630523, -0.43756572925196074, 0.48525366957006416, -0.14699225737066748, 0.5417500977133779, 0.4055207019539797, 0.2785057805983879, -0.2642716160803841, -0.19689371696595265, -0.11143073590884713, -0.06457549915083606, 0.4653972679918776, -0.11469439521508362, 0.13461563074524652, -0.11163617468745812, -0.35672229699685165, 0.2741268417032362, 0.33022721168363867, 0.11958903376331265, -0.4098463312191186, -0.4060573180120922, 0.18022142117018985, -0.0066570586353891, -0.31913723303597474, 0.015222314159646103, -0.24635521539454652, 0.2599362008071274, -0.155245555898094, -0.1512042064724466, -0.349513679919499, -0.2347691871143185, -0.016513770775165387, 0.29374788176137523, 0.11393388536767957, -0.4157732010647025, 0.1556562908658892, -0.28821676289973575, -0.44167328339237866, -0.026379624910229715, -0.03906231856065556, 0.06546488415442453, 0.42253263710475153, 0.3817939138337524, -0.4268004956265965, 0.1417089647625801, 0.024136521188163895, 0.3755446423146943, 0.053806542326655826, -0.21781056687637124, -0.12168310870530419, 0.4505512118737308, 0.37148521247037547, -0.20325132596580586, 0.35540164690784104, -0.4423022213469311, -0.2279700740712749, 0.45676363499410344, 0.3211481242515354, -0.4664156569925604, -0.3492585702489477, -0.10520533133993903, -0.39622263126185564, 0.3603075550731655, 0.3751678923515397, 0.0734038510114754, -0.029678644813203592, -0.1858631140001531, -0.2784603100052111, 0.29948625352407776, 0.44577458798721425, 0.37874373170549214, -0.2743191797071377, -0.4667486700414478, 0.0933294554272287, -0.45470416147342974, -0.40959863081908654, -0.3121394877854105, 0.47915760152031445, 0.1706286413043343, -0.10087176877859313, -0.3808634044027454, 0.46814126907551745, -0.39440822401374975, 0.2741048953568329, -0.08109465436566966, -0.06505260477750971, 0.02723302818321821, -0.2656708054408036, 0.06061056326990025, 0.009532382338461669, 0.41523187649284954, -0.11641096678647772, -0.07662959412758485, 0.4472020468409136, 0.09372905690772715, -0.21601504529784454, -0.13200212466855754, 0.16664794436658137, 0.12757447896210694, 0.44292858562556126, 0.10274194744964882, 0.2562937004348562, 0.49532389309689795, -0.3893815188687155, 0.03357806398235962, 0.2688092717463945, 0.08313345544958475, 0.45403979153444035, -0.056169828493390424, 0.23824129600736507, -0.13177324792521886, -0.06916231911086598, 0.07762702188364, -0.3901923788131477, -0.11258130775609479, 0.2814253603773644, -0.04233467556212206, -0.4657298615424071, 0.0713056872009927, -0.28034056476654856, -0.2648881071644885, -0.3510106305945394, 0.3760241534154188, 0.0007243196332349533, -0.09197701775905787, -0.2364332213802779, 0.24673120452068464, -0.4443250035940891, -0.27074914901375546, 0.3215480660285446, -0.14385676661614322, -0.08488200890556827, 0.2731701577743708, 0.22835508938965088, -0.008665364472974252, -0.4894767930384331, -0.23814869639621242, 0.4177694808447351, 0.3738163631386004, -0.46734791367536355, -0.1517816572951883, -0.36745281812812947, 0.19604408015570662, -0.478312685455029, -0.2502385718061687, 0.319533981013425, -0.44767907202332957, 0.07271037062555576, 0.407093544384485, -0.40669273770488557, -0.23748131284696883, -0.2520731499234113, -0.14537775435784214, 0.49066447364864907, 0.21227258213635136, 0.2115399190840157, 0.41729511428533417, -0.18833127396114413, 0.2714434542565479, -0.2261556616032845, 0.12831746199992916, -0.4786945058620341, -0.00568353812217612, -0.03233634495958761, -0.4827626895276197, 0.3532803915791816, 0.18953738818274787, -0.44146402138418434, 0.47468461880619883, -0.13433508488649626, 0.13702629777241193, -0.05915963920291434, -0.11850028149470096, 0.06822955869354956, -0.1499043293776166, -0.22449722279833692, 0.06896518972171972, -0.4421552057861819, -0.34943273690237014, -0.1589782608934987, 0.018646715450722932, 0.12429867637934001, 0.23582369207696274, -0.3893887755108537, -0.035355907555153165, 0.3212874013893288, 0.40500148454059604, 0.03578410382469782, -0.40582425711370324, 0.4526101955848059, 0.0312055930108811, -0.44510139461056475, -0.2124545811257055, -0.394484110467008, -0.11008768247454506, 0.22319910474973031, -0.46609163538257453, -0.4247819659429318, -0.2762221117825925, -0.06979023446674347, 0.4226774417498849, -0.3883996259646773, 0.2110649252811947, -0.1213713957776569, 0.36738306473219295, -0.3603573632183767, 0.306255419722252, 0.23720268697394373, -0.10903095088383133, -0.022777414371280422, 0.17770206263010446, 0.42344273677119615, 0.21183554880474775, 0.4988345635543822, -0.28134518359903077, 0.31337436652800443, -0.30850692318757184, -0.16476465675016358, -0.3807115765488782, 0.10317535615739079, -0.32543941114280944, -0.3487930853698365, -0.41864568972276694, 0.1486889269159465, -0.4047465816558175, -0.4412457548836982, 0.10327875874413246, 0.16508664284895283, -0.4034992381953143, 0.20258450172289252, -0.34181736477018415, -0.05939195623880273, 0.22807745669611573, -0.1258114112488957, 0.3007992472705051, -0.007453931334647933, 0.359819197934645, -0.3082024885603049, -0.44289830620968007, -0.08804058452413333, -0.4367066372358923, 0.31862362382310366, -0.0976295032156206, 0.11428459503385364, -0.39440968044245434, -0.3592714883193908, -0.0265225663514999, 0.3320287538294626, -0.4175456453677324, 0.07915979937080554, -0.009471291897305618, 0.18501500790606715, 0.26982532873621135, -0.06116702064884927, -0.033197532631852766, 0.03710044721229408, -0.40181606422711724, -0.29683796536102863, 0.01447659822356443, -0.41620832873851427, -0.36288437155818626, 0.14251363717256257, 0.010629308451329676, 0.12009859085245475, 0.21412290680470522, -0.39589239590145336, 0.4825792741330983, -0.35336610489970677, 0.04024725890358881, -0.04610759903278878, 0.32762864791167245, -0.26529349654573864, -0.14706700425803226, 0.28148570329408695, 0.17404494303420046, -0.3386661511799175, -0.21473526938593096, -0.5379667069494708, -0.22274470560373721, 0.027927834067771242, 0.3395355694187668, -0.11371285482584724, 0.5354086432280786, 0.05890749635183744, 0.4338018947345796, 0.09373818724402594, 0.4193570511205411, 0.14786665772918536, 0.15226744736810208, -0.1568594576314693, -0.11181629545481961, 0.5483640998048129, -0.16645257166669897, 0.41038226843754183, 0.47219363725649677, -0.1337512126537244, -0.338034293172988, 0.3693400700306047, 0.0373983610118162, -0.020954500560629658, -0.02241395862099382, 0.14726530647059766, -0.3420862827176067, 0.004494694884830988, -0.22498450039072193, -0.03084470859449573, -0.22870412554427358, 0.3717576416563037, -0.11297359533966382, 0.7567107728050019, 0.4948062445086578, 0.20626184592099497, -0.18149296713983676, -0.04000549191666363, -0.49264249600437127, -0.32699881582657897, 0.05494505067164508, 0.2912338688334521, -0.25553904788870263, 0.31525785281483787, 0.16062575320287426, -0.4005898126208405, -0.1655645306055617, 0.12315546822576359, -0.015085167119297265, 0.07029174106468054, -0.20400859771888258, -0.22218434868122305, -0.023323586282556617, -0.2129073618439874, -0.24502562854413493, 0.5768996972189468, -0.1653138065335168, -0.009038322935159653, 0.2421996610425036, -0.0640879675615114, 0.702747302342498, 0.4987233743937771, 0.4678985245064587, 0.3244099033054009, -0.09483726197764472, -0.17310667538299027, 0.15627523082585149, 0.2631175445146824, 0.31981536191469295, -0.27671785491322604, -0.2747948043634635, -0.15537083775115562, 0.49786003467916423, -0.13000275160554078, -0.43144732022595544, -0.4952138594130115, 0.4376795177216946, -0.270104246257642, 0.3600717596721944, 0.45801196404022176, 0.2161392229832787, -0.3329583783927241, 0.5272266883192877, -0.2284915668576945, 0.5732003355266257, 0.12749306254832146, 0.423507234199112, 0.5122962711746321, -0.034437658173497705, 0.6195985806088833, 0.3569684030452962, -0.3464581387557024, -0.3046022606847709, -0.5427851476951893, -0.47001990490843015, -0.3369666740223648, 0.28553755768789557, -0.1527413133588793, 0.25567834849692256, -0.18771476026637646, 0.15484808177330497, -0.07494192293992649, 0.2434123788658332, 0.2537780090213452, -0.12506668433060228, -0.3650732728596801, 0.16822194746550945, -0.4368501526464286, -0.11145604754939238, 0.17777536448721223, -0.4249093679578614, 0.024743900789366686, -0.17449104482354616, -0.2550614052792546, 0.03658642232473051, 0.2567913785715, 0.10295777070679256, -0.16909004082514112, -0.04838198659020316, -0.2771401969324034, 0.10527100872904455, -0.31899886596602095, 0.09988989996005947, 0.2554101129259921, 0.5551148077462552, 0.1965944655453156, 0.4864287951655636, 0.3973932657630942, -0.24429009850071914, 0.45928644384239836, 0.18505261707738985, -0.24098779174251783, -0.0014326182377035427, 0.10717390335254974, 0.21081759288792803, 0.2413604325844051, -0.17902619109972573, 0.17464490617635978, -0.23974734462108344, 0.03849706899138708, -0.18995531853801523, -0.32831111182534634, -0.3911669807105302, -0.4029805596986282, -0.2902230900023616, -0.16895312268220164, -0.34568811379443337, -0.6987724299320555, -0.19968144527383994, -0.06841754104685246, 0.19944394196021323, 0.5233525391931055, -0.3959187482606668, -0.040360697040255716, 0.06916344539432558, -0.08221570096905628, -0.03050295659777652, -0.30598036867123357, 0.15111191642254573, 0.021839523333269995, 0.16420042565188497, 0.41684944593811984, 0.28499241218172716, 0.14376638753098403, 0.42060665252566887, 0.2889358042337898, 0.47791997709472095, 0.4924000399181988, -0.4001288367386911, -0.0419770927088259, -0.14162259755418294, -0.41994703599276056, 0.13138505950908105, -0.556568731139357, -0.8142941209816763, -0.02042096984037737, -0.25415487726202574, -0.08410938707865337, 0.1366660230295287, -0.2156765609933408, -0.35361049085653284, 0.06447591863060928, 0.2777256058364021, 0.08316067825513228, -0.21922885066446893, -0.27488031439909905, 0.19707554396015114, -0.28548935861734437, -0.45865748845635057, -0.049269478228640425, 0.24939861155397192, -0.0051681502989532275, -0.15936871122183244, 0.15192022365807895, -0.26695019364432254, -0.3169151375479128, -0.4901701230726008, 0.0904594981587261, -0.7376764866547402, -0.5823684706317434, -0.18923992626145456, -0.10998568127317426, -0.22447817619066301, 0.043852382275488065, -0.07931942619495608, -0.07959340495032766, 0.014425667570071962, -0.1875308936620007, 0.2579574978092339, 0.16657082005357748, 0.19845655277768934, 0.29994125119066856, 0.3500075748049448, -0.31923065736411266, 0.025584624206484795, -0.1340750486199338, 0.44192956180078335, 0.4787599126643987, -0.421165566045778, 0.23996680802307954, -0.3328457676991865, -0.3914340850987737, 0.2125036410325687, 0.020673036886534685, -0.2954178735350844, -0.6404557376082454, -0.448177522696264, -0.4122758405206942, -0.7206678337553014, -0.13307423741880908, 0.19295896429628148, -0.182333052566573, 0.46338710914990927, -0.019933920638269063, 0.20027551235639163, 0.3346506860789238, 0.43042739865758856, -0.18591950527415965, -0.010111052542666327, -0.29689211147140515, -0.3529433677779124, 0.32691263260036313, -0.28223421107537683, 0.3233847682021611, -0.3905130135983619, -0.17290688701276719, -0.10343762632588119, -0.2764491927251231, 0.3671377826709598, -0.29033986813318663, 0.07714123238063259, -0.37184679081247085, 0.12181561687875656, -0.429943526395152, -0.5368460751343834, -0.12433969542233611, -0.13267940269174658, 0.16779656968411652, -0.1375882168088213, 0.39664050010389595, 0.27494251987461693, 0.25557303487789895, 0.25709134644862847, -0.3946533164658065, -0.4669349253698771, 0.22507440919600794, 0.4140450260926659, -0.28588466600712054, -0.03572965192391781, 0.3162702848259501, 0.2861001544504493, -0.14989258083096568, -0.13214734684070886, -0.15215375900764364, -0.16446015892419877, 0.23464565198901524, 0.4418788081148917, 0.23309713211076175, 0.5762590371288749, -0.23979059888775353, -0.31126705224743073, -0.034510372628139295, -0.39828120425450997, -0.057904161565999604, -0.09865159242559603, -0.37801602613657653, -0.16981641797675523, 0.19859377862884553, -0.28075716913343624, 0.2671199414032158, 0.22746827906488729, 0.1957189916019075, -0.2590678585066675, 0.3412453691058725, 0.301437962368919, -0.11003799469501169, 0.4655102546677747, 0.3871091890311053, 0.31459080345665774, -0.063846831711449, -0.07950447996056728, -0.3932077135326776, -0.26847479769347915, 0.17134067315819837, -0.2453888370344838, -0.2963286057936469, 0.11717857364291197, -0.3491730511323058, 0.29222705590650616, 0.27920229951648795, 0.25148976848572363, 0.2294075134173604, 0.27112391837727984, 0.20327243135089987, 0.6731623749715585, 0.7304562767336201, 0.06129976903205825, -0.1750633896506165, 0.09811234802953515, -0.549220705954577, -0.2931425805177189, 0.15185065661448457, 0.07467137487250455, 0.39479630787515685, 0.48735034400866695, -0.40972097768628357, -0.498130744589174, 0.11717747436112924, -0.04187717345176084, 0.41920238051083714, -0.06439571004638948, 0.28075693638711824, -0.18398989395813448, 0.5215367792532472, 0.15302212387446731, 0.46769091173528643, -0.4624517888625234, -0.20595559311305106, -0.13571423049406717, 0.4622862019663161, 0.3434382393631569, 0.3271688887225971, 0.15573877134409023, -0.1744066682546389, 0.16201351635081437, 0.04439740840189973, 0.33586822261334615, -0.4207727341366146, 0.37993943935274344, -0.2497776006790458, -0.4198254829953892, -0.45402653019418615, -0.45822202320184774, -0.044914020090651055, -0.39413207644562753, 0.17373482232933202, 0.26084958140725834, -0.3564832407564208, 0.4184650709358774, -0.42832217941056505, -0.1186751081115728, -0.11118002949065224, -0.325327849666747, 0.32291730323337925, 0.022961844539542118, -0.06636187512890668, 0.3859076133293305, 0.43857039566170064, 0.5189869014359797, 0.6340641856321177, 0.34210649993347597, 0.4207547115677575, 0.2728555621042649, -0.4696555155003277, -0.2953491812387436, -0.3927738949803713, -0.33475905186280025, -0.23229658770235143, -0.13476970839960178, 0.10689553345172008, 0.012283233418187869, -0.07566958017774356, -0.2694408852482427, 0.3766011214454724, 0.18635077210413575, 0.16375964736230955, -0.44583899551209155, 0.49029334855755397, 0.3227785012271237, -0.08438280275285481, -0.06732872636887806, -0.1810464990379588, 0.4620898921219818, -0.04209848403687273, 0.46345351376392446, 0.2172362161186343, -0.27872560879724084, -0.13713915326797005, -0.2468754787362427, -0.059006838599555085, -0.1266068305007935, -0.008128547346919016, 0.06292265235574433, -0.0900776800357839, 0.21895533744116827, 0.28885192756997025, -0.23180531402487442, -0.3265605101808415, 0.2315380101372796, -0.46379534200613465, -0.3466830540296143, -0.21627988847037216, 0.07585250915952657, -0.43645992008183976, 0.41284238393141925, 0.4933077374841034, -0.16791231413424587, -0.2690969016609882, -0.012184401483667083, 0.1532445041968728, 0.10655367963294594, -0.3433778902441261, 0.36387568685000127, -0.1820938328521363, -0.15773493587534743, -0.11583880430059365, 0.17680204237133085, -0.052895148894957444, 0.3347500876339263, -0.5136400615573558, -0.1163288588435157, -0.06346838153853332, 0.14177944850153318, 0.4931767253333916, 0.4580957655749221, -0.4370390229427632, -0.026802740694066973, 0.4385412105983459, -0.265079859688247, 0.3034485328269173, 0.41983971691932265, -0.15543375576457408, -0.19183841148600372, -0.3763604407935241, -0.35393450546047434, -0.32305808597670826, 0.4321558699686961, 0.15866256463516518, 0.19529758912503836, 0.10113205318800435, 0.21552932841688574, -0.308398739993581, -0.0268231946850993, -0.15407135955150902, -0.20887076304513544, -0.1004102689198548, -0.16090583912279702, 0.19011093841184137, -0.3382824778349515, 0.2507576461788094, 0.25340712664371323, -0.0062740000611411165, -0.1702454823000774, -0.44329154333975196, 0.1626314315469005, -0.3823558944955011, 0.12282929947653931, -0.3313544541953166, -0.41607524880229774, -0.24097974849503057, -0.1378716461528848, 0.06504448583143435, 0.08035519320395229, -0.3056181045401602, 0.46528056384877053, -0.47963312738068314, 0.29695032131148424, -0.029722084553910427, 0.12298907880467105, 0.05171836670461016, -0.19814645879183637, 0.014776862705268911, 0.45612654952842724, -0.06308168471482607, -0.296700424630345, -0.2569170936019498, -0.256084887999358, 0.4548577394870705, -0.3866654849492878, -0.3610424214072255, 0.06949519974721428, 0.21166904323500885, 0.005070028243406334, 0.4730135954617617, 0.1693564787977897, -0.07911915944415615, -0.2948435985788357, -0.1598188998769351, -0.2441398951482442, -0.49396701097589024, 0.18188725520404198, 0.4841193422992372, -0.1186050790172966, -0.4855623741315559, 0.12859788828548394, -0.09005831435293274, 0.33200777241596696, -0.170416613850149, 0.2857816744188638, -0.29994365512512855, 0.07347017957291596, -0.2928734579042075, 0.11005630350638941, 0.40882165308770313, 0.13859088286285814, -0.23921332350304106, -0.154795111777987, 0.11450531574250786, -0.005159811602720403, 0.15254260656121355, 0.3166961342586203, -0.24058240174259415, 0.4305294830548204, 0.12086171345088781, 0.22489132847097704, 0.49624436567369923, 0.47422653985600494, -0.338222164244233, 0.18900480824206622, -0.07700698496858459, -0.00032852360746786355, -0.1869059766461258, -0.0696421614006077, -0.4155670039913539, -0.38148010441901814, 0.120962757816803, 0.1944844617238071, 0.22470786884122995, -0.36191429617914633, 0.37587558630955387, -0.4929031168262845, 0.3381531955349385, -0.006015056157233792, -0.3953236934964302, 0.2476807729181168, 0.2091756091839918, -0.3596999001229463, 0.29772511447099026, -0.46626606129860204, -0.024342594433299225, 0.4730575533518575, -0.2740303672328612, 0.39289063421547976, -0.31480624761468956, 0.4313142164446446, -0.15411867149350544, 0.16530013428127377, -0.3355781872518494, -0.4522163868000211, 0.24023944633953298, 0.12682518455895875, -0.4408826607821509, -0.01806924209714511, -0.33871081827320326, -0.2589873118253535, 0.3899116094132622, -0.45487298796165465, -0.3197150339167453, 0.17574998754021465, 0.25481919069896264, -0.15305761800498585, -0.458359612269696, 0.0006877945553143139, -0.4348092285481755, -0.10409216199894988, 0.041637224539260886, -0.07512184538337507, -0.07056935268791054, -0.24042411650026618, -0.4435630083491199, 0.23216346362533014, 0.1910031905415841, -0.3030542624668662, -0.47409566563120853, -0.2351596996854543, 0.3746998508056622, -0.25633308280250894, 0.033682831716908425, -0.24517672834481846, -0.4514570490759552, -0.006867622895271348, 0.2250849965003869, -0.18197270438020974, 0.15781849678590024, 0.4062189696528274, 0.49633010326636207, 0.045916778145906854, -0.01751659016436954, -0.3144296338982054, -0.03693975581189292, -0.4127636320864072, 0.48117802676511867, -0.4551969674212679, 0.46962681956261376, -0.07422123978099204, -0.3550786653763681, 0.38544639054409136, 0.4010215127663501, 0.2772911338817995, -0.23134238938527085, 0.43645774710260155, 0.1991108334639886, 0.042597037197735416, 0.20899108526798305, -0.4385322277827689, 0.22577223784604752, 0.03067417064001659, -0.175329265942312, -0.28362383594695184, 0.16687168936202199, 0.27256600812417603, 0.10835366271044732, 0.3041273435775833, 0.4716287167414766, -0.3546784908933414, 0.16169859669796371, 0.4785623634444593, -0.2530004646014768, -0.3412587936115901, -0.24018646358356374, -0.2756866875470146, 0.2277860149307621, -0.02000809300873463, 0.40174593445806583, -0.4890988606683173, -0.4826404793862783, -0.42060295596987707, 0.1049277962559525, -0.44291544952018813, -0.458243746564294, -0.44274638083085655, -0.05586477323913783, -0.39989097965509857, 0.164418853732683, 0.47788706850906154, 0.15318992576472937, 0.10549126038851799, -0.015081927116470191, -0.41407036495955396, -0.1717520004367064, 0.23279825974105348, 0.2828381059865097, -0.26740055776309674, 0.1431036032858283, -0.035427988684655694, 0.46576836509946745, -0.08995151038232393, -0.36979386702824923, -0.10084110982757877, 0.38667170559357017, 0.2518523646009703, -0.12315322067164632, 0.005036545153477623, 0.12814493899741053, 0.46589943200060635, -0.409420038481473, 0.029918615952415926, -0.040555766861500114, -0.173025168807657, 0.1750019111505388, -0.43387127047302876, -0.1847787447237657, 0.48831716768724087, -0.2400221812509074, 0.27247859853854245, 0.04399208448058514, -0.4195805902816719, -0.33383871932494774, 0.3982141520271669, -0.16958053202907467, -0.3430786563388634, 0.12266696573255748, -0.08334419838878768, 0.35049242915366186, 0.14407599230500973, 0.20806250392461592, -0.4342003049792211, 0.3492834066101907, 0.4072643879647618, 0.03840769774226072, -0.22268770192034937, 0.06128981030317093, -0.3026049086370487, 0.043414783665126105, 0.4829572618555541, 0.37025802693727244, 0.4634419579747113, 0.3301176555488008, -0.044592257357036244, -0.17750219034227588, -0.24219894795623495, -0.10187468918170257, -0.17119010179595393, 0.33674166528614846, -0.06429161436907278, 0.23218720457024203, 0.04654630067305015, 0.4779035548346965, -0.11811005311882415, 0.25542880812767504, 0.4025177145776608, 0.3827549765286622, 0.4021629912560956, -0.26782639364212574, -0.1503654440754172, 0.13174830469105633, 0.25180408519171066, 0.11828882126108561, -0.3480085700991934, 0.2359893654519335, 0.35783787862668115, 0.23645987743741367, -0.09448077676052342, -0.22611054998034105, -0.015012274246853863, 0.3979352083820464, -0.23748075228827734, 0.3263208245480019, 0.32056892447533225, 0.029817735524441072, 0.37384664648625676, 0.3767307710386954, 0.011163110402011426, -0.1845014870757029, 0.22528030425209142, 0.5420534245701172, -0.2802474923096784, 0.40915074265594376, -0.42166766139183726, 0.4367651056644351, -0.36797325562543076, -0.2832991894725237, -0.18940970973800206, -0.04074758347495955, 0.3767822762440261, 0.4047719365780961, -0.4175296904943481, -0.4469543709872863, -0.17258232301153778, 0.20358782891240682, 0.07812177771769896, -0.11435636386439742, 0.28259552120474685, 0.18120316289259478, -0.2914544836747637, -0.4611468251749717, 0.5262932915562223, 0.38574199361495054, -0.17203962054694175, 0.050852847942188376, -0.3139363465541568, 0.3692106897566848, 0.5660258686460405, 0.21960214349944404, 0.1031057120246634, 0.5063386543381095, -0.47983057075417546, 0.19468199561778543, 0.3248817865467653, 0.3735165395093328, 0.052120571790865336, -0.48538254669506764, 0.26427238666059477, 0.05762363062221558, -0.3716745532678089, -0.07658053745927773, 0.4168114060926901, 0.48317144746007173, 0.40845201834512734, -0.05343551776162694, 0.10923795901110486, 0.041813254144100385, 0.29506365749595254, 0.22627630041193353, 0.41374195670664826, -0.15132343810190182, 0.682899260242918, -0.21515194689620287, 0.24449314051743712, 0.2279188309949681, 0.13809524385205085, 0.5774475937742639, -0.31725925596747084, -0.006196769420382718, 0.4020732223744658, 0.20305845840967762, 0.40764346510501076, 0.2300783447792501, 0.49537785759721975, 0.03596740275054165, -0.3261540740602992, -0.2842898259235106, -0.2115291270522808, -0.04436302564863028, -0.28334067465591645, -0.10693807793395942, 0.01678447424558752, 0.08836778170712115, -0.2209509797001216, -0.10176494909986902, -0.427003112209059, -0.34089655942429875, -0.05225665301882257, -0.3191963048779632, 0.12271786674604784, 0.06655170232237471, -0.2587463125029379, 0.39764155941901314, -0.03939745628292204, -0.11467071114578882, -0.33055506626777464, 0.30410444865729336, 0.45947409026803787, -0.14296311448885016, 0.028865781900195668, 0.3880801427773543, 0.48834483726837213, -0.4024711645728584, 0.038078436815031924, 0.034852978913525866, -0.476754946460925, -0.20171421240941376, 0.2742063549413552, 0.28792480994398095, -0.003921244741598576, 0.03929445053935246, -0.4480427567333293, 0.3880444935840605, 0.3948078878500814, 0.2454867992075507, 0.44594971782069764, 0.4099722506645738, 0.008995754507412593, 0.6090534085500836, -0.0914646209157758, 0.26967166920457686, 0.2570784866908851, -0.05041418004950375, 0.30963889068969475, 0.22891644898029018, -0.2502201479517214, 0.36476815768901216, 0.40797320152013317, 0.3161453479766024, -0.3642165754916273, -0.38359092769369557, 0.47616745738845384, -0.013191864413174385, -0.17132208716215494, -0.34664013304259594, 0.309552522369252, -0.42205100724714134, 0.04912713729162153, 0.005117080819127718, 0.004249141625861967, 0.35125262454587325, 0.15504255979690082, 0.15837855743267598, 0.07478449322641358, -0.14064508959756178, 0.08199649116770952, 0.15240411654924832, 0.5503198082134408, 0.16582524521776038, 0.18706726638630386, 0.16894143613404364, 0.2976874952380143, -0.12781654984697438, 0.3039726704378728, 0.3010309251704179, 0.10371927736330629, -0.4401676287519652, 0.11591682384603066, 0.37593450602711576, 0.2862068985309541, -0.4459948026285599, 0.369523386946031, 0.34826693574433365, 0.40513098983335094, 0.4161469713347433, 0.19513224168649962, 0.2071017460063138, -0.017440982580035392, -0.29356232538438753, 0.3370707690345193, 0.19552950151983609, -0.27728673141510884, -0.04218659793800012, -0.35568063393216637, 0.4024324150937087, 0.008005880524407523, -0.2937533292673167, 0.4841146047761719, 0.4578594912138635, -0.25136527908062545, -0.037450797785125466, -0.2904091110496764, 0.4541692461828413, -0.49057971161457675, 0.1418883861993768, -0.4499747010659872, -0.34052649785051553, 0.20023184645896625, -0.19188337879880685, -0.1573959162985259, 0.23293015623053392, 0.08833928886792007, 0.23668162404233822, 0.42892354414526407, 0.43149179498657614, 0.06535886001073982, 0.4100757987699874, 0.09738517913417344, -0.2979897257273708, -0.14257233188383425, 0.46913760021956746, 0.11927079117624538, 0.44332951181918034, 0.43007537987699984, 0.33846926385145243, 0.484788813893546, -0.1853393485080759, -0.008199862897287665, 0.01946941051106788, -0.25836526642577945, 0.4123339614511732, -0.44946312035506114, 0.4769288113267635, 0.05743115628837633, 0.17519491495958703, 0.3884522040693954, 0.2058355827411644, -0.29267544283978597, -0.24724427008377814, 0.472517712339135, 0.25484694285271436, -0.20693472099568563, -0.15335196857559868, 0.2854209108090261, 0.1231281004366262, 0.39944058225457096, -0.08726339412787683, 0.3734554106160222, -0.18482178805848204, -0.31161369852376747, 0.09026901141966337, -0.10367186956575392, -0.13847739198687223, -0.22871019811072937, 0.2813980677571784, -0.003202382735625728, -0.32399241263017753, -0.24394163486016113, -0.3831506439624036, -0.30175575465398874, -0.43883286717396913, -0.4146554251467344, 0.42049542751830954, 0.3098025554183078, -0.019628219964576213, -0.4227426269713841, 0.29981489703786324, -0.3193763373073748, 0.44610852445043836, -0.3337506637278199, 0.36711092612758256, -0.2144741937344888, -0.33204495654871685, 0.12683103032485318, -0.5001110681012214, 0.48764388035013567, 0.18287763084922687, 0.07234579371243764, 0.28923953452180573, 0.4705184020808596, 0.4585673342956591, 0.3514275020350073, 0.03001760904459611, 0.4498854476395865, 0.5888726190100569, -0.12552741901018066, -0.30829630365043975, -0.1851411461086701, 0.42167693799736417, 0.429143471245904, 0.255695848854278, -0.2355353257022356, -0.21777499668807937, -0.2934170668640844, 0.4728729761035272, 0.46296771934531, -0.03370662445563029, -0.21242405083862329, 0.2448801444242685, 0.3660446458917684, 0.29828298884240495, -0.20959880212125453, 0.4264911496617398, 0.44946815081160313, 0.3743217923872179, 0.15332162575990074, 0.19698597410792934, 0.42669666715491467, -0.299388406875867, 0.12115228920770069, 0.3696777375215995, 0.10358929733962978, 0.44080663199555037, 0.09025261742196082, 0.3271666582536248, 0.001882251991241753, -0.3738041066039604, -0.38157000288940385, 0.17328800184634532, -0.4475339339458892, -0.067931344403791, 0.2516269674299575, 0.16357537108885756, -0.4318163149584534, 0.39526289457103164, -0.4926554602415686, -0.48356851360633885, -0.2150670556208055, -0.484648293216234, -0.01480182981853058, 0.4308072723545396, 0.3945710568056142, -0.30919679688944707, -0.25264943418647806, -0.23474903488503493, -0.014629583880823086, 0.18180271845063042, 0.2611767925225808, 0.4319386734032453, 0.22409218432094108, 0.06578053394443317, 0.3553636770997923, -0.051969374696979424, -0.3638344400627957, 0.21619228057154768, 0.4696655279833823, 0.14839566563868095, 0.039098712493001335, 0.414569242304882, 0.4344851461581158, 0.36587127346758963, -0.2020926254625584, 0.42357240718966804, -0.1487906749772906, 0.33661584919699944, 0.2050511258953279, 0.19556759715820443, 0.4610852304060106, 0.20571238448183884, 0.18618444375385557, -0.408413614004001, 0.36292050805923115, -0.02206927468807724, 0.31351108492590357, 0.4958951146048131, -0.16351231176024567, 0.5232485756774977, -0.3161350819566094, -0.3953357723192933, -0.21445968608544944, 0.07774518032775558, -0.3351568130508017, 0.19308984818706282, -0.0887418768976379, 0.33570748436258924, 0.064149571523267, 0.3949343314455576, -0.16700022466912087, 0.16513474893477353, -0.42367894506509063, -0.3856692165776701, 0.23666355229502473, 0.2553130518353179, 0.027229188430065606, -0.1667179870479787, 0.3264206118017091, -0.12343752517814824, 0.3678923476499354, 0.4073863828529607, 0.2543878465638405, -0.02768252664813736, 0.37415934785912863, -0.04077240774564773, 0.17247958923163675, 0.03220431015560105, 0.055179999362548006, -0.27476214359935325, 0.2465943071137239, -0.00243949195412544, 0.37444637837731126, -0.07937358583075053, 0.2921871886738155, 0.37776838590562606, 0.1622411705827647, 0.40429934472477663, -0.2732929415545684, -0.21229284351587874, -0.39749305596740026, -0.35183255942400865, -0.4157493134660666, -0.139499028588562, 0.10641424212067824, -0.3023556915312835, -0.19437175422417072, 0.3984185136283596, 0.4103746511131374, 0.15902234910780877, 0.562624908148867, 0.11649716787920016, -0.08242939137689304, 0.5815460484646867, 0.29201311010000786, -0.17517935281163619, -0.21718091415409935, 0.13880264293575695, -0.4164571641249426, -0.4063890243087441, 0.3009004788599468, 0.13924505571498272, -0.11897351168704053, -0.3472328338575334, -0.19620452961004942, 0.13242325782234787, 0.27746956152817714, 0.3349414305091002, -0.39854219511770106, 0.3755411306755227, -0.3208719176373659, -0.10572826932393366, 0.46958050375409705, -0.27738781451060307, 0.2079823089342418, -0.41215318241242727, -0.028552994962093237, -0.2775723435238408, 0.394554748470886, 0.1352236512668664, 0.12872149843356806, 0.31612131143680017, 0.582707335166133, 0.10674556647132284, 0.11282723185275088, 0.22540414505987147, -0.27989390027781635, -0.19112109772086852, -0.3471601294993366, -0.33244346884686754, 0.11871821013912127, 0.46781713975799666, -0.2573196835061101, -0.27163353478936736, 0.2615904686640146, 0.49835784759940494, 0.3360838710260974, -0.07297896371689666, 0.1385232364752374, -0.36085195629264344, -0.0982946400928354, 0.35358483900078574, 0.2957452702507461, 0.15927193507609017, 0.314979731896231, 0.10512883115081484, 0.11665039698397829, 0.5085704336913693, 0.5677977640179627, 0.126859428620703, -0.0058429885009088816, 0.3567373981282146, 0.31506167976327465, 0.10210019997545809, 0.10581427826978423, 0.08136089246168114, 0.46851045997884827, -0.2788000230040586, -0.01985676920707068, 0.437035018244342, 0.049676848117096654, -0.4593169656760493, 0.11066836359393317, -0.363958292950084, 0.4492906004306416, -0.39154307395628196, -0.4426860711392933, 0.227705693572093, 0.19674883148367034, 0.006801655118382925, 0.41457835094314666, 0.19115979225502752, 0.07566418397151406, 0.22914837905301802, -0.3966805356393827, 0.44325131434261844, -0.11651193022958656, 0.2954037502801255, 0.560814042096681, 0.46124701402076074, 0.134751022532826, -0.1254607677871466, -0.3690497940773336, -0.3947056679334349, 0.4113803252605227, 0.1298352468462915, 0.27364228868672924, -0.43460845258666947, -0.41788453391319014, 0.08270838382312631, 0.11265246377215665, 0.2538537615637061, -0.38616064918850945, -0.06405298795742354, -0.4518471133962013, 0.2128433417902452, -0.2889859871291675, 0.17423661256961362, -0.018439102193717548, 0.33057752224355147, 0.3584859930270992, 0.1225132766561105, -0.3824300324756265, 0.03662142458921464, -0.0367787641594251, 0.005545698575663392, -0.3991416700822232, -0.0053788109604326765, 0.33978969031060713, 0.2687108457928533, 0.283948303240469, 0.4211274527307765, 0.1528259945002543, 0.1593949521238178, 0.10440352689767103, 0.24315444181120233, 0.1387922378243399, -0.18099349672535314, -0.2625381632277327, 0.00806634278524232, 0.45450056674718653, 0.11035689715549912, -0.05503095274774549, 0.0329841973121509, 0.2040627969305961, -0.14984801824598434, -0.3223547139296378, 0.3953983912288298, 0.10763385028754795, 0.17590322025807942, 0.3931637170841033, 0.031133015045075922, -0.3603380955752529, -0.3446661413516348, -0.4368523308246491, 0.05951195953748219, -0.4247772235798458, 0.1404175991805464, -0.4277839016743886, 0.04098368952927676, -0.0559011215112627, -0.13889742974374214, -0.1890751404399144, 0.385319880743212, -0.47285879192543867, 0.033555983522582045, -0.03762761096212652, 0.12515042438249502, -0.4961673417920385, 0.1294159381125487, -0.2613652595436142, -0.42644253637173535, 0.45865759431446934, 0.10425064407220383, -0.405774599979988, 0.07521236267387776, 0.051554546933601404, -0.125263781410111, 0.10439549629483744, 0.0756091014154733, -0.3836774209075685, -0.0555623058370141, 0.23064201623376726, 0.11489371490097604, -0.20261813902157563, -0.4027844289311471, 0.34392570840062087, 0.12954005072751412, -0.17985279840999535, -0.4745846222897482, 0.3407578044198764, 0.323708226107971, -0.2775491178431986, -0.18323282584024436, -0.35471143714293696, 0.3233394323612333, -0.16193852583607315, 0.08289424993005379, -0.1362109550651689, 0.39098591642092173, 0.07352995635868254, -0.22897433934999287, 0.28093081092243977, -0.113957098478286, -0.48647734332631304, -0.4948675131109486, -0.3289907530399322, -0.2336515946354985, 0.4402889088654482, 0.23466979704026897, -0.05202399449362867, 0.2591191250561858, -0.30548613323100116, 0.06870447839656561, -0.40833375796009425, 0.09810785419648092, 0.24442727360366742, -0.35837031031385536, -0.2150366217723263, -0.11824415014454281, -0.25551023144388585, 0.33277445266779393, 0.21183525755514365, -0.21433006352621642, 0.1434736702091084, 0.3328546671372944, -0.3174011837788231, 0.013367481907602619, 0.4989258900098965, 0.097782622067356, 0.21407148072068471, 0.2273957431625867, -0.06204469009714819, -0.40631655284952395, 0.4167737663062183, 0.08529576412999862, 0.26968112229290075, 0.32629818622550455, -0.3710790309860236, -0.38961615030508745, 0.2112406296162418, 0.10681237781194075, 0.07627724698663252, 